################################################################################
# Neural network connection values (weights and biases).
################################################################################
# Col  Name       Description
################################################################################
# 1    connection Neural network connection value.
# 2    t          Connection type (a = weight, b = bias).
# 3    index      Index enumerating weights.
# 4    l_s        Starting point layer (end point layer for biases).
# 5    n_s        Starting point neuron in starting layer (end point neuron for biases).
# 6    l_e        End point layer.
# 7    n_e        End point neuron in end layer.
################################################################################
#                      1 2         3     4     5     6     7
#             connection t     index   l_s   n_s   l_e   n_e
############################################################
  8.2932925139793284E+01 a         1     0     1     1     1
  5.0336348710672375E+01 a         2     0     1     1     2
 -6.9447246882771282E+01 a         3     0     1     1     3
 -1.7189409396386601E+01 a         4     0     1     1     4
 -1.7922468269859831E+01 a         5     0     1     1     5
 -2.9173995681026554E+01 a         6     0     1     1     6
  1.6844292277934294E+01 a         7     0     1     1     7
  6.2119988605205529E+00 a         8     0     1     1     8
  6.2159015510744048E+01 a         9     0     1     1     9
  7.4251965695348161E+01 a        10     0     1     1    10
 -2.0719369774300478E+01 a        11     0     1     1    11
  4.4128397733989821E+01 a        12     0     1     1    12
  2.6603606815909195E+01 a        13     0     1     1    13
  3.2462333256286335E+01 a        14     0     1     1    14
  8.6402148060941201E+01 a        15     0     1     1    15
 -8.2110250736674697E+00 a        16     0     1     1    16
  2.8454409521467856E+01 a        17     0     1     1    17
  3.6208289940225438E+00 a        18     0     1     1    18
 -1.5547349572117652E+01 a        19     0     1     1    19
 -1.1005685919201058E+01 a        20     0     1     1    20
  1.5028164912664106E+01 a        21     0     2     1     1
 -1.3216798859079425E+01 a        22     0     2     1     2
 -2.1452690411940472E+00 a        23     0     2     1     3
 -2.1909630141174173E+01 a        24     0     2     1     4
 -1.1052062252713570E+01 a        25     0     2     1     5
 -1.1337349304849567E+01 a        26     0     2     1     6
 -3.2896197087011380E+01 a        27     0     2     1     7
 -1.0336556666730887E+01 a        28     0     2     1     8
  2.7458751571082029E+01 a        29     0     2     1     9
  1.8615481276336077E+01 a        30     0     2     1    10
  1.0051253251600176E+01 a        31     0     2     1    11
 -1.0980948793228903E+01 a        32     0     2     1    12
 -2.3929645158478621E+01 a        33     0     2     1    13
 -1.8464665662646522E+00 a        34     0     2     1    14
 -9.5996472663991810E+00 a        35     0     2     1    15
 -8.4650564633460135E+01 a        36     0     2     1    16
 -5.3740090002466703E+00 a        37     0     2     1    17
 -3.5337588906518951E+00 a        38     0     2     1    18
  1.0831419752478832E+01 a        39     0     2     1    19
 -1.8827412091219141E+01 a        40     0     2     1    20
 -1.2999483794691037E+02 a        41     0     3     1     1
 -6.5090722608502276E+01 a        42     0     3     1     2
  3.7146047172853081E+01 a        43     0     3     1     3
 -9.3617733091854021E+00 a        44     0     3     1     4
  1.4908955185925567E+01 a        45     0     3     1     5
  4.7327673314138558E+01 a        46     0     3     1     6
 -1.3598479196846570E+01 a        47     0     3     1     7
 -1.1116037405637075E+01 a        48     0     3     1     8
 -1.6297200974597044E+02 a        49     0     3     1     9
 -2.0927576942191496E+02 a        50     0     3     1    10
  2.4721806844984208E+01 a        51     0     3     1    11
 -1.3285927710611793E+01 a        52     0     3     1    12
 -4.7717532473605274E+01 a        53     0     3     1    13
 -2.7131517989724681E+01 a        54     0     3     1    14
 -9.0854687992665177E+01 a        55     0     3     1    15
 -2.7291434813692177E+01 a        56     0     3     1    16
 -7.7009984493054816E+01 a        57     0     3     1    17
  3.7537370707369986E+00 a        58     0     3     1    18
 -1.1485283023854702E+01 a        59     0     3     1    19
 -1.4400129116546013E+01 a        60     0     3     1    20
 -4.0136547410436854E+01 a        61     0     4     1     1
  1.8189788883318066E+01 a        62     0     4     1     2
 -1.4101856141481902E-03 a        63     0     4     1     3
  4.8241489607712808E+01 a        64     0     4     1     4
  2.5774759934058928E+01 a        65     0     4     1     5
  8.9681854883733347E+00 a        66     0     4     1     6
  9.8389447540385092E+01 a        67     0     4     1     7
  2.7090335427723691E+01 a        68     0     4     1     8
 -2.3914402846571779E+01 a        69     0     4     1     9
 -5.3059220221954426E+01 a        70     0     4     1    10
 -2.3972960675693894E+01 a        71     0     4     1    11
  2.4753007275924478E+01 a        72     0     4     1    12
  2.1194486076824990E+01 a        73     0     4     1    13
  5.8958535242422694E-01 a        74     0     4     1    14
  3.8138137342498489E+01 a        75     0     4     1    15
  1.7224242788760807E+02 a        76     0     4     1    16
 -9.9292030577389454E+00 a        77     0     4     1    17
  8.9376788852134776E+00 a        78     0     4     1    18
  1.7795611637273812E+01 a        79     0     4     1    19
  6.3480372078758322E+01 a        80     0     4     1    20
 -3.1810396254638807E+01 a        81     0     5     1     1
 -3.7867419019757534E+01 a        82     0     5     1     2
  1.2946772532072379E+02 a        83     0     5     1     3
  1.1609335193290991E+02 a        84     0     5     1     4
  8.2228891131487373E+01 a        85     0     5     1     5
  1.3103927154500630E+02 a        86     0     5     1     6
 -8.8430197162332433E+00 a        87     0     5     1     7
  4.1500654955047338E+01 a        88     0     5     1     8
  7.8295000683717618E+01 a        89     0     5     1     9
  2.7496936998967794E+01 a        90     0     5     1    10
  1.5749812361656817E+01 a        91     0     5     1    11
 -1.6289705789347175E+02 a        92     0     5     1    12
 -2.6656764342010487E+01 a        93     0     5     1    13
 -8.1674571818416226E+01 a        94     0     5     1    14
 -1.0639745110403648E+02 a        95     0     5     1    15
  1.6269708105241723E+01 a        96     0     5     1    16
  2.8117077147880305E+01 a        97     0     5     1    17
 -6.0411374663176460E+01 a        98     0     5     1    18
  1.3287770062396364E+01 a        99     0     5     1    19
  1.2006015812542314E+02 a       100     0     5     1    20
  2.4391627503219539E+01 a       101     0     6     1     1
  2.2241648590378507E+01 a       102     0     6     1     2
  3.3974173257575593E+01 a       103     0     6     1     3
 -2.9384569067375703E+00 a       104     0     6     1     4
  1.9489311976045570E+01 a       105     0     6     1     5
  3.9255523116269764E+01 a       106     0     6     1     6
 -8.5026673833220165E+00 a       107     0     6     1     7
  1.5346896971710022E+01 a       108     0     6     1     8
 -5.9259751490751107E+01 a       109     0     6     1     9
  8.5911010824689455E+00 a       110     0     6     1    10
  9.0102634595331974E+00 a       111     0     6     1    11
 -9.3520668817183186E+00 a       112     0     6     1    12
  2.4039031760355289E+01 a       113     0     6     1    13
  8.6434728800914264E+00 a       114     0     6     1    14
 -1.2844454140446777E+01 a       115     0     6     1    15
  5.2875968931512745E+01 a       116     0     6     1    16
  3.3381289184727521E+01 a       117     0     6     1    17
 -2.8036648998842615E+01 a       118     0     6     1    18
 -9.0998215149817895E+01 a       119     0     6     1    19
 -8.4138341948739694E+01 a       120     0     6     1    20
  2.7372662362365904E+01 a       121     0     7     1     1
  3.5665852881077683E+01 a       122     0     7     1     2
 -3.1317827175829729E+02 a       123     0     7     1     3
  2.4042462735205547E+02 a       124     0     7     1     4
 -2.2030926032752265E+02 a       125     0     7     1     5
 -8.6394009279347372E+01 a       126     0     7     1     6
  2.0227967609239217E+00 a       127     0     7     1     7
 -1.3842247112565400E+02 a       128     0     7     1     8
  9.5179048858925256E+01 a       129     0     7     1     9
 -7.9040191601055938E+01 a       130     0     7     1    10
  2.5047041942798970E+01 a       131     0     7     1    11
  5.3557793928709437E+01 a       132     0     7     1    12
 -1.3713450577126900E+02 a       133     0     7     1    13
  8.6026179103859278E+01 a       134     0     7     1    14
  4.3733939833392430E+00 a       135     0     7     1    15
  1.5264167331669285E+01 a       136     0     7     1    16
 -8.6522127964050171E+01 a       137     0     7     1    17
  2.4584317707187810E+02 a       138     0     7     1    18
  1.8902817854614187E+02 a       139     0     7     1    19
  6.7681979533675838E+02 a       140     0     7     1    20
 -6.3301820598692107E+00 a       141     0     8     1     1
  1.0503449488295198E+01 a       142     0     8     1     2
 -1.4792358202277624E+01 a       143     0     8     1     3
 -2.9792396824699265E+00 a       144     0     8     1     4
 -5.0274014401291121E+00 a       145     0     8     1     5
 -1.8335470242004046E+01 a       146     0     8     1     6
  1.0170222145315385E+01 a       147     0     8     1     7
 -1.3139717278409501E+01 a       148     0     8     1     8
  3.3875999469113189E+01 a       149     0     8     1     9
 -1.9077679694582514E+01 a       150     0     8     1    10
 -6.6341235679960633E+00 a       151     0     8     1    11
  1.9221090260405300E+00 a       152     0     8     1    12
 -1.1769521295169142E+01 a       153     0     8     1    13
 -6.8186438497204378E+00 a       154     0     8     1    14
  7.4732428988971016E+00 a       155     0     8     1    15
 -4.0635056364473954E+01 a       156     0     8     1    16
 -1.1889308356633125E+01 a       157     0     8     1    17
  6.2948223745371719E+00 a       158     0     8     1    18
  4.6306664600567579E+01 a       159     0     8     1    19
  5.0473974285115283E+01 a       160     0     8     1    20
  6.7230117890519452E+01 a       161     0     9     1     1
  1.5096087034158860E+01 a       162     0     9     1     2
  3.5110976099822694E-01 a       163     0     9     1     3
 -1.1465133095615269E+02 a       164     0     9     1     4
 -7.3384445648680142E+01 a       165     0     9     1     5
 -1.7989283608446615E+02 a       166     0     9     1     6
  5.7804142020349104E+01 a       167     0     9     1     7
 -2.9393670160609055E+01 a       168     0     9     1     8
  5.0061634974243354E+01 a       169     0     9     1     9
  1.7302731454626181E+02 a       170     0     9     1    10
 -1.0703880225399296E+01 a       171     0     9     1    11
  1.0994790599643825E+02 a       172     0     9     1    12
  9.1126479619585425E+01 a       173     0     9     1    13
  5.5155772115768990E+01 a       174     0     9     1    14
  6.4552821394085726E+01 a       175     0     9     1    15
  6.9060804728054859E-01 a       176     0     9     1    16
  5.0372368924320362E+01 a       177     0     9     1    17
  4.5801308178825415E+01 a       178     0     9     1    18
  6.6000059837230207E+00 a       179     0     9     1    19
 -1.9125760854434478E+02 a       180     0     9     1    20
  1.4469170289093457E+01 a       181     0    10     1     1
 -4.1946766053600292E+01 a       182     0    10     1     2
 -3.5374059625250425E+01 a       183     0    10     1     3
 -2.4606604194084653E+01 a       184     0    10     1     4
 -4.9570856601198052E+01 a       185     0    10     1     5
 -4.0075286111275616E+01 a       186     0    10     1     6
 -7.3409703474585356E+01 a       187     0    10     1     7
 -4.4371957142570011E+01 a       188     0    10     1     8
  5.5750575846040313E+01 a       189     0    10     1     9
  3.9638893645505156E+01 a       190     0    10     1    10
  2.9551663781520072E+00 a       191     0    10     1    11
 -1.0064430559053458E+01 a       192     0    10     1    12
 -1.5475250410784021E+01 a       193     0    10     1    13
 -1.7089678328059666E+01 a       194     0    10     1    14
 -2.6898072469163164E+01 a       195     0    10     1    15
 -1.9524348724425386E+02 a       196     0    10     1    16
 -1.3869698710647985E+01 a       197     0    10     1    17
  3.1086296239198461E+01 a       198     0    10     1    18
  5.1260980708377723E+01 a       199     0    10     1    19
  3.0489296653298027E+01 a       200     0    10     1    20
  4.3151620500320881E+01 a       201     0    11     1     1
  4.3148109368613561E+01 a       202     0    11     1     2
  1.1924009118223682E+02 a       203     0    11     1     3
 -1.2558968308377440E+02 a       204     0    11     1     4
  8.3700551702226832E+01 a       205     0    11     1     5
 -3.5149225337341723E+00 a       206     0    11     1     6
 -2.7508538668816183E+00 a       207     0    11     1     7
  5.5820430790930757E+01 a       208     0    11     1     8
 -1.1680691757603438E+02 a       209     0    11     1     9
  6.0610375823363171E+01 a       210     0    11     1    10
 -8.8855756702823319E-01 a       211     0    11     1    11
  1.4564754202655119E+00 a       212     0    11     1    12
  5.5050113946065601E+01 a       213     0    11     1    13
 -4.0207554666395787E+01 a       214     0    11     1    14
  3.2111700978217002E+01 a       215     0    11     1    15
  4.3343454145052775E+01 a       216     0    11     1    16
  5.2386507445358255E+01 a       217     0    11     1    17
 -8.6575505187843802E+01 a       218     0    11     1    18
 -4.3186151029153045E+01 a       219     0    11     1    19
 -3.9072493891610009E+02 a       220     0    11     1    20
  1.7538142792305333E+01 a       221     0    12     1     1
  9.7005469047046404E+01 a       222     0    12     1     2
  1.6389087188756577E+01 a       223     0    12     1     3
 -1.6642738531330330E+01 a       224     0    12     1     4
  3.1847726967196948E+01 a       225     0    12     1     5
  2.2456808493500958E+01 a       226     0    12     1     6
 -6.3098377675786939E+00 a       227     0    12     1     7
 -1.1602486728370232E+01 a       228     0    12     1     8
  1.1715529314432535E+01 a       229     0    12     1     9
 -4.2667468160819844E+01 a       230     0    12     1    10
  1.5125197249552447E-01 a       231     0    12     1    11
 -1.0367319446121144E+01 a       232     0    12     1    12
  1.5126995438847622E+01 a       233     0    12     1    13
 -2.3864597431775948E+01 a       234     0    12     1    14
  1.1858754126947352E+01 a       235     0    12     1    15
 -1.7824432026587946E+01 a       236     0    12     1    16
  4.3329276878983883E+01 a       237     0    12     1    17
 -3.6535250286910156E+01 a       238     0    12     1    18
 -7.8903090369176256E+00 a       239     0    12     1    19
 -7.4644615248679997E+00 a       240     0    12     1    20
 -4.3994464165657918E+00 a       241     0    13     1     1
  4.4781070384723996E+01 a       242     0    13     1     2
  7.3323245595123595E+01 a       243     0    13     1     3
 -9.6253209340799003E+01 a       244     0    13     1     4
  1.5304186493369042E+02 a       245     0    13     1     5
  1.2797262010493574E+02 a       246     0    13     1     6
 -6.5702063067637951E+01 a       247     0    13     1     7
  8.3669645084585468E+01 a       248     0    13     1     8
 -8.9674223513974766E+01 a       249     0    13     1     9
 -4.1125142215014080E+01 a       250     0    13     1    10
 -2.2002740881135828E+01 a       251     0    13     1    11
 -1.1599926543720379E+01 a       252     0    13     1    12
  2.3372516026476177E+01 a       253     0    13     1    13
 -3.5661241943419832E+01 a       254     0    13     1    14
  6.3777619137036687E+01 a       255     0    13     1    15
 -2.9513670210677612E+00 a       256     0    13     1    16
  6.6881975786987491E+00 a       257     0    13     1    17
 -1.4373270410569603E+02 a       258     0    13     1    18
 -1.1311979914210870E+02 a       259     0    13     1    19
 -2.6479202253707967E+02 a       260     0    13     1    20
 -4.0059733317919877E+00 a       261     0    14     1     1
  8.7761726563451106E+00 a       262     0    14     1     2
  2.3997599476493001E+01 a       263     0    14     1     3
  5.8187841075254205E+00 a       264     0    14     1     4
  2.6005737755370927E+01 a       265     0    14     1     5
  2.6829508080984436E+01 a       266     0    14     1     6
  2.9389154008886351E+01 a       267     0    14     1     7
  3.0011494542204723E+01 a       268     0    14     1     8
 -3.5625035787119195E+01 a       269     0    14     1     9
 -1.2543554170309438E+01 a       270     0    14     1    10
  6.4063217194333539E+00 a       271     0    14     1    11
  8.6693870054116644E+00 a       272     0    14     1    12
  2.0466228632077170E+00 a       273     0    14     1    13
  1.7220430699943162E+01 a       274     0    14     1    14
  9.4330686231369505E+00 a       275     0    14     1    15
  1.2024033345557891E+02 a       276     0    14     1    16
  1.2789063730523029E+01 a       277     0    14     1    17
 -1.8510232036900678E+01 a       278     0    14     1    18
 -2.9606463838432163E+01 a       279     0    14     1    19
 -3.1698435282105191E+01 a       280     0    14     1    20
 -2.3535805847617610E+01 a       281     0    15     1     1
 -2.5436193188184582E+01 a       282     0    15     1     2
 -1.1792056764661470E-01 a       283     0    15     1     3
  2.5911240793892141E+00 a       284     0    15     1     4
 -7.4725425527409850E-01 a       285     0    15     1     5
  1.0486368523822833E+01 a       286     0    15     1     6
  2.1126600545773564E+00 a       287     0    15     1     7
  1.2315350322415006E+00 a       288     0    15     1     8
  3.9482831116037985E+01 a       289     0    15     1     9
 -8.3672164364303701E+00 a       290     0    15     1    10
 -8.2560137888888292E+00 a       291     0    15     1    11
 -3.8455416765187072E+00 a       292     0    15     1    12
  9.3219957323715601E+00 a       293     0    15     1    13
  7.9268463314541853E+00 a       294     0    15     1    14
 -1.0551784230851045E+01 a       295     0    15     1    15
 -2.6058273304357044E+01 a       296     0    15     1    16
 -7.7182168266946407E+00 a       297     0    15     1    17
 -8.1708538532649655E+00 a       298     0    15     1    18
 -1.9763843781498551E+01 a       299     0    15     1    19
  4.0919933047178851E+01 a       300     0    15     1    20
 -5.4377421117916711E+00 a       301     0    16     1     1
 -3.6662789807943049E+01 a       302     0    16     1     2
 -4.8813932296583999E+00 a       303     0    16     1     3
  4.4444907205751383E+00 a       304     0    16     1     4
 -9.8670002607671865E+00 a       305     0    16     1     5
 -6.5351270410532161E+00 a       306     0    16     1     6
  4.2922070498868550E-02 a       307     0    16     1     7
  3.7605749269027657E+00 a       308     0    16     1     8
 -4.1388370935214978E+00 a       309     0    16     1     9
  1.5495322563587223E+01 a       310     0    16     1    10
  9.6195921391411998E-01 a       311     0    16     1    11
  3.0450090044034215E+00 a       312     0    16     1    12
 -3.6159964441558574E+00 a       313     0    16     1    13
  8.0983423982249576E+00 a       314     0    16     1    14
 -5.1321798338819393E+00 a       315     0    16     1    15
  6.3172899800862616E+00 a       316     0    16     1    16
 -1.2961388017669265E+01 a       317     0    16     1    17
  1.0962613079228898E+01 a       318     0    16     1    18
 -1.2521332681225181E-01 a       319     0    16     1    19
 -4.0060808124525110E-01 a       320     0    16     1    20
 -3.1172046036393169E+01 a       321     0    17     1     1
 -6.1359624653211164E+01 a       322     0    17     1     2
  1.9467867461694158E+01 a       323     0    17     1     3
  3.0288360055589508E-01 a       324     0    17     1     4
 -2.6298474623122132E+01 a       325     0    17     1     5
 -2.5727723361382871E+01 a       326     0    17     1     6
  3.1302284382101089E+01 a       327     0    17     1     7
 -6.6484186135879346E+00 a       328     0    17     1     8
  3.2090872256398235E+01 a       329     0    17     1     9
  4.6060195582662073E+00 a       330     0    17     1    10
  1.1354829254627855E+01 a       331     0    17     1    11
 -1.8596653168544545E+01 a       332     0    17     1    12
  1.6834169692645364E+01 a       333     0    17     1    13
  2.2220159265084467E+00 a       334     0    17     1    14
 -4.5890227119946815E+01 a       335     0    17     1    15
 -2.1538556845860203E+01 a       336     0    17     1    16
  1.2879995202172768E+01 a       337     0    17     1    17
 -5.9442033311591569E+00 a       338     0    17     1    18
 -3.8117202279700368E+00 a       339     0    17     1    19
  1.3343497101413403E+01 a       340     0    17     1    20
 -1.1864942520307748E+01 a       341     0    18     1     1
 -6.1830119992156774E+01 a       342     0    18     1     2
 -1.9204248203400198E+01 a       343     0    18     1     3
  1.0547532964207166E+01 a       344     0    18     1     4
 -2.6044278886113297E+01 a       345     0    18     1     5
 -2.0666004668966885E+01 a       346     0    18     1     6
 -1.6227919657242342E+01 a       347     0    18     1     7
  7.8859684190209534E-01 a       348     0    18     1     8
 -5.6415020447662592E+00 a       349     0    18     1     9
  4.1490362961018981E+01 a       350     0    18     1    10
 -5.2813314478625317E-01 a       351     0    18     1    11
  3.4942180542725296E+00 a       352     0    18     1    12
 -5.5785101319328252E+00 a       353     0    18     1    13
  1.2867760514729991E+01 a       354     0    18     1    14
 -1.0142567767433148E+01 a       355     0    18     1    15
 -2.1698764426738911E+01 a       356     0    18     1    16
 -2.8387457710017141E+01 a       357     0    18     1    17
  2.7253611587480439E+01 a       358     0    18     1    18
  2.9986024965440277E+00 a       359     0    18     1    19
  3.7013121862437415E-01 a       360     0    18     1    20
 -2.1676528060627627E+00 a       361     0    19     1     1
  2.1548169297397354E+01 a       362     0    19     1     2
  2.7705442602028905E+00 a       363     0    19     1     3
 -1.9760527784015605E+00 a       364     0    19     1     4
  1.1768370989506307E+01 a       365     0    19     1     5
  9.1320051058322917E+00 a       366     0    19     1     6
 -1.0523967350338136E+01 a       367     0    19     1     7
 -3.8950119582537153E+00 a       368     0    19     1     8
  4.9067011849375408E+00 a       369     0    19     1     9
  2.5660225273975468E+00 a       370     0    19     1    10
 -1.2692377790949648E+01 a       371     0    19     1    11
  5.2290676871076744E+00 a       372     0    19     1    12
  5.6316212457970205E-01 a       373     0    19     1    13
  4.0131584184697608E+00 a       374     0    19     1    14
  8.0215431731896700E+00 a       375     0    19     1    15
 -1.8241592081827644E+00 a       376     0    19     1    16
 -5.3284685831207819E+00 a       377     0    19     1    17
  8.6731769583428910E+00 a       378     0    19     1    18
  7.8555532965964474E+00 a       379     0    19     1    19
  9.5515449167618360E+00 a       380     0    19     1    20
  3.5798562613950674E-02 a       381     0    20     1     1
 -9.5878876514031575E+00 a       382     0    20     1     2
  1.7526304317602865E+00 a       383     0    20     1     3
 -4.6246874470563561E-02 a       384     0    20     1     4
 -2.3179238639528088E+00 a       385     0    20     1     5
  5.2613140247996393E-01 a       386     0    20     1     6
  5.6015858978084365E+00 a       387     0    20     1     7
  4.4797193045513177E+00 a       388     0    20     1     8
 -1.8547108209393437E+00 a       389     0    20     1     9
  1.6956420434348369E+00 a       390     0    20     1    10
 -1.3559790555302390E-01 a       391     0    20     1    11
  1.9739636485981096E-01 a       392     0    20     1    12
 -2.3951344897588243E+00 a       393     0    20     1    13
  3.2727559371860608E+00 a       394     0    20     1    14
 -3.8881304619134118E+00 a       395     0    20     1    15
  1.0665229809503414E+01 a       396     0    20     1    16
 -3.7358147417418883E+00 a       397     0    20     1    17
  2.9758510381463266E+00 a       398     0    20     1    18
 -1.1543584873910593E+00 a       399     0    20     1    19
 -1.4847641906410010E+00 a       400     0    20     1    20
 -2.2507348298156797E+00 a       401     0    21     1     1
 -1.2494109212502241E+01 a       402     0    21     1     2
 -6.2257047594244797E-01 a       403     0    21     1     3
 -2.9050852231912178E-01 a       404     0    21     1     4
 -2.9225384120169755E+00 a       405     0    21     1     5
 -3.0415110107859211E-01 a       406     0    21     1     6
  5.2317561075172669E+00 a       407     0    21     1     7
  5.3847818605513762E+00 a       408     0    21     1     8
  1.9606874774398699E+00 a       409     0    21     1     9
 -2.5145416524988993E+00 a       410     0    21     1    10
  3.0631389142431518E+00 a       411     0    21     1    11
 -8.7160386202525286E-01 a       412     0    21     1    12
 -1.0506516995743793E+00 a       413     0    21     1    13
  1.3385185421100587E+00 a       414     0    21     1    14
 -3.4012270732044789E+00 a       415     0    21     1    15
 -2.6525611154296072E+00 a       416     0    21     1    16
  2.6189075623197446E+00 a       417     0    21     1    17
 -4.3031268391881881E+00 a       418     0    21     1    18
 -9.8953944716077640E+00 a       419     0    21     1    19
  1.0282112951475755E+00 a       420     0    21     1    20
 -1.2365874083497490E+00 a       421     0    22     1     1
 -9.3531035279082253E-01 a       422     0    22     1     2
 -1.8920293946459348E+00 a       423     0    22     1     3
  1.4769540382361448E+00 a       424     0    22     1     4
 -1.3377446331645275E+00 a       425     0    22     1     5
 -1.5571648119804282E+00 a       426     0    22     1     6
 -1.5750030900684338E+00 a       427     0    22     1     7
 -7.0812167712283747E-01 a       428     0    22     1     8
 -2.4153322480954109E-01 a       429     0    22     1     9
  2.7338339836850700E+00 a       430     0    22     1    10
  5.4268616194836479E-02 a       431     0    22     1    11
  4.7482625557169511E-01 a       432     0    22     1    12
 -8.5331648509537739E-01 a       433     0    22     1    13
  3.6214780615480507E-01 a       434     0    22     1    14
  1.1006068919500454E+00 a       435     0    22     1    15
 -1.2304484851212720E+00 a       436     0    22     1    16
 -7.1323830327595683E-01 a       437     0    22     1    17
  7.8361611585182922E-01 a       438     0    22     1    18
  9.2652199906969115E-02 a       439     0    22     1    19
  3.4376934722441188E-01 a       440     0    22     1    20
 -7.9564666000492480E+01 a       441     0    23     1     1
 -4.1132208922507687E+01 a       442     0    23     1     2
  4.4169999433275599E+01 a       443     0    23     1     3
 -6.3364992440194435E+01 a       444     0    23     1     4
 -2.6890235519401628E+01 a       445     0    23     1     5
  1.6174484410985151E+01 a       446     0    23     1     6
  1.0510708126103378E+02 a       447     0    23     1     7
 -1.9151247641425442E+01 a       448     0    23     1     8
  1.3941300855774875E+01 a       449     0    23     1     9
  1.9932019477491121E+01 a       450     0    23     1    10
 -8.9460020175912636E+00 a       451     0    23     1    11
 -1.7475535114772029E+02 a       452     0    23     1    12
  6.9147576193276772E-01 a       453     0    23     1    13
 -1.2394917020770040E+02 a       454     0    23     1    14
 -5.8470921008973583E+01 a       455     0    23     1    15
  1.2457838316006807E+01 a       456     0    23     1    16
 -6.0595856675003411E+01 a       457     0    23     1    17
  1.5049566525780872E+02 a       458     0    23     1    18
  4.1928524156395724E+01 a       459     0    23     1    19
  4.7917948996532523E+01 a       460     0    23     1    20
 -5.3418454830085800E+01 a       461     0    24     1     1
 -2.8865659532784548E+01 a       462     0    24     1     2
 -2.0836557572691618E+01 a       463     0    24     1     3
 -1.3169414900784197E+01 a       464     0    24     1     4
 -2.2920888126739364E+01 a       465     0    24     1     5
 -5.0716942714480041E+01 a       466     0    24     1     6
 -5.1488231636305251E+01 a       467     0    24     1     7
 -3.6619905420976302E+01 a       468     0    24     1     8
  2.8698999286368672E+01 a       469     0    24     1     9
  3.2367798452727889E+01 a       470     0    24     1    10
  1.5397732097009799E+01 a       471     0    24     1    11
 -1.9525122663758800E+01 a       472     0    24     1    12
 -2.7209120754227833E+01 a       473     0    24     1    13
 -1.5389712697375510E+01 a       474     0    24     1    14
 -5.6209512680111047E+00 a       475     0    24     1    15
 -1.2700108794367448E+01 a       476     0    24     1    16
 -1.0340389258033712E+01 a       477     0    24     1    17
 -1.8793824901813263E+01 a       478     0    24     1    18
 -5.2618175725930186E+01 a       479     0    24     1    19
  1.1895172886951727E+01 a       480     0    24     1    20
 -5.3590448148286875E+01 a       481     0    25     1     1
 -1.8515236300577747E+01 a       482     0    25     1     2
 -7.7734143922384447E+01 a       483     0    25     1     3
 -2.4242353128932233E+01 a       484     0    25     1     4
  9.0273080210172818E+00 a       485     0    25     1     5
 -4.7493529051232038E+01 a       486     0    25     1     6
 -4.2124203940663783E+01 a       487     0    25     1     7
 -4.8626138631067199E+01 a       488     0    25     1     8
  6.0374633335819894E+01 a       489     0    25     1     9
  5.9731679695807905E+01 a       490     0    25     1    10
 -3.6597808683316515E+00 a       491     0    25     1    11
 -3.7495411589784652E+01 a       492     0    25     1    12
 -3.5122601193802574E+01 a       493     0    25     1    13
  2.3789311013345845E+01 a       494     0    25     1    14
 -2.0005935237248121E+01 a       495     0    25     1    15
 -1.3093872781598767E+01 a       496     0    25     1    16
 -2.8980774846085474E+01 a       497     0    25     1    17
 -4.7821468654007951E+01 a       498     0    25     1    18
  1.3450553087633629E+01 a       499     0    25     1    19
 -2.9771792846196675E+01 a       500     0    25     1    20
 -5.6791448976238293E+01 a       501     0    26     1     1
  1.1434269615318021E+01 a       502     0    26     1     2
  9.7766224994962787E+00 a       503     0    26     1     3
 -1.3587031529129355E+01 a       504     0    26     1     4
  3.1849043590333117E+01 a       505     0    26     1     5
 -6.6857150195660708E+01 a       506     0    26     1     6
 -2.6408023937978641E+01 a       507     0    26     1     7
 -1.0761889109533977E+01 a       508     0    26     1     8
  3.9156400805324232E+01 a       509     0    26     1     9
  2.6039712283275666E+01 a       510     0    26     1    10
 -2.0402569604161066E+01 a       511     0    26     1    11
  6.1910087128910014E+01 a       512     0    26     1    12
 -3.3980817738570664E+01 a       513     0    26     1    13
  7.1107740113191724E+01 a       514     0    26     1    14
 -3.2909882833069396E+01 a       515     0    26     1    15
  9.9892412646639684E+01 a       516     0    26     1    16
  7.8796433740069716E+01 a       517     0    26     1    17
 -7.9917047436238065E+01 a       518     0    26     1    18
  2.7307390193198039E+01 a       519     0    26     1    19
 -1.5934838312417925E+01 a       520     0    26     1    20
  6.6207006305361338E+00 a       521     0    27     1     1
  3.3505314787319183E+00 a       522     0    27     1     2
 -3.0436434724266746E+01 a       523     0    27     1     3
  1.3119363468044968E+01 a       524     0    27     1     4
  2.7024124271215321E+01 a       525     0    27     1     5
  9.2134816962702626E+00 a       526     0    27     1     6
 -5.8765193355482488E+00 a       527     0    27     1     7
  2.2753740127348387E+01 a       528     0    27     1     8
 -1.0111465378192257E-01 a       529     0    27     1     9
  1.6879335537975074E+01 a       530     0    27     1    10
  2.3663230841248794E+01 a       531     0    27     1    11
  5.9688301832754433E+00 a       532     0    27     1    12
  2.0533599124057250E+01 a       533     0    27     1    13
  2.1997581853736122E+01 a       534     0    27     1    14
  1.2737856591698506E+01 a       535     0    27     1    15
  6.9905313686855219E+00 a       536     0    27     1    16
 -1.5980308999657760E+01 a       537     0    27     1    17
 -1.5782641233613656E+01 a       538     0    27     1    18
  2.8353656535815933E+01 a       539     0    27     1    19
 -2.8845444218113121E+00 a       540     0    27     1    20
  4.8207889356736906E+01 a       541     0    28     1     1
 -2.9639225122714286E+01 a       542     0    28     1     2
  4.9647996395265466E+00 a       543     0    28     1     3
 -3.0077812933498588E+01 a       544     0    28     1     4
  1.7560134870049094E+01 a       545     0    28     1     5
  2.6667400262450126E+01 a       546     0    28     1     6
 -7.4745263213879776E+00 a       547     0    28     1     7
  1.1922972522889046E+01 a       548     0    28     1     8
 -3.2889449985419525E+01 a       549     0    28     1     9
 -2.3141662882467141E+01 a       550     0    28     1    10
 -5.2958646272553747E+00 a       551     0    28     1    11
 -5.0236027846257709E+00 a       552     0    28     1    12
  2.0526569127632122E+01 a       553     0    28     1    13
 -2.1763881968793218E+01 a       554     0    28     1    14
 -3.4971677016305485E+00 a       555     0    28     1    15
 -3.4115513149964386E+01 a       556     0    28     1    16
 -2.4873039736554730E+01 a       557     0    28     1    17
 -5.4264474813309898E+00 a       558     0    28     1    18
 -1.1774208942724742E+01 a       559     0    28     1    19
  2.5796086251623073E+01 a       560     0    28     1    20
  1.0788260451550771E+01 a       561     0    29     1     1
  9.2358229701537979E+00 a       562     0    29     1     2
 -4.2988614968598633E+01 a       563     0    29     1     3
  1.5178494684456005E+01 a       564     0    29     1     4
  3.4685195127472227E+01 a       565     0    29     1     5
  4.7792580446078858E+01 a       566     0    29     1     6
 -8.2144867442164667E+01 a       567     0    29     1     7
  2.5820873587468075E+01 a       568     0    29     1     8
 -6.4045519243620433E+01 a       569     0    29     1     9
 -7.8116496358361857E+01 a       570     0    29     1    10
 -4.2587792349263616E+01 a       571     0    29     1    11
  7.7909269933973277E+01 a       572     0    29     1    12
  3.9889009167199958E+01 a       573     0    29     1    13
  8.8653751818951662E+01 a       574     0    29     1    14
 -1.6538646266565085E+01 a       575     0    29     1    15
 -2.5050172225898059E+01 a       576     0    29     1    16
 -3.8703671536367004E+01 a       577     0    29     1    17
 -8.2653784789668691E+01 a       578     0    29     1    18
 -1.4622566409334308E+01 a       579     0    29     1    19
 -2.9868941235105432E+01 a       580     0    29     1    20
  2.6861753041427420E+01 a       581     0    30     1     1
  1.3792063520447932E+00 a       582     0    30     1     2
  2.2205724880666605E+01 a       583     0    30     1     3
 -9.8269467620414481E+00 a       584     0    30     1     4
 -2.2559085770650778E+01 a       585     0    30     1     5
 -9.1721793549627073E-01 a       586     0    30     1     6
  3.2392022751771807E+00 a       587     0    30     1     7
  1.5541660070566850E+01 a       588     0    30     1     8
  1.6260948207620352E-01 a       589     0    30     1     9
  1.0207391794269997E+01 a       590     0    30     1    10
 -2.7468566068633969E+01 a       591     0    30     1    11
  1.5572804995172554E+01 a       592     0    30     1    12
 -5.7492361194415889E+00 a       593     0    30     1    13
 -1.6924735652556562E+00 a       594     0    30     1    14
 -2.4878824869243161E+01 a       595     0    30     1    15
  3.4307172329633950E+01 a       596     0    30     1    16
 -7.6151700491719483E+00 a       597     0    30     1    17
  2.4290890124996881E+01 a       598     0    30     1    18
 -6.6396187757095024E+00 a       599     0    30     1    19
 -3.0772027308932137E+00 a       600     0    30     1    20
  8.3070593818532217E+00 a       601     0    31     1     1
  9.0794291627890935E+00 a       602     0    31     1     2
  3.5475816945118673E+01 a       603     0    31     1     3
  1.3399482405653160E+01 a       604     0    31     1     4
 -1.3793606972177322E+01 a       605     0    31     1     5
  5.2286313942269258E+00 a       606     0    31     1     6
  8.1358051854354247E+00 a       607     0    31     1     7
  2.5094825183252837E+01 a       608     0    31     1     8
 -8.5586850419456404E+00 a       609     0    31     1     9
 -3.5704093243474055E+01 a       610     0    31     1    10
 -3.6621245477311990E+00 a       611     0    31     1    11
  2.4808288483670214E+01 a       612     0    31     1    12
  4.3540375126247234E+01 a       613     0    31     1    13
  1.2376750517840732E+01 a       614     0    31     1    14
  1.6487742505255476E+01 a       615     0    31     1    15
  2.1252841738179878E+01 a       616     0    31     1    16
  2.4960261728226495E+01 a       617     0    31     1    17
  2.4403450033591874E+01 a       618     0    31     1    18
  2.2266456944296871E+00 a       619     0    31     1    19
  1.2844106025225242E+01 a       620     0    31     1    20
 -2.6121068212336716E+01 a       621     0    32     1     1
  3.5191149195894923E+01 a       622     0    32     1     2
 -2.2334768445941229E+01 a       623     0    32     1     3
  2.0733259392742141E+01 a       624     0    32     1     4
  6.1535696982280221E+01 a       625     0    32     1     5
 -7.7290518433883676E+01 a       626     0    32     1     6
 -1.0687922085688224E+02 a       627     0    32     1     7
  3.0439149139215638E+00 a       628     0    32     1     8
  2.4146531549923047E+01 a       629     0    32     1     9
  2.7645108353262737E-01 a       630     0    32     1    10
 -3.4447871654979615E+01 a       631     0    32     1    11
  1.8520608450965992E+02 a       632     0    32     1    12
 -2.9251021968348663E+01 a       633     0    32     1    13
  1.7245833805708961E+02 a       634     0    32     1    14
 -1.6350338062758244E+01 a       635     0    32     1    15
  1.0766921990540472E+02 a       636     0    32     1    16
  1.1744851810943118E+02 a       637     0    32     1    17
 -1.9583519664918632E+02 a       638     0    32     1    18
  8.3374403927580403E+00 a       639     0    32     1    19
 -5.1916811087713825E+01 a       640     0    32     1    20
  5.7732397047775855E+01 a       641     0    33     1     1
  2.6503523930160885E+01 a       642     0    33     1     2
 -1.8736388598779293E+01 a       643     0    33     1     3
  2.4095684182504218E+01 a       644     0    33     1     4
  4.3338139060931240E+01 a       645     0    33     1     5
  4.6585027715035231E+01 a       646     0    33     1     6
  2.9932051674231818E+01 a       647     0    33     1     7
  6.0369757927976970E+01 a       648     0    33     1     8
 -1.8802745972866191E+01 a       649     0    33     1     9
  3.1609841683972744E+00 a       650     0    33     1    10
  9.7970177441017281E+00 a       651     0    33     1    11
  2.8735337640228806E+01 a       652     0    33     1    12
  4.5274086293463519E+01 a       653     0    33     1    13
  4.1489332175506689E+01 a       654     0    33     1    14
  1.2210313965521349E+01 a       655     0    33     1    15
  3.0288507468634553E+01 a       656     0    33     1    16
 -1.4758384142017476E+01 a       657     0    33     1    17
 -9.2209748183168905E-01 a       658     0    33     1    18
  7.2998293805569247E+01 a       659     0    33     1    19
 -1.3582076808774204E+01 a       660     0    33     1    20
  7.9328494651611507E+01 a       661     0    34     1     1
 -2.6843881578770837E+01 a       662     0    34     1     2
  3.9626480720275211E+01 a       663     0    34     1     3
 -2.5441781015386013E+01 a       664     0    34     1     4
  1.7094058054864881E+01 a       665     0    34     1     5
  5.1366837061412028E+01 a       666     0    34     1     6
  6.2223527070159284E+00 a       667     0    34     1     7
  3.6758126369220953E+01 a       668     0    34     1     8
 -6.3730945954222946E+01 a       669     0    34     1     9
 -5.5445867167008991E+01 a       670     0    34     1    10
 -5.3029982326660496E+00 a       671     0    34     1    11
  1.1335656129375511E+01 a       672     0    34     1    12
  4.2815604674717157E+01 a       673     0    34     1    13
 -3.1996429302305657E+01 a       674     0    34     1    14
  4.2900798937627727E+00 a       675     0    34     1    15
 -3.4453431030177974E+01 a       676     0    34     1    16
 -1.6927652235278337E+01 a       677     0    34     1    17
  1.4300901227397166E+01 a       678     0    34     1    18
 -1.9478151049223012E+01 a       679     0    34     1    19
  4.6524232300025723E+01 a       680     0    34     1    20
  8.0014347838905422E+01 a       681     0    35     1     1
  1.0844045016619923E+01 a       682     0    35     1     2
  4.7883164858868248E+01 a       683     0    35     1     3
  4.8075940030840229E+01 a       684     0    35     1     4
 -3.4985701194475666E+01 a       685     0    35     1     5
 -2.5080719792578876E+01 a       686     0    35     1     6
 -7.8218750651691849E+01 a       687     0    35     1     7
 -4.3044994374739311E+01 a       688     0    35     1     8
  7.0520069321466607E+01 a       689     0    35     1     9
  3.1020522177581302E+01 a       690     0    35     1    10
 -1.1323840196526145E+01 a       691     0    35     1    11
 -3.1790157914046777E+01 a       692     0    35     1    12
 -4.3460662517596340E+01 a       693     0    35     1    13
 -9.0092812866899141E+00 a       694     0    35     1    14
  3.9766404803612126E+01 a       695     0    35     1    15
 -1.7401980011682614E+01 a       696     0    35     1    16
  4.8595211307573948E+01 a       697     0    35     1    17
 -2.7094290509763525E+01 a       698     0    35     1    18
  1.0743822123078962E+01 a       699     0    35     1    19
  1.4364035433526071E+01 a       700     0    35     1    20
  1.6471193066565945E+01 a       701     0    36     1     1
  5.3726592313369217E+00 a       702     0    36     1     2
 -1.4545763369280808E+01 a       703     0    36     1     3
  9.5643117168471381E-01 a       704     0    36     1     4
  1.0170225574568482E+01 a       705     0    36     1     5
  2.9817320844697146E+01 a       706     0    36     1     6
  1.6939381392837909E+01 a       707     0    36     1     7
 -6.5896219971479164E+00 a       708     0    36     1     8
  1.5183329181591851E+01 a       709     0    36     1     9
 -1.3250370331973715E+00 a       710     0    36     1    10
  7.2747829758169766E+00 a       711     0    36     1    11
 -2.1530978785272024E+00 a       712     0    36     1    12
 -1.1049327593643024E+01 a       713     0    36     1    13
  5.0458038668788125E+00 a       714     0    36     1    14
 -2.7343500278238766E+00 a       715     0    36     1    15
 -1.8073810552871549E+01 a       716     0    36     1    16
  1.2177712165931199E+01 a       717     0    36     1    17
 -2.0215702788627869E+01 a       718     0    36     1    18
  2.3728374542152093E+01 a       719     0    36     1    19
  1.6623629502805726E+00 a       720     0    36     1    20
  3.6719370081987051E+00 a       721     0    37     1     1
  4.8642460163708108E+01 a       722     0    37     1     2
  7.9730443395233612E+00 a       723     0    37     1     3
 -1.5682493843647443E+00 a       724     0    37     1     4
  6.6194853096050217E+00 a       725     0    37     1     5
 -1.0323927407387325E+01 a       726     0    37     1     6
 -9.0958438024762778E+00 a       727     0    37     1     7
  1.7372050663928749E+00 a       728     0    37     1     8
 -1.9199249530980216E+00 a       729     0    37     1     9
  8.3748069964293670E+00 a       730     0    37     1    10
 -1.5259085309207190E+01 a       731     0    37     1    11
 -3.6732532977327983E+00 a       732     0    37     1    12
 -2.2124887969927205E+01 a       733     0    37     1    13
 -1.6253327292568329E+00 a       734     0    37     1    14
 -1.2660990484244831E+01 a       735     0    37     1    15
 -3.3472573964868571E+00 a       736     0    37     1    16
 -3.2798374548549937E+01 a       737     0    37     1    17
  6.4889857026968230E+00 a       738     0    37     1    18
 -1.3108615711184683E+01 a       739     0    37     1    19
 -1.0740494344123936E+00 a       740     0    37     1    20
  1.1439066107840142E+02 a       741     0    38     1     1
 -1.8553712898680800E+01 a       742     0    38     1     2
 -1.0472307461048020E+01 a       743     0    38     1     3
  6.8956110445633745E-01 a       744     0    38     1     4
 -4.8231359418507594E+01 a       745     0    38     1     5
  9.1508839397482902E+01 a       746     0    38     1     6
  3.6626574962445062E+00 a       747     0    38     1     7
 -2.2812607209322813E+01 a       748     0    38     1     8
 -9.1268824648923754E+01 a       749     0    38     1     9
  4.0850336080505208E+01 a       750     0    38     1    10
  2.6458365571037611E+01 a       751     0    38     1    11
 -2.3696848885807799E+02 a       752     0    38     1    12
  3.8734518288188028E+01 a       753     0    38     1    13
 -1.7021039939706694E+02 a       754     0    38     1    14
  4.5539339857186754E+01 a       755     0    38     1    15
 -1.5603261769777768E+02 a       756     0    38     1    16
 -1.0957494251046414E+02 a       757     0    38     1    17
  1.5254594458220745E+02 a       758     0    38     1    18
  6.7316010887399486E+01 a       759     0    38     1    19
  5.1680601855567730E+01 a       760     0    38     1    20
 -3.5841830581426734E+01 a       761     0    39     1     1
  1.4259494658664020E+00 a       762     0    39     1     2
  3.5546204748926414E+01 a       763     0    39     1     3
 -3.3609801666641246E+01 a       764     0    39     1     4
 -5.1905750721758757E+01 a       765     0    39     1     5
 -4.3125169103695022E+01 a       766     0    39     1     6
 -4.5349305773887615E+01 a       767     0    39     1     7
 -5.5818794275722922E+01 a       768     0    39     1     8
 -5.9759404347321832E+00 a       769     0    39     1     9
 -7.5036211222885356E+00 a       770     0    39     1    10
 -9.5298016701151909E+00 a       771     0    39     1    11
 -2.1830925306270249E+01 a       772     0    39     1    12
 -3.5441046812979820E+01 a       773     0    39     1    13
 -3.3459562249519514E+01 a       774     0    39     1    14
 -1.8820018630664340E+01 a       775     0    39     1    15
 -4.9012724814329154E+01 a       776     0    39     1    16
  4.7439211642357755E+01 a       777     0    39     1    17
  2.4345668408769061E+01 a       778     0    39     1    18
 -7.6966662106175562E+01 a       779     0    39     1    19
  1.7246001965725166E+00 a       780     0    39     1    20
 -7.6796179861393838E+01 a       781     0    40     1     1
  6.0147651384378257E+01 a       782     0    40     1     2
 -2.1432394083707710E+01 a       783     0    40     1     3
  5.0000673531731643E+01 a       784     0    40     1     4
 -3.0632777064747106E+01 a       785     0    40     1     5
 -5.7558193048235410E+01 a       786     0    40     1     6
 -2.3324953648445678E+01 a       787     0    40     1     7
 -2.5554567750916370E+01 a       788     0    40     1     8
  4.8968220137976644E+01 a       789     0    40     1     9
  6.4073194726550071E+01 a       790     0    40     1    10
  2.3229350753638567E+01 a       791     0    40     1    11
  1.6030098775735411E+01 a       792     0    40     1    12
 -3.2615340668955234E+01 a       793     0    40     1    13
  3.8901328634941493E+01 a       794     0    40     1    14
 -3.6992425946908849E+00 a       795     0    40     1    15
  4.9092790053936767E+01 a       796     0    40     1    16
  5.2580510793425596E+01 a       797     0    40     1    17
  1.4693343923332371E+01 a       798     0    40     1    18
  1.2171131343382539E+01 a       799     0    40     1    19
 -5.1297427658532577E+01 a       800     0    40     1    20
  4.6229168800427829E+01 a       801     0    41     1     1
  2.6822443357897093E+01 a       802     0    41     1     2
  6.7939616187058798E+00 a       803     0    41     1     3
  4.7265052123149161E+01 a       804     0    41     1     4
 -1.8450905615899863E+01 a       805     0    41     1     5
 -8.3430719431572385E+01 a       806     0    41     1     6
 -2.2359820721715696E+01 a       807     0    41     1     7
 -1.6833568050822173E+01 a       808     0    41     1     8
  7.3393053528643080E+01 a       809     0    41     1     9
  7.5538911356457220E+01 a       810     0    41     1    10
  5.2802030391672901E+01 a       811     0    41     1    11
  1.1189708759373769E+02 a       812     0    41     1    12
 -6.3202996473624616E+01 a       813     0    41     1    13
  2.2118260822977952E+01 a       814     0    41     1    14
  5.3283778378560314E+01 a       815     0    41     1    15
  1.8446331356401981E+01 a       816     0    41     1    16
  1.2348060788991363E+02 a       817     0    41     1    17
 -8.8733900264560447E+01 a       818     0    41     1    18
 -1.3375709654898845E+01 a       819     0    41     1    19
 -3.5741095901550826E+00 a       820     0    41     1    20
  3.5446272203136317E+01 a       821     0    42     1     1
  3.0696094184418410E+01 a       822     0    42     1     2
 -8.4863356751475187E+00 a       823     0    42     1     3
  3.1528453768479579E+01 a       824     0    42     1     4
  5.6457150513914996E+01 a       825     0    42     1     5
  6.2171709697165952E+01 a       826     0    42     1     6
  5.3275256774556254E+01 a       827     0    42     1     7
  2.4399859711315933E+01 a       828     0    42     1     8
 -3.4588490055927203E+01 a       829     0    42     1     9
 -4.5483411619018391E+01 a       830     0    42     1    10
  2.2054266775201000E+01 a       831     0    42     1    11
  8.7661290028087393E+00 a       832     0    42     1    12
  3.5731123922954545E+01 a       833     0    42     1    13
  2.0844076021498708E+01 a       834     0    42     1    14
  3.7056112940472964E+01 a       835     0    42     1    15
 -3.3291765588112362E+01 a       836     0    42     1    16
  2.1197682117998156E+01 a       837     0    42     1    17
 -1.4182389789226990E+01 a       838     0    42     1    18
  7.3481329283633627E+01 a       839     0    42     1    19
 -1.2006530113382373E+01 a       840     0    42     1    20
  4.9276963015784176E+01 a       841     0    43     1     1
  8.2745234250758881E-01 a       842     0    43     1     2
  2.6689857312427126E+01 a       843     0    43     1     3
  5.1237818696900383E-01 a       844     0    43     1     4
  1.5030916164492709E+01 a       845     0    43     1     5
  4.4379055510363152E+01 a       846     0    43     1     6
  2.8843996371735528E+01 a       847     0    43     1     7
  4.3284209811384420E+00 a       848     0    43     1     8
 -5.3841528505685709E+01 a       849     0    43     1     9
 -7.2614792252754530E+00 a       850     0    43     1    10
  1.0611521991433522E+01 a       851     0    43     1    11
  1.1561671440664265E+00 a       852     0    43     1    12
 -3.1511764337087559E+01 a       853     0    43     1    13
 -4.5397619189794796E+01 a       854     0    43     1    14
 -3.1345558423151698E+00 a       855     0    43     1    15
 -2.7373926279009215E+01 a       856     0    43     1    16
 -1.5791187652224727E+01 a       857     0    43     1    17
  6.7320253461432698E+00 a       858     0    43     1    18
 -1.3660944839491558E+01 a       859     0    43     1    19
  1.3107413871644066E+01 a       860     0    43     1    20
  1.1883037955549257E+02 a       861     0    44     1     1
 -2.6879257348104005E+01 a       862     0    44     1     2
 -4.4304780300389048E+01 a       863     0    44     1     3
  1.0543635139134599E+01 a       864     0    44     1     4
 -2.8372807013979248E+01 a       865     0    44     1     5
  1.9252480906213935E+02 a       866     0    44     1     6
 -8.7644352026979122E-01 a       867     0    44     1     7
  5.0077876473258669E+01 a       868     0    44     1     8
 -1.2679936578553513E+02 a       869     0    44     1     9
 -1.2254379169328227E+02 a       870     0    44     1    10
  4.3084844599095486E+00 a       871     0    44     1    11
 -1.5051338125710902E+02 a       872     0    44     1    12
  1.2250451971194903E+02 a       873     0    44     1    13
 -1.0834117654863350E+02 a       874     0    44     1    14
  5.8568594411592535E+01 a       875     0    44     1    15
 -1.7939767629175907E+02 a       876     0    44     1    16
 -2.3913189143392233E+02 a       877     0    44     1    17
  1.8243441552907802E+02 a       878     0    44     1    18
 -7.7457439394748590E+01 a       879     0    44     1    19
  3.1637594055650644E+00 a       880     0    44     1    20
 -4.4487017977431975E+01 a       881     0    45     1     1
 -2.9799053182276811E+01 a       882     0    45     1     2
  6.5236293648911868E+01 a       883     0    45     1     3
 -4.5496095712420427E+01 a       884     0    45     1     4
 -7.9960946835899051E+01 a       885     0    45     1     5
 -5.6418831227827802E+01 a       886     0    45     1     6
 -1.4896534101649634E+01 a       887     0    45     1     7
 -6.0281369441178590E+01 a       888     0    45     1     8
  2.5510201036408585E+01 a       889     0    45     1     9
 -6.6562313708544716E+00 a       890     0    45     1    10
 -5.6163208255096805E+01 a       891     0    45     1    11
 -2.2721773036781610E+01 a       892     0    45     1    12
 -5.8737748384741316E+01 a       893     0    45     1    13
 -5.5921279781993427E+01 a       894     0    45     1    14
 -3.9945214641751264E+01 a       895     0    45     1    15
  1.1637467946137741E+01 a       896     0    45     1    16
  5.2937408646226931E+00 a       897     0    45     1    17
  4.0342950412767351E+01 a       898     0    45     1    18
 -1.0253258035969478E+02 a       899     0    45     1    19
  1.5281067672727850E+01 a       900     0    45     1    20
 -1.1119629449268483E+02 a       901     0    46     1     1
  7.7069055394131041E+01 a       902     0    46     1     2
  1.6068230115345134E+01 a       903     0    46     1     3
  7.1795374500187592E+01 a       904     0    46     1     4
 -5.4700312505722501E+01 a       905     0    46     1     5
 -6.5954056619870499E+01 a       906     0    46     1     6
  1.8889062536518377E+01 a       907     0    46     1     7
  2.1043845794543980E+01 a       908     0    46     1     8
  7.8884189976718702E+01 a       909     0    46     1     9
  4.3518182820313971E+00 a       910     0    46     1    10
 -2.5359399979416910E+00 a       911     0    46     1    11
  2.6804948796786466E+01 a       912     0    46     1    12
  2.6097251191821048E+01 a       913     0    46     1    13
  7.1250952351220093E+01 a       914     0    46     1    14
  2.4870976306711800E+01 a       915     0    46     1    15
  1.0833625234621445E+02 a       916     0    46     1    16
  7.6858395460005653E+01 a       917     0    46     1    17
  4.1067890958022389E+01 a       918     0    46     1    18
  2.5676615966795776E+01 a       919     0    46     1    19
 -4.1898014759771684E+01 a       920     0    46     1    20
 -7.2774386260438291E+01 a       921     0    47     1     1
 -1.4882641508072870E+01 a       922     0    47     1     2
 -3.7821313252333070E+01 a       923     0    47     1     3
 -5.4693442103136888E+01 a       924     0    47     1     4
  2.9869376098767649E+01 a       925     0    47     1     5
  1.5828378193397109E+01 a       926     0    47     1     6
  9.4044981736828731E+01 a       927     0    47     1     7
  3.8284725577613834E+01 a       928     0    47     1     8
 -5.9521292632729704E+01 a       929     0    47     1     9
 -2.0300546451369396E+01 a       930     0    47     1    10
  2.0198256770209376E+01 a       931     0    47     1    11
  3.3395536873864202E+00 a       932     0    47     1    12
  3.6324278791157397E+01 a       933     0    47     1    13
 -1.0227848288789298E+01 a       934     0    47     1    14
 -2.5401815119019545E+01 a       935     0    47     1    15
  2.1005306378483201E+01 a       936     0    47     1    16
 -4.8359182381757506E+01 a       937     0    47     1    17
  5.4774111995265478E+01 a       938     0    47     1    18
 -1.3486545838010342E+01 a       939     0    47     1    19
 -1.1079570805749501E+01 a       940     0    47     1    20
 -2.2707893668614208E+01 a       941     0    48     1     1
 -7.3722999010524299E+00 a       942     0    48     1     2
  1.0909673367456165E+01 a       943     0    48     1     3
 -1.0675285235687431E+00 a       944     0    48     1     4
 -8.0936153611450941E+00 a       945     0    48     1     5
 -3.2480338825376045E+01 a       946     0    48     1     6
 -1.9872111025720137E+01 a       947     0    48     1     7
  2.2515731545486228E+00 a       948     0    48     1     8
 -1.3866107609424363E+01 a       949     0    48     1     9
 -1.1096004903292072E+00 a       950     0    48     1    10
 -3.6555018749037180E+00 a       951     0    48     1    11
 -3.2569930145164903E+00 a       952     0    48     1    12
  1.2039797530887597E+01 a       953     0    48     1    13
 -6.3591784333376982E+00 a       954     0    48     1    14
  7.3503650471226658E+00 a       955     0    48     1    15
  1.2440165643684759E+01 a       956     0    48     1    16
 -8.8741149496994716E+00 a       957     0    48     1    17
  1.6431424262697334E+01 a       958     0    48     1    18
 -2.6261166908984869E+01 a       959     0    48     1    19
  3.7531663019398565E-01 a       960     0    48     1    20
 -6.1593466770840308E+00 a       961     0    49     1     1
 -5.7586648068242056E+01 a       962     0    49     1     2
 -1.4777002596472817E+01 a       963     0    49     1     3
 -5.3051963533461144E-01 a       964     0    49     1     4
 -4.9804014407943340E+00 a       965     0    49     1     5
  8.6196743993888862E+00 a       966     0    49     1     6
  6.7782633629095939E+00 a       967     0    49     1     7
 -3.7654480355319135E+00 a       968     0    49     1     8
  4.3904494518944643E+00 a       969     0    49     1     9
 -1.8971266720383324E+00 a       970     0    49     1    10
  1.4229996420549362E+01 a       971     0    49     1    11
 -7.6180211228931394E-01 a       972     0    49     1    12
  1.3644683964174577E+01 a       973     0    49     1    13
 -4.0219132915245165E-01 a       974     0    49     1    14
  8.7392527164007987E+00 a       975     0    49     1    15
 -5.0327382410120458E-01 a       976     0    49     1    16
  2.8160160072181149E+01 a       977     0    49     1    17
 -9.5567631949284468E+00 a       978     0    49     1    18
  1.0808928519315977E+01 a       979     0    49     1    19
 -1.7079242988221404E+00 a       980     0    49     1    20
 -1.3339331229973013E+02 a       981     0    50     1     1
  1.9107877415253935E+00 a       982     0    50     1     2
  5.7201893647149689E+01 a       983     0    50     1     3
 -1.2569295229984899E+01 a       984     0    50     1     4
 -1.7767386393721600E+00 a       985     0    50     1     5
 -1.1363704452038898E+02 a       986     0    50     1     6
  9.1569333807911235E+01 a       987     0    50     1     7
 -4.7905013294852763E+00 a       988     0    50     1     8
  1.2417827159317314E+02 a       989     0    50     1     9
  2.6509725417933033E+01 a       990     0    50     1    10
  3.9272166864711098E+00 a       991     0    50     1    11
  1.4800285921498264E+02 a       992     0    50     1    12
 -7.2364809911019080E+01 a       993     0    50     1    13
  6.4294487758589071E+01 a       994     0    50     1    14
 -4.8245168415732884E+01 a       995     0    50     1    15
  1.2925942594634120E+02 a       996     0    50     1    16
  1.2642032706144808E+02 a       997     0    50     1    17
 -6.5994351674486254E+01 a       998     0    50     1    18
 -3.8437072143658675E+01 a       999     0    50     1    19
 -4.8138034984439226E+00 a      1000     0    50     1    20
  1.4305367886081861E+01 a      1001     0    51     1     1
 -5.3718700410317588E+00 a      1002     0    51     1     2
 -3.9017771259730836E+01 a      1003     0    51     1     3
  3.3602911650409553E+01 a      1004     0    51     1     4
  4.8173233197452788E+01 a      1005     0    51     1     5
  3.5347570802267569E+01 a      1006     0    51     1     6
  3.1949923032618813E+01 a      1007     0    51     1     7
  3.3449964261821449E+01 a      1008     0    51     1     8
  5.5591724365217381E+00 a      1009     0    51     1     9
  8.0214300322803445E-01 a      1010     0    51     1    10
  2.0166956285445227E+01 a      1011     0    51     1    11
  1.0582549602776130E+01 a      1012     0    51     1    12
  2.3299576709000995E+01 a      1013     0    51     1    13
  2.2158406575707247E+01 a      1014     0    51     1    14
  2.2463240752924321E+01 a      1015     0    51     1    15
  1.8784222962977683E+01 a      1016     0    51     1    16
 -3.0301393313232499E+01 a      1017     0    51     1    17
 -3.4974900707514934E+01 a      1018     0    51     1    18
  6.5327659292126867E+01 a      1019     0    51     1    19
  5.6929588147150956E-01 a      1020     0    51     1    20
  5.6844079949178607E+01 a      1021     0    52     1     1
 -6.9420050094282900E+01 a      1022     0    52     1     2
 -1.8794873336704971E+01 a      1023     0    52     1     3
 -5.5287070374622900E+01 a      1024     0    52     1     4
  3.8935718816030359E+01 a      1025     0    52     1     5
  4.4423078504419678E+01 a      1026     0    52     1     6
  9.8848807873240325E+00 a      1027     0    52     1     7
 -2.2884128891614331E+01 a      1028     0    52     1     8
 -3.0695937869202751E+01 a      1029     0    52     1     9
 -1.2153085531993819E+01 a      1030     0    52     1    10
 -1.2885957665098578E+01 a      1031     0    52     1    11
 -3.4207506586624952E+01 a      1032     0    52     1    12
 -2.5340661752682657E+01 a      1033     0    52     1    13
 -4.4353891108976612E+01 a      1034     0    52     1    14
 -1.2173747071824094E+01 a      1035     0    52     1    15
 -6.9967959779269506E+01 a      1036     0    52     1    16
 -6.8426946557949691E+01 a      1037     0    52     1    17
 -4.5500824245442843E+01 a      1038     0    52     1    18
 -5.9074690890222712E+00 a      1039     0    52     1    19
  2.6513776698737590E+01 a      1040     0    52     1    20
 -3.9082082371601334E+00 b      1041     1     1
 -1.5831894820003045E+00 b      1042     1     2
  2.8333816777356642E+00 b      1043     1     3
 -1.6874255455184672E-01 b      1044     1     4
  2.1022528017333282E+00 b      1045     1     5
 -6.3771569485955570E-01 b      1046     1     6
 -1.7099283574412119E+00 b      1047     1     7
  3.5613503104545496E-01 b      1048     1     8
 -5.3930564882964238E-01 b      1049     1     9
  1.5741631092673036E-01 b      1050     1    10
 -1.2504609912198745E+00 b      1051     1    11
  2.8744148981954348E-01 b      1052     1    12
 -3.0208428621909905E-01 b      1053     1    13
  9.0425988886566755E-01 b      1054     1    14
  1.9901141268203586E+00 b      1055     1    15
 -1.9770602222507727E+00 b      1056     1    16
 -1.1619636745690152E+00 b      1057     1    17
  8.5375412493682878E-01 b      1058     1    18
  6.9972669605169757E-01 b      1059     1    19
  1.3828529736797721E+00 b      1060     1    20
 -2.1032308475827817E+00 a      1061     1     1     2     1
 -1.3096307374925070E+01 a      1062     1     1     2     2
 -8.1803950289649741E-01 a      1063     1     1     2     3
 -2.5792761047395135E-01 a      1064     1     1     2     4
 -1.9219889054868658E-01 a      1065     1     1     2     5
  7.5944217569490069E-01 a      1066     1     1     2     6
 -6.0695081437716925E-01 a      1067     1     1     2     7
 -1.0795425122687371E+01 a      1068     1     1     2     8
 -6.5720214769629470E-01 a      1069     1     1     2     9
 -4.4715325228782338E-01 a      1070     1     1     2    10
 -2.0569698296653705E-01 a      1071     1     1     2    11
 -4.4130516972497341E-01 a      1072     1     1     2    12
  1.0561217990895750E+00 a      1073     1     1     2    13
  6.5048056635759821E-01 a      1074     1     1     2    14
 -3.9670484912780607E-01 a      1075     1     1     2    15
  3.0751082907952046E-02 a      1076     1     1     2    16
 -9.9732157622207951E-01 a      1077     1     1     2    17
 -1.9998344938154435E+00 a      1078     1     1     2    18
 -5.4063254325769883E-01 a      1079     1     1     2    19
 -4.2700020871556998E-01 a      1080     1     1     2    20
 -3.3071735090833709E-01 a      1081     1     2     2     1
 -1.1017996072037114E+01 a      1082     1     2     2     2
  4.4053496452605106E-01 a      1083     1     2     2     3
 -6.7734658343457410E-01 a      1084     1     2     2     4
  1.8012773612847977E-01 a      1085     1     2     2     5
  1.0579815894820492E-01 a      1086     1     2     2     6
  2.2252816884377744E-01 a      1087     1     2     2     7
  6.3942519071055345E-02 a      1088     1     2     2     8
  8.7428741678769506E-01 a      1089     1     2     2     9
 -7.7467670718341142E-01 a      1090     1     2     2    10
 -6.2430258370433145E-01 a      1091     1     2     2    11
  2.0055885038510157E-01 a      1092     1     2     2    12
  1.1510247351800758E+00 a      1093     1     2     2    13
  2.0814930652708665E+00 a      1094     1     2     2    14
 -1.9575241183269193E-01 a      1095     1     2     2    15
  1.3119777821220873E+00 a      1096     1     2     2    16
  9.0349098604779809E-01 a      1097     1     2     2    17
 -2.9174625545933361E+00 a      1098     1     2     2    18
  5.8802979082038020E-01 a      1099     1     2     2    19
  5.1580512764884368E-01 a      1100     1     2     2    20
 -1.8731658319135533E+00 a      1101     1     3     2     1
 -3.1865300497573026E+00 a      1102     1     3     2     2
 -5.2882135617195025E-01 a      1103     1     3     2     3
  9.5837308465242066E-01 a      1104     1     3     2     4
 -2.0686331808801842E-01 a      1105     1     3     2     5
  1.0775679560873299E+00 a      1106     1     3     2     6
 -5.8202649111010929E-01 a      1107     1     3     2     7
  4.8032624022493919E-01 a      1108     1     3     2     8
  8.2857916858928626E-02 a      1109     1     3     2     9
 -1.2998586439735831E+00 a      1110     1     3     2    10
  7.9451209327462902E-01 a      1111     1     3     2    11
  1.0713340025210418E+00 a      1112     1     3     2    12
  6.5976861251219521E-01 a      1113     1     3     2    13
  1.7889636961336526E+00 a      1114     1     3     2    14
  1.4760016844693051E+00 a      1115     1     3     2    15
  9.6134452217799715E-01 a      1116     1     3     2    16
  3.3844311455078735E-01 a      1117     1     3     2    17
 -1.3350856382679830E+00 a      1118     1     3     2    18
  1.6104735086620811E-01 a      1119     1     3     2    19
 -9.3299631523713900E-01 a      1120     1     3     2    20
 -4.1472253531486636E-01 a      1121     1     4     2     1
  1.9493634444119168E+00 a      1122     1     4     2     2
 -7.3749120327169859E-01 a      1123     1     4     2     3
  3.0635309917240288E+00 a      1124     1     4     2     4
  4.2660352151571973E-01 a      1125     1     4     2     5
 -6.9648917887968842E-01 a      1126     1     4     2     6
  5.0265013194623642E-01 a      1127     1     4     2     7
 -2.2745737956966274E+00 a      1128     1     4     2     8
 -1.0368631262896795E+00 a      1129     1     4     2     9
 -5.6900151513519748E-01 a      1130     1     4     2    10
  4.6003700621880600E-01 a      1131     1     4     2    11
  9.6031078272324666E-01 a      1132     1     4     2    12
  8.7923265521158900E-01 a      1133     1     4     2    13
  1.4071559484902922E+00 a      1134     1     4     2    14
 -8.0866163897052534E-01 a      1135     1     4     2    15
 -1.2799875309549675E+00 a      1136     1     4     2    16
  1.2589542121826673E+00 a      1137     1     4     2    17
 -1.3905997890427244E+00 a      1138     1     4     2    18
 -5.1032403989966535E-01 a      1139     1     4     2    19
  3.8714275575399437E-01 a      1140     1     4     2    20
 -2.5059884571384945E+00 a      1141     1     5     2     1
  6.4874201727927057E+00 a      1142     1     5     2     2
 -6.4721757123811707E-01 a      1143     1     5     2     3
  8.8973882972604734E-01 a      1144     1     5     2     4
 -2.0121495484784644E+00 a      1145     1     5     2     5
 -4.7871837282803137E-01 a      1146     1     5     2     6
 -2.2393847482130682E+00 a      1147     1     5     2     7
 -7.2229194017407847E+00 a      1148     1     5     2     8
 -1.7367060961857719E+00 a      1149     1     5     2     9
  4.6682223143541263E-01 a      1150     1     5     2    10
  9.4629115981365752E-01 a      1151     1     5     2    11
  1.3088790195619346E-01 a      1152     1     5     2    12
 -1.1008728724014538E+00 a      1153     1     5     2    13
  3.2613609783864722E-01 a      1154     1     5     2    14
  1.6267788292046086E+00 a      1155     1     5     2    15
  2.2093167068863608E+00 a      1156     1     5     2    16
  7.0654349888822343E-01 a      1157     1     5     2    17
 -1.4017914139237879E+00 a      1158     1     5     2    18
 -6.5391701436595995E-01 a      1159     1     5     2    19
 -1.2681462534943468E+00 a      1160     1     5     2    20
  4.4893842907009834E-01 a      1161     1     6     2     1
  2.5676255033969499E+00 a      1162     1     6     2     2
 -2.4616982421117561E+00 a      1163     1     6     2     3
 -9.0434478305560062E-02 a      1164     1     6     2     4
  1.8818588583171694E+00 a      1165     1     6     2     5
 -2.6119419911932823E-01 a      1166     1     6     2     6
 -5.4639335387629939E-01 a      1167     1     6     2     7
  3.0368701245636402E+00 a      1168     1     6     2     8
  1.4051542884047818E+00 a      1169     1     6     2     9
  4.9454198519198239E-01 a      1170     1     6     2    10
  4.8838367286496737E-01 a      1171     1     6     2    11
  2.4718516651105185E-01 a      1172     1     6     2    12
 -5.7641552705697707E-01 a      1173     1     6     2    13
 -3.1475438435485487E-01 a      1174     1     6     2    14
 -4.6226159161850300E-01 a      1175     1     6     2    15
 -8.5493454600637708E-01 a      1176     1     6     2    16
 -6.7475818909226304E-01 a      1177     1     6     2    17
 -2.1166822897777946E+00 a      1178     1     6     2    18
 -1.6185762522411364E+00 a      1179     1     6     2    19
  7.2742857904284797E-01 a      1180     1     6     2    20
  2.9810980817928651E-01 a      1181     1     7     2     1
 -6.6979946539560364E+00 a      1182     1     7     2     2
  1.6070221541957555E-01 a      1183     1     7     2     3
  1.8426247172170532E-01 a      1184     1     7     2     4
 -8.1690408898187100E-02 a      1185     1     7     2     5
  5.0706891691098399E-01 a      1186     1     7     2     6
 -5.3063842531577676E-01 a      1187     1     7     2     7
 -1.2876649424241293E+00 a      1188     1     7     2     8
  1.1870841399893886E-01 a      1189     1     7     2     9
  5.3192593305544933E-01 a      1190     1     7     2    10
  3.4300741699820869E-01 a      1191     1     7     2    11
  8.3079976677964823E-02 a      1192     1     7     2    12
  2.2159235285414111E-01 a      1193     1     7     2    13
  4.9858711489974405E-03 a      1194     1     7     2    14
 -2.0883505675329972E-01 a      1195     1     7     2    15
 -2.3882072408737554E-01 a      1196     1     7     2    16
  4.1750525269143801E-01 a      1197     1     7     2    17
  1.0279875655889732E+00 a      1198     1     7     2    18
  5.6249223745863719E-01 a      1199     1     7     2    19
  7.2424227962930998E-01 a      1200     1     7     2    20
 -1.0698725776791251E+00 a      1201     1     8     2     1
 -1.1623443741083479E+00 a      1202     1     8     2     2
 -1.6993650761397983E+00 a      1203     1     8     2     3
  8.0355391418579988E-02 a      1204     1     8     2     4
 -3.3422587712844348E-01 a      1205     1     8     2     5
 -2.0864923547089425E+00 a      1206     1     8     2     6
 -2.6258739548184500E+00 a      1207     1     8     2     7
 -6.9353092447933804E+00 a      1208     1     8     2     8
  1.0939110493287520E+00 a      1209     1     8     2     9
 -8.4633433367198738E-02 a      1210     1     8     2    10
  7.2561863843832219E-01 a      1211     1     8     2    11
  1.1970739155137808E+00 a      1212     1     8     2    12
 -1.8621351734517935E+00 a      1213     1     8     2    13
 -8.1482337005321970E-01 a      1214     1     8     2    14
  4.4268197745154392E-01 a      1215     1     8     2    15
  4.2138777475419209E-01 a      1216     1     8     2    16
 -1.2829686036157581E-01 a      1217     1     8     2    17
 -5.7066348583205908E+00 a      1218     1     8     2    18
 -8.1043827977475080E-01 a      1219     1     8     2    19
  1.3715901629795799E+00 a      1220     1     8     2    20
  2.9349573060779649E-02 a      1221     1     9     2     1
  1.8183924021654685E-01 a      1222     1     9     2     2
 -8.8409788673837508E-01 a      1223     1     9     2     3
  1.2284320289249495E+00 a      1224     1     9     2     4
  6.1619089024030249E-01 a      1225     1     9     2     5
 -2.1261990881886031E-01 a      1226     1     9     2     6
 -1.2651731661900922E+00 a      1227     1     9     2     7
 -3.3016200552048586E-01 a      1228     1     9     2     8
  2.1501354488826507E-01 a      1229     1     9     2     9
 -7.6533891027251222E-01 a      1230     1     9     2    10
  1.0159923315388927E-01 a      1231     1     9     2    11
 -4.5443488538765348E-01 a      1232     1     9     2    12
 -1.3669426940348985E+00 a      1233     1     9     2    13
 -5.1690622089090543E-01 a      1234     1     9     2    14
 -4.2334751203554805E-01 a      1235     1     9     2    15
 -6.3332885414235307E-01 a      1236     1     9     2    16
 -3.2205430433076737E-01 a      1237     1     9     2    17
 -6.5042490347050574E-01 a      1238     1     9     2    18
 -6.7093561000819579E-01 a      1239     1     9     2    19
  4.1547091901955757E-01 a      1240     1     9     2    20
 -5.6767557943949254E-01 a      1241     1    10     2     1
 -6.4969017058462919E+00 a      1242     1    10     2     2
  9.6136458198209193E-02 a      1243     1    10     2     3
  4.7676802264757984E-01 a      1244     1    10     2     4
  1.1884654860284283E+00 a      1245     1    10     2     5
 -2.0854662836332940E+00 a      1246     1    10     2     6
 -5.8151445641899029E+00 a      1247     1    10     2     7
  4.3022979762389724E-01 a      1248     1    10     2     8
  1.0835239828040988E+00 a      1249     1    10     2     9
  1.7213902040196876E+00 a      1250     1    10     2    10
 -9.7162236040127425E-01 a      1251     1    10     2    11
 -6.5380868155668259E-01 a      1252     1    10     2    12
  4.0037482036538719E-01 a      1253     1    10     2    13
  1.4051869502554546E+00 a      1254     1    10     2    14
 -1.0828370773448359E+00 a      1255     1    10     2    15
  3.8229438265137263E+00 a      1256     1    10     2    16
  8.0460950864637337E-01 a      1257     1    10     2    17
 -1.3559658305792897E+00 a      1258     1    10     2    18
  6.0930093829076104E-01 a      1259     1    10     2    19
  1.5348728883080762E-01 a      1260     1    10     2    20
 -1.9462178151904035E+00 a      1261     1    11     2     1
 -5.6658341916888855E+00 a      1262     1    11     2     2
 -1.5052324099840994E-01 a      1263     1    11     2     3
  2.2019997915627441E+00 a      1264     1    11     2     4
 -1.3077732339617567E+00 a      1265     1    11     2     5
  1.1650983351260751E+00 a      1266     1    11     2     6
 -8.8027546531731227E-01 a      1267     1    11     2     7
 -8.8348445108145934E-01 a      1268     1    11     2     8
 -3.7881379623581818E-01 a      1269     1    11     2     9
  8.2325260242632292E-01 a      1270     1    11     2    10
  3.3275708159920409E-01 a      1271     1    11     2    11
  1.9750138411566778E-01 a      1272     1    11     2    12
  8.8337593967250916E-01 a      1273     1    11     2    13
 -2.6266819967961266E+00 a      1274     1    11     2    14
  1.3667313378765507E+00 a      1275     1    11     2    15
 -1.3454588009373833E-01 a      1276     1    11     2    16
 -4.2761083599583527E-01 a      1277     1    11     2    17
  6.8172127973455310E-01 a      1278     1    11     2    18
  1.2285376690317200E+00 a      1279     1    11     2    19
  1.7156331927738571E+00 a      1280     1    11     2    20
 -7.1445957563658091E-01 a      1281     1    12     2     1
 -6.4694834855176948E+00 a      1282     1    12     2     2
  6.8813639674689142E-01 a      1283     1    12     2     3
 -1.4606310191716357E-01 a      1284     1    12     2     4
  4.2638285046490859E-01 a      1285     1    12     2     5
  1.6114582624028779E+00 a      1286     1    12     2     6
  1.4638604645318190E+00 a      1287     1    12     2     7
 -2.3496638149689577E+00 a      1288     1    12     2     8
 -4.5591199783663416E-01 a      1289     1    12     2     9
 -9.1457936241309146E-01 a      1290     1    12     2    10
  1.7993901122841174E+00 a      1291     1    12     2    11
 -4.3433190224277524E-01 a      1292     1    12     2    12
 -1.7245632715665773E+00 a      1293     1    12     2    13
  8.3733725839649709E-01 a      1294     1    12     2    14
 -3.8520976743421453E-01 a      1295     1    12     2    15
  2.0507211956285498E-01 a      1296     1    12     2    16
 -1.9902480982911996E-01 a      1297     1    12     2    17
  7.2669275605798145E-01 a      1298     1    12     2    18
  1.3809628827061740E-01 a      1299     1    12     2    19
 -8.6804072933144483E-01 a      1300     1    12     2    20
  7.5601745664904529E-01 a      1301     1    13     2     1
 -2.5992771762704554E+00 a      1302     1    13     2     2
  1.7521724944437288E-02 a      1303     1    13     2     3
  1.3024981047774828E-01 a      1304     1    13     2     4
 -9.2058421057427897E-02 a      1305     1    13     2     5
  1.9576579019747866E+00 a      1306     1    13     2     6
 -4.8685997839235791E+00 a      1307     1    13     2     7
  1.0106396731029563E+00 a      1308     1    13     2     8
 -1.4270337350664761E+00 a      1309     1    13     2     9
  1.0251983360842865E+00 a      1310     1    13     2    10
  1.1576305050933415E+00 a      1311     1    13     2    11
  1.0914823046500224E+00 a      1312     1    13     2    12
 -2.0040421349383064E-01 a      1313     1    13     2    13
  6.0715388643458079E-01 a      1314     1    13     2    14
  1.0656308858785766E+00 a      1315     1    13     2    15
  2.8907926592020966E-01 a      1316     1    13     2    16
 -1.7093426328337962E+00 a      1317     1    13     2    17
  4.2078296346381396E+00 a      1318     1    13     2    18
  6.0971824454294898E-01 a      1319     1    13     2    19
 -1.7330905220634487E+00 a      1320     1    13     2    20
 -1.1352513116288212E+00 a      1321     1    14     2     1
 -9.5732493606988645E-01 a      1322     1    14     2     2
 -1.6415687911310661E+00 a      1323     1    14     2     3
  1.5157377828182321E+00 a      1324     1    14     2     4
  2.3375085515199245E+00 a      1325     1    14     2     5
  1.1425029112068914E+00 a      1326     1    14     2     6
 -3.8463373941139711E-01 a      1327     1    14     2     7
 -2.6653263200524058E+00 a      1328     1    14     2     8
  1.4327573447256021E+00 a      1329     1    14     2     9
  1.0141864225792231E-02 a      1330     1    14     2    10
  5.1329508795695178E+00 a      1331     1    14     2    11
  1.5349495528902584E+00 a      1332     1    14     2    12
  4.0632551039155257E-01 a      1333     1    14     2    13
 -1.9904631048388524E+00 a      1334     1    14     2    14
  1.5876683362302077E-01 a      1335     1    14     2    15
 -3.5691995914812504E+00 a      1336     1    14     2    16
 -1.0841169219712751E-01 a      1337     1    14     2    17
 -4.2041619784094852E-01 a      1338     1    14     2    18
 -7.0132286263611376E-01 a      1339     1    14     2    19
  2.4425889670103071E+00 a      1340     1    14     2    20
  2.8262288178571033E+00 a      1341     1    15     2     1
  3.2029277508447868E-01 a      1342     1    15     2     2
 -2.9925181897433223E-01 a      1343     1    15     2     3
 -1.2809771025141570E-01 a      1344     1    15     2     4
  4.2873601861419419E-01 a      1345     1    15     2     5
 -4.6946151346506959E-01 a      1346     1    15     2     6
  1.2622820726995092E+00 a      1347     1    15     2     7
  1.3151996913566003E-01 a      1348     1    15     2     8
  1.3919551049881482E-01 a      1349     1    15     2     9
 -1.0266421658397356E+00 a      1350     1    15     2    10
 -4.2965421287351202E-01 a      1351     1    15     2    11
 -9.8401847799766406E-01 a      1352     1    15     2    12
 -8.8234657109446690E-01 a      1353     1    15     2    13
 -7.0803797331305363E-01 a      1354     1    15     2    14
 -8.7590511356058576E-01 a      1355     1    15     2    15
  3.7422159518034093E-01 a      1356     1    15     2    16
 -6.4851467180846423E-01 a      1357     1    15     2    17
  2.0255263458714916E+00 a      1358     1    15     2    18
  9.0309864484948654E-01 a      1359     1    15     2    19
  4.4826858009232856E-01 a      1360     1    15     2    20
  1.1361393797303290E+00 a      1361     1    16     2     1
  2.7808449537131401E+00 a      1362     1    16     2     2
 -1.1462323103501303E-01 a      1363     1    16     2     3
  8.3198260835383031E-01 a      1364     1    16     2     4
 -5.6364851081333334E-01 a      1365     1    16     2     5
  6.5955950016293774E-01 a      1366     1    16     2     6
  4.6726183027600410E-01 a      1367     1    16     2     7
  2.7838455526112509E+00 a      1368     1    16     2     8
 -3.7440622703694093E-01 a      1369     1    16     2     9
 -5.7291456121164308E-01 a      1370     1    16     2    10
  1.2068239570289523E+00 a      1371     1    16     2    11
 -4.7770120381913961E-01 a      1372     1    16     2    12
  6.7962457805292886E-01 a      1373     1    16     2    13
 -2.1078118447429444E+00 a      1374     1    16     2    14
 -3.9635466306991336E-02 a      1375     1    16     2    15
  8.1747770052125884E-02 a      1376     1    16     2    16
 -6.2394945326942319E-01 a      1377     1    16     2    17
  9.1240289792210438E-01 a      1378     1    16     2    18
  4.6294257557075402E-01 a      1379     1    16     2    19
  1.3528601267070428E+00 a      1380     1    16     2    20
 -2.4078066860002073E-01 a      1381     1    17     2     1
 -3.9975283065438538E-01 a      1382     1    17     2     2
 -5.5705791471024069E-01 a      1383     1    17     2     3
 -3.4471952030995479E-01 a      1384     1    17     2     4
 -1.1992708840543393E+00 a      1385     1    17     2     5
 -4.3176023999357205E-01 a      1386     1    17     2     6
 -2.6536701590750660E+00 a      1387     1    17     2     7
  5.2696192498273431E-01 a      1388     1    17     2     8
 -8.4240600191579451E-01 a      1389     1    17     2     9
 -6.2423736563372439E-02 a      1390     1    17     2    10
 -6.4793655312507537E-01 a      1391     1    17     2    11
 -1.0752155749256764E+00 a      1392     1    17     2    12
 -1.0343365313198738E+00 a      1393     1    17     2    13
  3.8128231843667987E-01 a      1394     1    17     2    14
  1.1767213432666719E-02 a      1395     1    17     2    15
 -1.5783365366073587E+00 a      1396     1    17     2    16
 -8.1219612497129290E-01 a      1397     1    17     2    17
 -5.0743929894103990E-01 a      1398     1    17     2    18
 -1.7868717515139876E-01 a      1399     1    17     2    19
 -6.5296111154612335E-01 a      1400     1    17     2    20
  2.5612756945032027E+00 a      1401     1    18     2     1
 -3.4004308475603845E-01 a      1402     1    18     2     2
  5.6457809477018361E-01 a      1403     1    18     2     3
 -6.2560444622666569E-03 a      1404     1    18     2     4
 -1.6945745783310118E+00 a      1405     1    18     2     5
  6.0918178030586390E-01 a      1406     1    18     2     6
 -1.2260915849882954E+00 a      1407     1    18     2     7
 -7.3044291994771116E-01 a      1408     1    18     2     8
 -1.4290168464527135E+00 a      1409     1    18     2     9
  9.7041042430559291E-02 a      1410     1    18     2    10
 -1.0078044845289003E+00 a      1411     1    18     2    11
 -3.2896419379089661E+00 a      1412     1    18     2    12
 -3.6596473194152618E-01 a      1413     1    18     2    13
 -9.9482508157650928E-01 a      1414     1    18     2    14
 -2.3739837530779049E+00 a      1415     1    18     2    15
 -3.6377456164899584E+00 a      1416     1    18     2    16
 -8.7550341408837407E-01 a      1417     1    18     2    17
 -1.1937619290503447E+00 a      1418     1    18     2    18
  1.8337876160281427E-01 a      1419     1    18     2    19
  3.6879070001392394E-01 a      1420     1    18     2    20
  5.8102318003542146E-02 a      1421     1    19     2     1
 -1.2497422380722703E+00 a      1422     1    19     2     2
 -2.6795705627307864E-01 a      1423     1    19     2     3
  1.2719558416092891E+00 a      1424     1    19     2     4
 -2.3676575776324288E-02 a      1425     1    19     2     5
 -2.1702288826376086E+00 a      1426     1    19     2     6
  9.0452814659755254E-01 a      1427     1    19     2     7
  2.0546937049931066E-01 a      1428     1    19     2     8
 -1.0015451607996040E+00 a      1429     1    19     2     9
 -9.0869500633612155E-01 a      1430     1    19     2    10
  5.4881976938799759E-01 a      1431     1    19     2    11
 -7.5949934019894375E-02 a      1432     1    19     2    12
 -4.7713041024276354E-01 a      1433     1    19     2    13
 -2.3810163294380993E+00 a      1434     1    19     2    14
 -2.5853653414307470E-01 a      1435     1    19     2    15
 -1.4369470088835520E-01 a      1436     1    19     2    16
  8.0597305186323812E-02 a      1437     1    19     2    17
  1.7554309285181109E+00 a      1438     1    19     2    18
 -1.0373594802499810E+00 a      1439     1    19     2    19
  4.5588202891874885E-01 a      1440     1    19     2    20
  1.3313605558703015E-01 a      1441     1    20     2     1
  1.8158710371195572E+00 a      1442     1    20     2     2
 -5.6482167820732110E-01 a      1443     1    20     2     3
  2.8705036791836553E+00 a      1444     1    20     2     4
 -3.9610401888852559E-01 a      1445     1    20     2     5
 -5.5608197936431980E-01 a      1446     1    20     2     6
  4.7669437635540179E-01 a      1447     1    20     2     7
  2.9960410920827396E-01 a      1448     1    20     2     8
 -2.0311484787385534E-01 a      1449     1    20     2     9
  5.6208295610888803E-01 a      1450     1    20     2    10
 -3.4563886989453180E-01 a      1451     1    20     2    11
  7.2427179456268764E-01 a      1452     1    20     2    12
  2.0380104658722029E+00 a      1453     1    20     2    13
  5.1019558787635755E-01 a      1454     1    20     2    14
 -3.3803138916909486E-01 a      1455     1    20     2    15
  1.3140034657841106E+00 a      1456     1    20     2    16
  3.4310384566735219E-01 a      1457     1    20     2    17
 -2.8109704409704999E+00 a      1458     1    20     2    18
  3.3766528851855199E-01 a      1459     1    20     2    19
  1.8402152308707402E+00 a      1460     1    20     2    20
  1.8764648223167595E+00 b      1461     2     1
 -1.4396064781098580E+01 b      1462     2     2
  9.6547473440182916E+00 b      1463     2     3
 -1.2738700603962332E+01 b      1464     2     4
  1.1014346388691760E+00 b      1465     2     5
  6.3731663846618369E+00 b      1466     2     6
  7.6761380625158218E+00 b      1467     2     7
 -8.9592323931207947E+00 b      1468     2     8
  6.3034136712903832E+00 b      1469     2     9
 -3.8869981335555424E+00 b      1470     2    10
 -5.3519505894357415E+00 b      1471     2    11
  3.2816209808780861E+00 b      1472     2    12
 -4.1896834459775301E+00 b      1473     2    13
  8.5712208623195651E-01 b      1474     2    14
  2.0633865792946908E+00 b      1475     2    15
 -4.5284074385857949E+00 b      1476     2    16
 -4.6883424096540551E+00 b      1477     2    17
 -1.4723261721013359E+00 b      1478     2    18
  1.9099688986890879E+00 b      1479     2    19
 -5.4301605010910627E+00 b      1480     2    20
  2.1888803788386646E-01 a      1481     2     1     3     1
 -1.4292263878833138E+00 a      1482     2     2     3     1
  4.6853588700010085E-01 a      1483     2     3     3     1
  3.2969181940650361E-01 a      1484     2     4     3     1
  3.3066625240163533E-01 a      1485     2     5     3     1
  2.0193007562703683E-01 a      1486     2     6     3     1
 -4.1014781121398586E-01 a      1487     2     7     3     1
 -2.3330504470745308E+00 a      1488     2     8     3     1
 -3.2210296705567421E-01 a      1489     2     9     3     1
  1.0716446051452813E+00 a      1490     2    10     3     1
 -4.3895210942903229E-01 a      1491     2    11     3     1
  3.3473501777920184E-01 a      1492     2    12     3     1
  4.1636336352775977E-01 a      1493     2    13     3     1
 -2.1557850824127112E-01 a      1494     2    14     3     1
 -3.4555398055893999E-01 a      1495     2    15     3     1
 -2.0688150126169816E-01 a      1496     2    16     3     1
 -1.1089647209840985E+00 a      1497     2    17     3     1
 -2.9473621089612229E-01 a      1498     2    18     3     1
 -5.1248681968220267E-01 a      1499     2    19     3     1
  2.8670663415656378E-01 a      1500     2    20     3     1
 -6.5996799224083746E+00 b      1501     3     1
