################################################################################
# Neural network connection values (weights and biases).
################################################################################
# Col  Name       Description
################################################################################
# 1    connection Neural network connection value.
# 2    t          Connection type (a = weight, b = bias).
# 3    index      Index enumerating weights.
# 4    l_s        Starting point layer (end point layer for biases).
# 5    n_s        Starting point neuron in starting layer (end point neuron for biases).
# 6    l_e        End point layer.
# 7    n_e        End point neuron in end layer.
################################################################################
#                      1 2         3     4     5     6     7
#             connection t     index   l_s   n_s   l_e   n_e
############################################################
  3.9196035659250676E+00 a         1     0     1     1     1
 -2.2895260207650510E+00 a         2     0     1     1     2
  5.6561902507283159E+00 a         3     0     1     1     3
 -1.6559782615968912E+00 a         4     0     1     1     4
 -1.8844806397456587E-01 a         5     0     1     1     5
  6.0329458583475839E+00 a         6     0     1     1     6
 -6.8370858412812323E+00 a         7     0     1     1     7
 -4.1091295208797813E+00 a         8     0     1     1     8
  5.2291385239306036E+00 a         9     0     1     1     9
 -1.0376987409890395E+01 a        10     0     1     1    10
 -8.4002650579550622E+00 a        11     0     1     1    11
  2.9829713942069804E+00 a        12     0     1     1    12
 -8.4942796581856705E-01 a        13     0     1     1    13
  4.2879069933840941E-01 a        14     0     1     1    14
 -5.2068272989029241E-01 a        15     0     1     1    15
 -2.0547331046840709E+00 a        16     0     1     1    16
 -1.6174411280869345E+00 a        17     0     1     1    17
  4.2144019592834310E+00 a        18     0     1     1    18
 -1.3697081475737090E+00 a        19     0     1     1    19
  4.1209938226790861E+00 a        20     0     1     1    20
 -7.1588512005353220E+00 a        21     0     2     1     1
 -3.4386201834814596E+00 a        22     0     2     1     2
 -4.8220060201637791E+00 a        23     0     2     1     3
 -4.1652339732333266E+00 a        24     0     2     1     4
 -1.3148898889029383E+00 a        25     0     2     1     5
 -3.4155765204682780E+00 a        26     0     2     1     6
  2.6250184296732777E+00 a        27     0     2     1     7
 -4.2356382611054777E-01 a        28     0     2     1     8
  4.2859642208810517E-01 a        29     0     2     1     9
 -4.1275794879227751E-01 a        30     0     2     1    10
  7.4284295652986065E-01 a        31     0     2     1    11
  5.6582145967192155E+00 a        32     0     2     1    12
  5.0697758564984339E+00 a        33     0     2     1    13
 -1.2241982456433078E+01 a        34     0     2     1    14
 -3.5689811610151589E+00 a        35     0     2     1    15
  4.1767472885289116E+00 a        36     0     2     1    16
  7.7200338789138119E+00 a        37     0     2     1    17
 -1.8763243297444316E+00 a        38     0     2     1    18
 -4.3187213662022872E+00 a        39     0     2     1    19
 -3.6190262024545512E+00 a        40     0     2     1    20
 -2.2958196248396439E+00 a        41     0     3     1     1
  3.1580435415685866E+00 a        42     0     3     1     2
 -1.7050464320176237E+00 a        43     0     3     1     3
  3.0648841084022584E+00 a        44     0     3     1     4
  2.4170672335445191E+00 a        45     0     3     1     5
  3.6960288166698363E+00 a        46     0     3     1     6
 -1.7384677807510293E-01 a        47     0     3     1     7
 -3.8046827186536530E-01 a        48     0     3     1     8
 -9.2296133432022909E-01 a        49     0     3     1     9
  1.9473039021691949E+00 a        50     0     3     1    10
  3.3185077129838456E+00 a        51     0     3     1    11
 -1.1881950374777595E+00 a        52     0     3     1    12
 -5.3788493725028130E-01 a        53     0     3     1    13
  3.2871834906013895E+00 a        54     0     3     1    14
  9.3188745012437622E+00 a        55     0     3     1    15
  1.2435358479028586E+00 a        56     0     3     1    16
 -6.3200154068618841E-01 a        57     0     3     1    17
 -5.5378047414541420E+00 a        58     0     3     1    18
 -4.6194221501468741E-01 a        59     0     3     1    19
 -2.5026685068398052E-01 a        60     0     3     1    20
 -8.6576887154290927E-01 a        61     0     4     1     1
  3.4281712497038437E+00 a        62     0     4     1     2
  3.7179294689033227E+00 a        63     0     4     1     3
  8.1423567534084196E-02 a        64     0     4     1     4
  7.9879210065924078E-01 a        65     0     4     1     5
  6.3711407595752068E+00 a        66     0     4     1     6
 -8.3411779606176744E+00 a        67     0     4     1     7
  5.4477938048613972E-01 a        68     0     4     1     8
 -1.3347211020504379E+00 a        69     0     4     1     9
  1.9317830449112159E+00 a        70     0     4     1    10
  1.4772908733759302E+00 a        71     0     4     1    11
  2.9593086921619771E+00 a        72     0     4     1    12
  1.2059592878807430E+00 a        73     0     4     1    13
  1.7067883703461629E+01 a        74     0     4     1    14
  7.2684478224610523E+00 a        75     0     4     1    15
  8.7517272116166622E-01 a        76     0     4     1    16
 -4.4793574965434582E+00 a        77     0     4     1    17
  3.8216730980604678E+00 a        78     0     4     1    18
  4.2809893663955743E+00 a        79     0     4     1    19
  1.1572280643400441E+01 a        80     0     4     1    20
 -5.0648988156201238E+00 a        81     0     5     1     1
  2.5329423589324440E+00 a        82     0     5     1     2
 -2.6080083695488172E+00 a        83     0     5     1     3
  2.2381468594119034E+00 a        84     0     5     1     4
  8.6475322227365170E-01 a        85     0     5     1     5
  6.6638450168228514E-01 a        86     0     5     1     6
  3.8284488234148206E+00 a        87     0     5     1     7
  4.0600974951826012E-02 a        88     0     5     1     8
 -5.4520674183797757E+00 a        89     0     5     1     9
  6.3134371811238736E+00 a        90     0     5     1    10
  3.8290875033940801E+00 a        91     0     5     1    11
 -1.5136642874082626E+00 a        92     0     5     1    12
 -2.2704798078165239E-01 a        93     0     5     1    13
  1.1643427712229091E+00 a        94     0     5     1    14
  6.7313265278787817E+00 a        95     0     5     1    15
  1.0671082133450265E+00 a        96     0     5     1    16
  1.2883803948280563E+00 a        97     0     5     1    17
 -4.3217700301862498E+00 a        98     0     5     1    18
 -7.0258854678409299E-01 a        99     0     5     1    19
 -3.6707658194086177E+00 a       100     0     5     1    20
 -1.7318788172283361E-01 a       101     0     6     1     1
  7.4872968945512253E-01 a       102     0     6     1     2
  2.8722041348935856E+00 a       103     0     6     1     3
  6.0442830386479951E-01 a       104     0     6     1     4
  1.7295477715034300E+00 a       105     0     6     1     5
  1.0515953629154458E+00 a       106     0     6     1     6
 -5.6892872026497061E+00 a       107     0     6     1     7
  2.7905211229361954E-01 a       108     0     6     1     8
 -8.8727762182200376E-01 a       109     0     6     1     9
  3.3693340385628709E+00 a       110     0     6     1    10
  6.6900112653529031E-01 a       111     0     6     1    11
  8.7432834589807495E-01 a       112     0     6     1    12
 -3.3754833908531579E+00 a       113     0     6     1    13
  6.4929918148001411E+00 a       114     0     6     1    14
  7.2095637584868069E+00 a       115     0     6     1    15
 -6.1463432459415257E+00 a       116     0     6     1    16
 -5.3024502817743029E+00 a       117     0     6     1    17
  4.9994020985435723E+00 a       118     0     6     1    18
 -2.3013360913970168E-01 a       119     0     6     1    19
  2.5178256750491479E+00 a       120     0     6     1    20
 -1.8019427767888136E+00 a       121     0     7     1     1
 -2.7351268725384790E+00 a       122     0     7     1     2
 -2.4620393692059225E-01 a       123     0     7     1     3
 -3.6172585492309839E+00 a       124     0     7     1     4
 -1.9043318500906794E+00 a       125     0     7     1     5
 -2.8689884676862905E+00 a       126     0     7     1     6
  3.4787495875799790E+00 a       127     0     7     1     7
  9.6997469190214414E-01 a       128     0     7     1     8
 -4.0384466713066569E+00 a       129     0     7     1     9
  2.4701683041309655E-01 a       130     0     7     1    10
 -1.5022757110257328E+00 a       131     0     7     1    11
 -2.0786020375385266E+00 a       132     0     7     1    12
 -5.9210686668839108E-01 a       133     0     7     1    13
 -3.5710267080979028E+00 a       134     0     7     1    14
 -5.6799127194555590E+00 a       135     0     7     1    15
 -8.7326745825703420E-02 a       136     0     7     1    16
  2.7616995900687100E+00 a       137     0     7     1    17
  4.0768850877702034E+00 a       138     0     7     1    18
 -8.4135974972321370E-01 a       139     0     7     1    19
 -7.8365614279839249E-02 a       140     0     7     1    20
  2.2552303576855146E+00 a       141     0     8     1     1
 -1.5479897026167881E+00 a       142     0     8     1     2
  8.7755130394005731E-02 a       143     0     8     1     3
  7.4435423412227453E-01 a       144     0     8     1     4
 -2.2724029528772474E+00 a       145     0     8     1     5
 -1.9310428629914893E+00 a       146     0     8     1     6
  4.3421948486829489E+00 a       147     0     8     1     7
  1.1394435632648598E+00 a       148     0     8     1     8
  1.2489039310675341E+00 a       149     0     8     1     9
 -1.5572399867228535E+00 a       150     0     8     1    10
  3.1815210572861097E-01 a       151     0     8     1    11
 -3.5107310657226982E+00 a       152     0     8     1    12
 -2.7411921427888166E+00 a       153     0     8     1    13
 -4.4932082364520483E+00 a       154     0     8     1    14
 -3.3397480416009366E+00 a       155     0     8     1    15
  3.5189514948737357E+00 a       156     0     8     1    16
  2.9938054660651212E+00 a       157     0     8     1    17
 -2.8808166922974570E+00 a       158     0     8     1    18
 -1.8828527725876580E+00 a       159     0     8     1    19
 -6.2044227195175523E+00 a       160     0     8     1    20
 -8.0489464854918573E+00 a       161     0     9     1     1
  2.0417974701819954E+00 a       162     0     9     1     2
 -2.6624478903906317E+00 a       163     0     9     1     3
 -2.5984985213367068E-01 a       164     0     9     1     4
 -9.9239323300962368E-01 a       165     0     9     1     5
 -3.5266859497355103E+00 a       166     0     9     1     6
  8.0133132167176768E+00 a       167     0     9     1     7
  8.5953909570385012E-02 a       168     0     9     1     8
 -8.2855252272756594E+00 a       169     0     9     1     9
  6.7657250297045159E+00 a       170     0     9     1    10
  2.9834659239307313E+00 a       171     0     9     1    11
 -4.5894796727324971E+00 a       172     0     9     1    12
  5.3789288235112864E-01 a       173     0     9     1    13
 -2.5064851499940457E+00 a       174     0     9     1    14
  9.4534452994224395E-03 a       175     0     9     1    15
  1.7445457305704840E-01 a       176     0     9     1    16
  4.0363198556431173E-01 a       177     0     9     1    17
 -9.5771770315439986E-01 a       178     0     9     1    18
 -1.0156216018363016E+00 a       179     0     9     1    19
 -5.2961508299385365E+00 a       180     0     9     1    20
 -1.1427757129710709E+00 a       181     0    10     1     1
 -4.9239857138438046E+00 a       182     0    10     1     2
 -2.3932458554457492E+00 a       183     0    10     1     3
  1.9119427765068833E+00 a       184     0    10     1     4
  3.1172632225428063E+00 a       185     0    10     1     5
 -6.3281902731102679E+00 a       186     0    10     1     6
  4.6907625854601696E+00 a       187     0    10     1     7
 -2.2523511304807333E+00 a       188     0    10     1     8
  7.9626081261373394E-01 a       189     0    10     1     9
  4.5193402629824098E+00 a       190     0    10     1    10
 -8.6866740314342938E-02 a       191     0    10     1    11
 -5.2604372226237948E-02 a       192     0    10     1    12
 -7.4790441400681118E+00 a       193     0    10     1    13
 -1.2648100726226692E+01 a       194     0    10     1    14
  5.3395393203136736E+00 a       195     0    10     1    15
 -1.0226279386756797E+01 a       196     0    10     1    16
 -2.6829157680227738E+00 a       197     0    10     1    17
  1.6942732870372648E+00 a       198     0    10     1    18
 -5.1656474026614649E+00 a       199     0    10     1    19
 -1.3101081904022339E+01 a       200     0    10     1    20
  2.1175640545994896E+00 a       201     0    11     1     1
 -8.1525459488966479E-01 a       202     0    11     1     2
  6.9059943613628549E-02 a       203     0    11     1     3
  2.8766087236259139E+00 a       204     0    11     1     4
  3.3259812884116893E+00 a       205     0    11     1     5
  1.2709478059812029E+00 a       206     0    11     1     6
 -5.0214253333531556E+00 a       207     0    11     1     7
  2.1423763526515884E+00 a       208     0    11     1     8
  1.8920588494520627E+00 a       209     0    11     1     9
  1.1176561031082368E+00 a       210     0    11     1    10
  3.4623222781993845E-01 a       211     0    11     1    11
  2.9358603710027054E+00 a       212     0    11     1    12
 -3.6780524094138114E+00 a       213     0    11     1    13
 -9.1647591049150439E+00 a       214     0    11     1    14
  8.3222551705794636E+00 a       215     0    11     1    15
 -3.6560909459808331E+00 a       216     0    11     1    16
  1.7767952191572520E+00 a       217     0    11     1    17
 -2.8503400819294051E+00 a       218     0    11     1    18
  2.3147142247412327E+00 a       219     0    11     1    19
  1.1169998123033857E-01 a       220     0    11     1    20
 -5.3207392959834996E+00 a       221     0    12     1     1
 -2.5649874511699822E+00 a       222     0    12     1     2
 -5.1644667248423994E+00 a       223     0    12     1     3
 -1.2020132075870364E+00 a       224     0    12     1     4
  2.5277844868482116E+00 a       225     0    12     1     5
 -1.9253325154356751E+00 a       226     0    12     1     6
 -2.0207074950139448E+00 a       227     0    12     1     7
 -7.8730421681414600E-02 a       228     0    12     1     8
 -6.5983751550269953E-01 a       229     0    12     1     9
  1.2927588712317921E+00 a       230     0    12     1    10
  2.9423898048390154E+00 a       231     0    12     1    11
  5.7748909685249536E+00 a       232     0    12     1    12
  3.6738156721557380E-01 a       233     0    12     1    13
 -9.0198853084956865E-01 a       234     0    12     1    14
  2.2718983393042800E+00 a       235     0    12     1    15
 -4.4301250705713304E+00 a       236     0    12     1    16
 -2.9841902794856199E+00 a       237     0    12     1    17
  8.1544156477181828E-01 a       238     0    12     1    18
 -1.4051788796130540E+00 a       239     0    12     1    19
  3.6610692240600686E+00 a       240     0    12     1    20
 -6.4072945223291955E-01 a       241     0    13     1     1
 -6.8452766869803341E+00 a       242     0    13     1     2
  1.4310512474602826E+00 a       243     0    13     1     3
 -7.8374762807386729E+00 a       244     0    13     1     4
 -5.1822229741148105E+00 a       245     0    13     1     5
 -4.9188729706407619E+00 a       246     0    13     1     6
  4.1025180507950765E+00 a       247     0    13     1     7
  8.4262016404860596E-01 a       248     0    13     1     8
 -4.3783417897840335E+00 a       249     0    13     1     9
 -4.0157086726912556E+00 a       250     0    13     1    10
 -3.3527899769813279E+00 a       251     0    13     1    11
 -8.7472591746969819E-01 a       252     0    13     1    12
 -1.0620719655736556E-01 a       253     0    13     1    13
 -2.6639447784904440E+00 a       254     0    13     1    14
 -1.3465198769674009E+01 a       255     0    13     1    15
 -7.4641942547636297E-01 a       256     0    13     1    16
  2.1481317396363249E+00 a       257     0    13     1    17
  8.0460616074102358E+00 a       258     0    13     1    18
 -3.9156238631195213E+00 a       259     0    13     1    19
  1.8786036944139426E+00 a       260     0    13     1    20
  7.3160570502610511E+00 a       261     0    14     1     1
  2.0556128045337467E+00 a       262     0    14     1     2
  6.5922787758941084E+00 a       263     0    14     1     3
  3.7898258934331874E-01 a       264     0    14     1     4
 -5.2948981688069372E+00 a       265     0    14     1     5
  3.0756220620342387E+00 a       266     0    14     1     6
  5.5284146803452199E+00 a       267     0    14     1     7
  1.6326836800610927E+00 a       268     0    14     1     8
  5.8687260409100217E-01 a       269     0    14     1     9
 -7.2184773995307143E+00 a       270     0    14     1    10
 -1.9263479475932030E+00 a       271     0    14     1    11
 -9.3051361259341885E+00 a       272     0    14     1    12
  1.4557525687035866E+00 a       273     0    14     1    13
  4.6819064626681453E+00 a       274     0    14     1    14
 -1.0273777005232006E+01 a       275     0    14     1    15
  1.6641917026806990E+01 a       276     0    14     1    16
  9.4986315364711551E+00 a       277     0    14     1    17
 -6.4256016735304655E+00 a       278     0    14     1    18
  1.9157252066522841E+00 a       279     0    14     1    19
 -3.1854671568951658E+00 a       280     0    14     1    20
  9.6618846661791824E-01 a       281     0    15     1     1
  2.4571247810434422E+00 a       282     0    15     1     2
  1.2907053095736991E+00 a       283     0    15     1     3
 -1.3449610433655395E+00 a       284     0    15     1     4
 -6.9309523896110103E-01 a       285     0    15     1     5
 -2.4180761674023121E+00 a       286     0    15     1     6
  3.3512910813463708E+00 a       287     0    15     1     7
 -1.9155999661880334E+00 a       288     0    15     1     8
  2.8159073928541831E+00 a       289     0    15     1     9
 -4.0319594590678891E+00 a       290     0    15     1    10
 -5.2084385527659203E+00 a       291     0    15     1    11
 -5.3263238535594146E+00 a       292     0    15     1    12
  4.1718704859710565E+00 a       293     0    15     1    13
  4.1926454569390268E+00 a       294     0    15     1    14
 -2.1313879761062449E+00 a       295     0    15     1    15
  1.8946955381513348E+00 a       296     0    15     1    16
  1.3880164379933011E+00 a       297     0    15     1    17
  1.6960908502946712E+00 a       298     0    15     1    18
  3.0887386430364585E+00 a       299     0    15     1    19
  7.2227092604924581E-01 a       300     0    15     1    20
  5.2589605059675977E+00 a       301     0    16     1     1
  5.3859828639054328E+00 a       302     0    16     1     2
  5.5173639943192621E+00 a       303     0    16     1     3
  2.5221390122943128E-03 a       304     0    16     1     4
  7.1506336117691260E-01 a       305     0    16     1     5
 -1.0461588716058341E+00 a       306     0    16     1     6
  1.8162829486446548E+00 a       307     0    16     1     7
  3.0485760895406333E+00 a       308     0    16     1     8
  4.7900000997958692E-01 a       309     0    16     1     9
 -3.4873026998293555E-01 a       310     0    16     1    10
 -1.7999105208367339E+00 a       311     0    16     1    11
  5.3466379335376759E+00 a       312     0    16     1    12
 -3.8641393506175503E+00 a       313     0    16     1    13
  3.3478011595066568E+00 a       314     0    16     1    14
 -1.6796184453608336E+00 a       315     0    16     1    15
  2.0308210889831546E+00 a       316     0    16     1    16
  4.3552537350025472E-01 a       317     0    16     1    17
  3.2607330440911109E+00 a       318     0    16     1    18
  1.9448370009715275E+00 a       319     0    16     1    19
 -2.1898280828736874E+00 a       320     0    16     1    20
  1.0338520387257990E+01 a       321     0    17     1     1
 -2.5476643024676320E+00 a       322     0    17     1     2
  4.0111639848625176E+00 a       323     0    17     1     3
  4.9371446628058768E+00 a       324     0    17     1     4
  5.2567441206216721E+00 a       325     0    17     1     5
  6.0340430212223577E+00 a       326     0    17     1     6
 -1.4871620624209845E+01 a       327     0    17     1     7
  5.2490453390447405E+00 a       328     0    17     1     8
  3.5055213517485644E+00 a       329     0    17     1     9
  3.1489438666050731E+00 a       330     0    17     1    10
  4.6665441952785676E+00 a       331     0    17     1    11
  6.9259553523581383E+00 a       332     0    17     1    12
 -4.1814239528703370E+00 a       333     0    17     1    13
  1.0835764210538464E+01 a       334     0    17     1    14
  6.4342723710755267E+00 a       335     0    17     1    15
  3.7683729428537802E+00 a       336     0    17     1    16
  3.7026290953003542E+00 a       337     0    17     1    17
 -5.2208805602989896E+00 a       338     0    17     1    18
  9.8279597850872880E-01 a       339     0    17     1    19
  4.3874462930203739E+00 a       340     0    17     1    20
 -6.8554745911388597E+00 a       341     0    18     1     1
 -2.1720861426097193E+00 a       342     0    18     1     2
 -4.7095217425196321E+00 a       343     0    18     1     3
 -3.0678250690254694E+00 a       344     0    18     1     4
  3.4954798402449772E+00 a       345     0    18     1     5
  1.1964529750350765E+00 a       346     0    18     1     6
 -3.9216859937454758E+00 a       347     0    18     1     7
 -2.6536078223976580E+00 a       348     0    18     1     8
 -4.5714739827592316E-01 a       349     0    18     1     9
  1.8911298731621151E+00 a       350     0    18     1    10
  4.3682826236923464E+00 a       351     0    18     1    11
  4.9955720836836788E+00 a       352     0    18     1    12
  3.9352109733124652E-01 a       353     0    18     1    13
  4.2682819959188850E-01 a       354     0    18     1    14
  1.7666275142814720E+00 a       355     0    18     1    15
 -6.1384290616015340E+00 a       356     0    18     1    16
 -3.4018385912001325E+00 a       357     0    18     1    17
 -1.0766249034578717E+00 a       358     0    18     1    18
  2.0112940250952001E+00 a       359     0    18     1    19
  8.3054581074969462E+00 a       360     0    18     1    20
 -6.6353199404556413E+00 a       361     0    19     1     1
  2.0825319222336205E+00 a       362     0    19     1     2
 -6.5916240588820116E+00 a       363     0    19     1     3
 -1.6806659668523469E+00 a       364     0    19     1     4
  1.4551001348522974E-01 a       365     0    19     1     5
  2.6593173588167451E-01 a       366     0    19     1     6
  1.1237687451124465E+01 a       367     0    19     1     7
 -1.0297366251274557E+01 a       368     0    19     1     8
  3.9395901223757521E+00 a       369     0    19     1     9
  5.3830222287881507E-02 a       370     0    19     1    10
 -2.5768872842756023E+00 a       371     0    19     1    11
  3.2919606983200284E-01 a       372     0    19     1    12
  1.9112885071698462E+00 a       373     0    19     1    13
 -1.1844276630652055E+00 a       374     0    19     1    14
 -3.0666091527763317E+00 a       375     0    19     1    15
 -1.3355863867327569E+00 a       376     0    19     1    16
 -4.2897651257786134E+00 a       377     0    19     1    17
  1.3479725260869651E+00 a       378     0    19     1    18
  4.5454974782086319E+00 a       379     0    19     1    19
  1.7475736243507138E+00 a       380     0    19     1    20
  3.0274647239596808E-01 a       381     0    20     1     1
  7.7019456998222835E-01 a       382     0    20     1     2
 -2.1609952256775316E+00 a       383     0    20     1     3
 -1.1072034630735965E-01 a       384     0    20     1     4
 -2.8961134473976702E+00 a       385     0    20     1     5
  1.1278976738348510E+00 a       386     0    20     1     6
 -5.1860538847105775E-01 a       387     0    20     1     7
 -8.9162998804220361E-01 a       388     0    20     1     8
  1.7140887942884027E+00 a       389     0    20     1     9
  2.1556654758762139E+00 a       390     0    20     1    10
 -2.1397919935985239E-02 a       391     0    20     1    11
 -7.0848523579481579E+00 a       392     0    20     1    12
  2.8021274528308737E+00 a       393     0    20     1    13
 -1.8877376447983496E+00 a       394     0    20     1    14
  3.5547664801993611E-01 a       395     0    20     1    15
  3.1645723319697638E+00 a       396     0    20     1    16
  3.6312277768719516E+00 a       397     0    20     1    17
  1.2992281671834431E+00 a       398     0    20     1    18
 -7.9994971167281781E-01 a       399     0    20     1    19
 -2.0802712054374926E+00 a       400     0    20     1    20
  2.4492740920404352E+00 a       401     0    21     1     1
 -1.8377924596166304E+00 a       402     0    21     1     2
  2.0343143921473001E+00 a       403     0    21     1     3
  8.2652261372224356E-01 a       404     0    21     1     4
 -5.4272871927214050E-01 a       405     0    21     1     5
 -1.5847345297347231E+00 a       406     0    21     1     6
 -7.6036269845756888E+00 a       407     0    21     1     7
  5.3243917494213235E+00 a       408     0    21     1     8
 -4.9962960498744478E+00 a       409     0    21     1     9
  1.6889761148856601E+00 a       410     0    21     1    10
  4.1991571841979791E+00 a       411     0    21     1    11
  2.5720996772298057E+00 a       412     0    21     1    12
 -1.1541132986214022E+00 a       413     0    21     1    13
 -9.2505165601439732E-03 a       414     0    21     1    14
  3.6453999376264701E-01 a       415     0    21     1    15
 -1.7164263544711322E-01 a       416     0    21     1    16
  3.5458563912133291E-02 a       417     0    21     1    17
 -7.8029185959317604E-01 a       418     0    21     1    18
 -5.3784882450809128E+00 a       419     0    21     1    19
 -2.7339760630252354E+00 a       420     0    21     1    20
 -3.0175520265145326E+00 a       421     0    22     1     1
 -2.1644156642685375E+00 a       422     0    22     1     2
 -8.7061116258167393E-01 a       423     0    22     1     3
 -5.3380025112645169E-01 a       424     0    22     1     4
 -2.7712708662902469E-01 a       425     0    22     1     5
  5.8395582109752442E-01 a       426     0    22     1     6
 -1.3379791281332336E+00 a       427     0    22     1     7
 -2.7296128820901564E+00 a       428     0    22     1     8
 -8.6657084215323721E-01 a       429     0    22     1     9
 -2.0449339422886781E+00 a       430     0    22     1    10
  4.5275118203493947E-01 a       431     0    22     1    11
 -2.6227552358063813E+00 a       432     0    22     1    12
  1.3336835845608899E+00 a       433     0    22     1    13
  3.9020787041453807E-02 a       434     0    22     1    14
  2.8898871508243107E-01 a       435     0    22     1    15
 -1.2014271347068726E+00 a       436     0    22     1    16
 -1.0356779457006635E+00 a       437     0    22     1    17
 -2.5883892065251630E+00 a       438     0    22     1    18
 -2.1789762214468714E-01 a       439     0    22     1    19
  2.2058458875976323E+00 a       440     0    22     1    20
  1.3867897800944500E+00 a       441     0    23     1     1
 -1.0215514899185909E+00 a       442     0    23     1     2
 -1.3927006621791869E+00 a       443     0    23     1     3
  1.0933474280642517E+00 a       444     0    23     1     4
 -4.1442556433760416E+00 a       445     0    23     1     5
  6.8458964903110999E+00 a       446     0    23     1     6
 -5.9307561484505316E+00 a       447     0    23     1     7
 -7.7382752909368522E+00 a       448     0    23     1     8
  8.9886538579993829E+00 a       449     0    23     1     9
  1.4302887934610173E+00 a       450     0    23     1    10
 -1.5121282807180607E+00 a       451     0    23     1    11
  7.4391245447015457E+00 a       452     0    23     1    12
  5.6019031602878577E+00 a       453     0    23     1    13
  6.0649106569982116E+00 a       454     0    23     1    14
 -5.9062006545627375E+00 a       455     0    23     1    15
  3.0795311127258391E+00 a       456     0    23     1    16
  5.7416470700577915E-01 a       457     0    23     1    17
 -1.9399110493464253E+00 a       458     0    23     1    18
 -5.2418724982110474E+00 a       459     0    23     1    19
  4.4259974089347534E+00 a       460     0    23     1    20
  2.4052661798306598E+00 a       461     0    24     1     1
 -1.1966953402622544E+00 a       462     0    24     1     2
 -5.7225371461150498E+00 a       463     0    24     1     3
  1.7254760023845231E-01 a       464     0    24     1     4
  2.0714508552533886E+00 a       465     0    24     1     5
  5.6205496981767822E-01 a       466     0    24     1     6
 -6.5231237191774287E+00 a       467     0    24     1     7
  4.8268276188736063E+00 a       468     0    24     1     8
  2.4510144996793404E+00 a       469     0    24     1     9
  9.2675202848268086E+00 a       470     0    24     1    10
  2.0006173090332258E+00 a       471     0    24     1    11
  2.7158038199822734E+00 a       472     0    24     1    12
  1.7652502623096404E+00 a       473     0    24     1    13
 -1.0685676951933010E+01 a       474     0    24     1    14
  1.2894677482423017E+01 a       475     0    24     1    15
 -2.0596557140822300E+00 a       476     0    24     1    16
 -2.2440721107613295E+00 a       477     0    24     1    17
  4.5703394332183187E+00 a       478     0    24     1    18
  6.7489389106655073E+00 a       479     0    24     1    19
  4.7195261485463003E-01 a       480     0    24     1    20
  9.7331271282558056E+00 a       481     0    25     1     1
  1.8840918942705669E+00 a       482     0    25     1     2
 -9.6484680076444658E+00 a       483     0    25     1     3
  3.3034947755474660E+00 a       484     0    25     1     4
 -4.4078758762662851E+00 a       485     0    25     1     5
  3.2750485171717933E+00 a       486     0    25     1     6
 -2.8172171316980745E+00 a       487     0    25     1     7
  1.2316526136626205E+00 a       488     0    25     1     8
  1.5936986899525163E+00 a       489     0    25     1     9
 -4.0530053355487121E+00 a       490     0    25     1    10
  2.9275035509702705E+00 a       491     0    25     1    11
 -6.4635850289259071E+00 a       492     0    25     1    12
  4.8814626129074963E+00 a       493     0    25     1    13
 -2.2247155081207768E+00 a       494     0    25     1    14
  3.6445470095761641E+00 a       495     0    25     1    15
 -2.8960898154996038E+00 a       496     0    25     1    16
  1.1730921451994987E+00 a       497     0    25     1    17
  1.0048735328203646E+00 a       498     0    25     1    18
  3.8844646564536549E+00 a       499     0    25     1    19
 -9.5215570934630026E-02 a       500     0    25     1    20
 -8.1109355831702601E-01 a       501     0    26     1     1
 -2.1926665053405276E+00 a       502     0    26     1     2
 -3.7417021677954736E+00 a       503     0    26     1     3
  2.3419596282874542E+00 a       504     0    26     1     4
  3.6038208094517765E+00 a       505     0    26     1     5
 -1.8949607202704877E+00 a       506     0    26     1     6
 -5.6164624352389705E+00 a       507     0    26     1     7
 -6.5698342294421845E+00 a       508     0    26     1     8
  1.8780978189889239E+00 a       509     0    26     1     9
  4.4338113730121593E+00 a       510     0    26     1    10
  1.2999064582437321E+00 a       511     0    26     1    11
  6.2633736622044616E+00 a       512     0    26     1    12
 -4.2638390248532235E-02 a       513     0    26     1    13
 -3.9520511842985093E+00 a       514     0    26     1    14
 -2.5493151358603314E+00 a       515     0    26     1    15
 -2.1807272076123869E+00 a       516     0    26     1    16
  6.9621113578239879E-01 a       517     0    26     1    17
 -1.7647093256726778E+00 a       518     0    26     1    18
 -3.9353941171697686E+00 a       519     0    26     1    19
  3.2498651270630066E+00 a       520     0    26     1    20
  2.0689423930266830E+00 a       521     0    27     1     1
  8.3912208757794389E+00 a       522     0    27     1     2
 -6.4733261977052576E+00 a       523     0    27     1     3
 -4.5461952866363333E+00 a       524     0    27     1     4
 -2.5362364288663937E+00 a       525     0    27     1     5
  5.3292598680567602E+00 a       526     0    27     1     6
 -8.3841280169355219E+00 a       527     0    27     1     7
  4.0025179469579619E-02 a       528     0    27     1     8
  7.0300371494235305E+00 a       529     0    27     1     9
  5.8251642096369070E+00 a       530     0    27     1    10
  5.4813899233059782E-01 a       531     0    27     1    11
  2.5743342503432030E+00 a       532     0    27     1    12
  1.8429447248220880E+00 a       533     0    27     1    13
 -2.7283534875795397E+00 a       534     0    27     1    14
  5.2699454166318960E-01 a       535     0    27     1    15
  1.4823975898723467E+00 a       536     0    27     1    16
  2.7313584132566260E+00 a       537     0    27     1    17
  3.9157142775345934E+00 a       538     0    27     1    18
  1.1864892857138893E+01 a       539     0    27     1    19
  3.0589173156828942E+00 a       540     0    27     1    20
  6.5104471310749510E+00 a       541     0    28     1     1
  1.8222100733158444E+00 a       542     0    28     1     2
 -7.2630956227546646E+00 a       543     0    28     1     3
  1.4911372129421094E+00 a       544     0    28     1     4
 -3.6968548661362086E+00 a       545     0    28     1     5
  4.6346651694089136E+00 a       546     0    28     1     6
 -3.3530125763499257E+00 a       547     0    28     1     7
  2.2268670538434296E+00 a       548     0    28     1     8
  4.3264022398455593E+00 a       549     0    28     1     9
  3.7111511432817162E-01 a       550     0    28     1    10
 -6.1285152846477597E-01 a       551     0    28     1    11
 -8.4022216971353036E-02 a       552     0    28     1    12
  7.4363732075904343E+00 a       553     0    28     1    13
  2.8835010411976647E+00 a       554     0    28     1    14
  1.4417469933631701E+00 a       555     0    28     1    15
 -3.8827420302684041E+00 a       556     0    28     1    16
 -7.5464878112019729E-01 a       557     0    28     1    17
  1.8600968193852558E+00 a       558     0    28     1    18
  3.9833171106740397E+00 a       559     0    28     1    19
  1.5024073608503974E+00 a       560     0    28     1    20
  2.3400718018833984E+00 a       561     0    29     1     1
 -7.6987248002042152E+00 a       562     0    29     1     2
  1.5043439075289955E+00 a       563     0    29     1     3
 -1.3340001025602561E+00 a       564     0    29     1     4
  5.9162002619327891E+00 a       565     0    29     1     5
 -6.3139718264967390E+00 a       566     0    29     1     6
  5.7758160751925054E+00 a       567     0    29     1     7
  7.2384719291443620E+00 a       568     0    29     1     8
 -7.1158757346702215E+00 a       569     0    29     1     9
 -2.5149485199814561E+00 a       570     0    29     1    10
  2.7077825417042609E+00 a       571     0    29     1    11
 -5.9654230258943066E+00 a       572     0    29     1    12
 -9.2514925964969963E-01 a       573     0    29     1    13
 -2.4062465130716575E+00 a       574     0    29     1    14
 -1.7010480656024436E+00 a       575     0    29     1    15
 -2.3763939537524470E+00 a       576     0    29     1    16
 -8.9525712866806550E-01 a       577     0    29     1    17
 -2.1895020710062716E+00 a       578     0    29     1    18
  1.1352087736888445E+00 a       579     0    29     1    19
  5.3667948685089568E+00 a       580     0    29     1    20
  2.3186220592421538E+00 a       581     0    30     1     1
 -1.1356042172074907E+00 a       582     0    30     1     2
  1.3192453948798171E+01 a       583     0    30     1     3
  4.9390238639731496E+00 a       584     0    30     1     4
  4.9033544241617157E+00 a       585     0    30     1     5
 -9.8541953938347930E+00 a       586     0    30     1     6
 -1.7333958495266349E-01 a       587     0    30     1     7
  8.8318613375026001E+00 a       588     0    30     1     8
 -1.2092026833711891E+00 a       589     0    30     1     9
 -2.9188872095953520E+00 a       590     0    30     1    10
 -2.2475938130490416E+00 a       591     0    30     1    11
  1.1163305101974836E+00 a       592     0    30     1    12
  9.6247128221306042E+00 a       593     0    30     1    13
  9.1201924087772639E+00 a       594     0    30     1    14
  4.0281512170559060E+00 a       595     0    30     1    15
  5.1215462666448506E+00 a       596     0    30     1    16
 -8.5687588318283385E+00 a       597     0    30     1    17
  2.8986977463879438E+00 a       598     0    30     1    18
 -2.5652113281767859E+00 a       599     0    30     1    19
  1.9266168733419855E+00 a       600     0    30     1    20
  2.8066904959545504E+00 a       601     0    31     1     1
  3.9859223936568702E+00 a       602     0    31     1     2
  5.1857614371206804E+00 a       603     0    31     1     3
  4.6849018757133578E+00 a       604     0    31     1     4
  5.1504555654143642E+00 a       605     0    31     1     5
 -5.4686031159904580E+00 a       606     0    31     1     6
  8.0082290541514620E+00 a       607     0    31     1     7
 -1.1622973189468109E+00 a       608     0    31     1     8
 -1.0892781990750027E+00 a       609     0    31     1     9
 -1.3063528713176137E+01 a       610     0    31     1    10
  6.7956672376236389E+00 a       611     0    31     1    11
 -1.6196730244949901E+01 a       612     0    31     1    12
 -6.7675950972518724E+00 a       613     0    31     1    13
  1.7716060236335760E+00 a       614     0    31     1    14
  1.8384739832318020E+00 a       615     0    31     1    15
  4.1038932526815310E+00 a       616     0    31     1    16
 -2.0515957962650511E+00 a       617     0    31     1    17
  1.4522175571311715E+00 a       618     0    31     1    18
  2.0894427650226537E+00 a       619     0    31     1    19
 -5.5639583917281288E-01 a       620     0    31     1    20
 -1.3996376553118230E+00 a       621     0    32     1     1
 -3.7558551210142630E+00 a       622     0    32     1     2
 -3.6180208608410420E+00 a       623     0    32     1     3
  2.2148790575380159E+00 a       624     0    32     1     4
  4.3581840663329769E+00 a       625     0    32     1     5
 -5.0091226849895030E+00 a       626     0    32     1     6
 -5.5425655404283640E+00 a       627     0    32     1     7
 -6.1526354596623456E+00 a       628     0    32     1     8
  1.7720198378995827E-01 a       629     0    32     1     9
  4.6130009907326919E+00 a       630     0    32     1    10
  1.2741196756330528E+00 a       631     0    32     1    11
  3.7691643819745217E+00 a       632     0    32     1    12
 -4.4533497397297694E-01 a       633     0    32     1    13
 -4.5743187568411798E+00 a       634     0    32     1    14
 -2.0714252164146467E+00 a       635     0    32     1    15
 -2.6000549577812970E+00 a       636     0    32     1    16
  1.3411435643587450E+00 a       637     0    32     1    17
 -3.6317539092757112E-01 a       638     0    32     1    18
 -3.8420606855798276E+00 a       639     0    32     1    19
  2.6457227299713155E+00 a       640     0    32     1    20
  1.6628135629567578E+00 a       641     0    33     1     1
  9.9967517025741994E+00 a       642     0    33     1     2
 -1.1304729104197881E+00 a       643     0    33     1     3
 -5.3415879493694050E+00 a       644     0    33     1     4
 -5.0008634414446140E+00 a       645     0    33     1     5
  4.3938439229285633E+00 a       646     0    33     1     6
 -8.2646085363124264E+00 a       647     0    33     1     7
  6.7791517160042536E-01 a       648     0    33     1     8
  6.4391660146027307E+00 a       649     0    33     1     9
  3.1217882032668602E+00 a       650     0    33     1    10
 -1.2171972681059655E+00 a       651     0    33     1    11
  3.2331630066760447E-01 a       652     0    33     1    12
  2.8725770354392761E+00 a       653     0    33     1    13
  5.2703494646701978E+00 a       654     0    33     1    14
 -8.0046439526286424E+00 a       655     0    33     1    15
  5.1292720815905168E+00 a       656     0    33     1    16
  2.7676734768749567E+00 a       657     0    33     1    17
  2.3693715667731619E+00 a       658     0    33     1    18
  9.0107425957462208E+00 a       659     0    33     1    19
  2.6622193804790903E+00 a       660     0    33     1    20
  5.7203968924000330E+00 a       661     0    34     1     1
  3.1043914282740359E+00 a       662     0    34     1     2
 -4.4153704992776248E+00 a       663     0    34     1     3
  2.8290467297018105E+00 a       664     0    34     1     4
 -3.5902713703691552E-01 a       665     0    34     1     5
  3.8648722202257870E+00 a       666     0    34     1     6
 -2.1292652719583161E+00 a       667     0    34     1     7
  1.9375891522529802E+00 a       668     0    34     1     8
  4.3927444978009609E+00 a       669     0    34     1     9
 -9.8487050442063129E-01 a       670     0    34     1    10
 -1.1213256618767362E+00 a       671     0    34     1    11
  7.2698077568141661E-01 a       672     0    34     1    12
  4.7078308633244523E+00 a       673     0    34     1    13
  5.1125160462440924E+00 a       674     0    34     1    14
 -4.8998655677061898E-01 a       675     0    34     1    15
 -2.4749449869389735E+00 a       676     0    34     1    16
 -1.6267731372325109E+00 a       677     0    34     1    17
  1.2215137788760178E+00 a       678     0    34     1    18
  3.6006033456102444E+00 a       679     0    34     1    19
  1.3973184362673310E+00 a       680     0    34     1    20
 -2.7368337855207816E+00 a       681     0    35     1     1
 -4.5867285939218565E+00 a       682     0    35     1     2
  4.4732089874834653E+00 a       683     0    35     1     3
  3.7796878884924414E+00 a       684     0    35     1     4
  1.4620286770363631E+00 a       685     0    35     1     5
  1.2173339077450890E+01 a       686     0    35     1     6
 -5.6596776559376565E+00 a       687     0    35     1     7
 -4.1039570505246870E+00 a       688     0    35     1     8
  5.8997068585992620E+00 a       689     0    35     1     9
 -3.7401556712358284E+00 a       690     0    35     1    10
 -7.5958589421860301E-01 a       691     0    35     1    11
  7.5137622194792195E+00 a       692     0    35     1    12
  1.8491113783080175E+00 a       693     0    35     1    13
  6.5475414058152104E-01 a       694     0    35     1    14
  6.9956740016270960E+00 a       695     0    35     1    15
  4.0384670970378700E+00 a       696     0    35     1    16
  1.3051799516453193E+00 a       697     0    35     1    17
 -4.8481240032894233E+00 a       698     0    35     1    18
 -8.4236176638104943E-01 a       699     0    35     1    19
 -2.7669158861436713E+00 a       700     0    35     1    20
  5.3257255800936498E+00 a       701     0    36     1     1
 -7.0481213633842643E-01 a       702     0    36     1     2
 -4.0858909248469919E+00 a       703     0    36     1     3
 -2.7656181656086920E+00 a       704     0    36     1     4
 -8.2241810136695097E+00 a       705     0    36     1     5
  1.3494492152607587E+00 a       706     0    36     1     6
  3.4745810536509576E+00 a       707     0    36     1     7
 -1.8820335930823027E+00 a       708     0    36     1     8
 -4.3524040360977851E+00 a       709     0    36     1     9
  9.4615176882036278E-01 a       710     0    36     1    10
  2.0372163198596480E+00 a       711     0    36     1    11
 -3.7587953583312332E+00 a       712     0    36     1    12
  2.2714461106044408E+00 a       713     0    36     1    13
 -5.4419996327337650E+00 a       714     0    36     1    14
 -7.4332525159447220E+00 a       715     0    36     1    15
 -8.6403899057396174E+00 a       716     0    36     1    16
 -4.1292291029524852E-01 a       717     0    36     1    17
  1.1549808655452205E+00 a       718     0    36     1    18
  1.6465796802157622E+00 a       719     0    36     1    19
 -3.1057358060565790E+00 a       720     0    36     1    20
 -3.4682689833562557E+00 a       721     0    37     1     1
  5.7708416847577890E+00 a       722     0    37     1     2
 -3.1437213361328903E-01 a       723     0    37     1     3
 -5.8053203421557855E+00 a       724     0    37     1     4
 -8.6910388704894199E+00 a       725     0    37     1     5
  7.8155865747839774E+00 a       726     0    37     1     6
 -3.7307844977099571E+00 a       727     0    37     1     7
 -2.7638512186605473E+00 a       728     0    37     1     8
 -4.0351922088620007E-01 a       729     0    37     1     9
  4.0459652560063795E+00 a       730     0    37     1    10
 -1.4157285009088421E+00 a       731     0    37     1    11
  2.6597175830937134E+00 a       732     0    37     1    12
  4.1990693501790313E+00 a       733     0    37     1    13
 -4.1967257551571810E+00 a       734     0    37     1    14
 -1.8859138980150183E+00 a       735     0    37     1    15
 -3.2976447001228677E+00 a       736     0    37     1    16
 -4.1031389101045246E+00 a       737     0    37     1    17
 -2.8134338458564012E+00 a       738     0    37     1    18
 -1.2425058381152532E+00 a       739     0    37     1    19
  1.1896698956625984E+00 a       740     0    37     1    20
 -4.9269367069988022E+00 a       741     0    38     1     1
 -8.2088276529863897E+00 a       742     0    38     1     2
 -1.6654663378677896E+00 a       743     0    38     1     3
 -1.0245523359522954E+00 a       744     0    38     1     4
  9.5460695595305882E+00 a       745     0    38     1     5
 -1.2309765985059929E+01 a       746     0    38     1     6
 -1.7557797117824236E+00 a       747     0    38     1     7
 -1.8861088329600200E+00 a       748     0    38     1     8
 -5.5494999877802620E+00 a       749     0    38     1     9
  7.4379354065657326E+00 a       750     0    38     1    10
  4.9037045223541824E+00 a       751     0    38     1    11
  2.6026465760582522E+00 a       752     0    38     1    12
 -4.6739558559459260E+00 a       753     0    38     1    13
 -1.4253924661209576E+01 a       754     0    38     1    14
 -3.7961339148492748E+00 a       755     0    38     1    15
 -5.9733783530459528E+00 a       756     0    38     1    16
  1.1630620974426389E+00 a       757     0    38     1    17
  5.8596656562904659E-01 a       758     0    38     1    18
 -2.0397621158273260E+00 a       759     0    38     1    19
 -1.6170546017283086E-01 a       760     0    38     1    20
  6.4323456679530078E-01 a       761     0    39     1     1
 -7.2319735204288031E+00 a       762     0    39     1     2
 -8.4099332886776601E+00 a       763     0    39     1     3
  8.5994422687716856E+00 a       764     0    39     1     4
 -2.8876129827070627E+00 a       765     0    39     1     5
 -8.1767847861334424E+00 a       766     0    39     1     6
  4.4751109101516322E+00 a       767     0    39     1     7
  8.9059044077093237E+00 a       768     0    39     1     8
 -1.1051106463887268E-01 a       769     0    39     1     9
  2.5912405795020539E+00 a       770     0    39     1    10
 -1.9742586712932955E+00 a       771     0    39     1    11
 -6.6093960518749828E-01 a       772     0    39     1    12
  2.9684959589362103E+00 a       773     0    39     1    13
 -7.2332462044748995E+00 a       774     0    39     1    14
  5.2475160295280654E+00 a       775     0    39     1    15
  1.0318428137067764E+01 a       776     0    39     1    16
 -2.6949490087848109E+00 a       777     0    39     1    17
 -1.4969626613890044E+00 a       778     0    39     1    18
  1.2682373195461070E+00 a       779     0    39     1    19
 -5.7606287922408219E+00 a       780     0    39     1    20
  6.5777628138210291E+00 a       781     0    40     1     1
 -1.5989733588246771E+00 a       782     0    40     1     2
  1.6346274054877012E+00 a       783     0    40     1     3
  2.7696108635740782E+00 a       784     0    40     1     4
  1.7804430870833079E+00 a       785     0    40     1     5
 -9.4537137797529187E+00 a       786     0    40     1     6
  6.4625663889894911E+00 a       787     0    40     1     7
  3.2810586751061881E+00 a       788     0    40     1     8
  3.7776319990180522E+00 a       789     0    40     1     9
 -8.6990422762833397E+00 a       790     0    40     1    10
  3.4728416255413835E-01 a       791     0    40     1    11
 -8.5516173343310236E+00 a       792     0    40     1    12
 -6.1263888529426378E+00 a       793     0    40     1    13
  1.4683988957636560E+00 a       794     0    40     1    14
 -6.7024788596691331E-01 a       795     0    40     1    15
  2.0107765382580869E+00 a       796     0    40     1    16
  1.9726146215959053E+00 a       797     0    40     1    17
 -2.9603401358275292E+00 a       798     0    40     1    18
  1.2690231050248411E+00 a       799     0    40     1    19
 -9.5051047813270029E-01 a       800     0    40     1    20
 -3.0947564480127049E-01 a       801     0    41     1     1
  1.0792499661475450E+01 a       802     0    41     1     2
 -2.1822177357452746E-02 a       803     0    41     1     3
 -2.8707341759361107E+00 a       804     0    41     1     4
 -3.5361304060477328E-01 a       805     0    41     1     5
  1.0031539178506317E+00 a       806     0    41     1     6
  7.0151944429364024E+00 a       807     0    41     1     7
  2.8597284380107819E+00 a       808     0    41     1     8
  6.4370682901460121E+00 a       809     0    41     1     9
 -5.3267258036821330E+00 a       810     0    41     1    10
  1.5726095244029484E-01 a       811     0    41     1    11
 -3.4824226024088976E+00 a       812     0    41     1    12
 -4.3877947905093215E+00 a       813     0    41     1    13
 -6.1198521330640743E+00 a       814     0    41     1    14
  6.2149903321891333E+00 a       815     0    41     1    15
  3.8576933435409644E+00 a       816     0    41     1    16
 -1.7284266344066257E+00 a       817     0    41     1    17
  3.0231219788809769E+00 a       818     0    41     1    18
 -1.6967568740436691E+00 a       819     0    41     1    19
 -1.0000399921112427E+01 a       820     0    41     1    20
  6.3779581311715705E-01 a       821     0    42     1     1
 -1.2176263872132091E+01 a       822     0    42     1     2
 -5.6947261705550698E+00 a       823     0    42     1     3
  8.7913437053158106E+00 a       824     0    42     1     4
 -3.1405493973846679E+00 a       825     0    42     1     5
  1.1519729926671816E+00 a       826     0    42     1     6
  9.2569639037950893E+00 a       827     0    42     1     7
 -1.1632180696618855E-01 a       828     0    42     1     8
  4.4562844804851336E+00 a       829     0    42     1     9
 -1.0574343370809885E+01 a       830     0    42     1    10
 -3.1767482291207769E+00 a       831     0    42     1    11
 -5.7452115365869350E-01 a       832     0    42     1    12
 -4.5733885861982841E+00 a       833     0    42     1    13
 -4.2062597311830014E+00 a       834     0    42     1    14
  9.6002293663964622E-02 a       835     0    42     1    15
  5.0789076143795253E-01 a       836     0    42     1    16
  6.2695954249253394E-02 a       837     0    42     1    17
 -5.7638709560636716E+00 a       838     0    42     1    18
 -5.1986111227612994E+00 a       839     0    42     1    19
 -6.7708479992220658E+00 a       840     0    42     1    20
 -6.3637121259827403E+00 a       841     0    43     1     1
 -2.5089930419141377E+00 a       842     0    43     1     2
  4.3665841536068974E+00 a       843     0    43     1     3
 -6.7542870511199760E-01 a       844     0    43     1     4
  4.3662129049219427E+00 a       845     0    43     1     5
 -3.4024774850340256E+00 a       846     0    43     1     6
  7.7030275921256419E-01 a       847     0    43     1     7
 -1.8443586723389060E+00 a       848     0    43     1     8
 -7.6796643489367755E-01 a       849     0    43     1     9
  5.9136215560031777E+00 a       850     0    43     1    10
 -3.2847259789468808E+00 a       851     0    43     1    11
  9.7021225464901732E+00 a       852     0    43     1    12
  2.6172450765532869E+00 a       853     0    43     1    13
 -5.4426560420615395E+00 a       854     0    43     1    14
 -3.1587497594983778E+00 a       855     0    43     1    15
  6.3125242731356146E-01 a       856     0    43     1    16
  2.2598936179278706E+00 a       857     0    43     1    17
  1.9571842695790012E+00 a       858     0    43     1    18
 -3.7193362516266468E+00 a       859     0    43     1    19
 -2.1705705389500261E+00 a       860     0    43     1    20
  1.3590014376081698E+00 a       861     0    44     1     1
  8.6388971099691183E+00 a       862     0    44     1     2
  1.7458525524551733E+00 a       863     0    44     1     3
  1.3085366077227056E+00 a       864     0    44     1     4
 -7.2863878273475882E+00 a       865     0    44     1     5
  5.1482986629949306E+00 a       866     0    44     1     6
  5.4911136095655806E+00 a       867     0    44     1     7
  2.9453815478923691E+00 a       868     0    44     1     8
  3.2533586610350285E+00 a       869     0    44     1     9
 -6.3352423364903281E+00 a       870     0    44     1    10
 -4.3343388315720270E+00 a       871     0    44     1    11
 -6.0252397026804454E+00 a       872     0    44     1    12
  3.7355196548002638E+00 a       873     0    44     1    13
  1.2995110831954376E+01 a       874     0    44     1    14
  5.9021147924439736E+00 a       875     0    44     1    15
  3.9864551987861829E+00 a       876     0    44     1    16
 -2.5180644668909538E+00 a       877     0    44     1    17
  1.3816312755039817E+00 a       878     0    44     1    18
  2.6959672544161410E+00 a       879     0    44     1    19
 -4.8242688986234530E+00 a       880     0    44     1    20
  3.1026766567054154E-01 a       881     0    45     1     1
  4.5431543652515609E+00 a       882     0    45     1     2
  7.2316849828413021E+00 a       883     0    45     1     3
 -7.6654231611559940E+00 a       884     0    45     1     4
 -6.7412426797687690E+00 a       885     0    45     1     5
  7.6718192940386274E+00 a       886     0    45     1     6
  2.3062435093079836E+00 a       887     0    45     1     7
 -8.7595459979139179E+00 a       888     0    45     1     8
 -1.6089050504453942E-01 a       889     0    45     1     9
 -1.1014408876240093E+01 a       890     0    45     1    10
  1.6914140534472071E+00 a       891     0    45     1    11
 -3.1141628817343268E+00 a       892     0    45     1    12
 -3.9166815197603815E+00 a       893     0    45     1    13
  8.6856689855336047E+00 a       894     0    45     1    14
 -1.5462730017470921E+01 a       895     0    45     1    15
 -7.1037350816829914E+00 a       896     0    45     1    16
  2.9942359630732680E+00 a       897     0    45     1    17
 -2.5364373816497792E+00 a       898     0    45     1    18
 -3.1940390392891378E+00 a       899     0    45     1    19
  3.3217408306784297E+00 a       900     0    45     1    20
 -9.3892232709892376E+00 a       901     0    46     1     1
  3.9489537232211447E+00 a       902     0    46     1     2
  4.4438599855464824E+00 a       903     0    46     1     3
 -3.3611305253895587E+00 a       904     0    46     1     4
  1.2006879052252595E+00 a       905     0    46     1     5
  9.6125088514322901E+00 a       906     0    46     1     6
 -5.3565887996542223E+00 a       907     0    46     1     7
 -3.7043415625124703E+00 a       908     0    46     1     8
 -6.0481242092659153E+00 a       909     0    46     1     9
  1.0898253897470502E+01 a       910     0    46     1    10
 -3.0001888463310276E+00 a       911     0    46     1    11
  1.3992973028423949E+01 a       912     0    46     1    12
  6.0881851440333161E+00 a       913     0    46     1    13
  3.5162696104426114E+00 a       914     0    46     1    14
 -3.3228928494762631E+00 a       915     0    46     1    15
  1.5514918260062334E+00 a       916     0    46     1    16
 -1.7524525042988917E+00 a       917     0    46     1    17
  3.9897082629592093E+00 a       918     0    46     1    18
  2.2562703057073841E-01 a       919     0    46     1    19
  5.1071742870755026E+00 a       920     0    46     1    20
  2.6535065964437230E+00 a       921     0    47     1     1
  5.5187920126881034E+00 a       922     0    47     1     2
 -4.2680800593933252E+00 a       923     0    47     1     3
 -2.5916627022242564E+00 a       924     0    47     1     4
 -5.8552906016666428E+00 a       925     0    47     1     5
 -1.0584361084187190E+01 a       926     0    47     1     6
 -3.8238652748278823E+00 a       927     0    47     1     7
  8.1144053406903516E-01 a       928     0    47     1     8
 -4.6029527745805385E+00 a       929     0    47     1     9
  5.7385228025496593E+00 a       930     0    47     1    10
  6.8165563717998101E-01 a       931     0    47     1    11
 -5.5298477744909222E+00 a       932     0    47     1    12
 -1.2918042092630928E+00 a       933     0    47     1    13
  1.4611703543525342E-01 a       934     0    47     1    14
 -6.6353366498983704E+00 a       935     0    47     1    15
 -3.9384803897353424E+00 a       936     0    47     1    16
 -2.4273183979248336E+00 a       937     0    47     1    17
  6.5512252945434355E+00 a       938     0    47     1    18
  1.4069677593466008E+00 a       939     0    47     1    19
  8.2995942856305027E-01 a       940     0    47     1    20
 -5.9559302350018983E+00 a       941     0    48     1     1
  5.4420710544587880E+00 a       942     0    48     1     2
  2.2643305840346026E+00 a       943     0    48     1     3
 -8.6429081998191337E-01 a       944     0    48     1     4
  6.9867239023212449E+00 a       945     0    48     1     5
  3.7705559329893883E+00 a       946     0    48     1     6
 -2.9123295777755764E+00 a       947     0    48     1     7
 -6.7997200033396625E+00 a       948     0    48     1     8
 -3.5746525053173102E+00 a       949     0    48     1     9
  1.7142175069917063E+00 a       950     0    48     1    10
 -2.2397777221557451E+00 a       951     0    48     1    11
  1.7557185307735725E+00 a       952     0    48     1    12
 -6.0685519716136085E+00 a       953     0    48     1    13
  3.9917072837018130E+00 a       954     0    48     1    14
  2.7405764086608753E+00 a       955     0    48     1    15
  4.8610533707032237E+00 a       956     0    48     1    16
  3.7439200236140056E+00 a       957     0    48     1    17
 -3.1039814164263353E+00 a       958     0    48     1    18
 -1.7885434066538610E+00 a       959     0    48     1    19
  3.2495549055727806E+00 a       960     0    48     1    20
  3.4839783331154246E+00 a       961     0    49     1     1
 -9.1496165169540049E+00 a       962     0    49     1     2
  3.8920415437622280E+00 a       963     0    49     1     3
  4.5155237993476964E+00 a       964     0    49     1     4
  2.9749844331885682E+00 a       965     0    49     1     5
 -5.2818655053428492E+00 a       966     0    49     1     6
  1.1415972579649174E+00 a       967     0    49     1     7
  3.4876748719418540E+00 a       968     0    49     1     8
  5.1704598054642348E-01 a       969     0    49     1     9
  3.9681101155196110E+00 a       970     0    49     1    10
 -6.5843949648689444E+00 a       971     0    49     1    11
  2.6891603276226954E+00 a       972     0    49     1    12
 -3.2644633685427138E+00 a       973     0    49     1    13
  4.9393681893379000E+00 a       974     0    49     1    14
  3.3513479705764180E+00 a       975     0    49     1    15
  1.7312111526111842E+00 a       976     0    49     1    16
  3.0770477364937445E+00 a       977     0    49     1    17
 -1.1956847828026025E+00 a       978     0    49     1    18
 -1.9198340982165074E+00 a       979     0    49     1    19
 -2.9099085469775465E+00 a       980     0    49     1    20
 -7.7395314315808872E-01 a       981     0    50     1     1
  4.7862364591499968E+00 a       982     0    50     1     2
  6.0675443405565224E+00 a       983     0    50     1     3
 -1.2981869178504672E+00 a       984     0    50     1     4
 -8.4421743802585070E+00 a       985     0    50     1     5
 -4.0607079876943913E-01 a       986     0    50     1     6
  5.7761837151602418E+00 a       987     0    50     1     7
  8.3948344367137544E+00 a       988     0    50     1     8
 -3.5364090204737146E+00 a       989     0    50     1     9
 -4.8208358431479645E+00 a       990     0    50     1    10
 -3.7196426839171832E+00 a       991     0    50     1    11
 -8.3768772305850945E+00 a       992     0    50     1    12
  5.4382266254026224E+00 a       993     0    50     1    13
  1.2611134002787272E+01 a       994     0    50     1    14
  1.7710118360011258E+00 a       995     0    50     1    15
  2.4483693975670029E+00 a       996     0    50     1    16
 -1.5416399530418892E+00 a       997     0    50     1    17
  7.6584286743661356E-01 a       998     0    50     1    18
  7.1958162894985609E+00 a       999     0    50     1    19
 -4.1952902947426436E+00 a      1000     0    50     1    20
 -3.5044733327867954E+00 a      1001     0    51     1     1
 -3.2819032273661768E+00 a      1002     0    51     1     2
  1.0751089068649874E+01 a      1003     0    51     1     3
  6.2056806137615705E-01 a      1004     0    51     1     4
  1.1331699006998580E+01 a      1005     0    51     1     5
 -4.6469315558093420E+00 a      1006     0    51     1     6
  6.8534222527210602E+00 a      1007     0    51     1     7
 -3.2211139903307857E+00 a      1008     0    51     1     8
 -1.0174486547397965E+01 a      1009     0    51     1     9
 -1.9631477995281619E+00 a      1010     0    51     1    10
  4.2157381925312380E+00 a      1011     0    51     1    11
 -3.0552126435854304E-01 a      1012     0    51     1    12
 -3.6320874805501924E+00 a      1013     0    51     1    13
  2.4942956424314024E+00 a      1014     0    51     1    14
  5.1015843169226160E+00 a      1015     0    51     1    15
 -1.0459760837557122E+01 a      1016     0    51     1    16
 -3.5119850765372815E+00 a      1017     0    51     1    17
 -8.8456671544978516E-01 a      1018     0    51     1    18
 -1.4414808561413230E+01 a      1019     0    51     1    19
  1.8059474312726238E+00 a      1020     0    51     1    20
 -6.5328973640884094E+00 a      1021     0    52     1     1
 -3.5300926497106873E+00 a      1022     0    52     1     2
  4.0927736817354292E+00 a      1023     0    52     1     3
 -2.9230721194649054E+00 a      1024     0    52     1     4
  1.4143236650046436E+00 a      1025     0    52     1     5
 -5.8694156806002624E+00 a      1026     0    52     1     6
  2.8283717275335043E+00 a      1027     0    52     1     7
 -1.8671498988665518E+00 a      1028     0    52     1     8
 -7.2662945582351881E+00 a      1029     0    52     1     9
 -1.2912037300054389E+00 a      1030     0    52     1    10
 -1.8767615072335142E+00 a      1031     0    52     1    11
 -2.6319554821768869E+00 a      1032     0    52     1    12
 -8.8359682272214943E+00 a      1033     0    52     1    13
 -7.5720883063079008E+00 a      1034     0    52     1    14
 -3.6356576822848945E+00 a      1035     0    52     1    15
  9.7171750486997810E-01 a      1036     0    52     1    16
 -1.4471161477787713E+00 a      1037     0    52     1    17
 -2.6063863403379823E+00 a      1038     0    52     1    18
 -5.5226309924823243E+00 a      1039     0    52     1    19
 -1.2213139393407018E+00 a      1040     0    52     1    20
 -5.4276281822047090E-01 b      1041     1     1
  2.1762659164528002E+00 b      1042     1     2
  6.6554586226000312E-01 b      1043     1     3
 -7.7206690104078457E-01 b      1044     1     4
 -1.0379102990868510E+00 b      1045     1     5
 -3.2057924083326625E+00 b      1046     1     6
 -1.7410728628399352E+00 b      1047     1     7
 -1.2107819266623192E-01 b      1048     1     8
 -5.3289216271430950E-01 b      1049     1     9
 -5.8902004951922848E-01 b      1050     1    10
 -2.2883790797757251E+00 b      1051     1    11
 -2.8138213065359143E+00 b      1052     1    12
  1.4233149258507807E+00 b      1053     1    13
  1.1939451767291660E+00 b      1054     1    14
 -1.1783527158818106E+00 b      1055     1    15
  1.0226329979282063E+00 b      1056     1    16
 -2.6534752555892577E-01 b      1057     1    17
 -3.8837508347011768E-01 b      1058     1    18
 -5.7374868194385986E-01 b      1059     1    19
  1.4075385856008402E+00 b      1060     1    20
  2.2247635886269279E-01 a      1061     1     1     2     1
 -2.5793772999880749E-01 a      1062     1     1     2     2
  4.0026305976565096E-01 a      1063     1     1     2     3
 -2.9459822770181332E-01 a      1064     1     1     2     4
  1.8146097812051046E-01 a      1065     1     1     2     5
  3.5011645193637664E-01 a      1066     1     1     2     6
 -3.1978756823714943E-01 a      1067     1     1     2     7
 -1.0279245014298495E+00 a      1068     1     1     2     8
 -6.4756363518135396E-01 a      1069     1     1     2     9
  9.0123446330462473E-02 a      1070     1     1     2    10
  6.4624568678852279E-01 a      1071     1     1     2    11
 -2.2997908643412970E-01 a      1072     1     1     2    12
  7.0716567252044138E-01 a      1073     1     1     2    13
 -2.8902905498756684E+00 a      1074     1     1     2    14
  2.8420887000785205E-01 a      1075     1     1     2    15
 -7.5843713466579898E-01 a      1076     1     1     2    16
  1.2462340641315797E+00 a      1077     1     1     2    17
  4.3536807540596556E-01 a      1078     1     1     2    18
  6.0939756660255040E-01 a      1079     1     1     2    19
  9.1136597429094435E-01 a      1080     1     1     2    20
  4.2116557250533676E-01 a      1081     1     2     2     1
  1.5218353744920252E+00 a      1082     1     2     2     2
  3.2279914067203980E-01 a      1083     1     2     2     3
 -8.1405183586416374E-01 a      1084     1     2     2     4
 -3.2822339508932113E-01 a      1085     1     2     2     5
  6.6393886165120064E-01 a      1086     1     2     2     6
 -8.3095916920902890E-01 a      1087     1     2     2     7
 -4.0654596437499464E+00 a      1088     1     2     2     8
  1.0511611993160941E-01 a      1089     1     2     2     9
 -6.6717997386733774E-01 a      1090     1     2     2    10
 -2.3893026613142698E-01 a      1091     1     2     2    11
 -1.1013175451056554E+00 a      1092     1     2     2    12
 -1.6415168201797934E+00 a      1093     1     2     2    13
 -4.4542261428512431E-01 a      1094     1     2     2    14
  3.4680830590624395E-01 a      1095     1     2     2    15
  2.2874713205646721E-01 a      1096     1     2     2    16
 -2.3619580361829997E+00 a      1097     1     2     2    17
  2.1748687061301991E-01 a      1098     1     2     2    18
 -7.4859188404210419E-01 a      1099     1     2     2    19
 -3.5090425067144770E-01 a      1100     1     2     2    20
  6.7837199036860352E-01 a      1101     1     3     2     1
  1.3227727149732089E+00 a      1102     1     3     2     2
 -8.5081231156046511E-01 a      1103     1     3     2     3
  1.3770201871104204E+00 a      1104     1     3     2     4
  4.5650343706865987E-01 a      1105     1     3     2     5
 -1.3820632781910642E+00 a      1106     1     3     2     6
 -1.2791108701359148E+00 a      1107     1     3     2     7
  2.6936283933242104E+00 a      1108     1     3     2     8
  6.7472629198691136E-01 a      1109     1     3     2     9
  9.0108428739198176E-01 a      1110     1     3     2    10
 -8.8148811894164603E-01 a      1111     1     3     2    11
  4.7254957080159576E-01 a      1112     1     3     2    12
 -2.4025709168079165E-01 a      1113     1     3     2    13
  3.1245541284482115E+00 a      1114     1     3     2    14
 -1.5352796981695327E-01 a      1115     1     3     2    15
  1.5683148812996284E+00 a      1116     1     3     2    16
 -9.0950523951529405E-01 a      1117     1     3     2    17
 -1.2746296269444277E+00 a      1118     1     3     2    18
 -1.2046770916709171E+00 a      1119     1     3     2    19
 -1.2258192361908726E+00 a      1120     1     3     2    20
  1.4783572656164006E+00 a      1121     1     4     2     1
 -5.5879358542908342E-01 a      1122     1     4     2     2
  3.6313306886762553E-01 a      1123     1     4     2     3
  2.8298173326893861E-01 a      1124     1     4     2     4
 -1.5571835509740650E-01 a      1125     1     4     2     5
 -3.6409233192468710E-01 a      1126     1     4     2     6
  3.4857306343020744E-01 a      1127     1     4     2     7
 -5.1504628580065115E-01 a      1128     1     4     2     8
 -5.8427972292757790E-01 a      1129     1     4     2     9
  1.5946791632267361E+00 a      1130     1     4     2    10
 -1.6316208889422815E-01 a      1131     1     4     2    11
  6.7139310975855593E-01 a      1132     1     4     2    12
 -9.7757401567969915E-01 a      1133     1     4     2    13
  2.0688420978950033E+00 a      1134     1     4     2    14
  5.7245634560582959E-01 a      1135     1     4     2    15
 -2.3506552322709845E-01 a      1136     1     4     2    16
 -1.4077260326821326E+00 a      1137     1     4     2    17
  5.7703129134859521E-01 a      1138     1     4     2    18
 -1.1291535933210770E+00 a      1139     1     4     2    19
  7.6525949906568358E-01 a      1140     1     4     2    20
  1.4275943150764767E-01 a      1141     1     5     2     1
 -1.5915707943953243E-02 a      1142     1     5     2     2
 -9.0038897451876687E-01 a      1143     1     5     2     3
  8.2846578676310145E-01 a      1144     1     5     2     4
 -6.8043961246734830E-01 a      1145     1     5     2     5
 -1.3531950751383515E-01 a      1146     1     5     2     6
 -2.2369135838894807E-01 a      1147     1     5     2     7
 -4.8879794537971433E-01 a      1148     1     5     2     8
  1.4192114877755639E+00 a      1149     1     5     2     9
  1.2903008737402863E-01 a      1150     1     5     2    10
 -8.4456226532798140E-01 a      1151     1     5     2    11
  1.6941858272893531E-02 a      1152     1     5     2    12
  5.1773824980210392E-01 a      1153     1     5     2    13
  2.4599608948602184E-01 a      1154     1     5     2    14
  1.0708092215550677E+00 a      1155     1     5     2    15
  2.4980606148658717E+00 a      1156     1     5     2    16
 -5.8065467716204255E-01 a      1157     1     5     2    17
 -4.8489309064830244E-01 a      1158     1     5     2    18
  8.2419541883448566E-01 a      1159     1     5     2    19
  4.9890018010404151E-02 a      1160     1     5     2    20
 -5.9527422644005212E-01 a      1161     1     6     2     1
  1.3867013182004186E+00 a      1162     1     6     2     2
 -1.5901814615638013E-01 a      1163     1     6     2     3
  1.4537318996895621E-01 a      1164     1     6     2     4
 -5.0198288478085917E-01 a      1165     1     6     2     5
  2.2686456448904861E+00 a      1166     1     6     2     6
 -7.1127655195338158E-01 a      1167     1     6     2     7
  4.6991823338391314E-01 a      1168     1     6     2     8
  6.3798014686303917E-02 a      1169     1     6     2     9
 -1.0520529446077249E+00 a      1170     1     6     2    10
  1.8042586671381462E+00 a      1171     1     6     2    11
  1.2685525828425235E+00 a      1172     1     6     2    12
  3.6652448633779006E-01 a      1173     1     6     2    13
 -4.9459808270187511E-01 a      1174     1     6     2    14
  1.0302502855513633E+00 a      1175     1     6     2    15
  8.5893554087664770E-01 a      1176     1     6     2    16
  2.4734592881745914E+00 a      1177     1     6     2    17
 -1.6855607508671624E+00 a      1178     1     6     2    18
  8.9069739241168427E-02 a      1179     1     6     2    19
 -2.4887945341626912E-02 a      1180     1     6     2    20
 -2.2011115546921793E+00 a      1181     1     7     2     1
 -2.6818035624175185E-01 a      1182     1     7     2     2
  2.1314183446959387E-01 a      1183     1     7     2     3
 -1.9676154536603450E+00 a      1184     1     7     2     4
 -1.2902973689646786E+00 a      1185     1     7     2     5
  2.1669893752001701E+00 a      1186     1     7     2     6
  2.6606726338195257E-02 a      1187     1     7     2     7
  6.0691956031949801E-01 a      1188     1     7     2     8
  5.2242350617743039E-01 a      1189     1     7     2     9
 -1.0356820949132763E+00 a      1190     1     7     2    10
 -2.4060272064517738E+00 a      1191     1     7     2    11
  9.0592566107225969E-01 a      1192     1     7     2    12
  1.9077661556871497E-01 a      1193     1     7     2    13
  5.3661442027604783E-02 a      1194     1     7     2    14
 -1.5226711521715411E-01 a      1195     1     7     2    15
 -2.3256459848160995E+00 a      1196     1     7     2    16
 -5.8944909921842825E-01 a      1197     1     7     2    17
 -1.9322886087947324E+00 a      1198     1     7     2    18
 -2.5224459213657475E-02 a      1199     1     7     2    19
 -2.1643922890325615E-01 a      1200     1     7     2    20
 -1.3568984938521085E+00 a      1201     1     8     2     1
 -1.2549359075702844E+00 a      1202     1     8     2     2
  4.4551270929985731E-01 a      1203     1     8     2     3
  4.8022737455372244E-01 a      1204     1     8     2     4
  3.4800175751873313E-01 a      1205     1     8     2     5
 -2.1520210941155851E+00 a      1206     1     8     2     6
  1.3177324864612174E+00 a      1207     1     8     2     7
  1.4304901191674519E+00 a      1208     1     8     2     8
 -4.4749033753398804E-01 a      1209     1     8     2     9
 -2.3250310654620541E+00 a      1210     1     8     2    10
 -2.6162792851135070E+00 a      1211     1     8     2    11
 -4.9130712758559203E-01 a      1212     1     8     2    12
  1.0836896015319959E+00 a      1213     1     8     2    13
  3.2830753529095396E+00 a      1214     1     8     2    14
 -5.8345868485836616E-01 a      1215     1     8     2    15
  2.3956434245149989E-02 a      1216     1     8     2    16
  3.1563047409479545E+00 a      1217     1     8     2    17
  5.5509825527470114E-01 a      1218     1     8     2    18
  8.0495779146890556E-01 a      1219     1     8     2    19
  1.8658565791797614E+00 a      1220     1     8     2    20
 -1.0084542295427059E+00 a      1221     1     9     2     1
  6.3304548456210155E-02 a      1222     1     9     2     2
  9.9035103238517286E-01 a      1223     1     9     2     3
  2.2671587926749823E+00 a      1224     1     9     2     4
  5.3786172048059444E-01 a      1225     1     9     2     5
  1.1290749682585910E+00 a      1226     1     9     2     6
 -1.6299818426138706E+00 a      1227     1     9     2     7
  6.4341603487245513E-01 a      1228     1     9     2     8
  1.6306126900113346E-01 a      1229     1     9     2     9
 -3.6742569769813915E-01 a      1230     1     9     2    10
 -2.2233996752209473E+00 a      1231     1     9     2    11
 -2.1351247984039845E+00 a      1232     1     9     2    12
  1.4205576947645600E+00 a      1233     1     9     2    13
  1.8414255561057959E+00 a      1234     1     9     2    14
  3.3190030675478815E-01 a      1235     1     9     2    15
  4.7320250144450288E-01 a      1236     1     9     2    16
  2.0592470690563784E+00 a      1237     1     9     2    17
 -2.7878547270755255E-01 a      1238     1     9     2    18
 -3.2871806334150422E-01 a      1239     1     9     2    19
 -9.2320530104966647E-01 a      1240     1     9     2    20
  2.5846618356887185E-01 a      1241     1    10     2     1
 -7.8498114935016328E-01 a      1242     1    10     2     2
  1.6829539218331505E-01 a      1243     1    10     2     3
 -1.1659382234556070E+00 a      1244     1    10     2     4
  1.2361125790726807E-01 a      1245     1    10     2     5
 -1.7498740445620224E+00 a      1246     1    10     2     6
  1.3212331346167929E+00 a      1247     1    10     2     7
 -1.4071483321666272E+00 a      1248     1    10     2     8
  1.2924387435208626E+00 a      1249     1    10     2     9
  1.8793698403916306E-01 a      1250     1    10     2    10
 -3.1904320004836416E-02 a      1251     1    10     2    11
  3.1670493140986555E-01 a      1252     1    10     2    12
 -8.1098759118795527E-01 a      1253     1    10     2    13
  1.9164814276760016E+00 a      1254     1    10     2    14
 -1.2318535188830257E+00 a      1255     1    10     2    15
  2.8213008490487540E-01 a      1256     1    10     2    16
 -8.6328903593020712E-01 a      1257     1    10     2    17
  1.0868134913690470E+00 a      1258     1    10     2    18
 -4.5676513678000663E-01 a      1259     1    10     2    19
  5.1250409686548308E-02 a      1260     1    10     2    20
  1.9040241369130597E+00 a      1261     1    11     2     1
 -7.2151025803370528E-01 a      1262     1    11     2     2
 -2.4109911309415368E+00 a      1263     1    11     2     3
 -6.2059536857183051E-01 a      1264     1    11     2     4
  4.3176917488904343E-03 a      1265     1    11     2     5
 -1.8409609668237141E+00 a      1266     1    11     2     6
  3.8024336671939913E+00 a      1267     1    11     2     7
 -1.4844071441809872E-01 a      1268     1    11     2     8
 -6.8574006833782308E-01 a      1269     1    11     2     9
  2.6609678003645518E+00 a      1270     1    11     2    10
 -8.8292653817981681E-02 a      1271     1    11     2    11
 -1.0786758974790274E+00 a      1272     1    11     2    12
 -7.0490305615557902E-01 a      1273     1    11     2    13
  2.9111418958605539E+00 a      1274     1    11     2    14
  8.1337473954547945E-01 a      1275     1    11     2    15
 -1.0978443799011666E+00 a      1276     1    11     2    16
 -6.3850841032182659E+00 a      1277     1    11     2    17
 -1.7630632579911683E+00 a      1278     1    11     2    18
  1.2292149704191813E-01 a      1279     1    11     2    19
  3.3068653119914462E+00 a      1280     1    11     2    20
  1.7071935569362635E+00 a      1281     1    12     2     1
 -8.5011903491363405E-01 a      1282     1    12     2     2
  1.4639065513061524E+00 a      1283     1    12     2     3
 -4.9865533048289334E-01 a      1284     1    12     2     4
 -5.9590949634833679E-01 a      1285     1    12     2     5
  1.8949235278349311E-01 a      1286     1    12     2     6
 -3.2588103801023660E+00 a      1287     1    12     2     7
 -5.6915028007451038E+00 a      1288     1    12     2     8
 -3.6885325661890106E-01 a      1289     1    12     2     9
 -4.3652003592864280E-01 a      1290     1    12     2    10
 -3.1686197909424091E-02 a      1291     1    12     2    11
  1.0496062093054797E+00 a      1292     1    12     2    12
 -9.7027420570815603E-01 a      1293     1    12     2    13
 -3.1758840902583731E+00 a      1294     1    12     2    14
 -8.4795888034724279E-02 a      1295     1    12     2    15
 -9.4886507483402249E-01 a      1296     1    12     2    16
 -1.2032560236894130E+00 a      1297     1    12     2    17
  3.9161091029961947E-01 a      1298     1    12     2    18
 -2.1947902859446593E+00 a      1299     1    12     2    19
 -7.7720098653667025E-01 a      1300     1    12     2    20
 -1.3007303849020675E+00 a      1301     1    13     2     1
  3.6411226408782921E-01 a      1302     1    13     2     2
  6.7478826085067845E-01 a      1303     1    13     2     3
  8.0710618634790410E-01 a      1304     1    13     2     4
  5.9625885188421124E-01 a      1305     1    13     2     5
 -1.1156900826712618E-01 a      1306     1    13     2     6
 -5.0597011091062249E-01 a      1307     1    13     2     7
 -1.4988022102065772E+00 a      1308     1    13     2     8
  1.0269172492713463E+00 a      1309     1    13     2     9
  1.0762017004608773E+00 a      1310     1    13     2    10
  6.4045163225973506E-02 a      1311     1    13     2    11
 -7.2777513331580279E-02 a      1312     1    13     2    12
  3.7510663280678525E-01 a      1313     1    13     2    13
  8.7385193321751153E-01 a      1314     1    13     2    14
 -2.5716196147778247E-01 a      1315     1    13     2    15
 -2.4849115023525289E-01 a      1316     1    13     2    16
 -1.9813395432988126E+00 a      1317     1    13     2    17
  1.1151018559734602E+00 a      1318     1    13     2    18
 -5.1108807200544337E-01 a      1319     1    13     2    19
  2.4092398005518212E-01 a      1320     1    13     2    20
 -8.5950633043011593E-01 a      1321     1    14     2     1
  5.9269186746524749E-01 a      1322     1    14     2     2
  2.7480198980696255E+00 a      1323     1    14     2     3
 -1.1802277143036279E+00 a      1324     1    14     2     4
  1.4959050907869778E+00 a      1325     1    14     2     5
  8.9374995974707638E-01 a      1326     1    14     2     6
 -2.7366258914208197E-01 a      1327     1    14     2     7
  6.1963974790827081E-01 a      1328     1    14     2     8
 -4.6695516898662259E-01 a      1329     1    14     2     9
 -1.2527379451403757E+00 a      1330     1    14     2    10
 -7.7235543237791626E-01 a      1331     1    14     2    11
  2.7550651209922711E-01 a      1332     1    14     2    12
  1.4203762970394964E+00 a      1333     1    14     2    13
 -2.3093690979647570E+00 a      1334     1    14     2    14
 -9.2793422536122050E-02 a      1335     1    14     2    15
 -1.4040194397678691E+00 a      1336     1    14     2    16
  3.4007601405891439E+00 a      1337     1    14     2    17
 -1.5134116224298994E-01 a      1338     1    14     2    18
  6.4756268683832485E-01 a      1339     1    14     2    19
  7.6136395636875287E-01 a      1340     1    14     2    20
  1.1006211535179764E+00 a      1341     1    15     2     1
  4.0964988508807075E-03 a      1342     1    15     2     2
 -1.4620517153527559E+00 a      1343     1    15     2     3
 -7.9094910122874895E-02 a      1344     1    15     2     4
 -1.0424709715118226E+00 a      1345     1    15     2     5
  4.5160917112963100E-01 a      1346     1    15     2     6
  1.9188478211516105E-02 a      1347     1    15     2     7
  1.2587174227312858E+00 a      1348     1    15     2     8
 -1.0676977845567410E+00 a      1349     1    15     2     9
  8.7057350660401922E-01 a      1350     1    15     2    10
  3.3550829001897775E-01 a      1351     1    15     2    11
 -5.9283540700802939E-01 a      1352     1    15     2    12
  1.3235349955870113E+00 a      1353     1    15     2    13
 -5.4211593583684559E-01 a      1354     1    15     2    14
  6.5517643633350575E-01 a      1355     1    15     2    15
  4.7990255866416176E-01 a      1356     1    15     2    16
  2.3670271512711740E+00 a      1357     1    15     2    17
  3.0031084997445201E-01 a      1358     1    15     2    18
  1.0662753443546851E+00 a      1359     1    15     2    19
 -8.1350761861627252E-01 a      1360     1    15     2    20
 -1.2629568412554082E+00 a      1361     1    16     2     1
  5.2006173502429653E-01 a      1362     1    16     2     2
 -3.7993958739107700E-02 a      1363     1    16     2     3
  7.0597162304192451E-01 a      1364     1    16     2     4
  9.8865085970517896E-01 a      1365     1    16     2     5
 -3.1500380926298926E-01 a      1366     1    16     2     6
  5.4160038020374712E-01 a      1367     1    16     2     7
  6.3103353311877020E-01 a      1368     1    16     2     8
 -1.5124154982046107E+00 a      1369     1    16     2     9
 -8.8136867908187622E-01 a      1370     1    16     2    10
  4.9255337341109062E-01 a      1371     1    16     2    11
 -8.0786215516498155E-03 a      1372     1    16     2    12
 -1.9578642568182314E+00 a      1373     1    16     2    13
  2.7764323628463359E+00 a      1374     1    16     2    14
  9.7700163857335695E-02 a      1375     1    16     2    15
 -1.8012432882553027E+00 a      1376     1    16     2    16
 -4.7940907494444263E+00 a      1377     1    16     2    17
  1.3818284323519719E-01 a      1378     1    16     2    18
  6.3772551809007871E-01 a      1379     1    16     2    19
  1.0192454018294708E+00 a      1380     1    16     2    20
  3.9922552987381033E-01 a      1381     1    17     2     1
  3.2876674617588575E-01 a      1382     1    17     2     2
  4.0667465196259034E-01 a      1383     1    17     2     3
 -1.0545519288443315E+00 a      1384     1    17     2     4
 -5.7763446919391448E-01 a      1385     1    17     2     5
 -4.5704890086188887E-01 a      1386     1    17     2     6
 -2.1849324421780523E+00 a      1387     1    17     2     7
 -1.9759147488545274E+00 a      1388     1    17     2     8
 -5.2757653449854081E-01 a      1389     1    17     2     9
  9.7854783032636805E-01 a      1390     1    17     2    10
  1.0180806432361753E+00 a      1391     1    17     2    11
  9.2430870670070886E-01 a      1392     1    17     2    12
  5.5441525900590283E-01 a      1393     1    17     2    13
  9.0619417547304526E-01 a      1394     1    17     2    14
 -4.4588617406749592E-01 a      1395     1    17     2    15
 -6.5548256543479799E-01 a      1396     1    17     2    16
  1.5253650285750004E+00 a      1397     1    17     2    17
  1.2692304895694140E+00 a      1398     1    17     2    18
  5.9127051234112626E-01 a      1399     1    17     2    19
 -1.3253542645161512E-01 a      1400     1    17     2    20
 -1.4892097340758514E+00 a      1401     1    18     2     1
 -1.4387361799971850E-02 a      1402     1    18     2     2
 -4.2945417778190694E-04 a      1403     1    18     2     3
 -1.7857602146613855E-01 a      1404     1    18     2     4
 -1.5434622214260230E-01 a      1405     1    18     2     5
  1.1223063960587218E+00 a      1406     1    18     2     6
  3.9444394139305511E-01 a      1407     1    18     2     7
  4.4177775594103824E-01 a      1408     1    18     2     8
  4.0987004068610455E-01 a      1409     1    18     2     9
 -1.8248587186617760E+00 a      1410     1    18     2    10
  2.5696934799728986E-02 a      1411     1    18     2    11
  9.2436411712926181E-01 a      1412     1    18     2    12
 -2.4112780522445154E-01 a      1413     1    18     2    13
 -3.1240542527751227E+00 a      1414     1    18     2    14
 -4.4206862425582244E-01 a      1415     1    18     2    15
  8.2847418491436220E-01 a      1416     1    18     2    16
  5.5030234125562161E-01 a      1417     1    18     2    17
 -1.4130578206580360E+00 a      1418     1    18     2    18
  2.7938378407692205E-01 a      1419     1    18     2    19
 -1.0078820224979168E+00 a      1420     1    18     2    20
  1.6753085066659914E+00 a      1421     1    19     2     1
  6.3983805655290105E-01 a      1422     1    19     2     2
  3.2541809583280135E-01 a      1423     1    19     2     3
 -4.3612157499192766E-01 a      1424     1    19     2     4
 -5.3121049450191404E-01 a      1425     1    19     2     5
 -1.9323301901917047E+00 a      1426     1    19     2     6
 -3.5441231861720053E-02 a      1427     1    19     2     7
  5.2106792370704786E+00 a      1428     1    19     2     8
  5.1478280716736635E-01 a      1429     1    19     2     9
  1.9380602331948951E+00 a      1430     1    19     2    10
  6.4035928095331085E-01 a      1431     1    19     2    11
  1.1312530631697446E+00 a      1432     1    19     2    12
 -7.7376465674565714E-02 a      1433     1    19     2    13
 -2.0179438434731214E+00 a      1434     1    19     2    14
  4.1214009936683110E-01 a      1435     1    19     2    15
  3.2450068348877412E+00 a      1436     1    19     2    16
 -1.1259802277328528E+00 a      1437     1    19     2    17
 -7.8363376767040679E-02 a      1438     1    19     2    18
  8.1279567950084874E-01 a      1439     1    19     2    19
  1.2067853985046320E+00 a      1440     1    19     2    20
 -6.1459001276764569E-01 a      1441     1    20     2     1
  6.2276969255258552E-01 a      1442     1    20     2     2
 -1.3802908361849647E-01 a      1443     1    20     2     3
  1.7712031754460578E+00 a      1444     1    20     2     4
  8.9571639547200277E-01 a      1445     1    20     2     5
  7.1400216958739093E-01 a      1446     1    20     2     6
 -8.9162574542783465E-02 a      1447     1    20     2     7
 -2.4535743443551583E+00 a      1448     1    20     2     8
  3.3496751718028062E-01 a      1449     1    20     2     9
  9.6486283549123275E-01 a      1450     1    20     2    10
  3.4379138854481142E-02 a      1451     1    20     2    11
  2.2319086122044124E-01 a      1452     1    20     2    12
  7.9363210315300325E-01 a      1453     1    20     2    13
 -9.0497476626029028E-01 a      1454     1    20     2    14
 -1.4676893262676607E-01 a      1455     1    20     2    15
 -1.7226596856490450E+00 a      1456     1    20     2    16
  2.3844048764158482E-01 a      1457     1    20     2    17
  1.8746338458334622E-01 a      1458     1    20     2    18
  3.1322806819701975E-02 a      1459     1    20     2    19
  4.8459821871622061E-01 a      1460     1    20     2    20
  4.9019105317926376E-01 b      1461     2     1
  1.4538861729052834E+00 b      1462     2     2
  2.2316873689205696E+00 b      1463     2     3
 -4.1606182150672755E+00 b      1464     2     4
  3.3354520189233248E+00 b      1465     2     5
 -9.9835900912652353E-01 b      1466     2     6
  3.6989054622279545E+00 b      1467     2     7
 -5.5646291188707897E-01 b      1468     2     8
  1.6362693799376686E+00 b      1469     2     9
 -9.4194221528142574E-01 b      1470     2    10
  4.5486272831369208E+00 b      1471     2    11
  5.8471849733808012E-01 b      1472     2    12
 -4.1075831327351535E+00 b      1473     2    13
 -8.4516105783024660E+00 b      1474     2    14
  1.4871034764970934E+00 b      1475     2    15
 -4.0919044517369061E+00 b      1476     2    16
 -4.2045863330982911E+00 b      1477     2    17
  7.4238609287692670E-01 b      1478     2    18
 -1.3525590723862613E+00 b      1479     2    19
 -3.4774226857634876E+00 b      1480     2    20
 -3.3639009632861899E-02 a      1481     2     1     3     1
  2.7815208914325884E-01 a      1482     2     2     3     1
  8.4197904472916682E-02 a      1483     2     3     3     1
 -3.0388720870111362E-02 a      1484     2     4     3     1
  2.4135570223569527E-01 a      1485     2     5     3     1
 -7.4322566383708474E-02 a      1486     2     6     3     1
 -3.1800027631374926E-02 a      1487     2     7     3     1
 -3.3356424204926967E-02 a      1488     2     8     3     1
 -8.8122447672291132E-02 a      1489     2     9     3     1
 -6.6468477997983541E-02 a      1490     2    10     3     1
  6.1609642351544307E-02 a      1491     2    11     3     1
  2.6806704252015857E-02 a      1492     2    12     3     1
  9.5931689519150390E-02 a      1493     2    13     3     1
  1.0474744991136467E-02 a      1494     2    14     3     1
 -3.9499851229990404E-02 a      1495     2    15     3     1
 -1.2253974952846457E-01 a      1496     2    16     3     1
  8.7320653284904196E-03 a      1497     2    17     3     1
 -1.0672220930213777E-01 a      1498     2    18     3     1
  1.8309113753460945E-02 a      1499     2    19     3     1
  1.3339052471527491E-01 a      1500     2    20     3     1
  4.6445928758506128E+00 b      1501     3     1
