################################################################################
# Neural network connection values (weights and biases).
################################################################################
# Col  Name       Description
################################################################################
# 1    connection Neural network connection value.
# 2    t          Connection type (a = weight, b = bias).
# 3    index      Index enumerating weights.
# 4    l_s        Starting point layer (end point layer for biases).
# 5    n_s        Starting point neuron in starting layer (end point neuron for biases).
# 6    l_e        End point layer.
# 7    n_e        End point neuron in end layer.
################################################################################
#                      1 2         3     4     5     6     7
#             connection t     index   l_s   n_s   l_e   n_e
############################################################
 -6.1676780529996300E+01 a         1     0     1     1     1
  5.9162240478602307E+01 a         2     0     1     1     2
  7.6907524072643376E+00 a         3     0     1     1     3
  1.7052314347063660E+02 a         4     0     1     1     4
  3.5459840120979029E+00 a         5     0     1     1     5
  5.4314692950769853E+01 a         6     0     1     1     6
  1.1232196995556558E+02 a         7     0     1     1     7
  2.6791285663817401E+01 a         8     0     1     1     8
 -3.9671019472810194E+01 a         9     0     1     1     9
  3.9490374162062658E+01 a        10     0     1     1    10
 -2.8570824043862075E+01 a        11     0     1     1    11
  5.6510761083352250E+01 a        12     0     1     1    12
  4.1766201265797065E+01 a        13     0     1     1    13
 -1.2296237046531674E+01 a        14     0     1     1    14
 -2.8812144783348234E+01 a        15     0     1     1    15
 -1.6992979999968991E+01 a        16     0     1     1    16
 -1.1256770694679605E+02 a        17     0     1     1    17
 -4.2193488094943383E+01 a        18     0     1     1    18
  2.2942575916268844E+01 a        19     0     1     1    19
  2.1234952199582079E+02 a        20     0     1     1    20
  6.3783654066871030E+01 a        21     0     2     1     1
  2.9063924798291865E+01 a        22     0     2     1     2
  3.7261376205034601E+01 a        23     0     2     1     3
 -7.9977034979293975E+01 a        24     0     2     1     4
  2.2084385682536965E+01 a        25     0     2     1     5
 -2.3691855664402745E+01 a        26     0     2     1     6
  2.1666783287572887E+01 a        27     0     2     1     7
 -5.5509248858146229E+01 a        28     0     2     1     8
 -2.3649458443984191E+01 a        29     0     2     1     9
 -6.3880148792665302E+01 a        30     0     2     1    10
  3.7022090443946354E+01 a        31     0     2     1    11
 -3.4962650075586190E+01 a        32     0     2     1    12
  3.5697314636784071E+01 a        33     0     2     1    13
 -9.6183885861242487E+01 a        34     0     2     1    14
 -6.5671379026145829E+00 a        35     0     2     1    15
 -6.4314603549750558E+01 a        36     0     2     1    16
  1.6507687172756964E+00 a        37     0     2     1    17
  1.8863121997239897E+01 a        38     0     2     1    18
 -2.7948534141695330E+01 a        39     0     2     1    19
 -1.4686559183599977E+01 a        40     0     2     1    20
  1.8688215037863407E+02 a        41     0     3     1     1
 -1.1809861979408959E+02 a        42     0     3     1     2
 -9.3309830990927036E+00 a        43     0     3     1     3
 -3.0136211760449635E+02 a        44     0     3     1     4
  3.8532073033965013E+01 a        45     0     3     1     5
 -1.1935366747280220E+02 a        46     0     3     1     6
 -1.9501308218437691E+02 a        47     0     3     1     7
 -5.3678846194296824E+01 a        48     0     3     1     8
  5.9105629305691565E+01 a        49     0     3     1     9
 -9.3739768764919020E+01 a        50     0     3     1    10
  4.8986496812998574E+01 a        51     0     3     1    11
 -3.4489125740304097E+01 a        52     0     3     1    12
 -6.7230113582457520E+01 a        53     0     3     1    13
  4.7450073183580024E+01 a        54     0     3     1    14
  2.1016224093865951E+01 a        55     0     3     1    15
  4.2276012671112198E+01 a        56     0     3     1    16
  1.1284290601461539E+02 a        57     0     3     1    17
  3.3857059291438361E+01 a        58     0     3     1    18
 -7.3921974411892506E+01 a        59     0     3     1    19
 -3.4458282630836010E+02 a        60     0     3     1    20
 -2.0206382270203017E+02 a        61     0     4     1     1
 -7.6403959594872305E+01 a        62     0     4     1     2
 -7.8133684197466508E+01 a        63     0     4     1     3
  1.2529299773632300E+02 a        64     0     4     1     4
 -5.4438956685201127E+01 a        65     0     4     1     5
  4.9036658777665373E+01 a        66     0     4     1     6
 -9.3351143621697503E+01 a        67     0     4     1     7
  1.2137377188934776E+02 a        68     0     4     1     8
  5.0096981312296997E+01 a        69     0     4     1     9
  9.5637214062951031E+01 a        70     0     4     1    10
 -3.3817695401672580E+01 a        71     0     4     1    11
  1.0168101715519605E+02 a        72     0     4     1    12
 -4.5256390768641005E+01 a        73     0     4     1    13
  1.9435421946784359E+02 a        74     0     4     1    14
  1.6445123350219490E+01 a        75     0     4     1    15
  1.2955765927024677E+02 a        76     0     4     1    16
 -1.1518619705661379E+00 a        77     0     4     1    17
 -3.3592236972449037E+01 a        78     0     4     1    18
  7.3133008973441179E+01 a        79     0     4     1    19
  4.6003040737716603E+01 a        80     0     4     1    20
  4.9763077977264505E+00 a        81     0     5     1     1
 -3.4617520741354774E+01 a        82     0     5     1     2
  3.3477758613706023E+01 a        83     0     5     1     3
 -4.1668456493519621E+01 a        84     0     5     1     4
 -1.1139447744582563E+02 a        85     0     5     1     5
 -6.5129105803702583E+00 a        86     0     5     1     6
 -5.7563263862280252E+01 a        87     0     5     1     7
 -3.1242495787489979E+01 a        88     0     5     1     8
 -1.1269104129166090E+00 a        89     0     5     1     9
 -3.4099363642096201E+01 a        90     0     5     1    10
 -6.3904654802725055E+01 a        91     0     5     1    11
 -9.5168952082399059E+01 a        92     0     5     1    12
 -5.5725874950323167E+01 a        93     0     5     1    13
 -2.5033479489252571E+01 a        94     0     5     1    14
  6.2501749336048384E+01 a        95     0     5     1    15
 -3.1601677635986370E+01 a        96     0     5     1    16
  1.2718520571305366E+02 a        97     0     5     1    17
  4.4758215460813403E+01 a        98     0     5     1    18
  3.7557602798115255E+01 a        99     0     5     1    19
 -6.7018456103023368E+01 a       100     0     5     1    20
  9.2577116281981290E+01 a       101     0     6     1     1
 -3.6772790503745045E+00 a       102     0     6     1     2
  3.4115153637279434E+01 a       103     0     6     1     3
  7.9683096848798883E+01 a       104     0     6     1     4
 -3.7664991680490154E+01 a       105     0     6     1     5
  2.3594243585329483E+01 a       106     0     6     1     6
 -2.1337578122108603E+01 a       107     0     6     1     7
 -1.9756902547914184E+01 a       108     0     6     1     8
 -8.6579670254758383E+01 a       109     0     6     1     9
  1.1727636276363548E+02 a       110     0     6     1    10
 -9.6150167519266503E+01 a       111     0     6     1    11
 -6.2810960598372894E+01 a       112     0     6     1    12
 -3.5768710478950211E+01 a       113     0     6     1    13
 -1.0834452673288123E+01 a       114     0     6     1    14
 -3.8752426441386021E+01 a       115     0     6     1    15
  8.9068690075519257E+00 a       116     0     6     1    16
 -2.1154315044268596E+01 a       117     0     6     1    17
 -7.2291649761903614E+01 a       118     0     6     1    18
 -4.3684330653317943E+01 a       119     0     6     1    19
  5.8134766309959772E+01 a       120     0     6     1    20
  4.5026393986442077E+00 a       121     0     7     1     1
  1.9043893461729706E+01 a       122     0     7     1     2
 -3.5888143121101336E+01 a       123     0     7     1     3
  8.6144357357988994E+00 a       124     0     7     1     4
  8.2602941603654600E+01 a       125     0     7     1     5
  6.1739575959283117E+00 a       126     0     7     1     6
  4.4507355626618342E+01 a       127     0     7     1     7
  1.4562329234544034E+01 a       128     0     7     1     8
  1.7206671104363451E+01 a       129     0     7     1     9
  5.6349000272605974E+00 a       130     0     7     1    10
  2.1402776917212080E+01 a       131     0     7     1    11
  4.5304963820865808E+01 a       132     0     7     1    12
  4.2855149838970505E+01 a       133     0     7     1    13
 -3.0652396243930178E+00 a       134     0     7     1    14
 -5.5046010412820664E+01 a       135     0     7     1    15
  1.2309182932592751E+01 a       136     0     7     1    16
 -7.2294489863206223E+01 a       137     0     7     1    17
 -3.2663973440672196E+00 a       138     0     7     1    18
 -1.4594772944130989E+01 a       139     0     7     1    19
  2.6559480974872063E+01 a       140     0     7     1    20
 -9.1472651459925061E+01 a       141     0     8     1     1
  1.4874319508185907E+01 a       142     0     8     1     2
 -2.0957561819420725E+01 a       143     0     8     1     3
 -3.7514798378107336E+01 a       144     0     8     1     4
  2.1542873427942205E+01 a       145     0     8     1     5
 -1.8668201140337835E+01 a       146     0     8     1     6
  7.5980382751156439E+00 a       147     0     8     1     7
  4.9891760808415455E+00 a       148     0     8     1     8
  5.6421004364881675E+01 a       149     0     8     1     9
 -7.3428189154755870E+01 a       150     0     8     1    10
  4.5266115130700079E+01 a       151     0     8     1    11
  1.1755761038826776E+01 a       152     0     8     1    12
  6.9021863886892709E-01 a       153     0     8     1    13
  2.0078515081651780E+00 a       154     0     8     1    14
  2.3436111104517828E+01 a       155     0     8     1    15
 -1.2925864721722705E+01 a       156     0     8     1    16
  2.5254532051463084E+01 a       157     0     8     1    17
  2.2253812504318169E+01 a       158     0     8     1    18
  2.3121675369296096E+01 a       159     0     8     1    19
 -2.3905514270837330E+01 a       160     0     8     1    20
 -2.3367070985422927E+02 a       161     0     9     1     1
  1.3504076526817207E+02 a       162     0     9     1     2
 -1.4425205077786387E+01 a       163     0     9     1     3
  2.6245660870477985E+02 a       164     0     9     1     4
  3.1227314436817412E+01 a       165     0     9     1     5
  1.0099610823874794E+02 a       166     0     9     1     6
  1.9230605917116827E+02 a       167     0     9     1     7
  1.2929424652059521E+02 a       168     0     9     1     8
 -2.7914624871778802E+01 a       169     0     9     1     9
  1.5112654120680131E+02 a       170     0     9     1    10
  5.0735922235984262E+01 a       171     0     9     1    11
  7.8606805190134068E+01 a       172     0     9     1    12
  1.0962810507200801E+02 a       173     0     9     1    13
  1.5818181302856903E+01 a       174     0     9     1    14
 -9.8101548827233582E+00 a       175     0     9     1    15
 -7.0215644818535650E-01 a       176     0     9     1    16
 -9.1280001899584761E+01 a       177     0     9     1    17
 -4.7664360178276830E+01 a       178     0     9     1    18
  1.6610227898293065E+01 a       179     0     9     1    19
  2.6048052945759537E+02 a       180     0     9     1    20
  1.2294236081515847E+02 a       181     0    10     1     1
  7.6087596473973576E+01 a       182     0    10     1     2
  3.2662358618567104E+01 a       183     0    10     1     3
 -1.4032205395993384E+02 a       184     0    10     1     4
  8.4604461472377537E+01 a       185     0    10     1     5
 -7.2482511887523486E+01 a       186     0    10     1     6
  1.7274934604709910E+02 a       187     0    10     1     7
 -5.0257036292140825E+01 a       188     0    10     1     8
  4.9443567303394502E+01 a       189     0    10     1     9
 -1.7191915515049101E+02 a       190     0    10     1    10
  8.8231061307407231E+01 a       191     0    10     1    11
 -1.0162073749129892E+00 a       192     0    10     1    12
  5.5457913987490834E+01 a       193     0    10     1    13
 -1.4671703470453940E+02 a       194     0    10     1    14
  5.7895125585621557E+01 a       195     0    10     1    15
 -9.3972460940137864E+01 a       196     0    10     1    16
  1.5569759604022293E+01 a       197     0    10     1    17
  1.1008827543961787E+02 a       198     0    10     1    18
 -2.8727695944781168E+01 a       199     0    10     1    19
 -1.4623355939289604E+02 a       200     0    10     1    20
  7.9234131543781231E+01 a       201     0    11     1     1
 -8.3232873262707912E+01 a       202     0    11     1     2
 -7.2127960274503110E+01 a       203     0    11     1     3
 -9.6321866371721640E+01 a       204     0    11     1     4
  7.3507290832742953E+01 a       205     0    11     1     5
  6.0418288701804466E+00 a       206     0    11     1     6
  7.7092353684956151E+01 a       207     0    11     1     7
 -2.9207372649044490E+01 a       208     0    11     1     8
  1.2050191383415418E+02 a       209     0    11     1     9
 -1.6209035738059666E+02 a       210     0    11     1    10
 -1.2726458503450009E+02 a       211     0    11     1    11
  2.2221079618061058E+01 a       212     0    11     1    12
  6.5907165664993528E+01 a       213     0    11     1    13
 -6.2706357078023274E+01 a       214     0    11     1    14
 -6.6458451492642553E+01 a       215     0    11     1    15
  7.3009436380233215E+00 a       216     0    11     1    16
 -1.3142802059061927E+01 a       217     0    11     1    17
  8.2275868426024985E+01 a       218     0    11     1    18
  3.2546174572514886E+01 a       219     0    11     1    19
 -6.4930727287719861E+01 a       220     0    11     1    20
 -4.1771577150857377E+02 a       221     0    12     1     1
  8.9298080123486727E+01 a       222     0    12     1     2
 -2.1129113088961503E+01 a       223     0    12     1     3
  9.2183654617980821E+01 a       224     0    12     1     4
 -7.7569683022160696E+00 a       225     0    12     1     5
 -4.5496465354904622E+01 a       226     0    12     1     6
 -5.4954052199513832E+01 a       227     0    12     1     7
 -1.2023580006208315E+01 a       228     0    12     1     8
  1.6118660447509388E+01 a       229     0    12     1     9
 -5.1896044571461939E+00 a       230     0    12     1    10
 -4.3139675131444847E+01 a       231     0    12     1    11
 -1.4167148996947304E+02 a       232     0    12     1    12
 -1.2230730690007037E+02 a       233     0    12     1    13
 -5.2840854973156283E+01 a       234     0    12     1    14
  1.1130609348946260E+01 a       235     0    12     1    15
 -4.8457261638512037E+00 a       236     0    12     1    16
  1.0348220404727127E+02 a       237     0    12     1    17
 -1.2829892756566898E+02 a       238     0    12     1    18
  8.3539060758457175E+00 a       239     0    12     1    19
  8.8638565465475423E+01 a       240     0    12     1    20
  1.4792424821269725E+02 a       241     0    13     1     1
 -8.2680780024326978E+01 a       242     0    13     1     2
  1.5249215908890895E+01 a       243     0    13     1     3
 -1.3378831623595997E+02 a       244     0    13     1     4
 -3.4399150971530368E+01 a       245     0    13     1     5
 -5.0208276599506398E+01 a       246     0    13     1     6
 -1.2023356402086371E+02 a       247     0    13     1     7
 -1.2152454111760031E+02 a       248     0    13     1     8
 -8.8050059630190987E+00 a       249     0    13     1     9
 -9.3984886809684966E+01 a       250     0    13     1    10
 -3.7540534218708402E+01 a       251     0    13     1    11
 -5.5623300216849515E+01 a       252     0    13     1    12
 -8.4900271039704336E+01 a       253     0    13     1    13
 -3.8733512980057839E+01 a       254     0    13     1    14
 -1.0532689058098242E+01 a       255     0    13     1    15
 -6.8468249025591144E+00 a       256     0    13     1    16
  1.5367523824432764E+01 a       257     0    13     1    17
  1.6746261484351290E+01 a       258     0    13     1    18
  9.9443431184691633E+00 a       259     0    13     1    19
 -1.0887814719253241E+02 a       260     0    13     1    20
  4.7640945394189886E+00 a       261     0    14     1     1
 -5.8642287338132974E+01 a       262     0    14     1     2
 -8.2200380667150448E+00 a       263     0    14     1     3
  4.5469231647142657E+01 a       264     0    14     1     4
 -4.3705962999478828E+01 a       265     0    14     1     5
  5.4899209617360768E+01 a       266     0    14     1     6
 -1.2625991985885440E+02 a       267     0    14     1     7
  5.1558695759644939E+00 a       268     0    14     1     8
 -3.8861418590745380E+01 a       269     0    14     1     9
  1.0256822392168981E+02 a       270     0    14     1    10
 -3.8255441484015748E+01 a       271     0    14     1    11
 -8.1372796947626629E+00 a       272     0    14     1    12
 -1.3885519454128543E+01 a       273     0    14     1    13
  9.1073632550381575E+01 a       274     0    14     1    14
 -5.4077015869045866E+01 a       275     0    14     1    15
  3.4910720138793316E+01 a       276     0    14     1    16
 -1.9131378149792347E+01 a       277     0    14     1    17
 -5.4132355009162588E+01 a       278     0    14     1    18
  1.2707071911270289E+01 a       279     0    14     1    19
  9.9075371816734460E+01 a       280     0    14     1    20
 -1.5027253645329081E+01 a       281     0    15     1     1
  1.9082347191464045E+01 a       282     0    15     1     2
  1.8613028282592865E+01 a       283     0    15     1     3
  2.3119274781655420E+01 a       284     0    15     1     4
 -1.8569252295892149E+01 a       285     0    15     1     5
 -2.3933295956254947E+00 a       286     0    15     1     6
 -1.7540661110234918E+01 a       287     0    15     1     7
  6.2208477761267078E+00 a       288     0    15     1     8
 -2.6854947850940476E+01 a       289     0    15     1     9
  4.8575577901292974E+01 a       290     0    15     1    10
  2.6551514636207219E+01 a       291     0    15     1    11
 -5.4657715637047559E+00 a       292     0    15     1    12
 -1.2647625348514790E+01 a       293     0    15     1    13
  1.1770322749848949E+01 a       294     0    15     1    14
  1.7686343726041514E+01 a       295     0    15     1    15
 -1.6092508725590410E-01 a       296     0    15     1    16
  4.8419903075728525E+00 a       297     0    15     1    17
 -1.7244706275841203E+01 a       298     0    15     1    18
 -6.2053507851939775E+00 a       299     0    15     1    19
  1.4379293225960923E+01 a       300     0    15     1    20
  5.4849728299866797E+01 a       301     0    16     1     1
 -1.3393880830847122E+01 a       302     0    16     1     2
  5.0304414293535835E+00 a       303     0    16     1     3
 -1.1712398771229669E+01 a       304     0    16     1     4
  8.3861898376932498E-01 a       305     0    16     1     5
  5.6128460277600976E+00 a       306     0    16     1     6
  7.3870305123174074E+00 a       307     0    16     1     7
  1.0220742388846313E+00 a       308     0    16     1     8
 -1.6685504304742438E+00 a       309     0    16     1     9
  1.3552494643016280E+01 a       310     0    16     1    10
  5.7674443291090309E+00 a       311     0    16     1    11
  1.8138770819376166E+01 a       312     0    16     1    12
  1.6406548645037375E+01 a       313     0    16     1    13
  6.7077608246503635E+00 a       314     0    16     1    14
  3.4008177396299694E-01 a       315     0    16     1    15
  2.7738686123429916E+00 a       316     0    16     1    16
 -1.3172332039653769E+01 a       317     0    16     1    17
  1.5422392039441705E+01 a       318     0    16     1    18
 -5.2148630190720102E-01 a       319     0    16     1    19
 -9.8650082918968121E+00 a       320     0    16     1    20
 -1.2097646401116583E+02 a       321     0    17     1     1
  8.4957497278788281E+01 a       322     0    17     1     2
  6.3897905291403973E+01 a       323     0    17     1     3
  1.1224658963495897E+02 a       324     0    17     1     4
 -6.5995236910063468E+01 a       325     0    17     1     5
  8.0849902117663870E+00 a       326     0    17     1     6
 -1.9340672618346940E+01 a       327     0    17     1     7
  7.2951550663352606E+01 a       328     0    17     1     8
 -8.5218547715116429E+01 a       329     0    17     1     9
  1.3146262853062493E+02 a       330     0    17     1    10
  9.6906138145096349E+01 a       331     0    17     1    11
  3.6152746539745899E+00 a       332     0    17     1    12
 -4.3225508208468035E+01 a       333     0    17     1    13
  6.5085192037762468E+01 a       334     0    17     1    14
  7.6209766676131650E+01 a       335     0    17     1    15
 -5.3842155639066878E+00 a       336     0    17     1    16
  2.6428316406650417E+01 a       337     0    17     1    17
 -6.5607507936791436E+01 a       338     0    17     1    18
 -3.0212950791719226E+01 a       339     0    17     1    19
  7.0943839129363994E+01 a       340     0    17     1    20
  3.4285256324859438E+02 a       341     0    18     1     1
 -5.3809105072967618E+01 a       342     0    18     1     2
  2.0426410551654612E+01 a       343     0    18     1     3
 -7.1740952056980461E+01 a       344     0    18     1     4
  1.0284080965261353E+01 a       345     0    18     1     5
  2.3451276590520450E+01 a       346     0    18     1     6
  8.6134484963060586E+01 a       347     0    18     1     7
  6.9767975549141932E+00 a       348     0    18     1     8
 -2.2804119701017086E+01 a       349     0    18     1     9
 -7.8934368617867054E+00 a       350     0    18     1    10
  2.9099358051468425E+01 a       351     0    18     1    11
  1.1449246992329084E+02 a       352     0    18     1    12
  1.0090226943935843E+02 a       353     0    18     1    13
  7.0362495043822957E+00 a       354     0    18     1    14
  4.9953604024234410E-01 a       355     0    18     1    15
 -1.2643895236021641E+00 a       356     0    18     1    16
 -8.4674827372449613E+01 a       357     0    18     1    17
  1.0911774262614871E+02 a       358     0    18     1    18
 -1.6609118971054119E+01 a       359     0    18     1    19
 -9.4823204787535175E+01 a       360     0    18     1    20
  4.3344423335541702E+00 a       361     0    19     1     1
  8.1596631010206189E-01 a       362     0    19     1     2
 -8.1527417231462074E-01 a       363     0    19     1     3
  1.5900919998311902E+00 a       364     0    19     1     4
 -7.4211510893627715E+00 a       365     0    19     1     5
 -1.1392545378212373E+00 a       366     0    19     1     6
 -1.3897035651368176E+01 a       367     0    19     1     7
 -9.7004989815330180E+00 a       368     0    19     1     8
 -1.3876044517972204E+01 a       369     0    19     1     9
  1.2480445647837383E+01 a       370     0    19     1    10
  7.8954798231471317E+00 a       371     0    19     1    11
 -7.2818447151930297E+00 a       372     0    19     1    12
  1.6746553037132630E+00 a       373     0    19     1    13
  6.8539321413934096E-01 a       374     0    19     1    14
 -8.5889054843743740E-01 a       375     0    19     1    15
 -1.4469102056878465E+00 a       376     0    19     1    16
 -2.1179564966079184E-01 a       377     0    19     1    17
 -7.1999272877624909E+00 a       378     0    19     1    18
  7.8513162904695025E-02 a       379     0    19     1    19
  5.8124649813653511E+00 a       380     0    19     1    20
  3.8587971283416991E+01 a       381     0    20     1     1
 -9.0056286750884240E+00 a       382     0    20     1     2
  3.0954353656595615E+00 a       383     0    20     1     3
 -7.9977410713144312E+00 a       384     0    20     1     4
 -3.6407558676167934E-01 a       385     0    20     1     5
  5.7289127802048849E+00 a       386     0    20     1     6
 -3.4723050553682242E+00 a       387     0    20     1     7
  1.7518963974109720E+00 a       388     0    20     1     8
 -9.4415364014976166E-01 a       389     0    20     1     9
 -2.2256332929145102E+00 a       390     0    20     1    10
  4.0905029975426883E+00 a       391     0    20     1    11
  9.8960631433093678E+00 a       392     0    20     1    12
  8.6227781247042916E+00 a       393     0    20     1    13
  8.8137412838727371E+00 a       394     0    20     1    14
 -1.9603697529110766E+00 a       395     0    20     1    15
 -1.4931498138512362E+00 a       396     0    20     1    16
 -8.5053963051972250E+00 a       397     0    20     1    17
  1.1451589263063436E+01 a       398     0    20     1    18
 -3.0620148236641893E+00 a       399     0    20     1    19
 -3.7157581124372641E+00 a       400     0    20     1    20
 -5.9715826239876888E+00 a       401     0    21     1     1
  2.4174739652739006E+00 a       402     0    21     1     2
  3.1527011960773130E+00 a       403     0    21     1     3
  2.2841837003080196E+00 a       404     0    21     1     4
 -8.6190624418761086E-01 a       405     0    21     1     5
  1.0872230115320369E+00 a       406     0    21     1     6
  4.7741302667856850E-01 a       407     0    21     1     7
  2.6188620191583403E+00 a       408     0    21     1     8
 -3.7033143897377430E-01 a       409     0    21     1     9
 -5.4313605878997304E+00 a       410     0    21     1    10
  2.9720842899507072E+00 a       411     0    21     1    11
 -7.4789596821635418E-01 a       412     0    21     1    12
 -7.7009270386458066E+00 a       413     0    21     1    13
  3.5400384628847390E+00 a       414     0    21     1    14
  2.4579345657688947E+00 a       415     0    21     1    15
 -1.2351092989796957E+00 a       416     0    21     1    16
  1.1552731999615338E+00 a       417     0    21     1    17
 -1.2721688867317817E+00 a       418     0    21     1    18
 -6.9864687415194859E-01 a       419     0    21     1    19
  1.9615499712127127E-01 a       420     0    21     1    20
  3.8210449114111977E-01 a       421     0    22     1     1
  1.1079009948824141E+00 a       422     0    22     1     2
 -5.3535035617655224E-01 a       423     0    22     1     3
  4.6396017202857576E-01 a       424     0    22     1     4
  9.9372663981405276E-02 a       425     0    22     1     5
 -1.3402737308493337E-01 a       426     0    22     1     6
  2.0116223930675732E+00 a       427     0    22     1     7
 -1.6926840088775025E-01 a       428     0    22     1     8
 -1.4685842853469453E+00 a       429     0    22     1     9
 -1.6180030494806554E+00 a       430     0    22     1    10
 -6.5029480746293988E-01 a       431     0    22     1    11
  3.5858108027106711E-01 a       432     0    22     1    12
  6.9273295937797019E-01 a       433     0    22     1    13
 -7.5241684139220300E-01 a       434     0    22     1    14
 -1.1367081536325672E+00 a       435     0    22     1    15
 -4.1573122293486309E-01 a       436     0    22     1    16
 -6.4512434958733755E-01 a       437     0    22     1    17
  7.4825975302158718E-02 a       438     0    22     1    18
  2.1645157130783332E-01 a       439     0    22     1    19
 -1.2748346735732627E+00 a       440     0    22     1    20
 -1.6235900819217054E+01 a       441     0    23     1     1
  1.0198760554537506E+01 a       442     0    23     1     2
 -3.0697500356776676E+01 a       443     0    23     1     3
  6.7679972664036427E+01 a       444     0    23     1     4
  5.3456387309478393E+00 a       445     0    23     1     5
  1.5102999461535222E+02 a       446     0    23     1     6
  3.3990416415676665E+00 a       447     0    23     1     7
 -1.7561692157069707E+01 a       448     0    23     1     8
 -8.5281379675506827E+01 a       449     0    23     1     9
  3.2771109183418609E+01 a       450     0    23     1    10
  1.7021848895968782E+02 a       451     0    23     1    11
  1.1953131118257166E+02 a       452     0    23     1    12
  9.6596211193818505E+01 a       453     0    23     1    13
 -9.8217616438294328E+01 a       454     0    23     1    14
  3.3351078981079372E+00 a       455     0    23     1    15
 -7.5890519737422153E+01 a       456     0    23     1    16
 -2.1697758841187547E+01 a       457     0    23     1    17
 -4.0257897412832016E+01 a       458     0    23     1    18
  5.2230651925558696E+01 a       459     0    23     1    19
 -9.4682327188130358E+01 a       460     0    23     1    20
  1.3710781593760854E+02 a       461     0    24     1     1
  6.7692385262980906E+01 a       462     0    24     1     2
  5.5731536032406915E+01 a       463     0    24     1     3
  1.1101327419688863E+01 a       464     0    24     1     4
  8.2106299846962131E+01 a       465     0    24     1     5
  1.4626111187943343E+02 a       466     0    24     1     6
  8.0507931688235473E+01 a       467     0    24     1     7
  3.8372500624582440E+00 a       468     0    24     1     8
  1.5777862585590668E+02 a       469     0    24     1     9
  5.2507517533039596E+01 a       470     0    24     1    10
  5.8445713656498711E+01 a       471     0    24     1    11
  9.4675589152594242E+01 a       472     0    24     1    12
  1.5094268824201865E+01 a       473     0    24     1    13
  2.2898521071371457E+02 a       474     0    24     1    14
  3.2657130314788873E+01 a       475     0    24     1    15
 -1.6275603693349296E+01 a       476     0    24     1    16
  1.9674331065071621E+02 a       477     0    24     1    17
  5.8215577120462655E+01 a       478     0    24     1    18
  2.6413360724071030E+01 a       479     0    24     1    19
 -3.3988821987070459E+01 a       480     0    24     1    20
  8.7761822323748877E+00 a       481     0    25     1     1
  4.1503445378922159E+01 a       482     0    25     1     2
 -4.7251657469075731E+01 a       483     0    25     1     3
 -1.2304642993454986E+02 a       484     0    25     1     4
  7.5447026718201215E+01 a       485     0    25     1     5
  1.7337765585197265E+00 a       486     0    25     1     6
  4.8924031717046539E+01 a       487     0    25     1     7
  8.9088549935356184E+01 a       488     0    25     1     8
  2.7128889878609800E+02 a       489     0    25     1     9
  9.4045548266098621E+01 a       490     0    25     1    10
 -2.1091063044576082E+01 a       491     0    25     1    11
 -4.6100234820720438E+01 a       492     0    25     1    12
 -7.6442499957186698E+01 a       493     0    25     1    13
  1.2060068615384895E+02 a       494     0    25     1    14
  7.6858022338013669E+01 a       495     0    25     1    15
 -1.8941849551951071E+02 a       496     0    25     1    16
  1.3606404086706559E+02 a       497     0    25     1    17
  1.7992947244930093E+01 a       498     0    25     1    18
  7.6531820648884676E+01 a       499     0    25     1    19
  1.8777092290116595E+01 a       500     0    25     1    20
 -7.0015890393261593E+00 a       501     0    26     1     1
 -4.7030137713021809E+01 a       502     0    26     1     2
  2.3584232642151481E+01 a       503     0    26     1     3
 -7.7482195452387174E+01 a       504     0    26     1     4
 -1.8502683525376206E+01 a       505     0    26     1     5
 -1.9669788416781600E+02 a       506     0    26     1     6
  3.8887357548063541E+01 a       507     0    26     1     7
 -1.5604306398973373E+01 a       508     0    26     1     8
  1.3969210721206733E+02 a       509     0    26     1     9
 -9.6828135029466278E+00 a       510     0    26     1    10
 -2.6884646711475841E+02 a       511     0    26     1    11
 -7.4226528059875150E+01 a       512     0    26     1    12
  2.3237788051114261E+01 a       513     0    26     1    13
  5.2472833802037087E+01 a       514     0    26     1    14
  3.3758483045726777E+01 a       515     0    26     1    15
  5.3572991506421609E+01 a       516     0    26     1    16
 -1.7286515345144149E+01 a       517     0    26     1    17
  1.1325254730679159E+01 a       518     0    26     1    18
 -2.8580537937055368E+01 a       519     0    26     1    19
  1.3786694241323866E+02 a       520     0    26     1    20
 -5.2979484616701093E+01 a       521     0    27     1     1
  3.1588876945334171E+01 a       522     0    27     1     2
 -9.5242948078854761E-01 a       523     0    27     1     3
  4.7068319701171390E+01 a       524     0    27     1     4
 -7.3260742477543232E+01 a       525     0    27     1     5
 -1.1467697481017041E+01 a       526     0    27     1     6
 -7.3858797420382800E+01 a       527     0    27     1     7
 -3.3773633879101894E+01 a       528     0    27     1     8
 -2.0299854459986935E+01 a       529     0    27     1     9
 -9.5308208360666349E+00 a       530     0    27     1    10
 -4.7567180338023547E+01 a       531     0    27     1    11
  1.1347017973724990E-01 a       532     0    27     1    12
 -8.2183696997193714E+00 a       533     0    27     1    13
 -9.9165322563053209E+01 a       534     0    27     1    14
  1.2457915168783606E+00 a       535     0    27     1    15
  3.2191878457830690E+01 a       536     0    27     1    16
 -3.2222991344551303E+01 a       537     0    27     1    17
 -3.2505479741114009E+01 a       538     0    27     1    18
  1.2190816015257758E+01 a       539     0    27     1    19
  5.8755419088086349E+01 a       540     0    27     1    20
  6.6696988212293832E+01 a       541     0    28     1     1
  2.0537482936961212E+01 a       542     0    28     1     2
  3.6800376314628430E+01 a       543     0    28     1     3
 -5.0451674182236744E+01 a       544     0    28     1     4
 -4.6543527201279190E+01 a       545     0    28     1     5
  2.5621286153662890E+01 a       546     0    28     1     6
 -1.2041753562418094E+02 a       547     0    28     1     7
 -1.3391465667435008E+02 a       548     0    28     1     8
 -1.3494308938269353E+02 a       549     0    28     1     9
 -3.6450379175439562E+00 a       550     0    28     1    10
  2.4888600627126010E+01 a       551     0    28     1    11
  5.6385673653797468E+01 a       552     0    28     1    12
  3.0200101809164746E+01 a       553     0    28     1    13
 -4.5331575678331070E+01 a       554     0    28     1    14
 -9.1285614994907093E+01 a       555     0    28     1    15
 -2.0326902412580421E+00 a       556     0    28     1    16
 -2.0819858965260551E+01 a       557     0    28     1    17
 -7.2264211756473543E+01 a       558     0    28     1    18
 -8.1206533622666903E+00 a       559     0    28     1    19
  5.5116684279958712E+01 a       560     0    28     1    20
  2.3739690622989613E+01 a       561     0    29     1     1
  4.5964749056587326E+00 a       562     0    29     1     2
 -1.5611426032686671E+01 a       563     0    29     1     3
 -3.6988362038671582E+01 a       564     0    29     1     4
  7.4498613369510966E+00 a       565     0    29     1     5
 -1.3400994433282614E+01 a       566     0    29     1     6
 -3.1381735645060633E+01 a       567     0    29     1     7
 -2.4148934031675093E+01 a       568     0    29     1     8
 -3.3086373396875040E+01 a       569     0    29     1     9
 -5.0843304492573163E+00 a       570     0    29     1    10
 -4.7647477581706703E+01 a       571     0    29     1    11
 -6.5558584526948522E+01 a       572     0    29     1    12
 -1.1659209290647017E+02 a       573     0    29     1    13
  8.1106727859542474E+01 a       574     0    29     1    14
  2.2709522460580875E+00 a       575     0    29     1    15
  1.0127540127638753E+01 a       576     0    29     1    16
  7.4400551502719026E+00 a       577     0    29     1    17
  3.9455324851114440E+01 a       578     0    29     1    18
 -1.6009651594994228E+01 a       579     0    29     1    19
  2.6995115784626876E+01 a       580     0    29     1    20
 -5.2409190477038878E+00 a       581     0    30     1     1
 -8.3591249965153821E+01 a       582     0    30     1     2
 -3.2484470554895694E+01 a       583     0    30     1     3
 -8.5809442533894842E+00 a       584     0    30     1     4
  1.1916211544033670E+01 a       585     0    30     1     5
 -1.0676026723299476E+02 a       586     0    30     1     6
  2.2358350217794346E+01 a       587     0    30     1     7
 -3.2363422388956415E+00 a       588     0    30     1     8
 -1.3448624050619753E+02 a       589     0    30     1     9
  2.6243248198527308E+01 a       590     0    30     1    10
  2.1255033782411108E+01 a       591     0    30     1    11
 -5.7363988337311142E+01 a       592     0    30     1    12
 -4.7530479116216824E+01 a       593     0    30     1    13
 -8.8216586717244226E+01 a       594     0    30     1    14
 -7.1354457222004752E+00 a       595     0    30     1    15
  1.2688937407849014E+01 a       596     0    30     1    16
 -1.3844952347563023E+02 a       597     0    30     1    17
  1.1319590207817654E+01 a       598     0    30     1    18
 -1.2904027779689052E+01 a       599     0    30     1    19
 -4.7376825273911393E+01 a       600     0    30     1    20
 -1.6656863850357645E+01 a       601     0    31     1     1
 -4.9607304331454856E+01 a       602     0    31     1     2
  3.3486095872282263E+01 a       603     0    31     1     3
  1.5861070541993902E+02 a       604     0    31     1     4
 -4.3691454436285690E+00 a       605     0    31     1     5
 -2.4126916956760692E+01 a       606     0    31     1     6
  1.0183674390642851E+02 a       607     0    31     1     7
  1.0810064824000268E+01 a       608     0    31     1     8
 -1.1944081064276959E+02 a       609     0    31     1     9
 -1.8528272086384343E+00 a       610     0    31     1    10
 -8.6110702184362662E+00 a       611     0    31     1    11
 -2.8015628005088860E+00 a       612     0    31     1    12
  1.3294805556770587E+01 a       613     0    31     1    13
 -1.0878229833278105E+01 a       614     0    31     1    14
 -1.3331139337706562E+01 a       615     0    31     1    15
  1.6172341908232244E+02 a       616     0    31     1    16
 -1.0561182550360775E+02 a       617     0    31     1    17
  4.5106392513700655E+01 a       618     0    31     1    18
 -3.3703268290108028E+01 a       619     0    31     1    19
  2.8071351303490726E+00 a       620     0    31     1    20
 -2.0256483372680205E+00 a       621     0    32     1     1
 -5.7314422810196838E+01 a       622     0    32     1     2
  3.4394874817982156E+01 a       623     0    32     1     3
 -1.0902390969742640E+02 a       624     0    32     1     4
 -2.2167065816696113E+01 a       625     0    32     1     5
 -2.6716618399791827E+02 a       626     0    32     1     6
  4.2455159415028447E+01 a       627     0    32     1     7
 -1.5872077148968426E+01 a       628     0    32     1     8
  1.7874082792470077E+02 a       629     0    32     1     9
 -1.7430247430164389E+01 a       630     0    32     1    10
 -3.5708187697515172E+02 a       631     0    32     1    11
 -1.2076086035830581E+02 a       632     0    32     1    12
 -3.9351371481746606E+00 a       633     0    32     1    13
  9.1571255665321488E+01 a       634     0    32     1    14
  3.7171760804819705E+01 a       635     0    32     1    15
  8.1148183467729993E+01 a       636     0    32     1    16
 -1.4654225266923442E+01 a       637     0    32     1    17
  2.6332752497839085E+01 a       638     0    32     1    18
 -4.7093816747563430E+01 a       639     0    32     1    19
  1.8545772826730663E+02 a       640     0    32     1    20
 -1.5480807794129160E+02 a       641     0    33     1     1
 -2.2785660656692453E+01 a       642     0    33     1     2
 -4.3954899874111071E+01 a       643     0    33     1     3
  5.2288999366046156E+01 a       644     0    33     1     4
 -1.4255321909354782E+02 a       645     0    33     1     5
 -1.3435387802266013E+02 a       646     0    33     1     6
 -1.4161001225098886E+02 a       647     0    33     1     7
 -4.7413043130461190E+01 a       648     0    33     1     8
 -1.6142187527016185E+02 a       649     0    33     1     9
 -3.5244025806755403E+01 a       650     0    33     1    10
 -9.1971532283481466E+01 a       651     0    33     1    11
 -7.4633722198897289E+01 a       652     0    33     1    12
 -3.2647636955272262E+01 a       653     0    33     1    13
 -2.9527471904997725E+02 a       654     0    33     1    14
 -1.9321489453490646E+01 a       655     0    33     1    15
  5.7829104002656784E+01 a       656     0    33     1    16
 -2.0008657730179056E+02 a       657     0    33     1    17
 -7.5116247740353543E+01 a       658     0    33     1    18
 -4.7489340082837037E+00 a       659     0    33     1    19
  8.4950571431370506E+01 a       660     0    33     1    20
  7.8747541507104430E+01 a       661     0    34     1     1
 -6.2388423482915627E+00 a       662     0    34     1     2
  7.9255793957494774E+01 a       663     0    34     1     3
  2.9972360166558417E+01 a       664     0    34     1     4
 -1.0162839394491355E+02 a       665     0    34     1     5
  2.6349354357102218E+01 a       666     0    34     1     6
 -1.6070346088191027E+02 a       667     0    34     1     7
 -2.2092607259751190E+02 a       668     0    34     1     8
 -3.4133914697245581E+02 a       669     0    34     1     9
 -5.3628476845678222E+01 a       670     0    34     1    10
  4.1460022746743100E+01 a       671     0    34     1    11
  9.6142707391128411E+01 a       672     0    34     1    12
  8.3026470612577967E+01 a       673     0    34     1    13
 -1.2490757290909283E+02 a       674     0    34     1    14
 -1.6363254135028734E+02 a       675     0    34     1    15
  1.2852434290057221E+02 a       676     0    34     1    16
 -1.1906284695444513E+02 a       677     0    34     1    17
 -9.4654680255827572E+01 a       678     0    34     1    18
 -5.8196471719287011E+01 a       679     0    34     1    19
  6.4756027302893216E+01 a       680     0    34     1    20
 -4.1047501438069123E+00 a       681     0    35     1     1
  4.1946866179806115E+00 a       682     0    35     1     2
  2.5743280439415003E+01 a       683     0    35     1     3
  9.6636089230280593E+00 a       684     0    35     1     4
  1.3128324387195722E+01 a       685     0    35     1     5
 -2.6752289322985852E+01 a       686     0    35     1     6
  4.2716510125782428E+01 a       687     0    35     1     7
  6.7057885700245459E+00 a       688     0    35     1     8
  1.7141530449529935E+01 a       689     0    35     1     9
 -7.1570260798527681E+00 a       690     0    35     1    10
 -2.5699140318547600E+00 a       691     0    35     1    11
  2.2167371998897796E+01 a       692     0    35     1    12
  3.1603884343272597E+01 a       693     0    35     1    13
 -9.4647973972339834E+00 a       694     0    35     1    14
 -2.0904743584191696E+01 a       695     0    35     1    15
  1.7143503424662043E+01 a       696     0    35     1    16
  3.5014424850695933E+00 a       697     0    35     1    17
 -4.2389025334494413E+01 a       698     0    35     1    18
  7.1597842768720596E+00 a       699     0    35     1    19
  1.0649248671305337E+01 a       700     0    35     1    20
 -1.1673189279428057E+01 a       701     0    36     1     1
  5.7405576243281992E+01 a       702     0    36     1     2
  2.1762706354133371E+01 a       703     0    36     1     3
  5.6910680969219811E+00 a       704     0    36     1     4
  2.2743195062976419E+01 a       705     0    36     1     5
  6.7599153801241290E+00 a       706     0    36     1     6
  1.5716942398144031E+00 a       707     0    36     1     7
 -6.4934818545297333E+00 a       708     0    36     1     8
  5.9254130383050992E+01 a       709     0    36     1     9
 -4.8053229113739093E+01 a       710     0    36     1    10
 -1.7691656656541966E+01 a       711     0    36     1    11
 -9.8818806087717022E+00 a       712     0    36     1    12
  6.1039533309216445E+01 a       713     0    36     1    13
  2.4631234242183840E+01 a       714     0    36     1    14
 -2.8204065244775336E+01 a       715     0    36     1    15
  3.8372213900406322E+00 a       716     0    36     1    16
  4.9606572077433889E+01 a       717     0    36     1    17
 -3.7937576154574458E+01 a       718     0    36     1    18
 -7.0794985528754111E+01 a       719     0    36     1    19
  4.4541091000388363E+01 a       720     0    36     1    20
 -8.0909823107175889E+00 a       721     0    37     1     1
  5.0892333171305992E+01 a       722     0    37     1     2
 -9.0532350833967126E+00 a       723     0    37     1     3
 -7.7594654582468578E+00 a       724     0    37     1     4
  2.1165113776042248E+00 a       725     0    37     1     5
  2.9415617293703729E+01 a       726     0    37     1     6
 -2.3760008462459165E+01 a       727     0    37     1     7
 -6.4808520432662515E+00 a       728     0    37     1     8
  1.5955258672710716E+01 a       729     0    37     1     9
 -4.4839032828857313E+01 a       730     0    37     1    10
  1.0560254388063626E+01 a       731     0    37     1    11
 -3.2401387670168824E+00 a       732     0    37     1    12
  3.4485969746197803E+01 a       733     0    37     1    13
 -3.6046192670731656E+01 a       734     0    37     1    14
 -1.7841931986245086E+01 a       735     0    37     1    15
  7.6834889762384355E+00 a       736     0    37     1    16
  3.2253897367162217E+01 a       737     0    37     1    17
 -1.8298858123250771E+01 a       738     0    37     1    18
 -3.4357281037364466E+01 a       739     0    37     1    19
  1.9339374111018999E+00 a       740     0    37     1    20
 -7.8079860738858571E+01 a       741     0    38     1     1
  1.0259669008064540E+02 a       742     0    38     1     2
 -6.0967321956039569E+01 a       743     0    38     1     3
  9.9961621505847120E+01 a       744     0    38     1     4
  6.0156010150837311E+01 a       745     0    38     1     5
  3.7973447389890725E+02 a       746     0    38     1     6
 -6.4112451811322089E+01 a       747     0    38     1     7
 -6.5006608031770936E+00 a       748     0    38     1     8
 -2.5052705969751753E+02 a       749     0    38     1     9
 -6.3468837168927671E+01 a       750     0    38     1    10
  5.1752419943550467E+02 a       751     0    38     1    11
  8.1572104292574153E+01 a       752     0    38     1    12
 -3.7618311177050657E+01 a       753     0    38     1    13
 -1.4898782087850864E+02 a       754     0    38     1    14
 -6.4082003274729757E+01 a       755     0    38     1    15
 -8.2094492207499385E+01 a       756     0    38     1    16
  5.3679795327827911E+01 a       757     0    38     1    17
  5.3208607447111831E+01 a       758     0    38     1    18
  4.0776592593784528E+01 a       759     0    38     1    19
 -2.8197067734088955E+02 a       760     0    38     1    20
  1.1067157682419638E+02 a       761     0    39     1     1
 -5.8785635594301600E-01 a       762     0    39     1     2
  1.5231778496412689E+01 a       763     0    39     1     3
 -9.5630797411106670E+01 a       764     0    39     1     4
  1.6565844121986493E+02 a       765     0    39     1     5
  9.3071699431051911E+01 a       766     0    39     1     6
  1.8615487037530238E+02 a       767     0    39     1     7
  5.6174963565315807E+01 a       768     0    39     1     8
  1.4871615317320260E+02 a       769     0    39     1     9
  3.1293301263551676E+01 a       770     0    39     1    10
  9.5961689745897871E+01 a       771     0    39     1    11
  6.0352021555367052E+01 a       772     0    39     1    12
  2.9850963881100920E+01 a       773     0    39     1    13
  2.2982555293540099E+02 a       774     0    39     1    14
  7.4741812365330524E+00 a       775     0    39     1    15
 -5.5155745566691181E+01 a       776     0    39     1    16
  1.6790557005299914E+02 a       777     0    39     1    17
  7.2796544180944892E+01 a       778     0    39     1    18
 -2.1014624464729000E+01 a       779     0    39     1    19
 -1.2306691424998768E+02 a       780     0    39     1    20
 -5.3086856026321215E+01 a       781     0    40     1     1
  2.8021772242004399E+01 a       782     0    40     1     2
 -9.9975201565103347E+01 a       783     0    40     1     3
  5.1646166933861821E+01 a       784     0    40     1     4
  1.2351689793493117E+02 a       785     0    40     1     5
 -6.2732343698086709E+01 a       786     0    40     1     6
  2.7212431776214612E+02 a       787     0    40     1     7
  2.2171881201003615E+02 a       788     0    40     1     8
  3.1216535190913078E+02 a       789     0    40     1     9
 -5.5019426957168804E+01 a       790     0    40     1    10
 -4.1784441934603286E+01 a       791     0    40     1    11
 -1.3456194328569657E+02 a       792     0    40     1    12
 -9.0105262719318503E+01 a       793     0    40     1    13
  1.1859942628857442E+02 a       794     0    40     1    14
  1.5995755450863328E+02 a       795     0    40     1    15
 -3.9178977445542635E+01 a       796     0    40     1    16
  7.7174461798950190E+01 a       797     0    40     1    17
  1.4957662878045028E+02 a       798     0    40     1    18
  4.1246804921471245E+01 a       799     0    40     1    19
 -1.2921772209227984E+02 a       800     0    40     1    20
 -2.0156056911476185E+01 a       801     0    41     1     1
 -2.0932352966723769E+01 a       802     0    41     1     2
  5.0187678077602207E+01 a       803     0    41     1     3
  7.3355304602670452E+00 a       804     0    41     1     4
 -2.3544451193753510E+01 a       805     0    41     1     5
 -1.3664422382869961E+02 a       806     0    41     1     6
  7.5216345687360231E+01 a       807     0    41     1     7
  6.3436656155430612E+01 a       808     0    41     1     8
  1.5389204769926144E+02 a       809     0    41     1     9
 -1.5785529319725187E+01 a       810     0    41     1    10
 -8.5790369176959572E+01 a       811     0    41     1    11
  2.2615080114141595E+01 a       812     0    41     1    12
  1.0554876558534885E+02 a       813     0    41     1    13
 -6.5171398832456759E+01 a       814     0    41     1    14
 -2.3915539978210060E+01 a       815     0    41     1    15
  5.8638438994124250E+01 a       816     0    41     1    16
  1.1912664611860572E+01 a       817     0    41     1    17
 -4.8491540432636874E+01 a       818     0    41     1    18
 -1.6613776615165595E+01 a       819     0    41     1    19
  5.0591492846484783E+01 a       820     0    41     1    20
 -1.2934475412906866E+02 a       821     0    42     1     1
  4.4639282833136846E+01 a       822     0    42     1     2
 -3.8316879469081492E+01 a       823     0    42     1     3
  2.6695681885195941E+00 a       824     0    42     1     4
 -1.3056393549480487E+02 a       825     0    42     1     5
 -2.1780315311605492E+01 a       826     0    42     1     6
 -1.2250463252432495E+02 a       827     0    42     1     7
 -1.2038059765219586E+01 a       828     0    42     1     8
  3.2711844655497423E+01 a       829     0    42     1     9
 -9.8148773751977174E+01 a       830     0    42     1    10
 -9.9485803427903804E+01 a       831     0    42     1    11
 -2.3857806201800408E+01 a       832     0    42     1    12
  3.5937963916696859E+01 a       833     0    42     1    13
 -1.1916014600903223E+02 a       834     0    42     1    14
 -4.4228629397059088E+01 a       835     0    42     1    15
  5.1512353900042793E+00 a       836     0    42     1    16
 -5.7782338573505641E+00 a       837     0    42     1    17
 -8.7053367854323852E+01 a       838     0    42     1    18
 -1.7428190004619395E+01 a       839     0    42     1    19
  1.1274222633960386E+02 a       840     0    42     1    20
  3.6897431207656357E+00 a       841     0    43     1     1
  5.0840681639898001E+01 a       842     0    43     1     2
 -1.9228103255880939E+01 a       843     0    43     1     3
 -1.2596036087171716E+02 a       844     0    43     1     4
 -8.0777168881148469E+01 a       845     0    43     1     5
  4.5852684771452054E+01 a       846     0    43     1     6
 -2.0362163528434468E+02 a       847     0    43     1     7
 -1.5022657341811791E+02 a       848     0    43     1     8
 -9.3030162142786111E+01 a       849     0    43     1     9
 -1.1246867307893881E+02 a       850     0    43     1    10
  5.2589060320307084E+01 a       851     0    43     1    11
  5.2568074631024722E+01 a       852     0    43     1    12
  5.5771230290059805E+01 a       853     0    43     1    13
 -1.0720066177270944E+02 a       854     0    43     1    14
 -5.0059467380149272E+01 a       855     0    43     1    15
 -6.7533921977543059E+01 a       856     0    43     1    16
  3.4102403232791772E+01 a       857     0    43     1    17
 -9.9990152924489038E+01 a       858     0    43     1    18
 -3.7780749039048004E+01 a       859     0    43     1    19
 -1.1080095020673971E+01 a       860     0    43     1    20
  4.2463509743885623E+01 a       861     0    44     1     1
  1.1799950943914558E+02 a       862     0    44     1     2
 -4.7437074210054973E+01 a       863     0    44     1     3
  9.6366463692244508E+00 a       864     0    44     1     4
  7.7703488155762471E+01 a       865     0    44     1     5
  3.5816600475358257E+02 a       866     0    44     1     6
 -2.3221504282952097E+02 a       867     0    44     1     7
 -5.5606449105939461E+01 a       868     0    44     1     8
 -3.7826202947220952E+02 a       869     0    44     1     9
 -8.4743923335507407E+00 a       870     0    44     1    10
  3.6096059857339350E+02 a       871     0    44     1    11
 -1.2704024892710655E+02 a       872     0    44     1    12
 -2.9173056483527569E+02 a       873     0    44     1    13
  1.6664716161957153E+02 a       874     0    44     1    14
  2.9142946927472771E+01 a       875     0    44     1    15
 -9.6670948817182236E+01 a       876     0    44     1    16
  3.4692440564880329E+01 a       877     0    44     1    17
  1.5819765289593622E+02 a       878     0    44     1    18
 -3.0313251224191461E+01 a       879     0    44     1    19
 -1.8180494881817873E+02 a       880     0    44     1    20
  1.6009583448457249E+02 a       881     0    45     1     1
 -9.3150569385361365E+01 a       882     0    45     1     2
  4.0719748742602533E+01 a       883     0    45     1     3
 -8.5661673844059024E+01 a       884     0    45     1     4
  2.3296743887569880E+02 a       885     0    45     1     5
  2.8572192340035141E+01 a       886     0    45     1     6
  2.1472351207118268E+02 a       887     0    45     1     7
  8.0208038697367840E+01 a       888     0    45     1     8
 -1.7523303664409685E+01 a       889     0    45     1     9
  8.0128453938949335E+01 a       890     0    45     1    10
  1.5617647917337464E+02 a       891     0    45     1    11
  5.5046130673550770E+00 a       892     0    45     1    12
  8.4303882152086267E+00 a       893     0    45     1    13
  2.2516193468157078E+02 a       894     0    45     1    14
  4.0425286301474692E+01 a       895     0    45     1    15
 -6.4384103158493048E+01 a       896     0    45     1    16
  2.7762799814876345E+01 a       897     0    45     1    17
  1.2276278146590522E+02 a       898     0    45     1    18
 -1.1375907403010437E+01 a       899     0    45     1    19
 -1.7913888152713739E+02 a       900     0    45     1    20
 -1.0933469748349694E+02 a       901     0    46     1     1
 -1.1207195420136929E+02 a       902     0    46     1     2
 -1.1826460684672702E+01 a       903     0    46     1     3
  2.6547036801744537E+02 a       904     0    46     1     4
  1.2692669947795903E+02 a       905     0    46     1     5
 -1.0016242394860758E+02 a       906     0    46     1     6
  3.7706486114094906E+02 a       907     0    46     1     7
  3.7240493522160335E+02 a       908     0    46     1     8
  2.0600323564870772E+02 a       909     0    46     1     9
  7.5400434902940219E+01 a       910     0    46     1    10
 -9.4790262101074930E+01 a       911     0    46     1    11
 -1.1632929954487308E+02 a       912     0    46     1    12
 -6.4169880088292203E+01 a       913     0    46     1    13
  1.2325658608172047E+02 a       914     0    46     1    14
  1.6240151949846029E+02 a       915     0    46     1    15
  1.5484084758246087E+02 a       916     0    46     1    16
 -6.6686622911870330E+01 a       917     0    46     1    17
  2.2397336353043016E+02 a       918     0    46     1    18
  3.1052482645609675E+01 a       919     0    46     1    19
 -1.1016649537129078E+02 a       920     0    46     1    20
  2.4939543560947213E+00 a       921     0    47     1     1
 -5.4205763308593680E+00 a       922     0    47     1     2
 -2.0948617607418004E+01 a       923     0    47     1     3
 -4.6108272549250717E+00 a       924     0    47     1     4
 -1.3090890738426674E+01 a       925     0    47     1     5
  2.7578197976403693E+01 a       926     0    47     1     6
 -3.9991013801824955E+01 a       927     0    47     1     7
 -4.1724335539117661E+00 a       928     0    47     1     8
 -1.2741002296877456E+01 a       929     0    47     1     9
  6.7123902865332008E+00 a       930     0    47     1    10
  8.9735693089340938E+00 a       931     0    47     1    11
 -1.5001258268419164E+01 a       932     0    47     1    12
 -1.2552675711962271E+01 a       933     0    47     1    13
  1.2459468332596875E+00 a       934     0    47     1    14
  2.1781991515578490E+01 a       935     0    47     1    15
 -1.7763362478159362E+01 a       936     0    47     1    16
 -4.7498353977850503E+00 a       937     0    47     1    17
  3.7074336281337516E+01 a       938     0    47     1    18
 -5.6034555038055673E+00 a       939     0    47     1    19
 -1.4092690970429214E+01 a       940     0    47     1    20
  1.3589042310185949E+01 a       941     0    48     1     1
 -4.1578766486363236E+01 a       942     0    48     1     2
 -9.2877562384154224E+00 a       943     0    48     1     3
 -2.6160957292258504E+00 a       944     0    48     1     4
 -1.5178733807940549E+01 a       945     0    48     1     5
  1.1629707630432691E+01 a       946     0    48     1     6
 -2.6002480954018896E+00 a       947     0    48     1     7
  8.9276806229370944E+00 a       948     0    48     1     8
 -3.8988319652904998E+01 a       949     0    48     1     9
  4.3696447850262722E+01 a       950     0    48     1    10
  1.5382158644002265E+01 a       951     0    48     1    11
  2.0122073694206822E+01 a       952     0    48     1    12
 -4.8983198837928008E+01 a       953     0    48     1    13
 -1.2502261489564059E+01 a       954     0    48     1    14
  3.2596403718095424E+01 a       955     0    48     1    15
 -4.4149040642304920E+00 a       956     0    48     1    16
 -2.8667120783534280E+01 a       957     0    48     1    17
  3.7291550436435777E+01 a       958     0    48     1    18
  7.0262259786680360E+01 a       959     0    48     1    19
 -3.8304834143412037E+01 a       960     0    48     1    20
  1.6544559282779272E+01 a       961     0    49     1     1
 -4.3540916782863164E+01 a       962     0    49     1     2
  6.6175071737456097E+00 a       963     0    49     1     3
 -1.3828478281967090E+01 a       964     0    49     1     4
  2.4901002614916794E+00 a       965     0    49     1     5
 -2.6143386797320630E+01 a       966     0    49     1     6
  6.3913974767540394E+00 a       967     0    49     1     7
  1.2824712786135319E+01 a       968     0    49     1     8
  1.6760702492139419E+00 a       969     0    49     1     9
  4.3586183272740861E+01 a       970     0    49     1    10
 -1.2477309259892740E+01 a       971     0    49     1    11
  3.5403087273257849E+00 a       972     0    49     1    12
 -3.4183264713983966E+01 a       973     0    49     1    13
  3.4384925410091235E+01 a       974     0    49     1    14
  1.2124275896168024E+01 a       975     0    49     1    15
 -2.4525829122889352E+01 a       976     0    49     1    16
 -1.6540045188223310E+01 a       977     0    49     1    17
  1.2866745094043157E+01 a       978     0    49     1    18
  4.0140418570158374E+01 a       979     0    49     1    19
 -5.1236702281514752E+00 a       980     0    49     1    20
  6.0237337960035710E+01 a       981     0    50     1     1
 -1.0826635701315766E+02 a       982     0    50     1     2
  3.9135676900527876E+01 a       983     0    50     1     3
  3.1156738755118319E+01 a       984     0    50     1     4
 -8.2472380929765066E+01 a       985     0    50     1     5
 -2.7362338963587001E+02 a       986     0    50     1     6
  1.6058675963478919E+02 a       987     0    50     1     7
  6.7509372283127234E+01 a       988     0    50     1     8
  2.6977511078737859E+02 a       989     0    50     1     9
  9.0898385103904531E+01 a       990     0    50     1    10
 -2.9670223331770705E+02 a       991     0    50     1    11
  1.5239801175580368E+02 a       992     0    50     1    12
  2.0561713985733221E+02 a       993     0    50     1    13
 -6.9568969350941288E+01 a       994     0    50     1    14
 -1.9192552765570746E+01 a       995     0    50     1    15
  5.2218009817025582E+01 a       996     0    50     1    16
 -5.1223643607543842E+01 a       997     0    50     1    17
 -1.9393438001225346E+02 a       998     0    50     1    18
  4.6880198046214069E+01 a       999     0    50     1    19
  1.5998520664515203E+02 a      1000     0    50     1    20
 -6.1704271387625830E+01 a      1001     0    51     1     1
  4.3649255266734905E+01 a      1002     0    51     1     2
 -6.6723273932338669E+00 a      1003     0    51     1     3
  7.6158238307268476E+01 a      1004     0    51     1     4
 -1.5158368794566715E+02 a      1005     0    51     1     5
 -1.3246720948612278E+01 a      1006     0    51     1     6
 -1.6289359644743524E+02 a      1007     0    51     1     7
 -4.8358477324333066E+01 a      1008     0    51     1     8
 -2.1574348505811894E+01 a      1009     0    51     1     9
 -4.0507400274424221E+01 a      1010     0    51     1    10
 -8.8356556368931962E+01 a      1011     0    51     1    11
 -1.4294327271601460E+01 a      1012     0    51     1    12
 -1.1327967219026654E+01 a      1013     0    51     1    13
 -9.6677178160068294E+01 a      1014     0    51     1    14
 -1.5475287896803716E+01 a      1015     0    51     1    15
  3.1701812653202438E+01 a      1016     0    51     1    16
 -3.2388418684579058E+01 a      1017     0    51     1    17
 -6.9035182120555646E+01 a      1018     0    51     1    18
  2.5079863986555296E+01 a      1019     0    51     1    19
  1.1967565517294014E+02 a      1020     0    51     1    20
  1.9083398844376436E+01 a      1021     0    52     1     1
  2.1517355361205535E+01 a      1022     0    52     1     2
  3.0845868969972749E+01 a      1023     0    52     1     3
 -1.8170544685545269E+02 a      1024     0    52     1     4
 -9.4692041403119347E+01 a      1025     0    52     1     5
  8.3372438306749515E+01 a      1026     0    52     1     6
 -2.9338529311644174E+02 a      1027     0    52     1     7
 -1.9675946858167765E+02 a      1028     0    52     1     8
 -1.1952209373874464E+02 a      1029     0    52     1     9
  5.6289285252871501E+01 a      1030     0    52     1    10
  5.2363830291673729E+01 a      1031     0    52     1    11
  9.3814970290229937E+01 a      1032     0    52     1    12
  5.0391628190097450E+01 a      1033     0    52     1    13
 -7.1868630905623746E+01 a      1034     0    52     1    14
 -8.2803491806220322E+01 a      1035     0    52     1    15
 -1.2725674754261968E+02 a      1036     0    52     1    16
  4.5385176955289062E+01 a      1037     0    52     1    17
 -1.6109649244400981E+02 a      1038     0    52     1    18
 -1.3464633185604072E+01 a      1039     0    52     1    19
  1.1348069660946423E+02 a      1040     0    52     1    20
 -1.0956088456412747E+00 b      1041     1     1
 -1.3858870900931581E+00 b      1042     1     2
 -2.1153262359288396E+00 b      1043     1     3
  5.8653941096217702E-02 b      1044     1     4
  2.0465737052217294E+00 b      1045     1     5
  7.0465070348160019E-01 b      1046     1     6
 -3.6413708930665902E+00 b      1047     1     7
 -3.6539647170247513E+00 b      1048     1     8
 -2.2626552071374100E+00 b      1049     1     9
  7.6595815310057800E+00 b      1050     1    10
  1.5060731475858076E+00 b      1051     1    11
 -7.9394326049377462E-01 b      1052     1    12
 -2.7958186192145452E-02 b      1053     1    13
 -1.4934184522100258E+00 b      1054     1    14
 -2.3920649886950471E+00 b      1055     1    15
 -6.5653609735396989E-01 b      1056     1    16
 -4.1962536536517421E+00 b      1057     1    17
  4.2448572060934731E-01 b      1058     1    18
  2.8802475793217341E-01 b      1059     1    19
 -5.5804241092863272E-01 b      1060     1    20
  3.2113277210549945E-01 a      1061     1     1     2     1
  8.0591363672464544E-01 a      1062     1     1     2     2
 -2.5183303342959018E+00 a      1063     1     1     2     3
 -2.1569056704313039E+00 a      1064     1     1     2     4
 -1.0792700765605333E-01 a      1065     1     1     2     5
  1.1411374649393204E+00 a      1066     1     1     2     6
  1.7650018523431660E-01 a      1067     1     1     2     7
 -1.3994278354777561E+00 a      1068     1     1     2     8
 -2.3619387173699815E+00 a      1069     1     1     2     9
 -7.1242522750615844E-01 a      1070     1     1     2    10
 -1.7837336564024489E-01 a      1071     1     1     2    11
  1.5625132544412149E-01 a      1072     1     1     2    12
 -9.7448076763084113E-01 a      1073     1     1     2    13
 -5.3698740427770888E+00 a      1074     1     1     2    14
 -5.2683999880294020E-02 a      1075     1     1     2    15
  6.8501830407906056E-02 a      1076     1     1     2    16
  6.6167564930383760E-01 a      1077     1     1     2    17
 -3.0978912407551493E+00 a      1078     1     1     2    18
  1.7602762856090973E-01 a      1079     1     1     2    19
  8.4462234215791410E-01 a      1080     1     1     2    20
  1.3341701281299410E+00 a      1081     1     2     2     1
  1.0222836414780672E+00 a      1082     1     2     2     2
 -1.7248078342037543E+00 a      1083     1     2     2     3
 -6.0677818309760734E-01 a      1084     1     2     2     4
 -1.8325603365400181E-01 a      1085     1     2     2     5
  2.7906412254203622E-01 a      1086     1     2     2     6
 -1.4928455027259530E-01 a      1087     1     2     2     7
 -7.3624721573017238E-01 a      1088     1     2     2     8
  1.5337373953570193E+00 a      1089     1     2     2     9
  5.4148781373349963E-01 a      1090     1     2     2    10
  3.6420077844489407E-01 a      1091     1     2     2    11
 -4.4718313226780132E-01 a      1092     1     2     2    12
  2.4361875103061075E+00 a      1093     1     2     2    13
  8.7060144077660540E-01 a      1094     1     2     2    14
 -1.2789162950492301E+00 a      1095     1     2     2    15
 -1.8104837818133451E-01 a      1096     1     2     2    16
 -1.7342738605660468E+00 a      1097     1     2     2    17
  1.3114465770276527E+00 a      1098     1     2     2    18
  5.8950072636723938E-01 a      1099     1     2     2    19
  6.1331014178473094E-02 a      1100     1     2     2    20
 -6.7694688276112591E-01 a      1101     1     3     2     1
 -1.1646813426699973E+00 a      1102     1     3     2     2
 -9.7058378694259351E-01 a      1103     1     3     2     3
  6.1998618269284922E-01 a      1104     1     3     2     4
  7.6041332049229815E-01 a      1105     1     3     2     5
 -5.1279723811433131E-01 a      1106     1     3     2     6
 -2.1382740818106138E+00 a      1107     1     3     2     7
 -7.7219700633428445E-01 a      1108     1     3     2     8
 -1.6960570799036254E-01 a      1109     1     3     2     9
  9.3396415989419246E-01 a      1110     1     3     2    10
 -1.4482612331621088E+00 a      1111     1     3     2    11
  2.6067536872759839E-01 a      1112     1     3     2    12
  2.1592417545426077E+00 a      1113     1     3     2    13
 -3.5695226769680227E-01 a      1114     1     3     2    14
  6.5498167202747071E-01 a      1115     1     3     2    15
 -8.8981362649797158E-01 a      1116     1     3     2    16
  8.0444647954295423E-01 a      1117     1     3     2    17
 -8.2966206160762535E-01 a      1118     1     3     2    18
 -8.4956085318701835E-01 a      1119     1     3     2    19
 -1.3708462596325959E+00 a      1120     1     3     2    20
  3.8528583283787993E-01 a      1121     1     4     2     1
 -8.8795335362362304E-01 a      1122     1     4     2     2
  2.8906005422947580E+00 a      1123     1     4     2     3
  2.9604594096776032E-01 a      1124     1     4     2     4
 -1.8051440951419073E-01 a      1125     1     4     2     5
  2.3300442638260063E-01 a      1126     1     4     2     6
 -3.5735623219672003E-01 a      1127     1     4     2     7
  2.9586278304202079E-01 a      1128     1     4     2     8
  1.7448211876720672E+00 a      1129     1     4     2     9
  1.2960106802501273E-01 a      1130     1     4     2    10
  2.0059141401303724E+00 a      1131     1     4     2    11
  2.3433337404508600E-01 a      1132     1     4     2    12
  6.9101352658558546E-01 a      1133     1     4     2    13
  8.7334244882061296E-01 a      1134     1     4     2    14
  6.4627303168603512E-01 a      1135     1     4     2    15
  7.2852024791017511E-01 a      1136     1     4     2    16
  5.1868981603851239E-01 a      1137     1     4     2    17
  5.4778247676407443E-01 a      1138     1     4     2    18
  4.8286971909530202E-01 a      1139     1     4     2    19
  8.8753903596346007E-01 a      1140     1     4     2    20
 -2.0713056927671078E-01 a      1141     1     5     2     1
 -1.7422763938193391E+00 a      1142     1     5     2     2
  2.5383011882584161E-01 a      1143     1     5     2     3
 -3.3292138268185983E-01 a      1144     1     5     2     4
 -1.1598816433871353E+00 a      1145     1     5     2     5
  4.3576895831015933E-01 a      1146     1     5     2     6
  9.0136990759445534E-01 a      1147     1     5     2     7
  7.0613667769798383E-01 a      1148     1     5     2     8
  6.9678923883574162E-01 a      1149     1     5     2     9
 -1.0036382079380113E+00 a      1150     1     5     2    10
  8.6094102025070007E-02 a      1151     1     5     2    11
 -6.7298862068829235E-01 a      1152     1     5     2    12
 -4.6552384443294201E+00 a      1153     1     5     2    13
  2.0383580254725211E+00 a      1154     1     5     2    14
  4.1180222717389858E-01 a      1155     1     5     2    15
  2.5028921789091374E+00 a      1156     1     5     2    16
 -1.2540471182946971E+00 a      1157     1     5     2    17
  2.4966625922567505E+00 a      1158     1     5     2    18
  2.6814891737401174E+00 a      1159     1     5     2    19
  9.0305802409890179E-01 a      1160     1     5     2    20
  1.4881091362053489E-01 a      1161     1     6     2     1
  1.2173201225389441E+00 a      1162     1     6     2     2
 -9.9964120521634392E-02 a      1163     1     6     2     3
 -5.1328413293813824E-01 a      1164     1     6     2     4
  1.5529472920135496E+00 a      1165     1     6     2     5
  7.7966864129112301E-01 a      1166     1     6     2     6
 -1.4801828645771438E+00 a      1167     1     6     2     7
 -7.8853252223878423E-01 a      1168     1     6     2     8
 -6.1858111808103935E+00 a      1169     1     6     2     9
  3.4372415728841594E+00 a      1170     1     6     2    10
 -1.7423178614304231E+00 a      1171     1     6     2    11
 -1.0224431861657046E+00 a      1172     1     6     2    12
  3.8909674896744226E+00 a      1173     1     6     2    13
 -1.2430992581495766E+00 a      1174     1     6     2    14
  7.2415165316007346E-01 a      1175     1     6     2    15
  5.6090265405450090E-01 a      1176     1     6     2    16
 -2.9384774626064716E+00 a      1177     1     6     2    17
 -2.9863123511105555E-01 a      1178     1     6     2    18
 -1.4847490095313340E+00 a      1179     1     6     2    19
 -5.9387831993851652E+00 a      1180     1     6     2    20
 -7.8000150777584276E-01 a      1181     1     7     2     1
  3.4026973509307399E+00 a      1182     1     7     2     2
 -1.1626872561827921E+00 a      1183     1     7     2     3
 -1.2696304746660045E+00 a      1184     1     7     2     4
  8.9756306032774347E-01 a      1185     1     7     2     5
  3.2129192253817576E+00 a      1186     1     7     2     6
 -9.0976226475566513E+00 a      1187     1     7     2     7
 -4.5158220395464677E-01 a      1188     1     7     2     8
  1.2847848373850684E-01 a      1189     1     7     2     9
 -6.3160871226269022E-01 a      1190     1     7     2    10
  8.2087259817440794E-01 a      1191     1     7     2    11
 -5.9725092785495526E-01 a      1192     1     7     2    12
  7.7872175971904778E-01 a      1193     1     7     2    13
 -8.9053946460220079E-01 a      1194     1     7     2    14
 -7.3723764682504189E-02 a      1195     1     7     2    15
 -1.1000398123382589E+00 a      1196     1     7     2    16
  6.3849505127503625E-01 a      1197     1     7     2    17
 -3.6470679837731921E+00 a      1198     1     7     2    18
 -9.0789585767999392E-01 a      1199     1     7     2    19
 -1.7136896355381876E+00 a      1200     1     7     2    20
 -7.1559693834525218E-01 a      1201     1     8     2     1
 -6.9590114565146157E+00 a      1202     1     8     2     2
  7.1449929551766034E-01 a      1203     1     8     2     3
  6.4327739172753129E-01 a      1204     1     8     2     4
  1.4740931637758965E+00 a      1205     1     8     2     5
 -4.2249872586295262E-01 a      1206     1     8     2     6
 -4.6944203135345430E-01 a      1207     1     8     2     7
 -8.9459045563489836E-01 a      1208     1     8     2     8
 -5.8084180207444591E-01 a      1209     1     8     2     9
  3.5558042932108197E-01 a      1210     1     8     2    10
 -4.5828233874147788E+00 a      1211     1     8     2    11
  2.7061436710049684E+00 a      1212     1     8     2    12
 -1.5607057872731598E+00 a      1213     1     8     2    13
 -1.2226633271164811E+00 a      1214     1     8     2    14
  3.6766646853554730E-01 a      1215     1     8     2    15
 -2.0572765277608784E+00 a      1216     1     8     2    16
  2.3554216673119659E+00 a      1217     1     8     2    17
 -1.3287751657630054E+00 a      1218     1     8     2    18
  4.2889189889565549E-01 a      1219     1     8     2    19
 -2.7409894633518866E-01 a      1220     1     8     2    20
 -1.0802611877163379E+00 a      1221     1     9     2     1
 -2.9244030292921691E-01 a      1222     1     9     2     2
 -1.4755771854502151E+00 a      1223     1     9     2     3
 -2.2491817585885014E+00 a      1224     1     9     2     4
  3.3333050398286379E+00 a      1225     1     9     2     5
 -1.3529724057374423E-01 a      1226     1     9     2     6
 -1.6171175374284065E-02 a      1227     1     9     2     7
 -4.5755506962046871E-01 a      1228     1     9     2     8
 -2.0221356685791338E+00 a      1229     1     9     2     9
  9.7779598574586624E-01 a      1230     1     9     2    10
 -1.0211287760610970E+00 a      1231     1     9     2    11
 -5.8422040252191698E-01 a      1232     1     9     2    12
  8.2218559362987187E-01 a      1233     1     9     2    13
  1.0011239872788178E+00 a      1234     1     9     2    14
  5.3654289170164926E-01 a      1235     1     9     2    15
 -1.8018875900058842E+00 a      1236     1     9     2    16
 -4.7892782035494513E-01 a      1237     1     9     2    17
  9.9001661224605186E-01 a      1238     1     9     2    18
 -1.2224358745862116E+00 a      1239     1     9     2    19
  1.5791856077987183E+00 a      1240     1     9     2    20
  4.2932004336109819E-01 a      1241     1    10     2     1
  1.9724132959480298E-01 a      1242     1    10     2     2
 -1.2293128055808458E+00 a      1243     1    10     2     3
 -1.5328387407026392E-01 a      1244     1    10     2     4
  1.1655587400788830E-01 a      1245     1    10     2     5
  3.9596650874889561E-01 a      1246     1    10     2     6
 -3.9868276321072781E-02 a      1247     1    10     2     7
  2.3929923034238805E-02 a      1248     1    10     2     8
 -2.4222700352492332E-01 a      1249     1    10     2     9
  1.6283996946160714E-01 a      1250     1    10     2    10
 -3.6758540329841875E-02 a      1251     1    10     2    11
 -3.9465852033501592E-01 a      1252     1    10     2    12
 -8.0730653436169586E-02 a      1253     1    10     2    13
 -5.5956678334223031E-01 a      1254     1    10     2    14
  2.7130568384917891E-01 a      1255     1    10     2    15
  6.0365794997455230E-02 a      1256     1    10     2    16
 -2.9529364932649360E-01 a      1257     1    10     2    17
  1.3256135271747391E-01 a      1258     1    10     2    18
  1.7021208337589280E+00 a      1259     1    10     2    19
 -4.1264871123802138E-01 a      1260     1    10     2    20
  3.2145764646633905E+00 a      1261     1    11     2     1
 -3.5253244708457805E+00 a      1262     1    11     2     2
 -4.3747579738929403E+00 a      1263     1    11     2     3
 -3.3380333844045786E+00 a      1264     1    11     2     4
 -2.6717608863172067E-03 a      1265     1    11     2     5
 -9.3166199791693760E-01 a      1266     1    11     2     6
 -3.9462804048171367E-02 a      1267     1    11     2     7
  7.7592842420307595E-01 a      1268     1    11     2     8
 -2.4038369928906946E+00 a      1269     1    11     2     9
  1.6580899167169533E-01 a      1270     1    11     2    10
  1.6508165526205170E+00 a      1271     1    11     2    11
 -1.2584085654233677E+00 a      1272     1    11     2    12
 -1.1860788882462534E+01 a      1273     1    11     2    13
 -9.1836013892113098E+00 a      1274     1    11     2    14
  6.9636661663960608E-01 a      1275     1    11     2    15
 -4.2309449655086806E-01 a      1276     1    11     2    16
 -1.0734089907657087E+00 a      1277     1    11     2    17
 -2.7535367668092392E+00 a      1278     1    11     2    18
 -5.2956635406773589E-01 a      1279     1    11     2    19
  1.5619547301512753E+00 a      1280     1    11     2    20
  2.3350848177874817E-01 a      1281     1    12     2     1
 -2.2061656162640948E+00 a      1282     1    12     2     2
 -3.3224141914368360E-01 a      1283     1    12     2     3
  1.0838166351850553E-01 a      1284     1    12     2     4
  3.8691326910804547E-01 a      1285     1    12     2     5
 -4.0487769094980708E-01 a      1286     1    12     2     6
 -7.4583113845065996E-01 a      1287     1    12     2     7
  1.1243377190773693E+00 a      1288     1    12     2     8
 -1.7773338964046699E+00 a      1289     1    12     2     9
  5.6251882965210998E-01 a      1290     1    12     2    10
 -6.2399296530201631E-01 a      1291     1    12     2    11
 -6.8996243652043132E-01 a      1292     1    12     2    12
 -1.0448626912420020E+00 a      1293     1    12     2    13
 -1.5272491143235789E+00 a      1294     1    12     2    14
 -8.9174483913441471E-01 a      1295     1    12     2    15
  9.0053223492111045E-01 a      1296     1    12     2    16
 -1.2046421074218254E+00 a      1297     1    12     2    17
  1.9676429956070030E+00 a      1298     1    12     2    18
 -6.1600225414357845E-01 a      1299     1    12     2    19
  9.3964032016206323E-01 a      1300     1    12     2    20
  2.3532264360933093E+00 a      1301     1    13     2     1
  1.2455149414482993E+00 a      1302     1    13     2     2
  3.0953023259292189E+00 a      1303     1    13     2     3
 -4.3616813473629945E-01 a      1304     1    13     2     4
 -4.0319131611139358E+00 a      1305     1    13     2     5
 -2.9205941563664062E-01 a      1306     1    13     2     6
 -5.5379520714305921E-02 a      1307     1    13     2     7
  6.7616402101045170E-01 a      1308     1    13     2     8
  2.2923957860209612E-01 a      1309     1    13     2     9
  4.7231201398587103E-01 a      1310     1    13     2    10
  8.7418608610675241E-01 a      1311     1    13     2    11
  1.4447574376010490E+00 a      1312     1    13     2    12
  3.2701803346336744E-01 a      1313     1    13     2    13
  8.9837902419283129E+00 a      1314     1    13     2    14
  1.0582581694777855E+00 a      1315     1    13     2    15
 -1.6080675037273899E+00 a      1316     1    13     2    16
  5.0415526078791402E+00 a      1317     1    13     2    17
  2.0066243444342153E+00 a      1318     1    13     2    18
 -1.7601721734052269E+00 a      1319     1    13     2    19
  1.7441648488750536E+00 a      1320     1    13     2    20
  2.4737748596664613E+00 a      1321     1    14     2     1
 -1.1818235159864969E+00 a      1322     1    14     2     2
 -7.2738673180644908E-01 a      1323     1    14     2     3
 -1.4972190979261371E+00 a      1324     1    14     2     4
 -1.0140750381703802E+00 a      1325     1    14     2     5
  2.3666172914633368E+00 a      1326     1    14     2     6
 -9.5188379086875896E-01 a      1327     1    14     2     7
  4.4483151693940076E-01 a      1328     1    14     2     8
  1.0615731364052241E+00 a      1329     1    14     2     9
  1.3423547616126790E+00 a      1330     1    14     2    10
  9.8133469886592124E-03 a      1331     1    14     2    11
  8.3949876447951499E-01 a      1332     1    14     2    12
 -2.2835707841855393E+00 a      1333     1    14     2    13
 -8.6596864461661305E+00 a      1334     1    14     2    14
 -5.7565848984630330E-01 a      1335     1    14     2    15
  1.5931876491221901E+00 a      1336     1    14     2    16
  3.3888093339534726E+00 a      1337     1    14     2    17
  1.6038938808482417E+00 a      1338     1    14     2    18
 -3.0206132914039032E+00 a      1339     1    14     2    19
 -1.2344795567352151E+00 a      1340     1    14     2    20
  8.8717044537580669E-02 a      1341     1    15     2     1
 -1.8745760333372088E-01 a      1342     1    15     2     2
  7.6729784462822315E-01 a      1343     1    15     2     3
 -1.5580945565731330E+00 a      1344     1    15     2     4
 -9.4210758786626980E-01 a      1345     1    15     2     5
 -6.3047186679918921E-01 a      1346     1    15     2     6
  7.4755137984135933E-01 a      1347     1    15     2     7
  3.6926480850740559E-02 a      1348     1    15     2     8
 -1.2234677678888839E+00 a      1349     1    15     2     9
 -1.1101258624799073E+00 a      1350     1    15     2    10
  3.2981587892333764E-01 a      1351     1    15     2    11
  4.7664544984483331E-01 a      1352     1    15     2    12
 -2.7762143068672693E+00 a      1353     1    15     2    13
 -6.0329962682612717E+00 a      1354     1    15     2    14
  1.5409909914292003E-01 a      1355     1    15     2    15
 -6.4525893619511110E-02 a      1356     1    15     2    16
  4.8954111081435808E-01 a      1357     1    15     2    17
 -5.0933305976555798E-01 a      1358     1    15     2    18
 -1.6711175474601267E-01 a      1359     1    15     2    19
  5.2972182388264044E-01 a      1360     1    15     2    20
 -9.5475536101665226E-01 a      1361     1    16     2     1
  2.8630169118849923E-02 a      1362     1    16     2     2
 -5.2117553650675603E+00 a      1363     1    16     2     3
 -2.1721139621512767E-01 a      1364     1    16     2     4
  7.3174831699980181E-01 a      1365     1    16     2     5
 -2.0223705978485036E+00 a      1366     1    16     2     6
  1.6933509492357646E+00 a      1367     1    16     2     7
  9.9817692274960101E-01 a      1368     1    16     2     8
 -2.0992400326880549E+00 a      1369     1    16     2     9
  1.4871840439016223E-01 a      1370     1    16     2    10
 -3.0983205533732514E+00 a      1371     1    16     2    11
  1.6843252220865172E+00 a      1372     1    16     2    12
 -2.9940352517195676E+00 a      1373     1    16     2    13
 -2.4282797447368225E+01 a      1374     1    16     2    14
 -1.3123823061219315E+00 a      1375     1    16     2    15
 -1.4618752528552373E-01 a      1376     1    16     2    16
  2.3893300842871326E+00 a      1377     1    16     2    17
  6.6820152228385454E-01 a      1378     1    16     2    18
  1.3918137389584251E+00 a      1379     1    16     2    19
 -1.0582762860084103E+00 a      1380     1    16     2    20
  7.4881265815530051E-01 a      1381     1    17     2     1
  2.8945102335519413E-01 a      1382     1    17     2     2
  1.1518430657185230E+00 a      1383     1    17     2     3
  2.2224778551444979E+00 a      1384     1    17     2     4
 -2.4372148401151876E+00 a      1385     1    17     2     5
 -7.9625319739251443E-01 a      1386     1    17     2     6
 -2.0431095600524798E+00 a      1387     1    17     2     7
  1.1127724126435028E+00 a      1388     1    17     2     8
 -7.8373480828642412E+00 a      1389     1    17     2     9
  1.6282879232827679E-01 a      1390     1    17     2    10
 -3.6295577116096572E-01 a      1391     1    17     2    11
  1.4034857547285404E+00 a      1392     1    17     2    12
 -1.8809838016423437E+00 a      1393     1    17     2    13
 -1.2725909079260085E+00 a      1394     1    17     2    14
 -3.8305280168472516E-01 a      1395     1    17     2    15
  1.9100540334109786E+00 a      1396     1    17     2    16
  1.3138666299822224E+00 a      1397     1    17     2    17
 -3.7818362564211920E+00 a      1398     1    17     2    18
  7.7514590810398043E-01 a      1399     1    17     2    19
 -1.0335654103293053E+00 a      1400     1    17     2    20
 -3.9047330593839336E-01 a      1401     1    18     2     1
  1.5494959514684363E+00 a      1402     1    18     2     2
  4.6517264158988679E-02 a      1403     1    18     2     3
  3.0025214982280737E+00 a      1404     1    18     2     4
 -2.8389776648391236E+00 a      1405     1    18     2     5
 -8.2527617358751271E-01 a      1406     1    18     2     6
  6.6007702088403375E-01 a      1407     1    18     2     7
  1.4216131809307926E+00 a      1408     1    18     2     8
  3.1527716339677901E-02 a      1409     1    18     2     9
  9.7382573718842813E-01 a      1410     1    18     2    10
  2.6987776389041707E-01 a      1411     1    18     2    11
  1.2981820959854233E+00 a      1412     1    18     2    12
 -8.6770086207557817E-01 a      1413     1    18     2    13
  3.5286959419625695E-02 a      1414     1    18     2    14
 -1.1307260003446189E+00 a      1415     1    18     2    15
  2.9703446772745024E-01 a      1416     1    18     2    16
 -2.6608875200179621E-01 a      1417     1    18     2    17
 -1.7083524842829709E+00 a      1418     1    18     2    18
  3.3921918236904207E+00 a      1419     1    18     2    19
 -1.6474671781887447E+00 a      1420     1    18     2    20
 -1.9256050158783440E+00 a      1421     1    19     2     1
 -4.7139863157219986E-01 a      1422     1    19     2     2
  4.2695715790198561E+00 a      1423     1    19     2     3
  5.3577251779604851E-01 a      1424     1    19     2     4
  1.3373157085759295E+00 a      1425     1    19     2     5
 -2.7817440046353097E+00 a      1426     1    19     2     6
 -7.7947856131892523E-01 a      1427     1    19     2     7
 -5.9038878015819063E-01 a      1428     1    19     2     8
  1.9812479464557993E+00 a      1429     1    19     2     9
  4.1654146766986377E-01 a      1430     1    19     2    10
 -3.8155046169072806E+00 a      1431     1    19     2    11
 -1.5704862536501540E+00 a      1432     1    19     2    12
 -3.9245445456454582E+00 a      1433     1    19     2    13
  7.7492179884721368E-01 a      1434     1    19     2    14
  9.5162732429485397E-01 a      1435     1    19     2    15
 -1.0406753779221920E+00 a      1436     1    19     2    16
 -2.2433736687598755E+00 a      1437     1    19     2    17
  5.2082061419963788E-01 a      1438     1    19     2    18
  9.2476684793801955E-01 a      1439     1    19     2    19
  2.8649633867816299E-01 a      1440     1    19     2    20
 -3.3307358799949811E+00 a      1441     1    20     2     1
  2.9094834069175373E+00 a      1442     1    20     2     2
 -3.9060594151405698E-01 a      1443     1    20     2     3
  8.1130988900836354E-01 a      1444     1    20     2     4
  1.8996038375367224E+00 a      1445     1    20     2     5
 -2.4318669696010011E+00 a      1446     1    20     2     6
  1.7764627354135731E+00 a      1447     1    20     2     7
  1.2447397561516409E+00 a      1448     1    20     2     8
 -1.7382804762990520E+00 a      1449     1    20     2     9
 -5.7275201550767552E-01 a      1450     1    20     2    10
 -2.9765113668176588E+00 a      1451     1    20     2    11
 -5.7394481226835437E-01 a      1452     1    20     2    12
  2.2790251174621717E-01 a      1453     1    20     2    13
 -6.1690115531004635E+00 a      1454     1    20     2    14
  1.4592015480301710E+00 a      1455     1    20     2    15
 -8.9287589730661165E-01 a      1456     1    20     2    16
 -2.9644293493554857E-01 a      1457     1    20     2    17
 -3.6198558995609920E-01 a      1458     1    20     2    18
  3.1909245690660968E+00 a      1459     1    20     2    19
  1.1704529127513708E+00 a      1460     1    20     2    20
  5.1851263464441404E+00 b      1461     2     1
  2.9930408680166171E-01 b      1462     2     2
 -8.1692976594885138E+00 b      1463     2     3
  7.7170658596998312E+00 b      1464     2     4
 -8.1287608917747605E+00 b      1465     2     5
  6.9470432832989015E+00 b      1466     2     6
  7.0257811434570838E-01 b      1467     2     7
 -6.6485226212018516E+00 b      1468     2     8
  6.0112889927954196E+00 b      1469     2     9
 -8.0318805991251683E+00 b      1470     2    10
  5.5497037437762398E+00 b      1471     2    11
  4.3264633771133019E+00 b      1472     2    12
  1.1936842865006907E+01 b      1473     2    13
 -2.1975399882735161E+01 b      1474     2    14
 -2.1501099689701779E+00 b      1475     2    15
 -1.1747457442014622E+00 b      1476     2    16
 -8.7569065986202030E+00 b      1477     2    17
 -8.1247738270004604E+00 b      1478     2    18
  7.5021472923926424E+00 b      1479     2    19
 -1.7393265189661591E+00 b      1480     2    20
  2.0954507841208303E-01 a      1481     2     1     3     1
 -1.4845550764427570E-01 a      1482     2     2     3     1
 -3.9578250259076425E-01 a      1483     2     3     3     1
  1.4794751042817314E-01 a      1484     2     4     3     1
 -8.8043621827623569E-02 a      1485     2     5     3     1
  8.4491530421205399E-02 a      1486     2     6     3     1
  3.4722796486086266E-01 a      1487     2     7     3     1
 -2.2023798395633362E-01 a      1488     2     8     3     1
  2.0500027662311453E+00 a      1489     2     9     3     1
  1.4145364444878819E-01 a      1490     2    10     3     1
 -1.5244752238802523E-01 a      1491     2    11     3     1
 -1.4496755089089502E-01 a      1492     2    12     3     1
 -2.6152375904248853E-01 a      1493     2    13     3     1
 -2.6630067746316679E+00 a      1494     2    14     3     1
  1.7364894486365479E-01 a      1495     2    15     3     1
 -2.2529822480754549E-01 a      1496     2    16     3     1
  1.6024834230309051E-01 a      1497     2    17     3     1
 -1.2031994923793175E-01 a      1498     2    18     3     1
  2.7876546989616058E-01 a      1499     2    19     3     1
 -7.7994152704997474E-02 a      1500     2    20     3     1
 -1.8854514236088604E+00 b      1501     3     1
