################################################################################
# Neural network connection values (weights and biases).
################################################################################
# Col  Name       Description
################################################################################
# 1    connection Neural network connection value.
# 2    t          Connection type (a = weight, b = bias).
# 3    index      Index enumerating weights.
# 4    l_s        Starting point layer (end point layer for biases).
# 5    n_s        Starting point neuron in starting layer (end point neuron for biases).
# 6    l_e        End point layer.
# 7    n_e        End point neuron in end layer.
################################################################################
#                      1 2         3     4     5     6     7
#             connection t     index   l_s   n_s   l_e   n_e
############################################################
 -7.4447060907804286E+00 a         1     0     1     1     1
  1.1744824885216867E+02 a         2     0     1     1     2
 -5.4828272137039589E+00 a         3     0     1     1     3
  1.0116496933268413E+01 a         4     0     1     1     4
 -1.3950634918360956E+02 a         5     0     1     1     5
  2.3045463307166450E+01 a         6     0     1     1     6
 -5.6778009803942929E+01 a         7     0     1     1     7
  1.3592486302833279E+01 a         8     0     1     1     8
 -4.5743388696959244E+01 a         9     0     1     1     9
  1.9719026031928216E+01 a        10     0     1     1    10
 -3.5522085540494267E+01 a        11     0     1     1    11
 -4.2195137374836861E+01 a        12     0     1     1    12
  6.9818738989609197E-01 a        13     0     1     1    13
  9.6923034263328432E+01 a        14     0     1     1    14
 -2.7487460464889871E+01 a        15     0     1     1    15
  6.9534093865260047E+01 a        16     0     1     1    16
  5.0519172436414223E+01 a        17     0     1     1    17
  2.5927081645905083E+01 a        18     0     1     1    18
  6.2361644230646469E+01 a        19     0     1     1    19
 -2.0935539434583822E+02 a        20     0     1     1    20
  6.6568878672493511E+01 a        21     0     2     1     1
 -2.6677431944079302E+01 a        22     0     2     1     2
 -9.7530491308430101E+00 a        23     0     2     1     3
  3.3909416785034814E+01 a        24     0     2     1     4
  1.6798625185492284E+01 a        25     0     2     1     5
 -8.7125707190593133E+01 a        26     0     2     1     6
  7.6619737035748381E+00 a        27     0     2     1     7
 -1.8772344967560418E+01 a        28     0     2     1     8
  5.4626664995648561E+01 a        29     0     2     1     9
  5.2709267672767695E+00 a        30     0     2     1    10
 -2.4346843921341666E+01 a        31     0     2     1    11
 -3.1266664695969741E+01 a        32     0     2     1    12
  3.8847843192625056E+01 a        33     0     2     1    13
 -5.8035554930874248E+01 a        34     0     2     1    14
 -5.1668176307841399E+01 a        35     0     2     1    15
  2.4522441413135638E+01 a        36     0     2     1    16
 -1.4348494567190743E+01 a        37     0     2     1    17
 -8.6712950958306919E+01 a        38     0     2     1    18
  3.8351068948477362E+01 a        39     0     2     1    19
  1.5285482729939430E+01 a        40     0     2     1    20
  2.7185513802433135E+01 a        41     0     3     1     1
 -1.3034117398910348E+02 a        42     0     3     1     2
  1.4282952512770908E+02 a        43     0     3     1     3
  1.4592924251231391E+01 a        44     0     3     1     4
  3.4640921056662478E+02 a        45     0     3     1     5
 -9.6861582709437101E+01 a        46     0     3     1     6
  1.3751612000131038E+02 a        47     0     3     1     7
 -1.0512503634868985E+02 a        48     0     3     1     8
  1.3613551423520630E+02 a        49     0     3     1     9
 -1.2227755655364651E+02 a        50     0     3     1    10
  1.7902670396250576E+02 a        51     0     3     1    11
  1.2496137634011569E+02 a        52     0     3     1    12
  1.0321156691628559E+02 a        53     0     3     1    13
 -2.1460689125142352E+02 a        54     0     3     1    14
  7.9489484508586330E+01 a        55     0     3     1    15
 -7.1502541462160750E+01 a        56     0     3     1    16
 -7.9508992624315127E+01 a        57     0     3     1    17
 -1.1563647564973668E+02 a        58     0     3     1    18
  1.1453065362683228E+01 a        59     0     3     1    19
  4.2124367311695028E+02 a        60     0     3     1    20
 -1.6566171572426882E+02 a        61     0     4     1     1
  8.2349704831962001E+01 a        62     0     4     1     2
  7.7811794475514674E+01 a        63     0     4     1     3
 -5.9296292874858743E+01 a        64     0     4     1     4
 -9.6631998932350989E+00 a        65     0     4     1     5
  2.7809197424427504E+02 a        66     0     4     1     6
 -2.4733325419146606E+01 a        67     0     4     1     7
  1.2618573182155727E+02 a        68     0     4     1     8
 -1.6058291421625631E+02 a        69     0     4     1     9
 -7.2137952176827667E+01 a        70     0     4     1    10
  7.6371261295916000E+01 a        71     0     4     1    11
  1.0737051581046188E+02 a        72     0     4     1    12
 -7.5592880046934724E+01 a        73     0     4     1    13
  1.9026827799919946E+02 a        74     0     4     1    14
  2.4906960759811909E+02 a        75     0     4     1    15
 -9.6511577061967600E+01 a        76     0     4     1    16
  1.1272001947258284E+01 a        77     0     4     1    17
  1.8956307085913579E+02 a        78     0     4     1    18
 -1.2314003702898739E+02 a        79     0     4     1    19
 -6.6662183548638836E+01 a        80     0     4     1    20
 -4.6079745470864664E+00 a        81     0     5     1     1
 -1.9385818159721538E+02 a        82     0     5     1     2
 -2.7981379529471241E+02 a        83     0     5     1     3
  1.7503509600034384E+01 a        84     0     5     1     4
 -1.1242037307534709E+02 a        85     0     5     1     5
  1.5791818299071207E+02 a        86     0     5     1     6
 -3.9083501205163898E+01 a        87     0     5     1     7
  7.4887781855682476E+01 a        88     0     5     1     8
 -9.5929710838857815E+01 a        89     0     5     1     9
  1.7503845471413084E+02 a        90     0     5     1    10
 -3.1212345054556693E+02 a        91     0     5     1    11
 -1.2903161585786043E+02 a        92     0     5     1    12
 -2.2086002664659435E+02 a        93     0     5     1    13
 -4.8881151514159058E+01 a        94     0     5     1    14
  1.5509921294775163E+01 a        95     0     5     1    15
 -2.8878498143136085E+02 a        96     0     5     1    16
  9.4645467891321005E+01 a        97     0     5     1    17
  2.5397323981157506E+01 a        98     0     5     1    18
 -4.6855738144032966E+02 a        99     0     5     1    19
  3.8922188650454565E+01 a       100     0     5     1    20
  7.3915062198736891E+01 a       101     0     6     1     1
 -8.3888808879119750E+01 a       102     0     6     1     2
 -1.4121446276932872E+02 a       103     0     6     1     3
 -6.0362712772013495E+01 a       104     0     6     1     4
 -8.3735561783777300E+01 a       105     0     6     1     5
 -2.5592918965939589E+02 a       106     0     6     1     6
  1.3175023621688950E+01 a       107     0     6     1     7
 -2.0333348922890798E+02 a       108     0     6     1     8
  1.1716191577941505E+02 a       109     0     6     1     9
  1.6940195015855332E+02 a       110     0     6     1    10
 -6.2885350604299170E+01 a       111     0     6     1    11
 -1.4322133490070985E+02 a       112     0     6     1    12
  3.4972005078953767E+00 a       113     0     6     1    13
 -1.9932808404825030E+02 a       114     0     6     1    14
 -3.9357301133178402E+02 a       115     0     6     1    15
  1.2632419465231924E+02 a       116     0     6     1    16
  6.4982537946703701E+01 a       117     0     6     1    17
 -2.1717628480086024E+01 a       118     0     6     1    18
  1.0761531400407536E+02 a       119     0     6     1    19
  7.2846755250126549E+01 a       120     0     6     1    20
  6.5878570584561749E+02 a       121     0     7     1     1
  2.3363839133005504E+03 a       122     0     7     1     2
  9.4928147258015417E+02 a       123     0     7     1     3
 -4.9687878104170856E+01 a       124     0     7     1     4
  7.7238361669861979E+02 a       125     0     7     1     5
  8.8017822227653221E+02 a       126     0     7     1     6
  1.2825170123833550E+02 a       127     0     7     1     7
  3.3842642859611846E+02 a       128     0     7     1     8
  6.5987886421330927E+01 a       129     0     7     1     9
 -1.8502407757090864E+02 a       130     0     7     1    10
 -7.0721286358460691E+02 a       131     0     7     1    11
 -6.9475023716649162E+02 a       132     0     7     1    12
  6.7074728876258632E+01 a       133     0     7     1    13
 -8.8367924181892772E+02 a       134     0     7     1    14
 -3.4425782573908327E+02 a       135     0     7     1    15
 -1.7827453542254016E+03 a       136     0     7     1    16
  1.2901147394061948E+02 a       137     0     7     1    17
  3.3377262841425397E+02 a       138     0     7     1    18
 -2.1748141647526309E+03 a       139     0     7     1    19
  2.3181555594610049E+02 a       140     0     7     1    20
 -3.3282118656115379E+01 a       141     0     8     1     1
  6.9599739086042689E+01 a       142     0     8     1     2
  7.5711791075613718E+01 a       143     0     8     1     3
  3.1763181652824649E+01 a       144     0     8     1     4
  1.2610645249429858E+01 a       145     0     8     1     5
  1.3543484044687088E+02 a       146     0     8     1     6
 -1.6331328718335079E+01 a       147     0     8     1     7
  8.5396043564377962E+01 a       148     0     8     1     8
 -8.9254837826736861E+01 a       149     0     8     1     9
 -9.8343651446760674E+01 a       150     0     8     1    10
  1.6049117996809645E+01 a       151     0     8     1    11
  7.0751735445344195E+01 a       152     0     8     1    12
  9.8449462753909209E+00 a       153     0     8     1    13
  1.0503155812338782E+02 a       154     0     8     1    14
  1.8271299890778786E+02 a       155     0     8     1    15
 -3.9187197596875912E+01 a       156     0     8     1    16
 -3.9642107956086477E+01 a       157     0     8     1    17
  5.9947453864061806E+01 a       158     0     8     1    18
 -1.2471532387947956E+02 a       159     0     8     1    19
 -3.5883241141145596E+01 a       160     0     8     1    20
 -1.6062333154854562E+02 a       161     0     9     1     1
 -2.0369755516380178E+02 a       162     0     9     1     2
 -8.3149376703666590E+01 a       163     0     9     1     3
 -8.8051467837751161E+01 a       164     0     9     1     4
 -3.3415809701429606E+02 a       165     0     9     1     5
 -2.3027199230955091E+02 a       166     0     9     1     6
 -1.0623463133729044E+02 a       167     0     9     1     7
  3.1789782575585608E+01 a       168     0     9     1     8
 -5.2752478557034287E+01 a       169     0     9     1     9
  3.0122521237428799E+01 a       170     0     9     1    10
  2.9576078024048837E+02 a       171     0     9     1    11
  1.4011132624479853E+02 a       172     0     9     1    12
  1.1386774732725598E+02 a       173     0     9     1    13
  4.0636913166886671E+02 a       174     0     9     1    14
 -6.1997002854166176E+01 a       175     0     9     1    15
  6.7125804107909562E+02 a       176     0     9     1    16
 -1.4729187248169325E+02 a       177     0     9     1    17
  1.1102938595155508E+02 a       178     0     9     1    18
  8.4120337805825886E+02 a       179     0     9     1    19
 -3.8156186666210863E+02 a       180     0     9     1    20
  6.4965562339835259E+01 a       181     0    10     1     1
  1.1903385923981354E+01 a       182     0    10     1     2
  4.8464155049533801E+01 a       183     0    10     1     3
  1.1993430572253853E+02 a       184     0    10     1     4
  9.5706714383608031E+01 a       185     0    10     1     5
 -6.9049858927048060E+00 a       186     0    10     1     6
  1.7753566435760927E+01 a       187     0    10     1     7
  6.0227061792949058E+01 a       188     0    10     1     8
  3.2499871592625347E+01 a       189     0    10     1     9
 -7.2656537222725262E+01 a       190     0    10     1    10
  8.8093968621807779E+00 a       191     0    10     1    11
  5.2243343552819063E+01 a       192     0    10     1    12
  3.0429547751991585E+01 a       193     0    10     1    13
  1.3679620170988166E+01 a       194     0    10     1    14
  1.4184762720036181E+02 a       195     0    10     1    15
 -4.4244390119878453E+01 a       196     0    10     1    16
 -4.5645634034271652E+01 a       197     0    10     1    17
 -1.4837563820160466E+02 a       198     0    10     1    18
  2.9569145851725942E+01 a       199     0    10     1    19
  1.6878382895308981E+00 a       200     0    10     1    20
 -1.8417317864650278E+02 a       201     0    11     1     1
 -7.9287502436823843E+02 a       202     0    11     1     2
 -3.3251913760917142E+02 a       203     0    11     1     3
  4.4445594964248755E+01 a       204     0    11     1     4
 -2.8028251540039315E+02 a       205     0    11     1     5
 -3.8850916556869561E+02 a       206     0    11     1     6
 -3.7145235159291495E+01 a       207     0    11     1     7
 -1.3176609548894652E+02 a       208     0    11     1     8
 -5.2564557350442920E-01 a       209     0    11     1     9
  4.1591073774833973E+01 a       210     0    11     1    10
  2.6186687443773098E+02 a       211     0    11     1    11
  2.4606345656375018E+02 a       212     0    11     1    12
 -4.1532208723794326E+01 a       213     0    11     1    13
  3.1987027859316254E+02 a       214     0    11     1    14
  1.0727449731559147E+02 a       215     0    11     1    15
  6.2733680347113261E+02 a       216     0    11     1    16
 -7.4485300559733346E+01 a       217     0    11     1    17
 -8.2993083825056686E+01 a       218     0    11     1    18
  7.7470962391933506E+02 a       219     0    11     1    19
 -9.8438397795516309E+01 a       220     0    11     1    20
  4.6391488178372477E+01 a       221     0    12     1     1
 -8.3112057572978841E+01 a       222     0    12     1     2
  7.9111558846578411E+00 a       223     0    12     1     3
 -7.9619097295406345E+00 a       224     0    12     1     4
 -4.6159323306877539E+01 a       225     0    12     1     5
 -6.4452881409039804E+01 a       226     0    12     1     6
 -8.3966396778052285E+01 a       227     0    12     1     7
 -2.0867634610275847E+01 a       228     0    12     1     8
 -1.0841293575809627E+02 a       229     0    12     1     9
  6.3734562622202739E+00 a       230     0    12     1    10
 -1.6408841288544536E+01 a       231     0    12     1    11
 -1.1222078496735641E+01 a       232     0    12     1    12
  6.0529773517433995E+01 a       233     0    12     1    13
  5.7235812253726131E+01 a       234     0    12     1    14
 -5.0490333153344992E+01 a       235     0    12     1    15
  3.6540595865137973E+01 a       236     0    12     1    16
 -2.9056961045505002E+01 a       237     0    12     1    17
  2.0702196487573596E+02 a       238     0    12     1    18
 -2.1760999072701948E+00 a       239     0    12     1    19
 -4.0799738638616944E+01 a       240     0    12     1    20
 -2.6284227338418293E+02 a       241     0    13     1     1
 -1.1497510932522448E+03 a       242     0    13     1     2
 -3.9228351573066828E+02 a       243     0    13     1     3
  1.3523898927165550E+02 a       244     0    13     1     4
 -2.4199937777686631E+02 a       245     0    13     1     5
 -4.4629761566055919E+02 a       246     0    13     1     6
  7.1660284595442354E+00 a       247     0    13     1     7
 -2.5379523740571642E+02 a       248     0    13     1     8
  2.3031429679151216E+01 a       249     0    13     1     9
  1.7229954258273416E+01 a       250     0    13     1    10
  3.0145715164669309E+02 a       251     0    13     1    11
  3.8729942818386496E+02 a       252     0    13     1    12
 -6.0447731463074476E+01 a       253     0    13     1    13
  3.1953942736663402E+02 a       254     0    13     1    14
  2.5279105905387431E+02 a       255     0    13     1    15
  7.5544205799937322E+02 a       256     0    13     1    16
  3.5604775725940911E+01 a       257     0    13     1    17
 -3.1090829157358388E+02 a       258     0    13     1    18
  9.3069259690363356E+02 a       259     0    13     1    19
  2.0561902600223700E+01 a       260     0    13     1    20
 -1.9495069781759288E+01 a       261     0    14     1     1
 -3.4550061968417971E+01 a       262     0    14     1     2
 -4.0813498109953201E+01 a       263     0    14     1     3
 -8.3218984379023382E+01 a       264     0    14     1     4
 -3.8120611188911838E+01 a       265     0    14     1     5
 -2.2705596383323972E+01 a       266     0    14     1     6
 -8.0728089425094360E+00 a       267     0    14     1     7
 -3.2886705961596881E+01 a       268     0    14     1     8
  1.8311449497755159E+01 a       269     0    14     1     9
  4.8651037468453680E+01 a       270     0    14     1    10
 -1.7814795609572144E+01 a       271     0    14     1    11
 -4.6352100353300514E+01 a       272     0    14     1    12
 -1.0987543973380685E+01 a       273     0    14     1    13
 -2.4255018630880510E+01 a       274     0    14     1    14
 -1.0215615097004071E+02 a       275     0    14     1    15
  2.7382422248290034E+01 a       276     0    14     1    16
  1.5641847721766478E+01 a       277     0    14     1    17
  4.9536017517721831E+01 a       278     0    14     1    18
  3.1902649109219929E+01 a       279     0    14     1    19
  1.7065820270809124E+00 a       280     0    14     1    20
 -2.0936570920772606E+01 a       281     0    15     1     1
  1.1676941741684010E+00 a       282     0    15     1     2
  8.8537600635357094E+00 a       283     0    15     1     3
 -1.6532081437240798E+01 a       284     0    15     1     4
  4.6444545797634280E+00 a       285     0    15     1     5
  3.2094933687644563E+01 a       286     0    15     1     6
 -1.4088785408064612E+00 a       287     0    15     1     7
  5.7494333209655517E+00 a       288     0    15     1     8
 -8.2074830002230943E+00 a       289     0    15     1     9
  3.1313697745641429E+00 a       290     0    15     1    10
  3.4695630704625438E+00 a       291     0    15     1    11
 -8.5962236011117055E-01 a       292     0    15     1    12
  1.4017947430956230E+01 a       293     0    15     1    13
 -4.4735583278270791E-01 a       294     0    15     1    14
  3.1227115492957704E+00 a       295     0    15     1    15
  7.5658706534307498E+00 a       296     0    15     1    16
  9.6363615799031201E+00 a       297     0    15     1    17
 -1.3446434022596204E+01 a       298     0    15     1    18
  8.9357722543522815E+00 a       299     0    15     1    19
  3.1647112600434674E-01 a       300     0    15     1    20
 -9.3109558626962663E+00 a       301     0    16     1     1
  1.6767142902363016E+01 a       302     0    16     1     2
 -5.1853290104592924E+00 a       303     0    16     1     3
  1.1218556424797639E+00 a       304     0    16     1     4
  1.2512184025765958E+01 a       305     0    16     1     5
  8.8176325998530505E+00 a       306     0    16     1     6
  2.2414803616256734E+01 a       307     0    16     1     7
  2.1453417018992003E+00 a       308     0    16     1     8
  3.3099872353190335E+01 a       309     0    16     1     9
  3.2969941338357889E+00 a       310     0    16     1    10
  3.1849452504310851E+00 a       311     0    16     1    11
 -5.8696888008600634E-01 a       312     0    16     1    12
 -1.4985315186796619E+01 a       313     0    16     1    13
 -2.0151556592071014E+01 a       314     0    16     1    14
  4.2400762781398278E+00 a       315     0    16     1    15
 -7.8031227383516155E+00 a       316     0    16     1    16
  8.8553790534278605E+00 a       317     0    16     1    17
 -5.7974414545965445E+01 a       318     0    16     1    18
  8.5967113793833043E+00 a       319     0    16     1    19
  1.2525699315033558E+01 a       320     0    16     1    20
 -5.7600795746004792E+01 a       321     0    17     1     1
 -2.3126905019905138E+01 a       322     0    17     1     2
 -3.8871892872342386E+01 a       323     0    17     1     3
 -6.7932731978438213E+01 a       324     0    17     1     4
 -3.5302090351490428E+01 a       325     0    17     1     5
  5.6219608713434567E+01 a       326     0    17     1     6
 -5.2427846786534715E+01 a       327     0    17     1     7
  1.9797209517120983E+01 a       328     0    17     1     8
 -2.5004758199112175E+01 a       329     0    17     1     9
  3.8925787989949875E+01 a       330     0    17     1    10
  3.0244924146014416E+01 a       331     0    17     1    11
 -2.3552654083028930E+01 a       332     0    17     1    12
  2.9636163883339883E+01 a       333     0    17     1    13
  2.3213063844384056E+01 a       334     0    17     1    14
 -2.8939574167674433E+01 a       335     0    17     1    15
  4.3144365764793406E+01 a       336     0    17     1    16
 -2.3075293998968043E+01 a       337     0    17     1    17
  4.2574979746622191E+01 a       338     0    17     1    18
  6.0683960685390687E+01 a       339     0    17     1    19
 -2.2378729844125274E+01 a       340     0    17     1    20
 -1.3424058702223620E+01 a       341     0    18     1     1
  4.2169689491256840E+01 a       342     0    18     1     2
 -7.2347790939691228E+00 a       343     0    18     1     3
  2.9295388707734961E+01 a       344     0    18     1     4
  4.0396841321216556E+01 a       345     0    18     1     5
  1.0861545901959762E+01 a       346     0    18     1     6
  6.4106365642728989E+01 a       347     0    18     1     7
  3.9993309274466444E+00 a       348     0    18     1     8
  8.6326316321368211E+01 a       349     0    18     1     9
  8.5505299783299318E+00 a       350     0    18     1    10
  1.7153420948945254E+01 a       351     0    18     1    11
  3.7741235971465024E+00 a       352     0    18     1    12
 -3.9421441347501194E+01 a       353     0    18     1    13
 -5.9341680672505042E+01 a       354     0    18     1    14
  1.8595701284872288E+01 a       355     0    18     1    15
 -2.3664907642053159E+01 a       356     0    18     1    16
  2.9383896710490003E+01 a       357     0    18     1    17
 -1.6821580664272690E+02 a       358     0    18     1    18
  3.3077456428130382E+01 a       359     0    18     1    19
  3.6671716060948832E+01 a       360     0    18     1    20
 -3.2353143658102468E-01 a       361     0    19     1     1
  3.7653304430047352E-01 a       362     0    19     1     2
  1.3774120732146841E+01 a       363     0    19     1     3
  1.2124794837519127E+01 a       364     0    19     1     4
  2.2053493901879573E+01 a       365     0    19     1     5
 -7.6534205805449789E+00 a       366     0    19     1     6
  2.8318215741376523E+01 a       367     0    19     1     7
  1.3215408196219955E+00 a       368     0    19     1     8
 -2.4686711864584954E+00 a       369     0    19     1     9
 -1.3809745881432528E+01 a       370     0    19     1    10
 -9.6927883899292553E+00 a       371     0    19     1    11
  1.6128280404029894E+01 a       372     0    19     1    12
 -4.0775843802796743E+00 a       373     0    19     1    13
  3.1417288846904201E+00 a       374     0    19     1    14
  5.9070200884923763E+00 a       375     0    19     1    15
  6.1123184135037274E+00 a       376     0    19     1    16
  4.7413941696417510E+00 a       377     0    19     1    17
 -1.6208948635407538E+01 a       378     0    19     1    18
 -3.6019563378275837E-01 a       379     0    19     1    19
 -6.1962710725483614E+00 a       380     0    19     1    20
 -6.8554301400990498E+00 a       381     0    20     1     1
  6.2398682631678142E+00 a       382     0    20     1     2
 -5.5353147807977283E+00 a       383     0    20     1     3
 -5.6806441279715143E+00 a       384     0    20     1     4
  3.2352410105694576E+00 a       385     0    20     1     5
  4.8241732046744490E+00 a       386     0    20     1     6
  8.1293489271082038E+00 a       387     0    20     1     7
 -5.5016120660873213E-01 a       388     0    20     1     8
  1.5898605864293520E+01 a       389     0    20     1     9
  2.8219487263569700E+00 a       390     0    20     1    10
 -1.8793716986988900E+00 a       391     0    20     1    11
 -1.5880565908677202E+00 a       392     0    20     1    12
 -5.4339129694098025E+00 a       393     0    20     1    13
 -6.1443994534693323E+00 a       394     0    20     1    14
 -5.7883887342049090E-01 a       395     0    20     1    15
 -2.2852436515063155E+00 a       396     0    20     1    16
 -1.3417866824998650E-01 a       397     0    20     1    17
 -2.1639147752497184E+01 a       398     0    20     1    18
  1.7726549321024097E+00 a       399     0    20     1    19
  2.9794009770149805E+00 a       400     0    20     1    20
 -1.2342548060829266E+00 a       401     0    21     1     1
 -2.0694848726722697E+00 a       402     0    21     1     2
 -3.7585859869542584E+00 a       403     0    21     1     3
 -4.0136125477668427E+00 a       404     0    21     1     4
 -7.8413919388150175E+00 a       405     0    21     1     5
  4.8698178458080106E+00 a       406     0    21     1     6
 -1.1149118106121401E+01 a       407     0    21     1     7
 -1.0983171050642668E+00 a       408     0    21     1     8
 -1.8343847893005982E+00 a       409     0    21     1     9
  6.8039392237762426E+00 a       410     0    21     1    10
  4.5278402261199382E+00 a       411     0    21     1    11
 -5.0686108301403241E+00 a       412     0    21     1    12
  5.6940984936371271E+00 a       413     0    21     1    13
 -7.2003491875473880E-01 a       414     0    21     1    14
 -1.7923354053967092E-01 a       415     0    21     1    15
 -1.0924938810259939E+00 a       416     0    21     1    16
  1.2658949559934434E+00 a       417     0    21     1    17
  2.2884147727616817E+00 a       418     0    21     1    18
  1.1290780471960182E+00 a       419     0    21     1    19
  1.9477929407890482E+00 a       420     0    21     1    20
 -2.2935069738173511E-01 a       421     0    22     1     1
  1.4553927507299638E+00 a       422     0    22     1     2
  6.9794398414854542E-01 a       423     0    22     1     3
  1.1534421466153151E+00 a       424     0    22     1     4
  9.1576176249531838E-01 a       425     0    22     1     5
  9.3661409255566574E-01 a       426     0    22     1     6
  1.6298212898749171E+00 a       427     0    22     1     7
  6.9548366003608486E-01 a       428     0    22     1     8
  6.4809502661132035E-01 a       429     0    22     1     9
 -1.7323993645881283E-01 a       430     0    22     1    10
  1.5056078390823733E+00 a       431     0    22     1    11
  1.4118643760173374E-01 a       432     0    22     1    12
 -2.5578931649578474E+00 a       433     0    22     1    13
 -2.1316579950034451E+00 a       434     0    22     1    14
  1.0089371354553711E+00 a       435     0    22     1    15
 -9.8514206874245436E-01 a       436     0    22     1    16
  1.9413911241706507E+00 a       437     0    22     1    17
 -3.5321980316352386E+00 a       438     0    22     1    18
  1.0725080701932075E+00 a       439     0    22     1    19
  1.5042792533866403E+00 a       440     0    22     1    20
  1.8871250911009358E+02 a       441     0    23     1     1
  5.0260716597012689E+01 a       442     0    23     1     2
  1.2601808166362325E+01 a       443     0    23     1     3
 -8.9158848800089761E+00 a       444     0    23     1     4
  5.8581928683128091E+01 a       445     0    23     1     5
  1.0800677404026042E+02 a       446     0    23     1     6
  2.1327358737816260E+00 a       447     0    23     1     7
 -6.0575258360127634E+01 a       448     0    23     1     8
  2.6309032731756585E+00 a       449     0    23     1     9
  2.9231412651408796E+01 a       450     0    23     1    10
  6.9639337728915748E+01 a       451     0    23     1    11
 -6.0707019837343374E+01 a       452     0    23     1    12
 -1.1384217973580209E+02 a       453     0    23     1    13
 -7.0951509739081446E+00 a       454     0    23     1    14
  3.2554947772701894E+01 a       455     0    23     1    15
 -1.2403738970508326E+02 a       456     0    23     1    16
 -4.7235754030557317E+01 a       457     0    23     1    17
 -2.3059454509900114E+01 a       458     0    23     1    18
  6.6413543444432932E+01 a       459     0    23     1    19
  6.3145434345699059E+01 a       460     0    23     1    20
  2.6784992018781868E+01 a       461     0    24     1     1
  4.0317768207965592E+01 a       462     0    24     1     2
  3.4753790330790181E+01 a       463     0    24     1     3
 -3.0048008042908290E+01 a       464     0    24     1     4
 -2.5376736514277820E+01 a       465     0    24     1     5
 -1.4682564549616247E+01 a       466     0    24     1     6
  1.6199034353332443E+01 a       467     0    24     1     7
  2.7882213783920213E+00 a       468     0    24     1     8
  1.3694921601477173E+01 a       469     0    24     1     9
 -4.1814681612031874E+00 a       470     0    24     1    10
 -3.3219571659100531E+00 a       471     0    24     1    11
  2.2128527145530622E+01 a       472     0    24     1    12
 -1.9474968814075091E+01 a       473     0    24     1    13
 -1.1342067048751037E+01 a       474     0    24     1    14
  3.6201336096011021E+00 a       475     0    24     1    15
 -4.6712057155251827E+00 a       476     0    24     1    16
  2.8144189297472555E+00 a       477     0    24     1    17
 -2.2542220585249456E+01 a       478     0    24     1    18
  1.7092020472344732E+01 a       479     0    24     1    19
 -6.8355881458491181E+00 a       480     0    24     1    20
 -4.7361792231200637E+00 a       481     0    25     1     1
  1.7023310723366716E+01 a       482     0    25     1     2
  2.1589663867235043E+01 a       483     0    25     1     3
  1.9161849943666201E+01 a       484     0    25     1     4
 -1.0738223797831650E+02 a       485     0    25     1     5
  9.7889990621771616E+00 a       486     0    25     1     6
 -4.6744901991150745E-01 a       487     0    25     1     7
 -2.1031462551018532E+01 a       488     0    25     1     8
 -1.9780114001610841E+01 a       489     0    25     1     9
  1.6623672153374753E+02 a       490     0    25     1    10
 -7.2437265411349809E+00 a       491     0    25     1    11
  2.9757303740742717E+01 a       492     0    25     1    12
 -3.8034356616582429E+01 a       493     0    25     1    13
 -1.8554772621339762E+01 a       494     0    25     1    14
  7.4096052309164839E-01 a       495     0    25     1    15
  7.5126998172062764E+00 a       496     0    25     1    16
  4.2652691874888093E+00 a       497     0    25     1    17
 -3.5766616485083546E+01 a       498     0    25     1    18
  3.3738272673689075E+01 a       499     0    25     1    19
 -3.6000438607311054E+01 a       500     0    25     1    20
 -1.1573372584716240E+02 a       501     0    26     1     1
  1.4146056364258431E+01 a       502     0    26     1     2
  1.5302712076781384E+01 a       503     0    26     1     3
 -6.7594587516255359E+01 a       504     0    26     1     4
  2.4419687760945514E+01 a       505     0    26     1     5
 -4.3957639006879347E+01 a       506     0    26     1     6
  4.9033816952954979E+01 a       507     0    26     1     7
  3.2899307848729947E+01 a       508     0    26     1     8
 -1.3704639101096355E+01 a       509     0    26     1     9
 -4.5760497512708433E+01 a       510     0    26     1    10
  2.1814225389085305E+01 a       511     0    26     1    11
 -4.5530650894278040E+00 a       512     0    26     1    12
  1.7567766645042121E+02 a       513     0    26     1    13
  3.7767662329283439E+01 a       514     0    26     1    14
 -1.0027591837303660E+01 a       515     0    26     1    15
  1.1957970610828566E+02 a       516     0    26     1    16
 -1.0277005919800193E+02 a       517     0    26     1    17
  4.6381772728316342E+01 a       518     0    26     1    18
 -6.8683396873905849E+01 a       519     0    26     1    19
 -3.3583216375160760E+01 a       520     0    26     1    20
  8.6623367714724040E+00 a       521     0    27     1     1
 -2.5929503441404609E+01 a       522     0    27     1     2
  3.7621663829656322E+00 a       523     0    27     1     3
 -2.8785463272618053E+01 a       524     0    27     1     4
 -1.9823585879623813E+01 a       525     0    27     1     5
  1.9218077007568446E+01 a       526     0    27     1     6
 -3.1588410162788215E+01 a       527     0    27     1     7
 -1.4130029621288227E+00 a       528     0    27     1     8
  1.1771923711554049E+00 a       529     0    27     1     9
 -1.4678859319464445E+01 a       530     0    27     1    10
 -5.2779408685680309E+00 a       531     0    27     1    11
 -3.1990261779930819E+01 a       532     0    27     1    12
  8.7047377919449183E+00 a       533     0    27     1    13
  7.3383533388667503E+00 a       534     0    27     1    14
 -4.8441104578787817E+00 a       535     0    27     1    15
  1.9803863663195649E+01 a       536     0    27     1    16
 -2.1306686167693531E+01 a       537     0    27     1    17
  3.3532258143214186E+01 a       538     0    27     1    18
 -1.0884224572485842E+01 a       539     0    27     1    19
 -1.0655326648614720E+01 a       540     0    27     1    20
  9.3322128087765641E+00 a       541     0    28     1     1
 -3.3837590439561858E+01 a       542     0    28     1     2
  7.1761127253357543E+01 a       543     0    28     1     3
  2.9146209906150180E+01 a       544     0    28     1     4
 -2.4744928015921452E+01 a       545     0    28     1     5
 -1.1092618474652200E+01 a       546     0    28     1     6
 -2.4087800533178456E+01 a       547     0    28     1     7
  3.2375425595527226E+01 a       548     0    28     1     8
 -2.7084561456895415E+01 a       549     0    28     1     9
 -5.6211751753791539E+01 a       550     0    28     1    10
 -5.9972286011740870E+01 a       551     0    28     1    11
 -1.7542562611831421E+01 a       552     0    28     1    12
  9.4553115652156151E+01 a       553     0    28     1    13
 -1.4238955623362379E+01 a       554     0    28     1    14
  2.5391954617209995E+00 a       555     0    28     1    15
  3.9725906889162921E+01 a       556     0    28     1    16
  2.7019660205341882E+01 a       557     0    28     1    17
 -3.2038637910181675E+00 a       558     0    28     1    18
 -9.3244571911292820E+00 a       559     0    28     1    19
  2.1088191716893414E+00 a       560     0    28     1    20
 -1.3148766185376084E+02 a       561     0    29     1     1
 -1.0168115012615381E+02 a       562     0    29     1     2
 -6.2725729116910927E+01 a       563     0    29     1     3
 -1.3499678479965658E+02 a       564     0    29     1     4
 -4.3485766327175959E+01 a       565     0    29     1     5
 -6.0934356347787663E+01 a       566     0    29     1     6
 -6.0125231227348152E+01 a       567     0    29     1     7
 -1.1623452452405513E+02 a       568     0    29     1     8
 -1.1737926432880998E+01 a       569     0    29     1     9
 -8.3655116764107106E+01 a       570     0    29     1    10
 -8.6828290916251177E+01 a       571     0    29     1    11
  2.1097615834726167E+01 a       572     0    29     1    12
 -3.0936348021076601E+01 a       573     0    29     1    13
 -4.5658907051661323E+01 a       574     0    29     1    14
 -1.0085270091757176E+01 a       575     0    29     1    15
  2.8391413146356733E+01 a       576     0    29     1    16
  1.2730410177559405E+02 a       577     0    29     1    17
 -6.6186007508274614E+01 a       578     0    29     1    18
  1.8768973948900850E+01 a       579     0    29     1    19
 -7.4724681699707176E+01 a       580     0    29     1    20
 -4.1636178318221994E+01 a       581     0    30     1     1
  3.3790868884006899E+00 a       582     0    30     1     2
 -3.3384318226998481E+01 a       583     0    30     1     3
  4.7802824916976277E+01 a       584     0    30     1     4
  3.5849349500599203E+01 a       585     0    30     1     5
 -1.4668274877724345E+01 a       586     0    30     1     6
  2.5526083798915177E+01 a       587     0    30     1     7
 -1.8799898448040600E+00 a       588     0    30     1     8
  1.6231625123180262E+00 a       589     0    30     1     9
  4.0495967688011106E+01 a       590     0    30     1    10
 -4.9497704343364024E+00 a       591     0    30     1    11
  1.7591369943672408E+01 a       592     0    30     1    12
  4.7802575342515887E+01 a       593     0    30     1    13
  9.2703269435590592E+00 a       594     0    30     1    14
  2.6384257200412664E+00 a       595     0    30     1    15
 -2.0036902659534768E+01 a       596     0    30     1    16
  1.8278684771738650E+01 a       597     0    30     1    17
 -2.3990418226312801E+01 a       598     0    30     1    18
  1.5266210263628954E+00 a       599     0    30     1    19
  5.8091513286335026E+00 a       600     0    30     1    20
 -2.1696534310307662E+01 a       601     0    31     1     1
  1.5689109814963668E+01 a       602     0    31     1     2
 -6.5627139306356341E+01 a       603     0    31     1     3
 -2.9143202309446959E+01 a       604     0    31     1     4
  5.8036162969262307E+01 a       605     0    31     1     5
  9.8492594465878511E+00 a       606     0    31     1     6
  3.0364783788601862E+01 a       607     0    31     1     7
 -1.4814869662404787E+01 a       608     0    31     1     8
  4.9950489832917214E+01 a       609     0    31     1     9
 -2.0334092871203762E+01 a       610     0    31     1    10
  6.4602744879351718E+01 a       611     0    31     1    11
 -7.3195910908927742E+00 a       612     0    31     1    12
 -3.3653083435614036E+01 a       613     0    31     1    13
  1.1482269792728170E+01 a       614     0    31     1    14
  4.0013259636126799E+00 a       615     0    31     1    15
 -4.0201773448725369E+01 a       616     0    31     1    16
 -2.5491945344367046E+01 a       617     0    31     1    17
  1.6935572356972983E+01 a       618     0    31     1    18
 -1.5669526457152116E+00 a       619     0    31     1    19
  1.4498062991796443E+01 a       620     0    31     1    20
 -2.7408645145902881E+02 a       621     0    32     1     1
 -3.0901456884279764E+01 a       622     0    32     1     2
 -1.1103631150035322E+00 a       623     0    32     1     3
 -1.1383353656601690E+02 a       624     0    32     1     4
 -8.1378487609080121E+00 a       625     0    32     1     5
 -1.2288836213610178E+02 a       626     0    32     1     6
  4.7472551642321058E+01 a       627     0    32     1     7
  4.3159235888121835E+01 a       628     0    32     1     8
 -2.1231317860105964E+01 a       629     0    32     1     9
 -9.1774902365420644E+01 a       630     0    32     1    10
 -2.8555549477382993E+01 a       631     0    32     1    11
  2.8798393743976785E+01 a       632     0    32     1    12
  2.7141764616725612E+02 a       633     0    32     1    13
  4.0012453312269216E+01 a       634     0    32     1    14
 -3.0983839320502717E+01 a       635     0    32     1    15
  2.1806464737703482E+02 a       636     0    32     1    16
 -7.5366701611674515E+01 a       637     0    32     1    17
  5.3608361222098203E+01 a       638     0    32     1    18
 -1.1568711249631620E+02 a       639     0    32     1    19
 -9.1504347486582120E+01 a       640     0    32     1    20
 -2.1930004475372833E+01 a       641     0    33     1     1
 -6.2230526412333695E+01 a       642     0    33     1     2
 -3.3322893888166156E+01 a       643     0    33     1     3
  2.2945867581858832E+00 a       644     0    33     1     4
  4.5024273208784225E+00 a       645     0    33     1     5
  3.2452649484706072E+01 a       646     0    33     1     6
 -4.6673478076607445E+01 a       647     0    33     1     7
 -4.6989508584476516E+00 a       648     0    33     1     8
 -8.4242452890250448E+00 a       649     0    33     1     9
  1.4658284075535717E+00 a       650     0    33     1    10
 -4.6457909365527188E+00 a       651     0    33     1    11
 -5.2735889199963211E+01 a       652     0    33     1    12
  4.6304703533475411E+01 a       653     0    33     1    13
  2.2860390273168132E+01 a       654     0    33     1    14
 -7.1314404528007076E+00 a       655     0    33     1    15
  2.0946082553492293E+01 a       656     0    33     1    16
 -2.3671529259173266E+01 a       657     0    33     1    17
  5.3546698785225068E+01 a       658     0    33     1    18
 -2.7968133280362828E+01 a       659     0    33     1    19
 -7.7751369703661570E+00 a       660     0    33     1    20
  9.5079106115854159E+00 a       661     0    34     1     1
 -5.0665854913659118E+01 a       662     0    34     1     2
  6.3221242121036362E+01 a       663     0    34     1     3
  1.6738355812487846E+01 a       664     0    34     1     4
  4.9094877064662306E+01 a       665     0    34     1     5
 -1.8277300152721899E+01 a       666     0    34     1     6
 -2.3326928454853554E+01 a       667     0    34     1     7
  5.0508286840069829E+01 a       668     0    34     1     8
 -1.1408180985609473E+01 a       669     0    34     1     9
 -1.7981532811440562E+02 a       670     0    34     1    10
 -5.5598630086123876E+01 a       671     0    34     1    11
 -4.4309490370672783E+01 a       672     0    34     1    12
  1.3676949310777215E+02 a       673     0    34     1    13
 -3.6810835276798044E+00 a       674     0    34     1    14
  5.3137175649447101E+00 a       675     0    34     1    15
  3.6329846493194417E+01 a       676     0    34     1    16
  2.6378776976782131E+01 a       677     0    34     1    17
  2.2416989716785192E+01 a       678     0    34     1    18
 -3.3322711779275345E+01 a       679     0    34     1    19
  2.9496494038632779E+01 a       680     0    34     1    20
 -4.0550860200776064E+00 a       681     0    35     1     1
  2.4148494444483442E+00 a       682     0    35     1     2
  3.1604968154492397E+01 a       683     0    35     1     3
  2.8627007948730516E+00 a       684     0    35     1     4
  2.2169003403936298E+01 a       685     0    35     1     5
  7.0191153631423390E+01 a       686     0    35     1     6
  4.2968937177977814E+01 a       687     0    35     1     7
  1.4766141364956906E+02 a       688     0    35     1     8
 -1.6208386957497535E+01 a       689     0    35     1     9
 -1.2214361358723579E+01 a       690     0    35     1    10
  4.8956364755329034E+01 a       691     0    35     1    11
 -1.6637815560799311E+01 a       692     0    35     1    12
  5.8959550073977432E+01 a       693     0    35     1    13
  1.8750549169807712E+01 a       694     0    35     1    14
  4.2073786666526615E+01 a       695     0    35     1    15
  2.0972667563801959E+01 a       696     0    35     1    16
 -8.6377373680451370E+01 a       697     0    35     1    17
  3.0574826519017968E+01 a       698     0    35     1    18
 -5.4856565811521421E+01 a       699     0    35     1    19
  1.0105652084153480E+01 a       700     0    35     1    20
  3.6252654667703581E+00 a       701     0    36     1     1
 -2.2239775280432116E+01 a       702     0    36     1     2
  2.8819816473516351E+01 a       703     0    36     1     3
 -3.8955461629708303E+01 a       704     0    36     1     4
 -1.7993234450873739E+01 a       705     0    36     1     5
  2.5741810934644050E+01 a       706     0    36     1     6
 -1.1763047369803333E+01 a       707     0    36     1     7
  4.8061785400555710E+00 a       708     0    36     1     8
 -1.6836092102867362E+01 a       709     0    36     1     9
 -4.0078767047305661E+01 a       710     0    36     1    10
 -9.7300003999084006E-03 a       711     0    36     1    11
 -2.1570042187895460E+01 a       712     0    36     1    12
 -3.7578892728505309E+01 a       713     0    36     1    13
  2.9224671734557761E-01 a       714     0    36     1    14
  3.5033856225013293E+00 a       715     0    36     1    15
  1.5779307116364425E+01 a       716     0    36     1    16
 -4.2595310218301456E+00 a       717     0    36     1    17
  3.1032579849294233E+01 a       718     0    36     1    18
 -7.1698616964746966E+00 a       719     0    36     1    19
 -4.8099205990086720E+00 a       720     0    36     1    20
  1.0949895818868869E+01 a       721     0    37     1     1
 -1.7152496200877881E+01 a       722     0    37     1     2
  3.4566108141916303E+01 a       723     0    37     1     3
 -8.1035742951807332E+00 a       724     0    37     1     4
  3.0472636686572798E+00 a       725     0    37     1     5
 -8.6343948541805453E+00 a       726     0    37     1     6
 -2.0350797914722463E+01 a       727     0    37     1     7
  1.0184818795154408E+01 a       728     0    37     1     8
 -2.1261815931225481E+01 a       729     0    37     1     9
 -6.5170651195584895E+01 a       730     0    37     1    10
 -4.0351089995682052E+01 a       731     0    37     1    11
 -1.1530427537284615E+01 a       732     0    37     1    12
  3.2582912617233890E+00 a       733     0    37     1    13
  2.4624633450877862E+01 a       734     0    37     1    14
 -1.9684136270326054E+00 a       735     0    37     1    15
  2.0338407149403199E+01 a       736     0    37     1    16
  1.0992788821884535E+01 a       737     0    37     1    17
 -4.4295446465287780E+00 a       738     0    37     1    18
 -1.4571229828725270E+01 a       739     0    37     1    19
  1.3589331239825981E+01 a       740     0    37     1    20
  3.3867899756901267E+02 a       741     0    38     1     1
 -1.3823743260789403E-01 a       742     0    38     1     2
 -5.6860946150017234E+01 a       743     0    38     1     3
  2.2957604673821902E+02 a       744     0    38     1     4
  4.2369250014295240E+01 a       745     0    38     1     5
  1.6067158583965966E+02 a       746     0    38     1     6
 -9.1558289171447711E+01 a       747     0    38     1     7
 -3.5837371420641730E+01 a       748     0    38     1     8
  9.1804316493503734E+01 a       749     0    38     1     9
  1.4623613746135987E+02 a       750     0    38     1    10
 -3.2267173893096775E+01 a       751     0    38     1    11
  3.7530827722070200E+01 a       752     0    38     1    12
 -4.1462392195458432E+02 a       753     0    38     1    13
 -5.6079330009569453E+01 a       754     0    38     1    14
 -3.8721257137460853E+01 a       755     0    38     1    15
 -2.6606981308317023E+02 a       756     0    38     1    16
  2.0707908574022446E+02 a       757     0    38     1    17
 -2.1826454176935425E+01 a       758     0    38     1    18
  1.1181277019728677E+02 a       759     0    38     1    19
  9.6131726094536390E+01 a       760     0    38     1    20
  8.5774248229569068E+00 a       761     0    39     1     1
  5.9597956712469625E+01 a       762     0    39     1     2
  1.5203838739088770E+01 a       763     0    39     1     3
  3.0160530860054386E+01 a       764     0    39     1     4
  1.6028168123441425E+01 a       765     0    39     1     5
 -4.1575095436126595E+01 a       766     0    39     1     6
  6.2341700313801240E+01 a       767     0    39     1     7
  2.4268083730825172E+00 a       768     0    39     1     8
  9.0250533963230808E+00 a       769     0    39     1     9
  5.2671827656307100E+00 a       770     0    39     1    10
 -2.2941567351541969E-01 a       771     0    39     1    11
  6.5518343017835491E+01 a       772     0    39     1    12
 -2.8981115283197344E+01 a       773     0    39     1    13
 -2.1306833460562942E+01 a       774     0    39     1    14
  5.4331368593020093E+00 a       775     0    39     1    15
 -2.7816367115230154E+01 a       776     0    39     1    16
  3.2015960482913648E+01 a       777     0    39     1    17
 -6.4071314956107557E+01 a       778     0    39     1    18
  2.5954995240312606E+01 a       779     0    39     1    19
  1.6968646282621631E+01 a       780     0    39     1    20
 -4.5200715674002572E+00 a       781     0    40     1     1
  6.1873747692857172E+01 a       782     0    40     1     2
 -1.1297499859792232E+02 a       783     0    40     1     3
 -1.6514595626653911E+01 a       784     0    40     1     4
  7.5810726064401299E+00 a       785     0    40     1     5
  7.0273078475174078E+00 a       786     0    40     1     6
  4.0813137236634233E+01 a       787     0    40     1     7
 -6.2378119511798886E+01 a       788     0    40     1     8
  4.9623334323357717E+01 a       789     0    40     1     9
  1.3395664838936415E+02 a       790     0    40     1    10
  7.2515841103648455E+01 a       791     0    40     1    11
  5.3638856937362874E+01 a       792     0    40     1    12
 -1.2672477028465019E+02 a       793     0    40     1    13
  1.9337710500507285E+01 a       794     0    40     1    14
 -6.6745277107845711E+00 a       795     0    40     1    15
 -4.7502899018489444E+01 a       796     0    40     1    16
 -5.8365988972866361E+01 a       797     0    40     1    17
 -9.3656339133584172E+00 a       798     0    40     1    18
  2.6174884369697299E+01 a       799     0    40     1    19
 -1.0075550258692740E+01 a       800     0    40     1    20
 -2.9747883798647923E+01 a       801     0    41     1     1
  9.0683600270150563E+01 a       802     0    41     1     2
  6.0105527053448341E+01 a       803     0    41     1     3
  1.8617216314759926E+02 a       804     0    41     1     4
 -1.2791677046220493E+00 a       805     0    41     1     5
 -2.9141350941468456E+01 a       806     0    41     1     6
  8.4872215105170156E+01 a       807     0    41     1     7
  2.3337171301820123E+02 a       808     0    41     1     8
 -1.8088245901915659E+01 a       809     0    41     1     9
  7.6232504830869985E+01 a       810     0    41     1    10
  3.3364444606048160E+01 a       811     0    41     1    11
  3.6265016999057309E+01 a       812     0    41     1    12
  1.5572422786957912E+02 a       813     0    41     1    13
  8.8646733588922245E+01 a       814     0    41     1    14
 -2.8089040008526929E+01 a       815     0    41     1    15
  1.0745923641871217E+02 a       816     0    41     1    16
 -1.3838925798821506E+02 a       817     0    41     1    17
  1.3305386734783724E+02 a       818     0    41     1    18
 -1.2517380284257420E+02 a       819     0    41     1    19
  2.7536728495411094E+01 a       820     0    41     1    20
  1.9488320109956160E+01 a       821     0    42     1     1
 -5.6899884425586244E+01 a       822     0    42     1     2
 -4.4673239555099914E-01 a       823     0    42     1     3
 -3.0251770885750396E+01 a       824     0    42     1     4
 -1.7360997176556921E+01 a       825     0    42     1     5
  3.8184378146082942E+01 a       826     0    42     1     6
 -5.7467282357924418E+01 a       827     0    42     1     7
 -1.4602857570288530E+00 a       828     0    42     1     8
 -1.5665136474958004E+01 a       829     0    42     1     9
 -4.7590752111102489E+01 a       830     0    42     1    10
  8.0812649860902201E+00 a       831     0    42     1    11
 -5.1998188966235148E+01 a       832     0    42     1    12
 -3.9184631503188498E+01 a       833     0    42     1    13
  5.4526763196897683E+00 a       834     0    42     1    14
 -8.7819595169927105E+00 a       835     0    42     1    15
  3.2025419197694646E+01 a       836     0    42     1    16
 -3.0347965213595103E+01 a       837     0    42     1    17
  6.4296281786990150E+01 a       838     0    42     1    18
 -2.4523062977491314E+01 a       839     0    42     1    19
 -3.2268774569033360E+00 a       840     0    42     1    20
  3.6052647394741946E+01 a       841     0    43     1     1
 -4.6897871298048692E+01 a       842     0    43     1     2
  8.2465713940052936E+01 a       843     0    43     1     3
  2.4803309341860018E+01 a       844     0    43     1     4
  3.5532223577636877E+01 a       845     0    43     1     5
 -3.0003364351980565E+01 a       846     0    43     1     6
 -4.8839657293060583E+01 a       847     0    43     1     7
  4.9336592174039538E+01 a       848     0    43     1     8
 -4.5904573707165738E+01 a       849     0    43     1     9
 -1.6578943425880837E+02 a       850     0    43     1    10
 -9.2860621658886913E+01 a       851     0    43     1    11
 -2.6104953932132929E+01 a       852     0    43     1    12
  9.4897864317913601E+01 a       853     0    43     1    13
  6.8044721370708841E+00 a       854     0    43     1    14
 -5.8784942987462880E+00 a       855     0    43     1    15
  5.3236098702274631E+01 a       856     0    43     1    16
  3.7964245701630048E+01 a       857     0    43     1    17
  2.1384725902683968E+01 a       858     0    43     1    18
 -3.5432895590006993E+01 a       859     0    43     1    19
  2.1119139868268885E+01 a       860     0    43     1    20
  1.6388064431849818E+02 a       861     0    44     1     1
 -1.2578294464624301E+02 a       862     0    44     1     2
 -5.9624911916561288E+01 a       863     0    44     1     3
 -3.2484741979725847E+01 a       864     0    44     1     4
 -8.8577557546575875E+01 a       865     0    44     1     5
  6.3070563307045177E+01 a       866     0    44     1     6
 -1.5910620617665643E+02 a       867     0    44     1     7
 -2.3975568846264073E+02 a       868     0    44     1     8
  6.5354051757513744E+01 a       869     0    44     1     9
  1.8613878456623439E+01 a       870     0    44     1    10
 -8.3918307031236722E+01 a       871     0    44     1    11
 -1.2227227054540997E+01 a       872     0    44     1    12
 -3.9109712789997138E+02 a       873     0    44     1    13
 -1.5241914310044797E+02 a       874     0    44     1    14
  3.8477397526363895E+01 a       875     0    44     1    15
 -2.6605698164135407E+02 a       876     0    44     1    16
  3.1373480018559337E+02 a       877     0    44     1    17
 -2.0380786933421442E+02 a       878     0    44     1    18
  2.2503883496543588E+02 a       879     0    44     1    19
  2.4005729944017684E+01 a       880     0    44     1    20
 -2.1962832959501984E+01 a       881     0    45     1     1
  8.7984613502909724E+01 a       882     0    45     1     2
  1.7603246363953855E+00 a       883     0    45     1     3
  6.6490078082405944E+01 a       884     0    45     1     4
  4.1952862352024219E+01 a       885     0    45     1     5
 -6.1069507619198490E+01 a       886     0    45     1     6
  9.6994605883388772E+01 a       887     0    45     1     7
  5.7796230041209187E+00 a       888     0    45     1     8
  9.6019876250268492E+00 a       889     0    45     1     9
  4.9418384725215311E+01 a       890     0    45     1    10
  6.4713785052027442E+00 a       891     0    45     1    11
  9.2792764495114838E+01 a       892     0    45     1    12
  3.4905650344634074E+00 a       893     0    45     1    13
 -2.3335618944584599E+01 a       894     0    45     1    14
  1.5563965691238643E+01 a       895     0    45     1    15
 -5.4320641427579417E+01 a       896     0    45     1    16
  6.1164844586034562E+01 a       897     0    45     1    17
 -1.0846203025931352E+02 a       898     0    45     1    18
  3.9183488121478248E+01 a       899     0    45     1    19
  2.3477723784922855E+01 a       900     0    45     1    20
 -4.3963037392397396E+01 a       901     0    46     1     1
  9.6101503076349701E+01 a       902     0    46     1     2
 -2.0050467058459301E+02 a       903     0    46     1     3
 -6.9704856919764310E+01 a       904     0    46     1     4
  3.5099862371841873E+01 a       905     0    46     1     5
  4.2984917115376149E+01 a       906     0    46     1     6
  8.4338529780198556E+01 a       907     0    46     1     7
 -9.0698702215499210E+01 a       908     0    46     1     8
  8.8121115548813037E+01 a       909     0    46     1     9
  1.9712184257734103E+02 a       910     0    46     1    10
  1.8293257310767575E+02 a       911     0    46     1    11
  5.1141169605245082E+01 a       912     0    46     1    12
 -2.3344323873340932E+02 a       913     0    46     1    13
  2.2294291660356592E+01 a       914     0    46     1    14
 -1.0225385107081053E+00 a       915     0    46     1    15
 -1.1472114687340704E+02 a       916     0    46     1    16
 -7.7938539357165496E+01 a       917     0    46     1    17
 -9.0207550748761243E+00 a       918     0    46     1    18
  3.7423297907707941E+01 a       919     0    46     1    19
 -1.5767377153480208E+01 a       920     0    46     1    20
  3.6131973741298140E+01 a       921     0    47     1     1
  1.7409867760118345E+01 a       922     0    47     1     2
 -1.3954896585632204E+01 a       923     0    47     1     3
  2.1535449885627663E+01 a       924     0    47     1     4
 -1.6929918468971898E+01 a       925     0    47     1     5
 -6.1494600808492038E+01 a       926     0    47     1     6
 -3.6181908628606301E+01 a       927     0    47     1     7
 -1.3252973387527604E+02 a       928     0    47     1     8
  2.9238913663447921E+01 a       929     0    47     1     9
  2.5916366222951915E+01 a       930     0    47     1    10
 -2.7678968232944914E+01 a       931     0    47     1    11
  1.1613937875133271E+01 a       932     0    47     1    12
 -5.3240070143692279E+01 a       933     0    47     1    13
 -1.6379216740977046E+01 a       934     0    47     1    14
 -3.8016856468523130E+01 a       935     0    47     1    15
 -2.6430723502670631E+01 a       936     0    47     1    16
  6.9264115457097461E+01 a       937     0    47     1    17
 -2.4845506003238405E+01 a       938     0    47     1    18
  6.2174976651810546E+01 a       939     0    47     1    19
  6.3754417206152088E+00 a       940     0    47     1    20
  5.4871331404904966E+00 a       941     0    48     1     1
  2.5269555838779659E+01 a       942     0    48     1     2
 -2.0636669106997452E+01 a       943     0    48     1     3
  2.8635662704914804E+01 a       944     0    48     1     4
  1.0702021096900085E+01 a       945     0    48     1     5
 -2.4450093572398607E+01 a       946     0    48     1     6
  9.2626286289284288E+00 a       947     0    48     1     7
 -5.0592897391467533E+00 a       948     0    48     1     8
  1.4972406700382908E+01 a       949     0    48     1     9
  3.2333985644182292E+01 a       950     0    48     1    10
  8.6507788845374323E-01 a       951     0    48     1    11
  1.9594686431201534E+01 a       952     0    48     1    12
  3.1381009947606344E+01 a       953     0    48     1    13
 -3.8314655938766147E+00 a       954     0    48     1    14
 -3.8081486670205926E+00 a       955     0    48     1    15
 -1.2189039401405491E+01 a       956     0    48     1    16
  3.2897574056911449E+00 a       957     0    48     1    17
 -3.0348431506143736E+01 a       958     0    48     1    18
  8.3677583442591192E+00 a       959     0    48     1    19
  4.5525650259076214E+00 a       960     0    48     1    20
 -7.6405019229530451E+00 a       961     0    49     1     1
  1.6183238679831895E+01 a       962     0    49     1     2
 -2.6631881057927810E+01 a       963     0    49     1     3
  9.8738452490401443E+00 a       964     0    49     1     4
 -1.4438538776958316E+01 a       965     0    49     1     5
  8.5828689363218089E+00 a       966     0    49     1     6
  1.6883888798266842E+01 a       967     0    49     1     7
 -9.9259646037332558E+00 a       968     0    49     1     8
  1.0833403935075040E+01 a       969     0    49     1     9
  7.0183321271954085E+01 a       970     0    49     1    10
  3.1760337397804793E+01 a       971     0    49     1    11
  1.3629054510926903E+01 a       972     0    49     1    12
 -2.3503462527512448E-01 a       973     0    49     1    13
 -2.8068390134692471E+01 a       974     0    49     1    14
  9.4429577939829379E-01 a       975     0    49     1    15
 -1.4711288443286131E+01 a       976     0    49     1    16
 -7.2462820219119859E+00 a       977     0    49     1    17
 -2.3654400535367723E+00 a       978     0    49     1    18
  1.5334606488173140E+01 a       979     0    49     1    19
 -1.7858201250776421E+01 a       980     0    49     1    20
 -1.6973676488180249E+02 a       981     0    50     1     1
  8.5866077090078548E+01 a       982     0    50     1     2
  8.1394268384410140E+01 a       983     0    50     1     3
 -8.4189299491288381E+01 a       984     0    50     1     4
  4.3158106533271985E+00 a       985     0    50     1     5
 -8.4263995590675918E+01 a       986     0    50     1     6
  1.2128632887251204E+02 a       987     0    50     1     7
  1.2626903580975524E+02 a       988     0    50     1     8
 -1.0396358194989500E+02 a       989     0    50     1     9
 -6.7801488571726793E+01 a       990     0    50     1    10
  8.9264645223835913E+01 a       991     0    50     1    11
 -4.5252749778420018E+01 a       992     0    50     1    12
  3.3578769890864430E+02 a       993     0    50     1    13
  9.3012990252630814E+01 a       994     0    50     1    14
  4.4533040094212168E+01 a       995     0    50     1    15
  1.9027274321331404E+02 a       996     0    50     1    16
 -2.6878064117126314E+02 a       997     0    50     1    17
  7.2201883409844356E+01 a       998     0    50     1    18
 -1.1859771371768328E+02 a       999     0    50     1    19
 -3.3813045569145615E+01 a      1000     0    50     1    20
  1.1378407994272933E+01 a      1001     0    51     1     1
 -4.9150436453699967E+01 a      1002     0    51     1     2
  3.6665939627023985E+00 a      1003     0    51     1     3
 -4.8796952466846300E+01 a      1004     0    51     1     4
 -2.9360173008539284E+01 a      1005     0    51     1     5
  4.0408077932146476E+01 a      1006     0    51     1     6
 -6.2520172361791424E+01 a      1007     0    51     1     7
 -2.4082508686563071E+00 a      1008     0    51     1     8
 -8.6691788617128189E+00 a      1009     0    51     1     9
 -2.2326899547157517E+01 a      1010     0    51     1    10
  2.6950382532523043E+00 a      1011     0    51     1    11
 -5.9971080805486743E+01 a      1012     0    51     1    12
 -9.7026911116480985E+00 a      1013     0    51     1    13
  1.4578274664915309E+01 a      1014     0    51     1    14
 -5.9891754094619118E+00 a      1015     0    51     1    15
  3.0295123838949724E+01 a      1016     0    51     1    16
 -3.8200726410623830E+01 a      1017     0    51     1    17
  6.4369808576844932E+01 a      1018     0    51     1    18
 -2.1416617592320286E+01 a      1019     0    51     1    19
 -1.7992036356021355E+01 a      1020     0    51     1    20
  1.5039035742984682E+01 a      1021     0    52     1     1
 -5.8613794526084739E+01 a      1022     0    52     1     2
  1.3226342764675806E+02 a      1023     0    52     1     3
  2.3413130324298397E+01 a      1024     0    52     1     4
 -4.3298707972691872E+01 a      1025     0    52     1     5
 -1.0922555487913870E+01 a      1026     0    52     1     6
 -5.4653617602016929E+01 a      1027     0    52     1     7
  5.5976407885594945E+01 a      1028     0    52     1     8
 -7.1178936875804169E+01 a      1029     0    52     1     9
 -8.4861772340741510E+01 a      1030     0    52     1    10
 -9.5667054658702696E+01 a      1031     0    52     1    11
 -4.1155342667339141E+01 a      1032     0    52     1    12
  1.0186605864276405E+02 a      1033     0    52     1    13
 -2.0132423364098738E+01 a      1034     0    52     1    14
  2.2074856829748790E+00 a      1035     0    52     1    15
  5.9637441647085701E+01 a      1036     0    52     1    16
  6.1678170300225787E+01 a      1037     0    52     1    17
  8.5215529654977118E-01 a      1038     0    52     1    18
 -1.8376499372409061E+01 a      1039     0    52     1    19
 -1.7701140810268514E+00 a      1040     0    52     1    20
  5.9041375624091941E-01 b      1041     1     1
  2.3963687513165355E+00 b      1042     1     2
 -1.9288359089416254E-01 b      1043     1     3
  1.1311262818230117E+00 b      1044     1     4
  3.4668635153003952E-01 b      1045     1     5
  8.4728089143756580E-01 b      1046     1     6
  2.2334333854209146E-01 b      1047     1     7
  5.9178808574400421E-01 b      1048     1     8
 -1.9703982312866377E+00 b      1049     1     9
 -2.7266283597321643E+00 b      1050     1    10
  1.9835057369656104E+00 b      1051     1    11
 -5.5607047004741406E-01 b      1052     1    12
 -3.3507145746003708E+00 b      1053     1    13
  1.7756117795912338E+00 b      1054     1    14
 -3.5520328275921895E+00 b      1055     1    15
  2.2076940129878140E+00 b      1056     1    16
 -1.3369607849595475E+00 b      1057     1    17
 -1.0615669234451217E+00 b      1058     1    18
  6.6614263020642683E-01 b      1059     1    19
 -1.6657403725410764E+00 b      1060     1    20
 -8.4026440917124368E-01 a      1061     1     1     2     1
 -5.6114342817701424E-01 a      1062     1     1     2     2
  2.3063551308693815E+00 a      1063     1     1     2     3
  9.8322413113853446E-01 a      1064     1     1     2     4
 -2.7233054810014495E-01 a      1065     1     1     2     5
  8.1840131946540695E-01 a      1066     1     1     2     6
 -2.1752143150540570E-01 a      1067     1     1     2     7
 -4.8601367632323411E-01 a      1068     1     1     2     8
 -7.5544655299618380E-01 a      1069     1     1     2     9
 -1.3059177681739569E+00 a      1070     1     1     2    10
  1.4428356526359356E+00 a      1071     1     1     2    11
  5.0142704091429979E-01 a      1072     1     1     2    12
  2.3598976357484841E-01 a      1073     1     1     2    13
 -5.7322097228442148E-01 a      1074     1     1     2    14
 -3.2515271865857093E-01 a      1075     1     1     2    15
 -2.5505587791326650E-01 a      1076     1     1     2    16
 -5.3867344453078914E-01 a      1077     1     1     2    17
 -8.0698034103417504E-01 a      1078     1     1     2    18
 -2.0977581185735024E+00 a      1079     1     1     2    19
  1.1196319415215381E+00 a      1080     1     1     2    20
  2.0538137413313189E+00 a      1081     1     2     2     1
 -9.8983300882836045E-01 a      1082     1     2     2     2
  1.1363886951067572E+00 a      1083     1     2     2     3
  2.2299730553560645E-01 a      1084     1     2     2     4
 -1.0156388102267705E-02 a      1085     1     2     2     5
 -4.3982864967150531E-01 a      1086     1     2     2     6
 -1.0021177687171144E-01 a      1087     1     2     2     7
  1.6381704140768527E-01 a      1088     1     2     2     8
 -4.1882892190241094E-01 a      1089     1     2     2     9
 -2.0044017186555144E-01 a      1090     1     2     2    10
 -2.0739167050983237E-01 a      1091     1     2     2    11
 -1.3869208713861940E+00 a      1092     1     2     2    12
 -4.0384781769311517E-01 a      1093     1     2     2    13
  3.3865072154696141E-01 a      1094     1     2     2    14
  1.8206614448489735E+00 a      1095     1     2     2    15
 -1.3120581257285338E+00 a      1096     1     2     2    16
  2.6885281694358704E-01 a      1097     1     2     2    17
 -1.7153570479343977E-01 a      1098     1     2     2    18
 -1.6754878380362686E+00 a      1099     1     2     2    19
  1.5390954131815615E+00 a      1100     1     2     2    20
 -2.1609445452884146E+00 a      1101     1     3     2     1
  1.4437964727647652E+00 a      1102     1     3     2     2
 -7.7746588331077304E-01 a      1103     1     3     2     3
 -9.6123819189107021E-02 a      1104     1     3     2     4
 -1.1508241210573182E+00 a      1105     1     3     2     5
 -1.5101499993192931E+00 a      1106     1     3     2     6
 -6.0338871488652357E-01 a      1107     1     3     2     7
  2.3920513740307951E-02 a      1108     1     3     2     8
  6.0568550298977442E-01 a      1109     1     3     2     9
 -5.9900117403627573E-01 a      1110     1     3     2    10
  3.4982613976700394E-01 a      1111     1     3     2    11
  2.6718287498765092E-01 a      1112     1     3     2    12
 -1.2718934439446147E-01 a      1113     1     3     2    13
  2.3260623217172651E+00 a      1114     1     3     2    14
 -9.1095837334680141E-01 a      1115     1     3     2    15
  8.5941649554561717E-01 a      1116     1     3     2    16
  8.8023281027980882E-01 a      1117     1     3     2    17
 -1.2912088521095333E+00 a      1118     1     3     2    18
  2.6179171337294251E+00 a      1119     1     3     2    19
 -1.2774126298988617E+00 a      1120     1     3     2    20
  1.3411483711685110E+00 a      1121     1     4     2     1
  1.9367258003831977E-01 a      1122     1     4     2     2
 -2.0304735996768417E+00 a      1123     1     4     2     3
 -1.6423050707709669E-01 a      1124     1     4     2     4
 -6.9265826615303632E-04 a      1125     1     4     2     5
 -1.0384286383933861E+00 a      1126     1     4     2     6
 -9.5533505705908683E-03 a      1127     1     4     2     7
 -1.0121805839570015E+00 a      1128     1     4     2     8
  1.0752513230660046E+00 a      1129     1     4     2     9
  6.6095464069514664E-02 a      1130     1     4     2    10
  3.3175248373230865E-01 a      1131     1     4     2    11
  2.1524725736508175E+00 a      1132     1     4     2    12
 -4.9222721305160239E-01 a      1133     1     4     2    13
 -1.9514543503902415E-01 a      1134     1     4     2    14
  2.6665492198248906E+00 a      1135     1     4     2    15
  2.7195502112675212E+00 a      1136     1     4     2    16
  8.3653999327609263E-01 a      1137     1     4     2    17
  2.0722445363330999E-01 a      1138     1     4     2    18
 -6.3646560868061508E-01 a      1139     1     4     2    19
  1.9634658034556036E+00 a      1140     1     4     2    20
 -6.8665989067398625E-01 a      1141     1     5     2     1
  1.0040423128846152E+00 a      1142     1     5     2     2
  1.5415302126686652E+00 a      1143     1     5     2     3
 -7.3673964816534065E-01 a      1144     1     5     2     4
  5.6186128736847196E-01 a      1145     1     5     2     5
  3.2066894768279425E-01 a      1146     1     5     2     6
 -4.9486146132536907E-01 a      1147     1     5     2     7
 -3.5973649713067113E-01 a      1148     1     5     2     8
  1.6883338553172738E+00 a      1149     1     5     2     9
  1.9876176749122771E+00 a      1150     1     5     2    10
  1.3623880558283825E+00 a      1151     1     5     2    11
  2.4253187859377703E-01 a      1152     1     5     2    12
  7.1043339949583628E-01 a      1153     1     5     2    13
  7.2172135487463529E-01 a      1154     1     5     2    14
 -6.2834872666786012E-01 a      1155     1     5     2    15
  4.9805083837555580E-01 a      1156     1     5     2    16
  2.8011937896366947E+00 a      1157     1     5     2    17
  2.6995773218209190E-01 a      1158     1     5     2    18
  5.3421024573907783E+00 a      1159     1     5     2    19
 -9.5189469716009956E-01 a      1160     1     5     2    20
 -7.9642193620800361E-01 a      1161     1     6     2     1
 -8.4483107873463359E-01 a      1162     1     6     2     2
 -5.9338665185124384E-01 a      1163     1     6     2     3
  7.3319935001083292E-01 a      1164     1     6     2     4
 -8.6564246153499369E-01 a      1165     1     6     2     5
 -1.2396721377459483E-01 a      1166     1     6     2     6
 -3.9830255120455932E-01 a      1167     1     6     2     7
  4.0363668069541642E-01 a      1168     1     6     2     8
  2.8660218217128630E-01 a      1169     1     6     2     9
  5.0190108509525089E-01 a      1170     1     6     2    10
  5.0600289049754132E-01 a      1171     1     6     2    11
  2.2278404715071107E-01 a      1172     1     6     2    12
 -6.6357298128012276E-01 a      1173     1     6     2    13
  9.6736237101593170E-01 a      1174     1     6     2    14
 -7.4323454502154196E-01 a      1175     1     6     2    15
  3.2593253374858083E-01 a      1176     1     6     2    16
  5.9055616400486066E-01 a      1177     1     6     2    17
  1.5952950844521421E+00 a      1178     1     6     2    18
  1.9387439871950785E-01 a      1179     1     6     2    19
 -5.9727047236626918E-01 a      1180     1     6     2    20
 -2.6885901034376221E+00 a      1181     1     7     2     1
  2.7991771172316664E+00 a      1182     1     7     2     2
  3.3095190102962080E-01 a      1183     1     7     2     3
  1.3998428162429091E-01 a      1184     1     7     2     4
 -4.7603319307559377E-01 a      1185     1     7     2     5
 -2.2622049350913234E-01 a      1186     1     7     2     6
  1.5599784410795716E+00 a      1187     1     7     2     7
 -1.8575613684036181E+00 a      1188     1     7     2     8
 -2.0586517789286107E+00 a      1189     1     7     2     9
 -7.7860915749593818E-01 a      1190     1     7     2    10
  1.9215383714994458E+00 a      1191     1     7     2    11
 -7.2257232366299862E-01 a      1192     1     7     2    12
  5.3319227220970777E-01 a      1193     1     7     2    13
 -1.6528082669637638E+00 a      1194     1     7     2    14
 -2.2867461568765650E+00 a      1195     1     7     2    15
  7.5399828603590557E-01 a      1196     1     7     2    16
  7.2336384438904300E-01 a      1197     1     7     2    17
 -5.3127464405763347E-01 a      1198     1     7     2    18
 -4.4250656379868109E-01 a      1199     1     7     2    19
  3.9273778230644973E-01 a      1200     1     7     2    20
  8.4758528947647560E-01 a      1201     1     8     2     1
 -1.0267757354004539E+00 a      1202     1     8     2     2
  3.6435250212833448E-01 a      1203     1     8     2     3
 -6.1955690563033583E-01 a      1204     1     8     2     4
  1.0026229528757962E+00 a      1205     1     8     2     5
 -9.7107262932933125E-01 a      1206     1     8     2     6
  1.6902924395410803E+00 a      1207     1     8     2     7
  2.1552824797179575E+00 a      1208     1     8     2     8
 -3.2697280599516426E-01 a      1209     1     8     2     9
  3.1631859182031725E+00 a      1210     1     8     2    10
 -3.8220347144395506E-01 a      1211     1     8     2    11
  6.2278180488190027E-01 a      1212     1     8     2    12
  5.2579984602040830E-01 a      1213     1     8     2    13
  8.1879006573701085E-01 a      1214     1     8     2    14
  3.5364562521923670E-01 a      1215     1     8     2    15
 -8.3085338219049532E-01 a      1216     1     8     2    16
 -3.8626944444098804E-01 a      1217     1     8     2    17
  7.7196726418783523E-01 a      1218     1     8     2    18
 -8.5388260480787881E-01 a      1219     1     8     2    19
 -1.4902081519446544E+00 a      1220     1     8     2    20
 -1.2893812595769703E+00 a      1221     1     9     2     1
  1.2931738113384386E+00 a      1222     1     9     2     2
  1.8407534823763818E+00 a      1223     1     9     2     3
  1.3637771492741491E+00 a      1224     1     9     2     4
  2.3425822800469367E-01 a      1225     1     9     2     5
 -3.9032254630573249E-01 a      1226     1     9     2     6
  1.0314588998826963E+00 a      1227     1     9     2     7
 -1.3552802142478004E+00 a      1228     1     9     2     8
  1.0288347458347824E+00 a      1229     1     9     2     9
 -1.6733374447034717E+00 a      1230     1     9     2    10
  6.8116346747915349E-02 a      1231     1     9     2    11
 -2.1991146407184994E+00 a      1232     1     9     2    12
 -4.9815558596310217E-01 a      1233     1     9     2    13
 -3.7592081343555855E-01 a      1234     1     9     2    14
 -1.7063487966678832E+00 a      1235     1     9     2    15
  1.0512348140907035E+00 a      1236     1     9     2    16
  1.9435216536666624E+00 a      1237     1     9     2    17
  3.8734765161004137E-01 a      1238     1     9     2    18
  1.0628424910156078E+00 a      1239     1     9     2    19
 -2.6865168811656308E+00 a      1240     1     9     2    20
 -1.6696890759153729E+00 a      1241     1    10     2     1
  1.0337217615964429E+00 a      1242     1    10     2     2
  1.4422752270357340E+00 a      1243     1    10     2     3
 -6.6632604656218652E-01 a      1244     1    10     2     4
 -7.6271221023585156E-01 a      1245     1    10     2     5
 -4.1452799226233750E-01 a      1246     1    10     2     6
 -2.0704479759013057E+00 a      1247     1    10     2     7
 -5.7545279380152736E-01 a      1248     1    10     2     8
 -7.4673286614649059E-01 a      1249     1    10     2     9
 -9.4626970984939096E-01 a      1250     1    10     2    10
  5.8884184854127428E-02 a      1251     1    10     2    11
 -3.8274817687287270E+00 a      1252     1    10     2    12
  4.0515489182566583E-01 a      1253     1    10     2    13
 -1.4932760672710303E+00 a      1254     1    10     2    14
 -1.2946444532973458E+00 a      1255     1    10     2    15
 -3.7177670245116996E+00 a      1256     1    10     2    16
 -1.3617292295094601E+00 a      1257     1    10     2    17
  4.3002272425526139E-01 a      1258     1    10     2    18
  9.8564850976643137E-01 a      1259     1    10     2    19
 -2.5801279095654479E+00 a      1260     1    10     2    20
 -2.7948795364945746E-03 a      1261     1    11     2     1
 -7.8645606309854543E-01 a      1262     1    11     2     2
 -7.5408043825772020E-01 a      1263     1    11     2     3
 -1.5335234080353661E+00 a      1264     1    11     2     4
 -2.0453793989341407E-01 a      1265     1    11     2     5
  1.1099618309450634E+00 a      1266     1    11     2     6
 -9.0173873179727582E-01 a      1267     1    11     2     7
  2.2066010315282828E-02 a      1268     1    11     2     8
 -9.9813602144171154E-01 a      1269     1    11     2     9
 -9.8666246259088264E-01 a      1270     1    11     2    10
 -1.0071946445611715E+00 a      1271     1    11     2    11
 -2.9145284837170514E-02 a      1272     1    11     2    12
  1.8952991110776113E-01 a      1273     1    11     2    13
 -1.0838850122791159E+00 a      1274     1    11     2    14
  9.7940240708789428E-01 a      1275     1    11     2    15
 -9.0473891242245774E-01 a      1276     1    11     2    16
 -2.8080156405034234E-01 a      1277     1    11     2    17
  9.2094030250090375E-01 a      1278     1    11     2    18
  5.9766829316292946E-01 a      1279     1    11     2    19
  7.8515549947729635E-01 a      1280     1    11     2    20
 -2.1918184274373798E+00 a      1281     1    12     2     1
 -2.2608060863455544E+00 a      1282     1    12     2     2
  2.2467210373963322E+00 a      1283     1    12     2     3
  9.3930623026472626E-01 a      1284     1    12     2     4
  3.3263348308835272E-01 a      1285     1    12     2     5
  2.0413859788034481E+00 a      1286     1    12     2     6
  1.1956486444225725E-01 a      1287     1    12     2     7
  2.6823166326804837E+00 a      1288     1    12     2     8
 -6.1300202110638367E+00 a      1289     1    12     2     9
 -3.4029253292136152E+00 a      1290     1    12     2    10
 -1.5937377328500359E+00 a      1291     1    12     2    11
 -3.2947288146950262E+00 a      1292     1    12     2    12
 -7.3803261312324647E-02 a      1293     1    12     2    13
  1.2484558214274480E-01 a      1294     1    12     2    14
 -4.6085917775717036E+00 a      1295     1    12     2    15
 -2.3702860269930781E+00 a      1296     1    12     2    16
 -1.2963990348375658E+00 a      1297     1    12     2    17
 -2.2699653450293820E+00 a      1298     1    12     2    18
 -8.5374846889972406E-02 a      1299     1    12     2    19
 -8.2504580358441670E-01 a      1300     1    12     2    20
  6.2759183101145954E-01 a      1301     1    13     2     1
 -1.2072781752617208E+00 a      1302     1    13     2     2
  1.9715413156111052E+00 a      1303     1    13     2     3
 -3.0891577842534085E-01 a      1304     1    13     2     4
 -3.1784774568365132E-01 a      1305     1    13     2     5
  8.3615935571179323E-01 a      1306     1    13     2     6
 -1.0256200882333044E+00 a      1307     1    13     2     7
 -1.7388577307251449E-02 a      1308     1    13     2     8
  4.6815210119266848E-01 a      1309     1    13     2     9
  9.3765229666324135E-01 a      1310     1    13     2    10
 -6.1762059425559079E-01 a      1311     1    13     2    11
 -7.2837903142325278E-01 a      1312     1    13     2    12
 -1.4173642410620295E-02 a      1313     1    13     2    13
  1.8526335767014819E+00 a      1314     1    13     2    14
 -1.0562795202827906E+00 a      1315     1    13     2    15
  2.4897486245464822E+00 a      1316     1    13     2    16
  3.3866238367047463E-01 a      1317     1    13     2    17
  6.4279727425055366E-01 a      1318     1    13     2    18
  6.3367432677438718E-01 a      1319     1    13     2    19
  8.6341083341711833E-01 a      1320     1    13     2    20
  4.0476612219432334E-01 a      1321     1    14     2     1
 -2.5905396806813630E+00 a      1322     1    14     2     2
 -6.5909469145977351E-01 a      1323     1    14     2     3
  2.0838317900628642E-01 a      1324     1    14     2     4
  8.2865647147147992E-01 a      1325     1    14     2     5
 -9.8178754031398752E-02 a      1326     1    14     2     6
 -6.6508062086139907E-01 a      1327     1    14     2     7
  3.3814492942459218E+00 a      1328     1    14     2     8
 -2.8217901042949656E-01 a      1329     1    14     2     9
  1.1952286404721348E+00 a      1330     1    14     2    10
  9.1780709333185828E-01 a      1331     1    14     2    11
 -4.9311703043419358E-01 a      1332     1    14     2    12
  1.1183184991215240E+00 a      1333     1    14     2    13
  3.0194863998563819E+00 a      1334     1    14     2    14
 -1.8832175261003423E+00 a      1335     1    14     2    15
  1.1204145140953252E+00 a      1336     1    14     2    16
 -2.1000815106841961E-01 a      1337     1    14     2    17
  6.6364309008235789E-01 a      1338     1    14     2    18
  2.1480725657952617E+00 a      1339     1    14     2    19
 -3.4497695760276534E+00 a      1340     1    14     2    20
 -6.6738558893160560E-01 a      1341     1    15     2     1
 -2.1395596779644399E+00 a      1342     1    15     2     2
  3.3943242959006348E+00 a      1343     1    15     2     3
  3.1227013648556885E+00 a      1344     1    15     2     4
  1.0772061666921053E+00 a      1345     1    15     2     5
 -2.2263723870230137E+00 a      1346     1    15     2     6
 -6.1529315389068184E-01 a      1347     1    15     2     7
 -5.4711991980468344E-01 a      1348     1    15     2     8
  4.8276997767929936E-01 a      1349     1    15     2     9
  3.3146832324611779E+00 a      1350     1    15     2    10
  3.7136831551212874E+00 a      1351     1    15     2    11
 -1.1653857882031509E+00 a      1352     1    15     2    12
  5.4990757811763995E+00 a      1353     1    15     2    13
  6.6633864357605681E+00 a      1354     1    15     2    14
  2.9294015812267067E+00 a      1355     1    15     2    15
 -2.8208600180501491E+00 a      1356     1    15     2    16
 -8.6950024039144458E-01 a      1357     1    15     2    17
 -2.8394374974842995E-01 a      1358     1    15     2    18
 -7.8745364011854013E-01 a      1359     1    15     2    19
  1.4382877369559872E+00 a      1360     1    15     2    20
 -1.1087569087327592E-01 a      1361     1    16     2     1
  1.4593500539835083E+00 a      1362     1    16     2     2
 -2.4465473707336973E+00 a      1363     1    16     2     3
 -1.6129258560075019E+00 a      1364     1    16     2     4
  1.3118763407891836E+00 a      1365     1    16     2     5
  9.8518523032153738E-01 a      1366     1    16     2     6
  5.0286767320742187E-01 a      1367     1    16     2     7
 -1.3346464064962433E+00 a      1368     1    16     2     8
  3.9469050001098754E-01 a      1369     1    16     2     9
  6.3489948547778852E-01 a      1370     1    16     2    10
 -1.5227528689141598E+00 a      1371     1    16     2    11
 -2.1915986434876586E+00 a      1372     1    16     2    12
  2.7852642400696936E-01 a      1373     1    16     2    13
 -3.2918672378597567E+00 a      1374     1    16     2    14
  1.9155839621966713E+00 a      1375     1    16     2    15
 -2.3144119531474927E+00 a      1376     1    16     2    16
 -9.9056144402872948E-01 a      1377     1    16     2    17
  1.9225725315159470E+00 a      1378     1    16     2    18
  8.1785449624344697E-02 a      1379     1    16     2    19
 -4.7009085834808217E-01 a      1380     1    16     2    20
  1.3279667578977137E+00 a      1381     1    17     2     1
 -2.8244361668777329E-01 a      1382     1    17     2     2
 -3.8315979885624922E+00 a      1383     1    17     2     3
 -1.2874789712411733E-01 a      1384     1    17     2     4
  4.6262485212098958E-01 a      1385     1    17     2     5
 -1.8198608459968184E+00 a      1386     1    17     2     6
 -2.1307012416372759E-01 a      1387     1    17     2     7
  2.1265011753579027E-01 a      1388     1    17     2     8
 -1.4601040817989075E-01 a      1389     1    17     2     9
 -2.5123001413609325E-01 a      1390     1    17     2    10
 -9.4581508470450626E-01 a      1391     1    17     2    11
 -1.9661134464858798E-01 a      1392     1    17     2    12
 -1.4830538291271586E-01 a      1393     1    17     2    13
  5.0507992376228428E-01 a      1394     1    17     2    14
  1.5056964644235296E+00 a      1395     1    17     2    15
 -9.7268920036525774E-01 a      1396     1    17     2    16
 -4.9666388902947606E-01 a      1397     1    17     2    17
  7.8930249746060499E-01 a      1398     1    17     2    18
  1.7176607748701087E-01 a      1399     1    17     2    19
  2.8761282414320394E-01 a      1400     1    17     2    20
 -2.8649517153238948E+00 a      1401     1    18     2     1
  1.4585645875240234E+00 a      1402     1    18     2     2
 -3.1202139364702743E+00 a      1403     1    18     2     3
  6.5080050515463950E-02 a      1404     1    18     2     4
 -1.9329770663029924E+00 a      1405     1    18     2     5
  9.0013813129776199E-01 a      1406     1    18     2     6
  3.1523704544726955E-01 a      1407     1    18     2     7
 -8.1557639980633223E-01 a      1408     1    18     2     8
  7.2173652849238290E-01 a      1409     1    18     2     9
  2.5141509561254638E-01 a      1410     1    18     2    10
 -1.6909581762031796E+00 a      1411     1    18     2    11
 -4.9223434033428981E-01 a      1412     1    18     2    12
 -1.0030314571801981E+00 a      1413     1    18     2    13
  1.9379069851124910E+00 a      1414     1    18     2    14
 -1.9345647598664650E+00 a      1415     1    18     2    15
  2.0907085084383374E+00 a      1416     1    18     2    16
  1.0590598960894291E+00 a      1417     1    18     2    17
 -2.4386618897721233E+00 a      1418     1    18     2    18
  2.1344942728831868E+00 a      1419     1    18     2    19
  1.4863586936796522E+00 a      1420     1    18     2    20
 -3.3625086824578645E+00 a      1421     1    19     2     1
 -1.3030225825245976E+00 a      1422     1    19     2     2
 -4.4733982638277672E+00 a      1423     1    19     2     3
 -4.3426827056364727E+00 a      1424     1    19     2     4
 -2.6029526781459620E-02 a      1425     1    19     2     5
  5.4270289765692026E-01 a      1426     1    19     2     6
  2.4974425658915105E+00 a      1427     1    19     2     7
  2.2370310747281397E+00 a      1428     1    19     2     8
 -8.6482345090610890E-01 a      1429     1    19     2     9
  1.9358931204559431E+00 a      1430     1    19     2    10
  1.0010015990601711E+00 a      1431     1    19     2    11
  8.3768713772626768E-01 a      1432     1    19     2    12
 -4.9790069311424129E-01 a      1433     1    19     2    13
  1.2802358610181208E+00 a      1434     1    19     2    14
 -8.1059411287136491E+00 a      1435     1    19     2    15
  2.7336497409091129E+00 a      1436     1    19     2    16
  2.9831007699924578E-01 a      1437     1    19     2    17
 -1.0753366513431120E+00 a      1438     1    19     2    18
  1.8241060165400098E+00 a      1439     1    19     2    19
 -6.5204530855877803E+00 a      1440     1    19     2    20
 -3.2101822541868237E+00 a      1441     1    20     2     1
  4.1196359504220545E+00 a      1442     1    20     2     2
 -1.1077115611376196E+00 a      1443     1    20     2     3
  9.1761940897899608E-01 a      1444     1    20     2     4
  4.6509196422693772E-01 a      1445     1    20     2     5
 -2.3065617441223183E+00 a      1446     1    20     2     6
  1.4254431049919727E+00 a      1447     1    20     2     7
 -2.6714473655338251E+00 a      1448     1    20     2     8
  1.0239179974454746E+00 a      1449     1    20     2     9
 -3.6610066806646652E-01 a      1450     1    20     2    10
 -1.8871601352783696E+00 a      1451     1    20     2    11
  1.6186563118397974E+00 a      1452     1    20     2    12
 -4.2915333841077719E-01 a      1453     1    20     2    13
  1.2294661733022441E+00 a      1454     1    20     2    14
 -6.7786183033355329E-01 a      1455     1    20     2    15
 -6.1249720184202334E-02 a      1456     1    20     2    16
 -4.2437659171891545E-01 a      1457     1    20     2    17
 -1.3160633596344611E+00 a      1458     1    20     2    18
  3.0494098353937789E+00 a      1459     1    20     2    19
  1.4112415380216212E+00 a      1460     1    20     2    20
  5.1317222609247075E+00 b      1461     2     1
 -1.2614496925769270E+00 b      1462     2     2
 -6.4763168527788455E+00 b      1463     2     3
  2.2157654348906917E+00 b      1464     2     4
 -8.1316611478568106E+00 b      1465     2     5
  1.7408530184031086E+00 b      1466     2     6
 -2.3648414141851952E+00 b      1467     2     7
 -5.6473538185671259E+00 b      1468     2     8
 -1.5411378918398755E+00 b      1469     2     9
 -5.6398562971223480E+00 b      1470     2    10
 -2.8301622792558834E-01 b      1471     2    11
  3.8238425506758005E+00 b      1472     2    12
  9.3650548021243341E-01 b      1473     2    13
  7.0879681034883524E-01 b      1474     2    14
  1.2888710548691287E+00 b      1475     2    15
  1.1154342634286353E+01 b      1476     2    16
  1.0640951569491051E+00 b      1477     2    17
 -6.1320084475801924E+00 b      1478     2    18
 -6.5986368661133765E+00 b      1479     2    19
  1.0851855577864702E+01 b      1480     2    20
 -3.2222299637365598E-01 a      1481     2     1     3     1
  3.0350392452220210E-01 a      1482     2     2     3     1
  5.9343920556984353E-01 a      1483     2     3     3     1
  7.0241625188335544E-01 a      1484     2     4     3     1
 -1.6130271990320089E+00 a      1485     2     5     3     1
 -4.4199915744879453E-01 a      1486     2     6     3     1
 -3.5912334301789628E-01 a      1487     2     7     3     1
 -4.9020532719749582E-01 a      1488     2     8     3     1
 -3.9988111798040299E-01 a      1489     2     9     3     1
  2.2716088291244718E-01 a      1490     2    10     3     1
  4.5577448826923322E-01 a      1491     2    11     3     1
  4.1665662239200041E-01 a      1492     2    12     3     1
 -7.4666683007847778E-01 a      1493     2    13     3     1
  6.9066566992159839E-01 a      1494     2    14     3     1
  3.6506928159917845E-01 a      1495     2    15     3     1
 -5.8775860807268687E-01 a      1496     2    16     3     1
  6.5587669443951901E-01 a      1497     2    17     3     1
  4.5902854815835747E-01 a      1498     2    18     3     1
 -4.0043785716429114E-01 a      1499     2    19     3     1
  1.6825675965153244E-01 a      1500     2    20     3     1
 -1.2272038506285568E+01 b      1501     3     1
