################################################################################
# Neural network connection values (weights and biases).
################################################################################
# Col  Name       Description
################################################################################
# 1    connection Neural network connection value.
# 2    t          Connection type (a = weight, b = bias).
# 3    index      Index enumerating weights.
# 4    l_s        Starting point layer (end point layer for biases).
# 5    n_s        Starting point neuron in starting layer (end point neuron for biases).
# 6    l_e        End point layer.
# 7    n_e        End point neuron in end layer.
################################################################################
#                      1 2         3     4     5     6     7
#             connection t     index   l_s   n_s   l_e   n_e
############################################################
  5.1799661510677375E-01 a         1     0     1     1     1
  1.1625776353718283E+01 a         2     0     1     1     2
 -4.0582465261857692E+01 a         3     0     1     1     3
  5.1048684640910693E+01 a         4     0     1     1     4
 -3.1425362230644598E+01 a         5     0     1     1     5
 -1.3155105376334831E+01 a         6     0     1     1     6
 -1.3910836292938326E+01 a         7     0     1     1     7
 -4.9979572616179581E+01 a         8     0     1     1     8
  7.1495082825565079E+00 a         9     0     1     1     9
  2.9278942379730371E+01 a        10     0     1     1    10
  3.3297901395520952E+01 a        11     0     1     1    11
 -3.8564180228035063E+01 a        12     0     1     1    12
 -1.1174530803633091E+01 a        13     0     1     1    13
  3.4306339139822377E+01 a        14     0     1     1    14
 -4.5963894721914968E+00 a        15     0     1     1    15
  5.4948745428996517E+01 a        16     0     1     1    16
  8.9638063830826198E+00 a        17     0     1     1    17
  1.5550522170127428E+00 a        18     0     1     1    18
  1.2513438291193282E+00 a        19     0     1     1    19
  2.5659271926216065E+00 a        20     0     1     1    20
 -2.9666466968432552E+01 a        21     0     2     1     1
 -2.5587139713496164E+01 a        22     0     2     1     2
 -2.7243592266054485E+01 a        23     0     2     1     3
  2.4918297413025900E-01 a        24     0     2     1     4
  6.3245559169635271E+01 a        25     0     2     1     5
 -3.7449436533588305E+01 a        26     0     2     1     6
 -2.9842676164580930E+00 a        27     0     2     1     7
  1.9983284828072687E+01 a        28     0     2     1     8
  1.9811035864036672E+01 a        29     0     2     1     9
 -6.9098527378884294E+00 a        30     0     2     1    10
  1.1353617445464524E+01 a        31     0     2     1    11
 -3.7713666945703302E+01 a        32     0     2     1    12
  1.8293724417488868E+01 a        33     0     2     1    13
 -3.1361457144474740E+00 a        34     0     2     1    14
 -3.2393460498773401E+01 a        35     0     2     1    15
 -2.6569831463427263E+01 a        36     0     2     1    16
 -2.4550906339440953E+01 a        37     0     2     1    17
  2.4411351990327756E+01 a        38     0     2     1    18
 -7.8128814478283699E+00 a        39     0     2     1    19
 -4.1339528482468957E+00 a        40     0     2     1    20
 -4.2106592478021383E+01 a        41     0     3     1     1
 -6.4632704473718787E+00 a        42     0     3     1     2
  7.3967929527891826E+01 a        43     0     3     1     3
 -9.2188392607451561E+01 a        44     0     3     1     4
  6.1781575036374967E+01 a        45     0     3     1     5
  2.6430945599304636E+01 a        46     0     3     1     6
  6.1778136896682398E+01 a        47     0     3     1     7
  7.0054073528902379E+01 a        48     0     3     1     8
 -4.6810687158796568E+01 a        49     0     3     1     9
 -3.5598665979737746E+01 a        50     0     3     1    10
 -7.3477039689194328E+01 a        51     0     3     1    11
  3.6405431893143010E+01 a        52     0     3     1    12
  4.6867108710361912E+01 a        53     0     3     1    13
 -7.3247887707044114E+01 a        54     0     3     1    14
 -8.2343758748941500E+00 a        55     0     3     1    15
 -1.3081268065042087E+02 a        56     0     3     1    16
 -3.4728240893906481E+01 a        57     0     3     1    17
  4.5619496100242401E+01 a        58     0     3     1    18
  1.2451303208516450E+01 a        59     0     3     1    19
  7.0359207081437729E+00 a        60     0     3     1    20
  5.4919671841130494E+01 a        61     0     4     1     1
  4.7485871703042925E+01 a        62     0     4     1     2
  1.2003483394136005E+01 a        63     0     4     1     3
 -1.4088408941097992E+01 a        64     0     4     1     4
 -7.5903016857138468E+01 a        65     0     4     1     5
  7.1219254275714690E+01 a        66     0     4     1     6
 -2.1150872971241423E+01 a        67     0     4     1     7
 -5.4182971063544031E+01 a        68     0     4     1     8
 -4.5969435674531518E+01 a        69     0     4     1     9
  2.7706444131920591E+01 a        70     0     4     1    10
 -6.6705809558915590E+00 a        71     0     4     1    11
 -3.1838323314221164E+01 a        72     0     4     1    12
 -5.8471384626976935E+01 a        73     0     4     1    13
  3.2344451539414005E+00 a        74     0     4     1    14
 -9.3468315428308646E+00 a        75     0     4     1    15
  5.4153375871199522E+01 a        76     0     4     1    16
  3.1392592897112076E-01 a        77     0     4     1    17
 -1.1997700383050925E+02 a        78     0     4     1    18
  2.1016164149774852E+01 a        79     0     4     1    19
  1.7267260605312298E+01 a        80     0     4     1    20
  2.9147301153618766E+01 a        81     0     5     1     1
 -5.8940271938471547E+00 a        82     0     5     1     2
  9.6651105375576183E+00 a        83     0     5     1     3
 -2.6736325861970595E+01 a        84     0     5     1     4
  3.1343305268875813E+01 a        85     0     5     1     5
  5.1810133799638196E+00 a        86     0     5     1     6
 -1.3217671788363846E+01 a        87     0     5     1     7
  3.3484773521109275E+01 a        88     0     5     1     8
  1.3201419926530569E+01 a        89     0     5     1     9
 -4.7335746646914579E+01 a        90     0     5     1    10
 -6.5505191383282142E+00 a        91     0     5     1    11
  2.8766296531841594E+01 a        92     0     5     1    12
 -5.0576415037019444E+01 a        93     0     5     1    13
  2.8967528768503477E+01 a        94     0     5     1    14
  6.0870407140100404E+00 a        95     0     5     1    15
 -9.0040873603502813E+00 a        96     0     5     1    16
  4.7215541463808544E+00 a        97     0     5     1    17
  1.3796278070812034E+01 a        98     0     5     1    18
  1.3487915737549978E+01 a        99     0     5     1    19
  1.5774591926542501E+00 a       100     0     5     1    20
  5.4051838501567744E+00 a       101     0     6     1     1
  1.1374649627652024E+01 a       102     0     6     1     2
  5.5235168538979693E+01 a       103     0     6     1     3
  2.3490436115865940E+01 a       104     0     6     1     4
 -4.9420763956503805E+01 a       105     0     6     1     5
  7.5201942522644014E+00 a       106     0     6     1     6
  1.9850264588078470E+01 a       107     0     6     1     7
 -1.7543361785053846E+00 a       108     0     6     1     8
 -2.8505421511722742E+00 a       109     0     6     1     9
 -1.5551358850240215E+01 a       110     0     6     1    10
 -2.6174028405172372E+01 a       111     0     6     1    11
  2.0204738237630789E+01 a       112     0     6     1    12
  7.6760314458847020E+01 a       113     0     6     1    13
  1.4119357274807598E+01 a       114     0     6     1    14
  3.3375244905235166E+00 a       115     0     6     1    15
 -1.7325582890807469E+00 a       116     0     6     1    16
  1.9890924223516752E+01 a       117     0     6     1    17
 -1.9425796317837847E+01 a       118     0     6     1    18
  9.6882132601302662E-01 a       119     0     6     1    19
  1.1515331952606980E+01 a       120     0     6     1    20
 -1.0829287206302784E+01 a       121     0     7     1     1
 -7.4071086607125125E-01 a       122     0     7     1     2
 -4.9624861993781684E+00 a       123     0     7     1     3
  1.0184463750278839E+01 a       124     0     7     1     4
 -1.7263094460603941E+01 a       125     0     7     1     5
 -3.7367755917972267E-01 a       126     0     7     1     6
  6.6258253610434608E+00 a       127     0     7     1     7
 -1.4071965613100812E+01 a       128     0     7     1     8
 -7.8416048370453826E+00 a       129     0     7     1     9
  4.3559628716372906E+01 a       130     0     7     1    10
  8.3346408233427454E+00 a       131     0     7     1    11
  1.6943814407677140E+00 a       132     0     7     1    12
  3.4429814948284218E+01 a       133     0     7     1    13
 -8.8516874660489879E+00 a       134     0     7     1    14
  1.3791907670779930E+01 a       135     0     7     1    15
 -1.0882676113466156E+00 a       136     0     7     1    16
 -4.1876494038755796E+00 a       137     0     7     1    17
 -9.1657593344489676E+00 a       138     0     7     1    18
 -2.9100096141578330E+01 a       139     0     7     1    19
 -7.3789463188347781E+00 a       140     0     7     1    20
 -1.5411478890966943E+00 a       141     0     8     1     1
 -1.4931991977395846E+01 a       142     0     8     1     2
 -3.4877447852897717E+01 a       143     0     8     1     3
 -1.9511341342244261E+01 a       144     0     8     1     4
  2.6271274421111325E+01 a       145     0     8     1     5
  1.0975615826451191E+01 a       146     0     8     1     6
 -1.2780082237928276E+01 a       147     0     8     1     7
  3.9356097349111767E+00 a       148     0     8     1     8
 -2.7454344054661499E+00 a       149     0     8     1     9
 -1.7618098866444779E-01 a       150     0     8     1    10
  1.3207985364614458E+01 a       151     0     8     1    11
  8.2061034291279551E+00 a       152     0     8     1    12
 -2.7018103389700688E+01 a       153     0     8     1    13
 -5.2568867403844148E+00 a       154     0     8     1    14
  1.7342928102703500E+01 a       155     0     8     1    15
 -1.7762681096178754E+00 a       156     0     8     1    16
 -2.2391749124049863E+01 a       157     0     8     1    17
  2.3460515662048969E+01 a       158     0     8     1    18
  2.5512930330910919E+01 a       159     0     8     1    19
 -1.0910972704055901E+01 a       160     0     8     1    20
  6.3796745340374123E+01 a       161     0     9     1     1
 -7.6085004358824966E+00 a       162     0     9     1     2
 -9.5998481738668090E+01 a       163     0     9     1     3
  1.2178435887199845E+02 a       164     0     9     1     4
 -5.1658286247910667E+01 a       165     0     9     1     5
 -3.7532449278699538E+01 a       166     0     9     1     6
 -8.6949158359007910E+01 a       167     0     9     1     7
 -5.0519444656201301E+01 a       168     0     9     1     8
  8.2830848764250305E+01 a       169     0     9     1     9
  8.1140740278783412E+01 a       170     0     9     1    10
  5.7980458470334064E+01 a       171     0     9     1    11
 -3.4606514038751932E+01 a       172     0     9     1    12
  4.3783899243550994E+00 a       173     0     9     1    13
  5.6051517417596159E+01 a       174     0     9     1    14
  1.6055238539363657E+01 a       175     0     9     1    15
  1.2917793796567167E+02 a       176     0     9     1    16
  5.2875005442285797E+01 a       177     0     9     1    17
 -6.5056621161720884E+01 a       178     0     9     1    18
 -3.6843355924349559E+01 a       179     0     9     1    19
  1.4399805351363071E+00 a       180     0     9     1    20
 -1.9233381881938605E+01 a       181     0    10     1     1
 -3.8343367028550752E+01 a       182     0    10     1     2
 -5.0559235655059389E+01 a       183     0    10     1     3
  1.5881235650686554E+01 a       184     0    10     1     4
  8.4583941062098376E+01 a       185     0    10     1     5
 -7.3867790045037552E+01 a       186     0    10     1     6
  2.9137007645430717E+01 a       187     0    10     1     7
  5.3022900911452993E+01 a       188     0    10     1     8
  5.8150823649213244E+01 a       189     0    10     1     9
  1.1489271444667938E+01 a       190     0    10     1    10
  1.8611066063720031E+01 a       191     0    10     1    11
  7.2502766502988942E+00 a       192     0    10     1    12
 -2.6521619846826411E+01 a       193     0    10     1    13
  4.0220766177640188E+00 a       194     0    10     1    14
  3.1698628712804773E+01 a       195     0    10     1    15
 -4.2566099836431817E+01 a       196     0    10     1    16
 -1.1981401059669533E+01 a       197     0    10     1    17
  1.3200123245658963E+02 a       198     0    10     1    18
 -1.8968959798695398E+01 a       199     0    10     1    19
 -3.3324893686203986E+01 a       200     0    10     1    20
  4.6273185728429702E+00 a       201     0    11     1     1
  7.1086903828255128E+00 a       202     0    11     1     2
  1.2376243902339956E+01 a       203     0    11     1     3
 -9.8056512450668905E+00 a       204     0    11     1     4
  1.1945662786395813E+01 a       205     0    11     1     5
  2.5482267014910185E+01 a       206     0    11     1     6
  2.3017821024376559E+01 a       207     0    11     1     7
  3.2904585744339386E+01 a       208     0    11     1     8
  9.6798610028255752E+00 a       209     0    11     1     9
  1.1035976425247473E+02 a       210     0    11     1    10
  1.0641891003547459E+01 a       211     0    11     1    11
 -3.8149084598316264E+01 a       212     0    11     1    12
 -8.8988221197375961E-01 a       213     0    11     1    13
  4.7846635239783332E+01 a       214     0    11     1    14
  1.0465907125325339E+02 a       215     0    11     1    15
 -6.2242957750896828E+01 a       216     0    11     1    16
 -3.7878180464732033E+01 a       217     0    11     1    17
  2.1794451205518275E+01 a       218     0    11     1    18
 -1.0224156941256470E+02 a       219     0    11     1    19
  6.3486294635184217E+00 a       220     0    11     1    20
 -3.5229305692962836E+00 a       221     0    12     1     1
 -4.5329299805297381E+01 a       222     0    12     1     2
  1.7632270375203805E+00 a       223     0    12     1     3
 -4.4399356028472468E+01 a       224     0    12     1     4
  1.9770867390497983E+01 a       225     0    12     1     5
  6.8745986694688014E+01 a       226     0    12     1     6
 -3.4128726639701988E+01 a       227     0    12     1     7
 -4.3420146810837001E-01 a       228     0    12     1     8
  2.3457236310503160E+00 a       229     0    12     1     9
 -5.5364506898934287E+01 a       230     0    12     1    10
 -1.1615307287556540E+01 a       231     0    12     1    11
  7.6645830404193546E+01 a       232     0    12     1    12
  1.3842899763009926E+01 a       233     0    12     1    13
 -1.2634824494396426E+00 a       234     0    12     1    14
  4.8735359135965460E+01 a       235     0    12     1    15
 -4.3380564873723410E-01 a       236     0    12     1    16
 -1.0319893772676687E+02 a       237     0    12     1    17
  1.4697735306720173E+01 a       238     0    12     1    18
  1.8878015866791230E+02 a       239     0    12     1    19
 -3.1115319348494268E+01 a       240     0    12     1    20
 -4.3419060676445845E+01 a       241     0    13     1     1
  4.5421580802044152E+00 a       242     0    13     1     2
  6.7071522011670098E+01 a       243     0    13     1     3
 -9.1849713527852330E+01 a       244     0    13     1     4
  1.1589669390221658E+01 a       245     0    13     1     5
  1.8199033322625265E+01 a       246     0    13     1     6
  6.6750019553612788E+01 a       247     0    13     1     7
  9.6953850087409936E+00 a       248     0    13     1     8
 -7.6861552199151504E+01 a       249     0    13     1     9
 -7.0046165337792559E+01 a       250     0    13     1    10
 -2.3446666089016627E+01 a       251     0    13     1    11
  7.4457295177948311E+01 a       252     0    13     1    12
 -1.5307195641399453E+01 a       253     0    13     1    13
 -4.3436994422080588E+01 a       254     0    13     1    14
 -2.6621154741471948E+01 a       255     0    13     1    15
 -5.8175308104018299E+01 a       256     0    13     1    16
 -3.1733790577183555E+01 a       257     0    13     1    17
  3.4253986290742496E+01 a       258     0    13     1    18
  3.2329187397613545E+01 a       259     0    13     1    19
 -2.2477612118871885E+01 a       260     0    13     1    20
  7.1978255891546805E-01 a       261     0    14     1     1
  2.4104256580121945E+01 a       262     0    14     1     2
  3.8804658199303411E+01 a       263     0    14     1     3
 -1.0641952670924491E+01 a       264     0    14     1     4
 -6.0405258369213506E+01 a       265     0    14     1     5
  3.3864783458860536E+01 a       266     0    14     1     6
 -1.7230824636710818E+01 a       267     0    14     1     7
 -3.7273086247210969E+01 a       268     0    14     1     8
 -4.8246374578906718E+01 a       269     0    14     1     9
 -1.0886635743011450E+01 a       270     0    14     1    10
 -9.4009968054534152E+00 a       271     0    14     1    11
  1.0872235734366493E+01 a       272     0    14     1    12
  1.3697936467622847E+01 a       273     0    14     1    13
 -1.2970910231251866E+01 a       274     0    14     1    14
 -7.0965158300893556E+00 a       275     0    14     1    15
  2.4194387189795066E+01 a       276     0    14     1    16
  3.5322136010677021E+01 a       277     0    14     1    17
 -5.2735152247507592E+01 a       278     0    14     1    18
 -3.0181713586336947E+01 a       279     0    14     1    19
  3.2493829390555227E+01 a       280     0    14     1    20
 -4.6058404781087686E-01 a       281     0    15     1     1
  2.5201126969920273E+00 a       282     0    15     1     2
 -1.7120376284005541E+00 a       283     0    15     1     3
 -5.2774970339895964E+00 a       284     0    15     1     4
 -2.4365427618694113E+00 a       285     0    15     1     5
 -5.4768598366276384E+00 a       286     0    15     1     6
 -3.5841463927245658E+00 a       287     0    15     1     7
 -6.9514679697895572E+00 a       288     0    15     1     8
 -1.2905099203788069E+00 a       289     0    15     1     9
 -2.7930266558988890E+01 a       290     0    15     1    10
 -4.9230286504359801E+00 a       291     0    15     1    11
  6.4570767104069109E+00 a       292     0    15     1    12
  1.2935103780389570E-01 a       293     0    15     1    13
 -1.0137475321849571E+01 a       294     0    15     1    14
 -2.2556557140966355E+01 a       295     0    15     1    15
  1.4623695767671890E+01 a       296     0    15     1    16
  7.4738357769444264E+00 a       297     0    15     1    17
 -5.0148873078442966E+00 a       298     0    15     1    18
  8.5307600810192721E+00 a       299     0    15     1    19
 -8.6849393882777548E+00 a       300     0    15     1    20
 -3.2239851703596121E+00 a       301     0    16     1     1
  1.2732570433964886E+01 a       302     0    16     1     2
  2.9545393884357440E+00 a       303     0    16     1     3
 -5.0459061832312440E+00 a       304     0    16     1     4
 -7.1472460473231196E+00 a       305     0    16     1     5
 -2.1523086693614012E+01 a       306     0    16     1     6
  4.3753781653978470E+00 a       307     0    16     1     7
  1.8418999696410815E-01 a       308     0    16     1     8
 -8.6008751837023979E-03 a       309     0    16     1     9
  9.5378266466119808E+00 a       310     0    16     1    10
  3.4709386706972528E-01 a       311     0    16     1    11
 -2.6211287056643673E+01 a       312     0    16     1    12
 -4.0001939367729014E+00 a       313     0    16     1    13
  1.5888009370695472E-01 a       314     0    16     1    14
 -1.5975374016101213E+01 a       315     0    16     1    15
 -3.9636609754888030E-01 a       316     0    16     1    16
  1.3981626098225146E+01 a       317     0    16     1    17
 -6.1040465330777245E+00 a       318     0    16     1    18
 -1.0400635877882812E+02 a       319     0    16     1    19
  1.1316917562279807E+01 a       320     0    16     1    20
  6.3289640188535818E+00 a       321     0    17     1     1
  3.4510969151299181E-01 a       322     0    17     1     2
 -2.0457471063145828E+01 a       323     0    17     1     3
  4.3914699239136482E+01 a       324     0    17     1     4
 -1.0364902715049379E+01 a       325     0    17     1     5
 -1.6398827722531614E+01 a       326     0    17     1     6
 -4.1154965754442117E+01 a       327     0    17     1     7
 -2.3996555734814763E+01 a       328     0    17     1     8
  2.3551210756246000E+01 a       329     0    17     1     9
 -7.0991927155924571E+01 a       330     0    17     1    10
 -3.4408255865692370E+00 a       331     0    17     1    11
 -8.0825095996323704E+00 a       332     0    17     1    12
 -6.7021248254259058E+00 a       333     0    17     1    13
 -2.1389555063912841E+01 a       334     0    17     1    14
 -5.4823438441894218E+01 a       335     0    17     1    15
  5.7614558186535909E+01 a       336     0    17     1    16
  4.7217910966812603E+01 a       337     0    17     1    17
 -9.3719385830792863E+00 a       338     0    17     1    18
  7.6987082857700486E+01 a       339     0    17     1    19
  1.2271611888358157E+01 a       340     0    17     1    20
 -2.3305769286862063E-01 a       341     0    18     1     1
  2.6013864812034655E+01 a       342     0    18     1     2
  4.2163878061698912E-01 a       343     0    18     1     3
  4.1020854683020765E+01 a       344     0    18     1     4
  9.7389270767484304E-01 a       345     0    18     1     5
 -5.8655109095188728E+01 a       346     0    18     1     6
  3.1505781396695856E+01 a       347     0    18     1     7
  1.6357924359702842E+01 a       348     0    18     1     8
  2.2240279110235246E+01 a       349     0    18     1     9
  4.0631880341591987E+01 a       350     0    18     1    10
  9.2420667751973138E+00 a       351     0    18     1    11
 -5.3256042314950314E+01 a       352     0    18     1    12
 -7.2098179175484836E+00 a       353     0    18     1    13
  7.6833125267791189E+00 a       354     0    18     1    14
 -3.8193692997807510E+01 a       355     0    18     1    15
 -8.5663409796599925E+00 a       356     0    18     1    16
  6.1337797893451416E+01 a       357     0    18     1    17
 -8.3899939592728749E+00 a       358     0    18     1    18
 -1.1213484149332037E+02 a       359     0    18     1    19
  3.6325188842677423E+00 a       360     0    18     1    20
 -4.7884262688083468E-01 a       361     0    19     1     1
 -1.5503893857092488E+00 a       362     0    19     1     2
 -1.3923645192012570E+01 a       363     0    19     1     3
 -8.8240376631826027E+00 a       364     0    19     1     4
  3.4219195633023571E+00 a       365     0    19     1     5
 -2.9806053602448617E+00 a       366     0    19     1     6
 -4.3331817762557312E-01 a       367     0    19     1     7
 -2.7910278727771143E+00 a       368     0    19     1     8
 -4.9333100913280701E+00 a       369     0    19     1     9
 -6.4245237586873705E+00 a       370     0    19     1    10
 -1.5659178922154957E+00 a       371     0    19     1    11
 -3.9012833634439814E+00 a       372     0    19     1    12
  6.2270457779631361E-01 a       373     0    19     1    13
  1.4939520250256342E+00 a       374     0    19     1    14
 -1.0760233499429420E+01 a       375     0    19     1    15
  4.7708459421548248E+00 a       376     0    19     1    16
 -5.2788678362217851E+00 a       377     0    19     1    17
  4.7950509474193520E-02 a       378     0    19     1    18
  5.6466362747037424E+00 a       379     0    19     1    19
  5.6611714708693626E+00 a       380     0    19     1    20
 -1.0337598244139987E+00 a       381     0    20     1     1
  8.0060512372732138E+00 a       382     0    20     1     2
 -2.4969219617233733E+00 a       383     0    20     1     3
  6.3666016246533816E+00 a       384     0    20     1     4
 -7.4029321006204656E+00 a       385     0    20     1     5
 -7.9136417209462557E+00 a       386     0    20     1     6
  3.4020652554864408E+00 a       387     0    20     1     7
 -3.6244864882827712E+00 a       388     0    20     1     8
 -7.9869282554973546E+00 a       389     0    20     1     9
  7.0862998077692572E+00 a       390     0    20     1    10
  1.9697257366993390E-01 a       391     0    20     1    11
 -1.3130451638919277E+01 a       392     0    20     1    12
 -7.8747102486505527E-01 a       393     0    20     1    13
 -1.0333841266075248E+00 a       394     0    20     1    14
 -2.7201722583363583E+00 a       395     0    20     1    15
  4.8923066022180578E-01 a       396     0    20     1    16
  2.2599973634746028E+01 a       397     0    20     1    17
  2.8359966447510292E+00 a       398     0    20     1    18
 -1.9219656574007850E+01 a       399     0    20     1    19
  1.0394044357869097E+01 a       400     0    20     1    20
 -5.5904470731332434E-01 a       401     0    21     1     1
 -5.2655690948792113E+00 a       402     0    21     1     2
  7.4911630838477841E+00 a       403     0    21     1     3
  8.3448468245118690E+00 a       404     0    21     1     4
 -1.9787688265458778E+00 a       405     0    21     1     5
  3.8648662151643803E-01 a       406     0    21     1     6
 -2.2240772462814484E+00 a       407     0    21     1     7
 -8.6787914803337063E-01 a       408     0    21     1     8
 -4.7721281274550104E-01 a       409     0    21     1     9
 -2.6351540946998799E+00 a       410     0    21     1    10
  9.0285830789454513E-01 a       411     0    21     1    11
  1.0945328145245032E+01 a       412     0    21     1    12
 -1.0768128933183214E+00 a       413     0    21     1    13
 -3.2653060026825820E+00 a       414     0    21     1    14
 -2.9568598863317139E+00 a       415     0    21     1    15
  2.2515187556380751E+00 a       416     0    21     1    16
  4.2723906570148937E+00 a       417     0    21     1    17
 -1.1051909414710319E-01 a       418     0    21     1    18
  1.0431041845255242E+01 a       419     0    21     1    19
  4.9640825555592788E-01 a       420     0    21     1    20
  3.4637727402723679E+00 a       421     0    22     1     1
 -3.1918022750161619E+00 a       422     0    22     1     2
  3.8175432436634562E+00 a       423     0    22     1     3
  1.1182979719192991E+01 a       424     0    22     1     4
  2.1996191135237502E+00 a       425     0    22     1     5
 -2.7683836183023960E+00 a       426     0    22     1     6
  4.2137312374726372E+00 a       427     0    22     1     7
  1.6157000510956199E+00 a       428     0    22     1     8
  3.9350406653089895E+00 a       429     0    22     1     9
  2.1352707647487117E+00 a       430     0    22     1    10
  8.5536537218024922E-01 a       431     0    22     1    11
 -2.0559731043395266E+00 a       432     0    22     1    12
  1.6311137682902714E+00 a       433     0    22     1    13
 -4.3937235839889943E-01 a       434     0    22     1    14
 -7.1298410288369485E-01 a       435     0    22     1    15
  1.6869115984602627E+00 a       436     0    22     1    16
 -1.9697971899475932E+00 a       437     0    22     1    17
 -2.9481523078608691E+00 a       438     0    22     1    18
  2.5030348817341775E+01 a       439     0    22     1    19
 -3.2939502190064460E+00 a       440     0    22     1    20
  5.4442462938406791E+01 a       441     0    23     1     1
 -7.5764368686705851E+01 a       442     0    23     1     2
  2.6738095464190913E+01 a       443     0    23     1     3
 -3.0366505725828119E+01 a       444     0    23     1     4
 -4.1791285251622575E+01 a       445     0    23     1     5
 -4.8581456737557794E+01 a       446     0    23     1     6
 -2.6627268794131201E+01 a       447     0    23     1     7
 -3.0520622548711507E+00 a       448     0    23     1     8
 -6.9814870539828080E+00 a       449     0    23     1     9
 -9.3590311740297789E+00 a       450     0    23     1    10
 -3.0589870554260134E+01 a       451     0    23     1    11
 -3.7999123959609975E+01 a       452     0    23     1    12
 -6.1711855289666042E+00 a       453     0    23     1    13
 -1.5892055844475680E+01 a       454     0    23     1    14
 -4.2096220666660166E+01 a       455     0    23     1    15
 -2.9877879187007235E+01 a       456     0    23     1    16
 -8.8537941997418031E+01 a       457     0    23     1    17
  4.1516629375402587E+00 a       458     0    23     1    18
  1.2327892531287695E+01 a       459     0    23     1    19
 -3.0989457327566345E+00 a       460     0    23     1    20
 -1.1778711319872144E+01 a       461     0    24     1     1
  5.2482643099054826E+01 a       462     0    24     1     2
 -5.2469231349580120E+01 a       463     0    24     1     3
 -7.2101254088457921E+01 a       464     0    24     1     4
 -4.4507614909735729E+01 a       465     0    24     1     5
 -4.6709272536545967E+01 a       466     0    24     1     6
 -9.6413195993529968E+01 a       467     0    24     1     7
 -5.4536007631196895E+01 a       468     0    24     1     8
  4.1251692526747121E+01 a       469     0    24     1     9
 -1.7463747670181164E+01 a       470     0    24     1    10
  3.8954827058133326E+01 a       471     0    24     1    11
 -1.3812542119354431E+01 a       472     0    24     1    12
 -4.8337338538360388E+00 a       473     0    24     1    13
  7.7377246980302004E+01 a       474     0    24     1    14
  6.8505110849912469E+00 a       475     0    24     1    15
 -2.5487832577886067E+01 a       476     0    24     1    16
 -2.8320099683512751E+01 a       477     0    24     1    17
 -4.7711462528098920E+01 a       478     0    24     1    18
  9.3402743104400528E+01 a       479     0    24     1    19
  2.1877674683588719E+01 a       480     0    24     1    20
 -4.4897117021855451E+01 a       481     0    25     1     1
  1.4013779819242157E+02 a       482     0    25     1     2
  4.7679678697203647E+00 a       483     0    25     1     3
 -1.0879980884556613E+02 a       484     0    25     1     4
  3.0665884279747363E+01 a       485     0    25     1     5
  1.0356431813164116E+02 a       486     0    25     1     6
 -3.5799302284362433E+01 a       487     0    25     1     7
 -4.6528818865378504E+01 a       488     0    25     1     8
 -7.2007557376618990E+01 a       489     0    25     1     9
 -4.2083874930629595E+00 a       490     0    25     1    10
 -1.5009699385489254E+01 a       491     0    25     1    11
 -9.4941589937829107E+01 a       492     0    25     1    12
 -1.1471593520360953E+01 a       493     0    25     1    13
 -3.9471940695908970E+01 a       494     0    25     1    14
 -4.7355051580723142E+01 a       495     0    25     1    15
 -2.1445341010798721E+01 a       496     0    25     1    16
 -9.0603332752752564E+01 a       497     0    25     1    17
 -1.5452523921013298E+02 a       498     0    25     1    18
 -6.0635392194080680E+01 a       499     0    25     1    19
  4.3053403908434937E+01 a       500     0    25     1    20
 -3.7556095809731268E+01 a       501     0    26     1     1
 -2.2260728447649672E+01 a       502     0    26     1     2
 -5.7416872089965807E+01 a       503     0    26     1     3
  4.5111130931407352E+01 a       504     0    26     1     4
 -2.0536097934103661E+00 a       505     0    26     1     5
  8.5143312081818934E+00 a       506     0    26     1     6
  2.1514814849323013E+01 a       507     0    26     1     7
 -3.2370575364502767E+00 a       508     0    26     1     8
 -3.0437995943626653E+01 a       509     0    26     1     9
  1.2435181024254325E+01 a       510     0    26     1    10
  4.0934484881462915E+01 a       511     0    26     1    11
 -1.5297653035346135E+01 a       512     0    26     1    12
  3.6015857345146474E+00 a       513     0    26     1    13
  1.2420343408027234E+01 a       514     0    26     1    14
 -5.6701531713545421E+01 a       515     0    26     1    15
  3.8604584938027088E+01 a       516     0    26     1    16
 -4.9836041237476614E+01 a       517     0    26     1    17
 -5.1379578415044648E+01 a       518     0    26     1    18
 -3.2788190029219038E+01 a       519     0    26     1    19
 -9.0144939863779783E+00 a       520     0    26     1    20
 -2.2210470559662532E+01 a       521     0    27     1     1
  2.5788254590131491E+01 a       522     0    27     1     2
 -5.8755619360004708E+01 a       523     0    27     1     3
 -7.5574808379143796E+00 a       524     0    27     1     4
  1.7328372720214496E+01 a       525     0    27     1     5
  7.7567898156645594E+00 a       526     0    27     1     6
 -1.4107456815833603E+00 a       527     0    27     1     7
 -3.6451286847055762E+01 a       528     0    27     1     8
 -3.7936514911354934E+01 a       529     0    27     1     9
  2.0437887199201228E+01 a       530     0    27     1    10
 -4.3070023155688508E+00 a       531     0    27     1    11
 -2.5821528504961709E+01 a       532     0    27     1    12
 -9.4005750473257041E+00 a       533     0    27     1    13
 -1.2874474030175600E+01 a       534     0    27     1    14
 -2.0547533258541652E+01 a       535     0    27     1    15
 -5.6809669045530287E+00 a       536     0    27     1    16
  1.0968471508681059E+01 a       537     0    27     1    17
 -4.6254080810463975E+01 a       538     0    27     1    18
  5.2450070171910610E+01 a       539     0    27     1    19
 -1.0615222207610815E+01 a       540     0    27     1    20
 -4.0829433156794515E+01 a       541     0    28     1     1
 -1.5993345649719956E+01 a       542     0    28     1     2
 -1.3107628982327489E+01 a       543     0    28     1     3
 -7.8844564563701178E+00 a       544     0    28     1     4
 -1.4154174798040547E+01 a       545     0    28     1     5
 -5.0787559211210835E+00 a       546     0    28     1     6
 -2.4809153732681231E+01 a       547     0    28     1     7
 -5.8410293350124176E+00 a       548     0    28     1     8
 -3.6460137429410125E+01 a       549     0    28     1     9
 -4.8362927635792907E+01 a       550     0    28     1    10
  1.2411427243142455E+01 a       551     0    28     1    11
 -1.0132943378123205E+01 a       552     0    28     1    12
 -5.8527336071149696E+00 a       553     0    28     1    13
 -3.9477245910321015E+00 a       554     0    28     1    14
  3.0860293445260649E+00 a       555     0    28     1    15
  1.6697726320929391E+01 a       556     0    28     1    16
  5.4862432429921725E+01 a       557     0    28     1    17
  2.5341551222978651E+01 a       558     0    28     1    18
  4.7680678684589930E+00 a       559     0    28     1    19
 -7.0298262241469391E+00 a       560     0    28     1    20
 -3.4987622080523501E+01 a       561     0    29     1     1
 -3.9172423711697952E+01 a       562     0    29     1     2
 -2.2686800044787905E+01 a       563     0    29     1     3
  5.7181067182917978E+01 a       564     0    29     1     4
  3.9036007999961896E+01 a       565     0    29     1     5
  2.5841551391312947E+01 a       566     0    29     1     6
 -1.6962362455420820E+01 a       567     0    29     1     7
  1.4905062326006599E+01 a       568     0    29     1     8
  2.2259813860679096E+00 a       569     0    29     1     9
  1.4748108150064912E+01 a       570     0    29     1    10
  2.0022767333606637E+01 a       571     0    29     1    11
  8.3184549986558984E+00 a       572     0    29     1    12
  4.8577117389691642E+00 a       573     0    29     1    13
  3.9512840000337420E+01 a       574     0    29     1    14
  1.2733464767124897E+01 a       575     0    29     1    15
  2.7717296806724527E+00 a       576     0    29     1    16
 -1.8794025457023679E+01 a       577     0    29     1    17
 -2.1943096170260308E+01 a       578     0    29     1    18
  9.8356296435172013E+00 a       579     0    29     1    19
  2.4047514088802597E+01 a       580     0    29     1    20
  1.5662055787555028E+01 a       581     0    30     1     1
 -9.8327614882375997E+01 a       582     0    30     1     2
  9.6962357658370564E+01 a       583     0    30     1     3
  6.4883377379569694E+01 a       584     0    30     1     4
  4.0046938171716043E+01 a       585     0    30     1     5
  6.0947231859098840E+00 a       586     0    30     1     6
  4.5286533737053020E+01 a       587     0    30     1     7
  6.7101027855099971E+01 a       588     0    30     1     8
 -6.8996524063857095E+01 a       589     0    30     1     9
 -1.0213960392871922E+01 a       590     0    30     1    10
 -2.3295576120258300E+01 a       591     0    30     1    11
  3.9639543844956762E+01 a       592     0    30     1    12
  1.0710788961061727E+01 a       593     0    30     1    13
 -4.3910963712690780E+01 a       594     0    30     1    14
 -4.0441253372825656E+01 a       595     0    30     1    15
 -1.0692393222772354E+01 a       596     0    30     1    16
 -2.9892466194027463E+01 a       597     0    30     1    17
  7.9485188137061357E+01 a       598     0    30     1    18
 -3.1525285517281965E+01 a       599     0    30     1    19
 -5.1317076107441281E+01 a       600     0    30     1    20
  1.4521665081613932E+01 a       601     0    31     1     1
 -7.3087001576885768E+01 a       602     0    31     1     2
 -2.1976507262149568E+01 a       603     0    31     1     3
  5.1457806634979406E+01 a       604     0    31     1     4
 -2.9271013640998362E+01 a       605     0    31     1     5
 -7.3914398698831505E+01 a       606     0    31     1     6
 -2.8156675766532673E+00 a       607     0    31     1     7
  1.1760953664899640E+01 a       608     0    31     1     8
  3.5950387720279032E+01 a       609     0    31     1     9
  8.4099339319646447E+00 a       610     0    31     1    10
  1.8515308905395578E+01 a       611     0    31     1    11
 -1.4623938363184418E+01 a       612     0    31     1    12
  4.8672610314893241E+00 a       613     0    31     1    13
  4.9666284523038247E+00 a       614     0    31     1    14
  7.7753664487694509E+00 a       615     0    31     1    15
  4.9978931236015347E+00 a       616     0    31     1    16
  4.2070093922630768E+01 a       617     0    31     1    17
  6.5242685314345209E+01 a       618     0    31     1    18
 -2.0575492332855163E+01 a       619     0    31     1    19
 -1.4633212357316054E+01 a       620     0    31     1    20
 -5.8569225580484854E+01 a       621     0    32     1     1
 -1.2152266808712014E+01 a       622     0    32     1     2
 -7.3991056114811940E+01 a       623     0    32     1     3
  6.2841472164715555E+01 a       624     0    32     1     4
  8.4379239961969859E+00 a       625     0    32     1     5
  2.1721861150520152E+01 a       626     0    32     1     6
  2.9279784280445504E+01 a       627     0    32     1     7
 -2.8412819307718165E+00 a       628     0    32     1     8
 -3.3211159447656513E+01 a       629     0    32     1     9
  1.7467525757516842E+01 a       630     0    32     1    10
  5.5093008327335447E+01 a       631     0    32     1    11
 -1.0102165283979366E+01 a       632     0    32     1    12
  6.8323368560222999E+00 a       633     0    32     1    13
  2.2123402367890517E+01 a       634     0    32     1    14
 -5.5941315218388361E+01 a       635     0    32     1    15
  5.2655343301551312E+01 a       636     0    32     1    16
 -3.8367905932143842E+01 a       637     0    32     1    17
 -6.0729069849752861E+01 a       638     0    32     1    18
 -4.0841176024623884E+01 a       639     0    32     1    19
 -8.7229637538097062E+00 a       640     0    32     1    20
 -1.7270289817261514E+01 a       641     0    33     1     1
 -3.3713774837390659E+01 a       642     0    33     1     2
 -1.3345424497844835E+01 a       643     0    33     1     3
  5.8281004071896099E+01 a       644     0    33     1     4
  6.4282805257648690E+01 a       645     0    33     1     5
  4.4360438103308013E+01 a       646     0    33     1     6
  7.5955933052494657E+01 a       647     0    33     1     7
  9.9872614700441762E+00 a       648     0    33     1     8
 -1.0191913009711433E+02 a       649     0    33     1     9
  3.8349169861279620E+01 a       650     0    33     1    10
 -3.9278311579169234E+01 a       651     0    33     1    11
 -1.4530922523764142E+01 a       652     0    33     1    12
 -7.4643854732805162E+00 a       653     0    33     1    13
 -8.4342686629617262E+01 a       654     0    33     1    14
 -4.6565978827930330E+01 a       655     0    33     1    15
  6.1115414194175566E+00 a       656     0    33     1    16
  2.4439255766919569E+01 a       657     0    33     1    17
 -5.6791728890579538E+00 a       658     0    33     1    18
 -3.6876765321922744E+00 a       659     0    33     1    19
 -4.7170967806637591E+01 a       660     0    33     1    20
 -2.5520683292820831E+01 a       661     0    34     1     1
 -1.0618967656217009E+02 a       662     0    34     1     2
 -2.4975348247403137E+01 a       663     0    34     1     3
  5.7289345389308842E+01 a       664     0    34     1     4
 -3.8891452290503388E+01 a       665     0    34     1     5
 -7.3947155338330319E+01 a       666     0    34     1     6
 -1.5491862651502595E+01 a       667     0    34     1     7
  1.8367397264455281E+01 a       668     0    34     1     8
 -3.4194462471785352E+00 a       669     0    34     1     9
 -5.9578947849445662E+01 a       670     0    34     1    10
  2.7333992652438546E+01 a       671     0    34     1    11
  3.2734890882520205E+01 a       672     0    34     1    12
 -1.8256302362525580E+00 a       673     0    34     1    13
  1.5777846443987270E+01 a       674     0    34     1    14
  2.8699726923884281E+01 a       675     0    34     1    15
  3.3795066818688234E+01 a       676     0    34     1    16
  1.2618577132409609E+02 a       677     0    34     1    17
  1.2381022680251564E+02 a       678     0    34     1    18
  3.2472858072311134E+01 a       679     0    34     1    19
 -3.4467823323459015E+01 a       680     0    34     1    20
  2.4846802901818446E+01 a       681     0    35     1     1
  2.5853733805950775E+01 a       682     0    35     1     2
 -3.5475824807069842E+00 a       683     0    35     1     3
 -4.7798276121466351E+01 a       684     0    35     1     4
 -5.1450358017889499E+00 a       685     0    35     1     5
 -3.5091828671400052E+00 a       686     0    35     1     6
  1.1621060672726324E+01 a       687     0    35     1     7
 -7.6036918937591720E+00 a       688     0    35     1     8
  3.1149210715904800E+00 a       689     0    35     1     9
 -1.2261442152429594E+00 a       690     0    35     1    10
 -1.0749523547894672E+01 a       691     0    35     1    11
 -5.7442961697625963E+00 a       692     0    35     1    12
  3.1670245648894908E+00 a       693     0    35     1    13
 -1.5084833629905164E+01 a       694     0    35     1    14
 -6.5424495099556861E+00 a       695     0    35     1    15
 -7.3559967485656044E+00 a       696     0    35     1    16
  1.1892635151259086E+01 a       697     0    35     1    17
 -2.8226921482908381E+01 a       698     0    35     1    18
  1.1194401898776928E+01 a       699     0    35     1    19
  8.6561666379366233E+00 a       700     0    35     1    20
  3.1366371077659064E+01 a       701     0    36     1     1
  7.0957310167298004E+01 a       702     0    36     1     2
 -3.6069998207074981E+01 a       703     0    36     1     3
  5.2979146265663890E-01 a       704     0    36     1     4
 -9.7332753139273720E+00 a       705     0    36     1     5
  2.4476963203547633E+01 a       706     0    36     1     6
  1.5592655216531364E+01 a       707     0    36     1     7
 -3.2291964193177321E+01 a       708     0    36     1     8
  5.2952177579839095E+01 a       709     0    36     1     9
  2.2349791923549290E+01 a       710     0    36     1    10
 -2.4218097275066106E+00 a       711     0    36     1    11
 -5.8189150041306107E+01 a       712     0    36     1    12
  4.2184236113807094E-01 a       713     0    36     1    13
 -1.3076957497553572E+00 a       714     0    36     1    14
  1.7904029707743440E+01 a       715     0    36     1    15
  3.5348129866567511E+01 a       716     0    36     1    16
  4.4922634171437920E+01 a       717     0    36     1    17
 -5.4519914069371204E+01 a       718     0    36     1    18
 -4.1744372338536969E+01 a       719     0    36     1    19
  5.0429081513263696E+01 a       720     0    36     1    20
  5.5238595028478258E+01 a       721     0    37     1     1
  2.5240484661467800E+01 a       722     0    37     1     2
  2.2847429327143529E+00 a       723     0    37     1     3
  6.2484426718009489E+00 a       724     0    37     1     4
  2.7820904554455794E+01 a       725     0    37     1     5
  5.0212878979048590E+00 a       726     0    37     1     6
  1.9591178862313470E+01 a       727     0    37     1     7
 -5.3972122737158044E+00 a       728     0    37     1     8
  1.4577772288322716E+01 a       729     0    37     1     9
  1.4739569547409197E+01 a       730     0    37     1    10
 -1.1949693106748809E+01 a       731     0    37     1    11
 -1.4081436841688120E+01 a       732     0    37     1    12
  1.4983467149392768E+00 a       733     0    37     1    13
  1.3017314710369856E+01 a       734     0    37     1    14
 -4.1480025555094123E+01 a       735     0    37     1    15
  2.3580927537679450E+01 a       736     0    37     1    16
 -3.4308925640278545E+01 a       737     0    37     1    17
 -3.7968001943328368E+01 a       738     0    37     1    18
  1.5994303644567665E+01 a       739     0    37     1    19
 -8.6098313449033981E+00 a       740     0    37     1    20
  5.5580995201937846E+01 a       741     0    38     1     1
  5.8684624601897688E+01 a       742     0    38     1     2
  9.5893619558344483E+01 a       743     0    38     1     3
 -1.1575955632499226E+02 a       744     0    38     1     4
  1.0153627093111293E+01 a       745     0    38     1     5
  4.7901680504407915E+00 a       746     0    38     1     6
 -3.0827166535495216E+01 a       747     0    38     1     7
 -3.2237171985903508E+01 a       748     0    38     1     8
  6.1106913516583653E+01 a       749     0    38     1     9
 -2.3140992102643192E+01 a       750     0    38     1    10
 -5.7782260055082993E+01 a       751     0    38     1    11
 -2.8903373192535827E+01 a       752     0    38     1    12
 -1.8069956238329933E+01 a       753     0    38     1    13
 -4.8729205886780456E+01 a       754     0    38     1    14
  1.0721175451404437E+02 a       755     0    38     1    15
 -1.0789556505789465E+01 a       756     0    38     1    16
  3.0581781980399295E+01 a       757     0    38     1    17
  4.2626633639804453E+01 a       758     0    38     1    18
 -4.5558530242325188E-02 a       759     0    38     1    19
 -1.4309051889299582E+01 a       760     0    38     1    20
  3.4538739748769814E+01 a       761     0    39     1     1
  1.0484049004302035E+01 a       762     0    39     1     2
  7.6995064690525226E+01 a       763     0    39     1     3
 -3.2686927176399564E+01 a       764     0    39     1     4
 -6.8158543996786364E+01 a       765     0    39     1     5
 -2.1492690790482897E+01 a       766     0    39     1     6
 -2.9994088060794375E+01 a       767     0    39     1     7
  3.9989044504839939E+01 a       768     0    39     1     8
  1.2269290686105832E+02 a       769     0    39     1     9
 -5.3687720059827846E+01 a       770     0    39     1    10
  3.0002660580880601E+01 a       771     0    39     1    11
  6.1366362476579560E+01 a       772     0    39     1    12
  1.4611509280611113E+01 a       773     0    39     1    13
  6.3835266632423206E+01 a       774     0    39     1    14
  5.4473949236608426E+01 a       775     0    39     1    15
  3.3743319399661551E+01 a       776     0    39     1    16
 -2.3192741883821231E+01 a       777     0    39     1    17
  9.2880350238093797E+01 a       778     0    39     1    18
 -5.1196814487495459E+01 a       779     0    39     1    19
  3.5597480564490731E+01 a       780     0    39     1    20
  7.7097576309049941E+01 a       781     0    40     1     1
  5.6471500113140202E+01 a       782     0    40     1     2
  8.8478087211856774E+01 a       783     0    40     1     3
  1.8972864467722715E+01 a       784     0    40     1     4
 -2.1224894329549848E+01 a       785     0    40     1     5
  4.9420440942144943E+01 a       786     0    40     1     6
  5.9357744416793039E+01 a       787     0    40     1     7
  3.2130346605635715E+01 a       788     0    40     1     8
  9.2001767064459983E+01 a       789     0    40     1     9
  6.6933941263676530E+01 a       790     0    40     1    10
 -3.8279393147229705E+01 a       791     0    40     1    11
  1.2726437891365117E+02 a       792     0    40     1    12
  3.4440739908879587E+00 a       793     0    40     1    13
  1.3601577694261637E+01 a       794     0    40     1    14
  9.4397516037658875E+01 a       795     0    40     1    15
 -3.0808501332606525E+01 a       796     0    40     1    16
 -2.9842897590335490E+01 a       797     0    40     1    17
 -2.0533928382084601E+00 a       798     0    40     1    18
 -3.3598141514492276E+01 a       799     0    40     1    19
 -6.2861249773459624E+00 a       800     0    40     1    20
  3.1196599029987095E+01 a       801     0    41     1     1
  1.3954578825720881E+02 a       802     0    41     1     2
  4.0351376942783821E+00 a       803     0    41     1     3
 -8.3123208721961333E+01 a       804     0    41     1     4
 -4.7830452225579542E+01 a       805     0    41     1     5
 -2.8138097036605643E+01 a       806     0    41     1     6
  5.9014101269746845E+01 a       807     0    41     1     7
 -2.3482767366291654E+01 a       808     0    41     1     8
  2.4720209348126323E+00 a       809     0    41     1     9
 -1.0157610848854429E+01 a       810     0    41     1    10
 -1.8946812753418712E+01 a       811     0    41     1    11
  1.8674691400134364E+01 a       812     0    41     1    12
 -2.9388455305822019E+00 a       813     0    41     1    13
 -5.3400712660791307E+01 a       814     0    41     1    14
  1.1618828269730027E+01 a       815     0    41     1    15
  2.4287270060189247E+01 a       816     0    41     1    16
  1.0974439388577970E+02 a       817     0    41     1    17
  5.7534941932407961E+01 a       818     0    41     1    18
 -2.2698714588416287E+01 a       819     0    41     1    19
 -3.4587133709262183E+01 a       820     0    41     1    20
 -1.2978275829254763E+01 a       821     0    42     1     1
  5.2036867473327526E+01 a       822     0    42     1     2
 -1.1054250076979902E+02 a       823     0    42     1     3
  8.3962484935287769E+00 a       824     0    42     1     4
  1.0871199717903528E+01 a       825     0    42     1     5
  2.9428019123540171E+01 a       826     0    42     1     6
  4.6534915372944376E+01 a       827     0    42     1     7
 -4.1884982323878248E+01 a       828     0    42     1     8
  4.2085067994219166E+01 a       829     0    42     1     9
  4.9967131326289469E+01 a       830     0    42     1    10
 -1.2405857268714739E+01 a       831     0    42     1    11
 -6.8871539777402262E+01 a       832     0    42     1    12
 -7.4420958905736345E+00 a       833     0    42     1    13
 -1.6895207309941391E+01 a       834     0    42     1    14
  5.2210031601473588E+01 a       835     0    42     1    15
  5.0809811606062482E+01 a       836     0    42     1    16
  1.0763861043432610E+02 a       837     0    42     1    17
 -4.3632835293159587E+01 a       838     0    42     1    18
 -9.1293440735561560E+01 a       839     0    42     1    19
  6.4712554240560706E+01 a       840     0    42     1    20
  2.1514883648500074E+01 a       841     0    43     1     1
 -5.1172951257621996E+01 a       842     0    43     1     2
  1.9110114334142946E+01 a       843     0    43     1     3
  3.9297768541922039E+01 a       844     0    43     1     4
  1.3375467449908047E+01 a       845     0    43     1     5
 -1.6098707910043877E+00 a       846     0    43     1     6
  4.3222701732194949E+01 a       847     0    43     1     7
  2.1073260863720488E+01 a       848     0    43     1     8
  2.1761461388350074E+01 a       849     0    43     1     9
 -7.0607054079707661E+00 a       850     0    43     1    10
 -1.0167155616603907E+01 a       851     0    43     1    11
  1.2424862105292721E+02 a       852     0    43     1    12
  5.6783572404806995E+00 a       853     0    43     1    13
  3.4705882862969105E+01 a       854     0    43     1    14
  1.6738853853792651E+01 a       855     0    43     1    15
  1.8566557468571169E+01 a       856     0    43     1    16
  3.0675571376408474E+01 a       857     0    43     1    17
  4.9195710792882949E+01 a       858     0    43     1    18
  9.8849356810695710E+01 a       859     0    43     1    19
 -6.8368108412632180E+00 a       860     0    43     1    20
 -1.0007569287582305E+02 a       861     0    44     1     1
 -7.7655377666951239E+01 a       862     0    44     1     2
  5.8505403173295946E+01 a       863     0    44     1     3
  1.2053361218025771E+02 a       864     0    44     1     4
  1.6883460369411975E+02 a       865     0    44     1     5
  1.3768956242480542E+02 a       866     0    44     1     6
 -9.6632865249331203E+01 a       867     0    44     1     7
  5.4147798044528493E+01 a       868     0    44     1     8
  5.7383424925552902E+01 a       869     0    44     1     9
 -5.4523275843301322E+00 a       870     0    44     1    10
  1.5095183576436135E+01 a       871     0    44     1    11
  5.3554003843819224E+01 a       872     0    44     1    12
  6.9174630281285152E+00 a       873     0    44     1    13
  7.3676384255441704E+01 a       874     0    44     1    14
  1.2347011633568152E+02 a       875     0    44     1    15
 -5.5625099488437364E+01 a       876     0    44     1    16
  2.5105554508580973E+01 a       877     0    44     1    17
 -8.9185206824634662E+01 a       878     0    44     1    18
  1.0534645404320445E+02 a       879     0    44     1    19
  5.9956283498298184E+01 a       880     0    44     1    20
  4.9793249877528240E+01 a       881     0    45     1     1
 -5.9939050825954119E+01 a       882     0    45     1     2
  1.8590782619641965E+02 a       883     0    45     1     3
 -7.5600594811095929E+00 a       884     0    45     1     4
 -4.3519692022153251E+01 a       885     0    45     1     5
 -2.3536774715310383E+01 a       886     0    45     1     6
 -3.0500841367869825E+01 a       887     0    45     1     7
  9.1765857493848316E+01 a       888     0    45     1     8
  4.2497384169707757E+01 a       889     0    45     1     9
 -7.5445375450381007E+01 a       890     0    45     1    10
  6.8714984435940787E+00 a       891     0    45     1    11
  1.2898745865885829E+02 a       892     0    45     1    12
  2.1489176511786717E+01 a       893     0    45     1    13
  3.7222928020994502E+01 a       894     0    45     1    14
  4.4309788299412647E+00 a       895     0    45     1    15
 -4.1886924660911923E+01 a       896     0    45     1    16
 -1.1510025336359413E+02 a       897     0    45     1    17
  1.0627358135061810E+02 a       898     0    45     1    18
 -1.0986725797252220E+01 a       899     0    45     1    19
 -5.0598652266462985E+00 a       900     0    45     1    20
  5.4647117493662634E+01 a       901     0    46     1     1
  3.7384968949814173E+01 a       902     0    46     1     2
  1.0199057158710175E+01 a       903     0    46     1     3
  2.7330197244286595E+01 a       904     0    46     1     4
  3.9291299890938935E+00 a       905     0    46     1     5
 -3.3483372490145776E+01 a       906     0    46     1     6
  1.4204739481487696E+01 a       907     0    46     1     7
  2.3230017312492468E+01 a       908     0    46     1     8
  7.9030240953801496E+01 a       909     0    46     1     9
  9.4989813663953655E+01 a       910     0    46     1    10
 -9.6417353277097317E-01 a       911     0    46     1    11
 -3.6965657115930398E+01 a       912     0    46     1    12
  1.3302935952095019E+01 a       913     0    46     1    13
 -1.0384361089187898E+01 a       914     0    46     1    14
  1.2651807229583254E+00 a       915     0    46     1    15
 -3.0659775563827882E+01 a       916     0    46     1    16
 -7.4772402883442865E+01 a       917     0    46     1    17
 -2.9303659347657618E+01 a       918     0    46     1    18
 -7.2392523140281767E+01 a       919     0    46     1    19
 -1.4594327787140204E-01 a       920     0    46     1    20
 -2.1733381523332646E+01 a       921     0    47     1     1
 -1.9000513165779658E+01 a       922     0    47     1     2
  7.3498743134245901E+00 a       923     0    47     1     3
  3.9269141506819778E+01 a       924     0    47     1     4
  1.7436155482138251E+00 a       925     0    47     1     5
  2.9111128050349535E+00 a       926     0    47     1     6
 -9.2401130858687921E+00 a       927     0    47     1     7
  4.1645369379097845E+00 a       928     0    47     1     8
 -2.9685393259309811E+00 a       929     0    47     1     9
 -2.0209809986555070E+00 a       930     0    47     1    10
  1.0223791851842623E+01 a       931     0    47     1    11
  6.9193798547216474E+00 a       932     0    47     1    12
 -3.7186443742751432E+00 a       933     0    47     1    13
  8.6245672662485244E+00 a       934     0    47     1    14
  2.0336052609557527E+00 a       935     0    47     1    15
  6.4415762236575693E+00 a       936     0    47     1    16
 -6.7095317445746909E+00 a       937     0    47     1    17
  2.7301048273371443E+01 a       938     0    47     1    18
 -9.9735082450370278E+00 a       939     0    47     1    19
 -1.3080478559626362E+01 a       940     0    47     1    20
 -2.8474730011094120E+01 a       941     0    48     1     1
 -4.5179536912567563E+01 a       942     0    48     1     2
  2.4611703116475944E+01 a       943     0    48     1     3
 -1.7228084185557368E+01 a       944     0    48     1     4
 -1.6258959804845587E+00 a       945     0    48     1     5
 -2.3163539733983772E+01 a       946     0    48     1     6
 -2.3183279130409922E+01 a       947     0    48     1     7
  2.1701318783386871E+01 a       948     0    48     1     8
 -3.8331264545412296E+01 a       949     0    48     1     9
 -2.5913632624293964E+01 a       950     0    48     1    10
  6.9384069676551174E+00 a       951     0    48     1    11
  5.5814946056990699E+01 a       952     0    48     1    12
 -3.2569022463758337E+00 a       953     0    48     1    13
  6.0240049299357068E+00 a       954     0    48     1    14
 -1.7916829138636690E+01 a       955     0    48     1    15
 -3.5396436568785774E+01 a       956     0    48     1    16
 -5.4444128983646202E+01 a       957     0    48     1    17
  3.2108154017409433E+01 a       958     0    48     1    18
  5.1975902003687331E+01 a       959     0    48     1    19
 -5.5293865268121515E+01 a       960     0    48     1    20
 -5.2369552028650979E+01 a       961     0    49     1     1
 -9.5844150455273276E+00 a       962     0    49     1     2
  2.2500972456952257E+00 a       963     0    49     1     3
 -1.4702929483843389E+01 a       964     0    49     1     4
 -2.0787801921205375E+01 a       965     0    49     1     5
  7.5852486923698024E+00 a       966     0    49     1     6
 -1.8681076031579199E+01 a       967     0    49     1     7
  1.3826187360932314E+00 a       968     0    49     1     8
 -2.0612380090349408E+01 a       969     0    49     1     9
 -1.6529527473680030E+01 a       970     0    49     1    10
  6.7608781757956926E+00 a       971     0    49     1    11
  1.1130549588864083E+01 a       972     0    49     1    12
 -3.1333117987521590E+00 a       973     0    49     1    13
 -1.2105793480631851E+01 a       974     0    49     1    14
  3.7709008614282432E+01 a       975     0    49     1    15
 -2.6025232415354139E+01 a       976     0    49     1    16
  2.7173635950219438E+01 a       977     0    49     1    17
  2.9076489629819477E+01 a       978     0    49     1    18
 -1.5341684492526559E+01 a       979     0    49     1    19
  7.0854381455910929E+00 a       980     0    49     1    20
  8.0635836699310531E+01 a       981     0    50     1     1
  2.2888765280785627E+01 a       982     0    50     1     2
 -3.0364086061420327E+01 a       983     0    50     1     3
 -4.8416401834830751E+01 a       984     0    50     1     4
 -1.3363380732556635E+02 a       985     0    50     1     5
 -1.2078251639676427E+02 a       986     0    50     1     6
  6.3003799258793379E+01 a       987     0    50     1     7
  1.1035665183171202E-01 a       988     0    50     1     8
 -5.1573645111723359E+01 a       989     0    50     1     9
  4.8156259515722946E+00 a       990     0    50     1    10
 -1.8223984559717014E+01 a       991     0    50     1    11
 -3.7017164840162238E+01 a       992     0    50     1    12
  5.2861150566930508E+00 a       993     0    50     1    13
 -2.7901082083230833E+01 a       994     0    50     1    14
 -1.0380383570530530E+02 a       995     0    50     1    15
 -1.5562194092404356E+01 a       996     0    50     1    16
  6.8461991227847658E+00 a       997     0    50     1    17
  1.0675568451597269E+02 a       998     0    50     1    18
 -2.2430819056054634E+01 a       999     0    50     1    19
 -1.2417013835482074E+01 a      1000     0    50     1    20
 -3.8970862286221738E+01 a      1001     0    51     1     1
  2.3874274857707118E+01 a      1002     0    51     1     2
 -1.2397794273813014E+02 a      1003     0    51     1     3
  1.6553481920109738E+00 a      1004     0    51     1     4
  3.5833129394214573E+01 a      1005     0    51     1     5
 -3.2876349318048143E-01 a      1006     0    51     1     6
 -3.5521021067472947E+00 a      1007     0    51     1     7
 -6.8148439800916620E+01 a      1008     0    51     1     8
 -5.4480571345427485E+01 a      1009     0    51     1     9
  5.1930853523433584E+01 a      1010     0    51     1    10
 -3.9705342263102832E+00 a      1011     0    51     1    11
 -1.0237360088397119E+02 a      1012     0    51     1    12
 -1.5186515480573304E+01 a      1013     0    51     1    13
 -2.3296868184626142E+01 a      1014     0    51     1    14
 -1.5824130550611390E+01 a      1015     0    51     1    15
 -1.1716936321894330E+01 a      1016     0    51     1    16
  6.0030048487908985E+01 a      1017     0    51     1    17
 -1.1835204379544999E+02 a      1018     0    51     1    18
  2.6691959028590443E+01 a      1019     0    51     1    19
 -7.0713566241738199E+00 a      1020     0    51     1    20
 -6.5857804434739720E+01 a      1021     0    52     1     1
 -2.1292204460435835E+00 a      1022     0    52     1     2
 -6.4326266389691455E+01 a      1023     0    52     1     3
 -7.0107323066532203E+01 a      1024     0    52     1     4
  5.0145172791624809E+01 a      1025     0    52     1     5
  2.0487023576977435E+01 a      1026     0    52     1     6
 -4.0410259543359125E+01 a      1027     0    52     1     7
 -4.9258035565720768E+01 a      1028     0    52     1     8
 -1.0976194691952934E+02 a      1029     0    52     1     9
 -5.4476929554245480E+01 a      1030     0    52     1    10
  1.2576733806390575E+01 a      1031     0    52     1    11
 -1.0295002530354836E+02 a      1032     0    52     1    12
 -6.5466601133997537E+00 a      1033     0    52     1    13
 -2.0634490340026694E+01 a      1034     0    52     1    14
 -1.0440703273890580E+02 a      1035     0    52     1    15
  1.4101007625651944E+01 a      1036     0    52     1    16
 -4.0325814958067596E+01 a      1037     0    52     1    17
 -6.5114354212666811E+01 a      1038     0    52     1    18
  4.8297337562890526E+01 a      1039     0    52     1    19
  2.9368048094836180E+01 a      1040     0    52     1    20
 -2.0591833515381768E+00 b      1041     1     1
 -3.4077259376671756E+00 b      1042     1     2
 -1.1614956273984007E+00 b      1043     1     3
  9.7470614469722094E-01 b      1044     1     4
 -3.8140267500761489E+00 b      1045     1     5
 -1.3909760024232400E+00 b      1046     1     6
 -7.3950035287150800E-02 b      1047     1     7
 -2.5942248614968006E+00 b      1048     1     8
 -6.4827749122140803E+00 b      1049     1     9
  1.4127672621098732E+00 b      1050     1    10
  2.8257748281430759E+00 b      1051     1    11
 -6.0304412024987615E+00 b      1052     1    12
  9.6349301213863603E-01 b      1053     1    13
  4.0749528946307043E+00 b      1054     1    14
 -5.1334516673477806E+00 b      1055     1    15
  1.0336632912248387E+00 b      1056     1    16
 -2.1470289675664938E+00 b      1057     1    17
 -1.3519383858435008E+01 b      1058     1    18
 -1.2317874408156282E+00 b      1059     1    19
  8.0486778606392262E-01 b      1060     1    20
  1.8801037781669194E+00 a      1061     1     1     2     1
 -1.2770555005916335E+00 a      1062     1     1     2     2
  3.8777304483512958E+00 a      1063     1     1     2     3
  3.4170802002321969E+00 a      1064     1     1     2     4
  1.5671553209494187E+00 a      1065     1     1     2     5
  1.7039085396432587E+00 a      1066     1     1     2     6
  6.0079438923979844E-01 a      1067     1     1     2     7
 -3.5975079548960692E-01 a      1068     1     1     2     8
  1.6674583990291674E+00 a      1069     1     1     2     9
  2.1841383842859741E+00 a      1070     1     1     2    10
 -4.7650959374505346E+00 a      1071     1     1     2    11
 -1.3259626666128848E+00 a      1072     1     1     2    12
 -5.1030461887297218E-01 a      1073     1     1     2    13
 -2.1537281681750864E+00 a      1074     1     1     2    14
 -9.2829636183641853E+00 a      1075     1     1     2    15
 -1.0052206686621197E+00 a      1076     1     1     2    16
 -3.8946905850235969E-01 a      1077     1     1     2    17
 -5.0151613491303575E+00 a      1078     1     1     2    18
 -8.1338791641304253E-01 a      1079     1     1     2    19
  1.2162360777686536E+00 a      1080     1     1     2    20
 -3.2469115680884952E-01 a      1081     1     2     2     1
  7.6410657579971497E+00 a      1082     1     2     2     2
 -6.2704497818840128E+00 a      1083     1     2     2     3
  7.0081878052591975E+00 a      1084     1     2     2     4
  2.7082346924323599E+00 a      1085     1     2     2     5
  7.3090934792085145E+00 a      1086     1     2     2     6
  8.2298611606230876E-01 a      1087     1     2     2     7
  1.2144988401443360E+00 a      1088     1     2     2     8
  2.0846485998394723E-01 a      1089     1     2     2     9
  1.6418716068843506E+00 a      1090     1     2     2    10
 -4.9471901676188583E+00 a      1091     1     2     2    11
 -8.5510950872894187E-01 a      1092     1     2     2    12
 -1.7335611175021730E+00 a      1093     1     2     2    13
  4.4299171630411607E+00 a      1094     1     2     2    14
  8.5853173582917131E-01 a      1095     1     2     2    15
  4.9398757619366984E+00 a      1096     1     2     2    16
 -8.7457776309163693E-01 a      1097     1     2     2    17
 -2.1179087288051051E+00 a      1098     1     2     2    18
  4.0721604004961609E+00 a      1099     1     2     2    19
 -1.2885672579104432E+00 a      1100     1     2     2    20
 -5.0388732892645915E-01 a      1101     1     3     2     1
  1.6645252240016235E-02 a      1102     1     3     2     2
  1.1275156697930975E+00 a      1103     1     3     2     3
 -1.7310655945745814E+00 a      1104     1     3     2     4
 -1.8237615915955796E-01 a      1105     1     3     2     5
 -3.4705716191274165E+00 a      1106     1     3     2     6
 -3.5795226742046307E+00 a      1107     1     3     2     7
 -1.3386419683243669E+00 a      1108     1     3     2     8
  4.7148412826209418E-01 a      1109     1     3     2     9
 -7.9374351340369420E-01 a      1110     1     3     2    10
  3.6969596019980872E-01 a      1111     1     3     2    11
  7.6001011497113236E-01 a      1112     1     3     2    12
 -3.2421516582740340E-01 a      1113     1     3     2    13
 -1.1193880870551033E-01 a      1114     1     3     2    14
  9.1902075421484541E-01 a      1115     1     3     2    15
  9.5766436365606611E-01 a      1116     1     3     2    16
 -3.4810605680108608E-01 a      1117     1     3     2    17
  5.2222308631033698E-01 a      1118     1     3     2    18
  5.9573161831020507E-03 a      1119     1     3     2    19
 -7.9093350501729642E-01 a      1120     1     3     2    20
 -7.7247101345226432E-01 a      1121     1     4     2     1
 -3.8229812965138219E+00 a      1122     1     4     2     2
  1.4025716748344523E+00 a      1123     1     4     2     3
 -4.2009394601458601E+00 a      1124     1     4     2     4
 -1.1121936079454473E+00 a      1125     1     4     2     5
 -4.6541314349494876E+00 a      1126     1     4     2     6
 -6.3266006322344861E+00 a      1127     1     4     2     7
  1.0620234658683374E+00 a      1128     1     4     2     8
 -6.4653855840334506E-02 a      1129     1     4     2     9
 -3.2418355974157591E+00 a      1130     1     4     2    10
  2.3512949880044101E+00 a      1131     1     4     2    11
  1.7071075521833845E+00 a      1132     1     4     2    12
  2.4289237758077795E+00 a      1133     1     4     2    13
  5.9759852965938465E-01 a      1134     1     4     2    14
 -2.5314604510070415E+00 a      1135     1     4     2    15
 -2.7254474665252881E+00 a      1136     1     4     2    16
 -1.5224862951378018E+00 a      1137     1     4     2    17
  1.1226124194456060E+00 a      1138     1     4     2    18
 -8.0509666084107256E-01 a      1139     1     4     2    19
 -1.5062741111877791E-02 a      1140     1     4     2    20
 -5.5229042143231299E-01 a      1141     1     5     2     1
 -1.9803529827913531E+00 a      1142     1     5     2     2
 -6.4858880855231238E-01 a      1143     1     5     2     3
 -3.8968047228886293E-01 a      1144     1     5     2     4
  1.4388106798043626E-01 a      1145     1     5     2     5
  5.8378891576563799E-02 a      1146     1     5     2     6
  7.2751907307649155E-01 a      1147     1     5     2     7
  1.7802556839103214E+00 a      1148     1     5     2     8
 -1.0815272538362319E-02 a      1149     1     5     2     9
 -1.3813383700092459E+00 a      1150     1     5     2    10
 -3.5210407873701244E-01 a      1151     1     5     2    11
 -8.1970921818034059E-01 a      1152     1     5     2    12
  2.9588838966486180E-03 a      1153     1     5     2    13
  1.8735740272299187E-01 a      1154     1     5     2    14
 -7.7118160874743025E-01 a      1155     1     5     2    15
 -1.5591246506116352E+00 a      1156     1     5     2    16
 -3.3577453952471498E-01 a      1157     1     5     2    17
  1.5586476382886114E+00 a      1158     1     5     2    18
 -5.3416969555610772E-01 a      1159     1     5     2    19
  2.4577965980475361E-01 a      1160     1     5     2    20
  5.1480690872566024E+00 a      1161     1     6     2     1
  1.4765009669446987E+00 a      1162     1     6     2     2
 -1.0173564168856639E+00 a      1163     1     6     2     3
 -4.0560015974528074E+00 a      1164     1     6     2     4
 -1.6295630346284884E-01 a      1165     1     6     2     5
  1.4082702481214324E+00 a      1166     1     6     2     6
 -4.5958006715517277E+00 a      1167     1     6     2     7
 -2.2145670303470713E+00 a      1168     1     6     2     8
 -6.0975271025281041E-01 a      1169     1     6     2     9
  1.6388821281691957E+00 a      1170     1     6     2    10
 -3.1225683290651349E+00 a      1171     1     6     2    11
 -9.0718246816463921E-01 a      1172     1     6     2    12
  4.2564731347664821E+00 a      1173     1     6     2    13
 -1.4166883402760361E-01 a      1174     1     6     2    14
  4.5793929712512466E-01 a      1175     1     6     2    15
 -1.2753378594309701E+00 a      1176     1     6     2    16
  1.5843669295501044E+00 a      1177     1     6     2    17
  1.4631925263830294E+00 a      1178     1     6     2    18
 -9.8582859364496378E-01 a      1179     1     6     2    19
  2.5159397829393887E-01 a      1180     1     6     2    20
  2.8103050649822081E+00 a      1181     1     7     2     1
 -1.3342247285769198E+00 a      1182     1     7     2     2
 -6.3776537230772090E-01 a      1183     1     7     2     3
 -3.2916799713895151E-01 a      1184     1     7     2     4
  8.1869268436480269E-01 a      1185     1     7     2     5
  6.0827027622595498E-01 a      1186     1     7     2     6
 -2.0215285588034653E+00 a      1187     1     7     2     7
 -1.1425972358069873E-01 a      1188     1     7     2     8
 -1.3518305363184191E-01 a      1189     1     7     2     9
 -8.8860753595909547E-01 a      1190     1     7     2    10
 -5.3717401908978590E-01 a      1191     1     7     2    11
 -9.9564827561514335E-01 a      1192     1     7     2    12
 -5.9122912425509555E-01 a      1193     1     7     2    13
  2.6991287160582522E-01 a      1194     1     7     2    14
 -2.5451193304409556E+00 a      1195     1     7     2    15
 -2.8488293182242552E+00 a      1196     1     7     2    16
  5.8032967097301702E-01 a      1197     1     7     2    17
  3.7120220787624264E-01 a      1198     1     7     2    18
 -3.8900960197735701E-01 a      1199     1     7     2    19
  6.8626868480901315E-01 a      1200     1     7     2    20
  3.7982308483077150E+00 a      1201     1     8     2     1
  5.0454297491268230E-01 a      1202     1     8     2     2
  1.9317862481629999E-01 a      1203     1     8     2     3
  1.1249270570767231E+00 a      1204     1     8     2     4
 -2.3492995260842213E+00 a      1205     1     8     2     5
 -8.1329041081913889E-01 a      1206     1     8     2     6
  5.1277455827865151E-02 a      1207     1     8     2     7
 -3.0980371415960817E-02 a      1208     1     8     2     8
  3.7594585688909232E-01 a      1209     1     8     2     9
  1.1699619149173365E-01 a      1210     1     8     2    10
  4.3404876744005199E+00 a      1211     1     8     2    11
  9.1737008937403652E-01 a      1212     1     8     2    12
 -8.9798632231151376E-01 a      1213     1     8     2    13
 -3.5305662370428563E+00 a      1214     1     8     2    14
  5.4637755510199222E+00 a      1215     1     8     2    15
 -2.8907109086464358E+00 a      1216     1     8     2    16
  3.4777565602195282E-01 a      1217     1     8     2    17
 -7.1615573877745611E+00 a      1218     1     8     2    18
 -4.4096894634807482E+00 a      1219     1     8     2    19
  1.2414882863673959E+00 a      1220     1     8     2    20
 -2.0044148941993161E+00 a      1221     1     9     2     1
  1.1916613956388476E+01 a      1222     1     9     2     2
  3.5213469274969946E+00 a      1223     1     9     2     3
 -1.2494560584042669E+00 a      1224     1     9     2     4
 -1.3269547476457815E+01 a      1225     1     9     2     5
 -1.4454367208712791E+01 a      1226     1     9     2     6
 -7.5513955865708446E+00 a      1227     1     9     2     7
  4.3229014053654353E+00 a      1228     1     9     2     8
  8.8429825034202221E+00 a      1229     1     9     2     9
  3.3301271117806093E+00 a      1230     1     9     2    10
  2.7652481905826392E+00 a      1231     1     9     2    11
 -5.1485865089056659E+00 a      1232     1     9     2    12
 -1.1321740281091502E+01 a      1233     1     9     2    13
  5.7369430625640172E+00 a      1234     1     9     2    14
  6.6760655869928067E+00 a      1235     1     9     2    15
  6.3293740722127882E+00 a      1236     1     9     2    16
 -3.9972413245016090E+00 a      1237     1     9     2    17
 -2.7782190816804055E+00 a      1238     1     9     2    18
 -1.0105002546597358E+01 a      1239     1     9     2    19
  9.1564988682559676E+00 a      1240     1     9     2    20
 -2.5702279323164277E+00 a      1241     1    10     2     1
 -4.2721429506077584E+00 a      1242     1    10     2     2
 -6.6778870711204508E-01 a      1243     1    10     2     3
  2.4823551023081749E+00 a      1244     1    10     2     4
 -9.5411729491132946E-01 a      1245     1    10     2     5
 -2.5943681386154864E+00 a      1246     1    10     2     6
  7.7959041973349374E-01 a      1247     1    10     2     7
  1.1547846566343489E+00 a      1248     1    10     2     8
  6.6051298528115876E-01 a      1249     1    10     2     9
 -3.8111600961706102E+00 a      1250     1    10     2    10
  3.5586745455119382E+00 a      1251     1    10     2    11
  4.2423172779300424E+00 a      1252     1    10     2    12
  3.1844636248862095E+00 a      1253     1    10     2    13
  8.0488238484950203E-01 a      1254     1    10     2    14
  3.1635766996271975E+00 a      1255     1    10     2    15
 -4.0255223428272275E+00 a      1256     1    10     2    16
 -1.4644411224194029E+00 a      1257     1    10     2    17
  1.1006278995736372E+00 a      1258     1    10     2    18
  1.3897794944103097E+00 a      1259     1    10     2    19
 -4.3697756438163499E-01 a      1260     1    10     2    20
 -9.1065031733180724E-01 a      1261     1    11     2     1
  4.8743678548826780E-01 a      1262     1    11     2     2
 -1.7490012091065761E+00 a      1263     1    11     2     3
 -5.9746620223129210E-01 a      1264     1    11     2     4
 -2.3104481910522945E-01 a      1265     1    11     2     5
  2.0789821436065257E-02 a      1266     1    11     2     6
  8.4029420593336812E-01 a      1267     1    11     2     7
  2.1317189821618071E-01 a      1268     1    11     2     8
 -2.4146982876931095E-01 a      1269     1    11     2     9
  5.9237053133935957E-01 a      1270     1    11     2    10
 -2.2092944688237606E+00 a      1271     1    11     2    11
  1.6449265369091959E+00 a      1272     1    11     2    12
 -3.5663737857852054E-03 a      1273     1    11     2    13
  2.3477679824118682E-03 a      1274     1    11     2    14
  4.0275284923593430E-01 a      1275     1    11     2    15
 -5.5415116310762358E-01 a      1276     1    11     2    16
  7.0861533694727219E-01 a      1277     1    11     2    17
 -2.0077398863566920E+00 a      1278     1    11     2    18
  1.1540463231260694E+00 a      1279     1    11     2    19
 -7.6996077722490996E-01 a      1280     1    11     2    20
 -4.0706210774881868E-01 a      1281     1    12     2     1
 -2.0049868604411850E-01 a      1282     1    12     2     2
 -2.8508768352463165E-01 a      1283     1    12     2     3
  1.7195719603658988E-01 a      1284     1    12     2     4
  1.2880506584796186E-01 a      1285     1    12     2     5
 -1.8998753312809127E-01 a      1286     1    12     2     6
  1.7561292851709323E-01 a      1287     1    12     2     7
  7.5065785220942302E-02 a      1288     1    12     2     8
  5.0669574806446571E-02 a      1289     1    12     2     9
 -2.7946631133081673E-01 a      1290     1    12     2    10
 -8.8851392676588176E-02 a      1291     1    12     2    11
 -1.7496859964576794E-01 a      1292     1    12     2    12
 -1.0868657830985552E-01 a      1293     1    12     2    13
  2.6106786654231311E-02 a      1294     1    12     2    14
  4.0281667797282655E-01 a      1295     1    12     2    15
 -4.9333687717419529E-04 a      1296     1    12     2    16
 -1.5854812924946479E-01 a      1297     1    12     2    17
 -4.3935579970854088E-01 a      1298     1    12     2    18
  1.5344361249492086E-01 a      1299     1    12     2    19
 -6.0976580949135377E-02 a      1300     1    12     2    20
 -4.1355838654717871E+00 a      1301     1    13     2     1
  2.6357261216489573E-02 a      1302     1    13     2     2
 -7.8055705820446286E-01 a      1303     1    13     2     3
  1.8102244861423786E+00 a      1304     1    13     2     4
 -5.0018711744296507E-01 a      1305     1    13     2     5
 -1.5171606633616150E+00 a      1306     1    13     2     6
 -4.2353148889373338E-01 a      1307     1    13     2     7
 -7.0091308017168286E-02 a      1308     1    13     2     8
 -1.2400910491905749E-01 a      1309     1    13     2     9
 -7.5809190293400297E+00 a      1310     1    13     2    10
 -5.0399236650332302E-01 a      1311     1    13     2    11
 -3.6006005940772194E+00 a      1312     1    13     2    12
 -7.7092813418656558E-01 a      1313     1    13     2    13
  8.0488512026041426E-01 a      1314     1    13     2    14
 -5.4530558292220421E-01 a      1315     1    13     2    15
 -1.2490647309989809E+00 a      1316     1    13     2    16
 -6.1105766585890053E-01 a      1317     1    13     2    17
 -3.1731705787936657E+00 a      1318     1    13     2    18
  4.2921873513293085E-01 a      1319     1    13     2    19
 -1.0406394271032642E+00 a      1320     1    13     2    20
  2.9920645749844366E+00 a      1321     1    14     2     1
  4.8805915898853192E+00 a      1322     1    14     2     2
  7.0253476085348543E-01 a      1323     1    14     2     3
 -1.9434782769551717E+00 a      1324     1    14     2     4
  1.0512847902862319E+00 a      1325     1    14     2     5
  1.7512107654312612E+00 a      1326     1    14     2     6
 -2.8957756525870182E+00 a      1327     1    14     2     7
 -1.4515310749844050E+00 a      1328     1    14     2     8
 -2.5701369780519367E-01 a      1329     1    14     2     9
  5.6486597881507539E+00 a      1330     1    14     2    10
 -2.7586204153738345E+00 a      1331     1    14     2    11
 -1.7565139699813486E+00 a      1332     1    14     2    12
 -2.5442501641721109E+00 a      1333     1    14     2    13
 -1.3203288475646664E+00 a      1334     1    14     2    14
 -4.7236534600721027E+00 a      1335     1    14     2    15
  3.9740781213158325E+00 a      1336     1    14     2    16
  1.4692455489394816E+00 a      1337     1    14     2    17
 -1.1831774341270207E+00 a      1338     1    14     2    18
 -7.8447731449049907E-01 a      1339     1    14     2    19
  2.6770822843575165E-01 a      1340     1    14     2    20
  2.1920901357488470E-01 a      1341     1    15     2     1
  3.0332556137513916E-01 a      1342     1    15     2     2
 -4.2522894342573803E-01 a      1343     1    15     2     3
 -5.8762176585199610E-01 a      1344     1    15     2     4
 -8.7979869252244727E-02 a      1345     1    15     2     5
  1.0824005277393209E-01 a      1346     1    15     2     6
 -9.1567240186772647E-01 a      1347     1    15     2     7
  9.5091919004446779E-01 a      1348     1    15     2     8
  9.2965064824758525E-02 a      1349     1    15     2     9
  1.8709288463981240E-02 a      1350     1    15     2    10
 -5.3303173947057379E-02 a      1351     1    15     2    11
 -8.8177512140208369E-01 a      1352     1    15     2    12
  9.7957026673095526E-01 a      1353     1    15     2    13
  1.7560117797686833E-01 a      1354     1    15     2    14
  1.6540485444844952E-01 a      1355     1    15     2    15
 -1.7079593900786647E-01 a      1356     1    15     2    16
  2.5222289481645954E-01 a      1357     1    15     2    17
 -3.6924082009107656E-01 a      1358     1    15     2    18
  2.9016362211639785E-01 a      1359     1    15     2    19
  1.9677053606329117E-03 a      1360     1    15     2    20
  2.3849274016061921E+00 a      1361     1    16     2     1
  3.3435958365913128E+00 a      1362     1    16     2     2
  1.8390011429283475E+00 a      1363     1    16     2     3
 -3.1107322359179657E-01 a      1364     1    16     2     4
  1.2707089937279392E+00 a      1365     1    16     2     5
  2.4321421671258618E+00 a      1366     1    16     2     6
  4.2227604608847785E-01 a      1367     1    16     2     7
 -2.7618869536492525E+00 a      1368     1    16     2     8
 -2.7773516459108188E-01 a      1369     1    16     2     9
  6.0711665499391261E+00 a      1370     1    16     2    10
  9.3451369356177405E-01 a      1371     1    16     2    11
 -2.5263666063568230E-01 a      1372     1    16     2    12
 -5.4392863651928114E-01 a      1373     1    16     2    13
 -8.0480353039799857E-01 a      1374     1    16     2    14
 -1.8181074168481175E+00 a      1375     1    16     2    15
  4.2723877085832225E+00 a      1376     1    16     2    16
  5.0499493799862916E-01 a      1377     1    16     2    17
  1.9009299250674385E+00 a      1378     1    16     2    18
 -1.2421352002580959E+00 a      1379     1    16     2    19
  9.2516955769119191E-01 a      1380     1    16     2    20
  2.4477256711400580E-02 a      1381     1    17     2     1
  1.2422231432147601E-01 a      1382     1    17     2     2
  4.6016389308123640E-01 a      1383     1    17     2     3
  1.6088019767539350E+00 a      1384     1    17     2     4
 -3.4935328190226300E-01 a      1385     1    17     2     5
 -1.1898776320884010E+00 a      1386     1    17     2     6
 -1.6216745922964952E+00 a      1387     1    17     2     7
 -2.0006255838852877E-01 a      1388     1    17     2     8
 -1.0069282094745169E-01 a      1389     1    17     2     9
  3.2456285691465414E-01 a      1390     1    17     2    10
 -7.7866155335119061E+00 a      1391     1    17     2    11
 -7.0879680587769101E-01 a      1392     1    17     2    12
 -5.9763851224901787E-01 a      1393     1    17     2    13
 -1.2430814027870415E-01 a      1394     1    17     2    14
 -1.1826034562297261E+01 a      1395     1    17     2    15
  1.7793083077313354E-01 a      1396     1    17     2    16
 -3.7033656855091918E-01 a      1397     1    17     2    17
 -1.3426146165768413E+00 a      1398     1    17     2    18
 -6.1787042339633369E-01 a      1399     1    17     2    19
  6.0178255168789008E-01 a      1400     1    17     2    20
 -4.8526773562613601E-01 a      1401     1    18     2     1
 -7.0999757641646655E-01 a      1402     1    18     2     2
 -6.2779351071096112E-02 a      1403     1    18     2     3
  2.8586842305824943E-02 a      1404     1    18     2     4
  1.9502625159471491E-02 a      1405     1    18     2     5
  4.5905948142856162E-01 a      1406     1    18     2     6
  7.2166931953297897E-01 a      1407     1    18     2     7
 -6.4154062991145389E-01 a      1408     1    18     2     8
 -1.5407304916216613E-01 a      1409     1    18     2     9
 -3.5498403133492734E-01 a      1410     1    18     2    10
 -8.5430337905560172E-01 a      1411     1    18     2    11
 -6.3054542639827016E-02 a      1412     1    18     2    12
 -1.1838971257507851E+00 a      1413     1    18     2    13
  2.4003611462141591E-01 a      1414     1    18     2    14
 -3.8026470505151601E-02 a      1415     1    18     2    15
 -1.4855219147449655E-01 a      1416     1    18     2    16
  1.0028780379080494E-01 a      1417     1    18     2    17
 -9.0272869988884763E-01 a      1418     1    18     2    18
 -1.0903065437005507E-01 a      1419     1    18     2    19
  4.2123638426308160E-02 a      1420     1    18     2    20
  1.2200561965376135E-01 a      1421     1    19     2     1
  2.2254292699599896E+00 a      1422     1    19     2     2
  2.1636992552396511E-01 a      1423     1    19     2     3
 -1.2356503707085759E-01 a      1424     1    19     2     4
  4.2042681394304238E-01 a      1425     1    19     2     5
  5.2292401568116043E-01 a      1426     1    19     2     6
  3.8755935256511942E-01 a      1427     1    19     2     7
 -4.8816135631708252E-01 a      1428     1    19     2     8
 -1.3386181351245716E-01 a      1429     1    19     2     9
  2.5230417540530343E+00 a      1430     1    19     2    10
 -8.3723589396344700E+00 a      1431     1    19     2    11
  2.8550045338972185E-01 a      1432     1    19     2    12
 -1.0542651307841397E+00 a      1433     1    19     2    13
 -3.6590363102530532E-01 a      1434     1    19     2    14
 -1.4959794674125057E+01 a      1435     1    19     2    15
  8.1075172962382092E-01 a      1436     1    19     2    16
 -7.6456991031818864E-03 a      1437     1    19     2    17
 -5.2126241707682386E-01 a      1438     1    19     2    18
 -1.9054761349154281E-01 a      1439     1    19     2    19
  1.3475057605887983E-01 a      1440     1    19     2    20
  1.5660521883286069E+00 a      1441     1    20     2     1
  6.4646947726719317E-01 a      1442     1    20     2     2
 -1.4816392162822822E+00 a      1443     1    20     2     3
  8.5188064495659965E-01 a      1444     1    20     2     4
 -1.0996312370731780E-01 a      1445     1    20     2     5
 -2.8161707969652836E+00 a      1446     1    20     2     6
  8.7604942579040634E-01 a      1447     1    20     2     7
 -6.7187832454170993E-01 a      1448     1    20     2     8
  7.2557376465021894E-01 a      1449     1    20     2     9
  7.8286413397672172E-02 a      1450     1    20     2    10
  1.0428377548170666E+00 a      1451     1    20     2    11
 -7.2259454084738689E-02 a      1452     1    20     2    12
 -6.0645506363157864E-01 a      1453     1    20     2    13
 -6.0592515881562325E-01 a      1454     1    20     2    14
  2.0057735932101703E+00 a      1455     1    20     2    15
  4.0609740765808522E-01 a      1456     1    20     2    16
 -1.5882193913709647E-01 a      1457     1    20     2    17
 -1.1743225015446985E+00 a      1458     1    20     2    18
  8.9906814209743702E-01 a      1459     1    20     2    19
 -1.3754061469979109E-01 a      1460     1    20     2    20
 -7.9274651755485781E+00 b      1461     2     1
  1.6203195536751556E+00 b      1462     2     2
 -3.1780222393167901E-01 b      1463     2     3
 -4.8420030554431664E-01 b      1464     2     4
 -3.0296392037187454E+00 b      1465     2     5
 -5.2297862887995059E+00 b      1466     2     6
  9.7468715137444519E+00 b      1467     2     7
  6.2042166707786306E+00 b      1468     2     8
 -1.9249964082040456E+00 b      1469     2     9
  5.5197723553683420E-01 b      1470     2    10
  3.2226970099318470E+00 b      1471     2    11
 -1.1863564706214561E+01 b      1472     2    12
 -1.6957931940825737E+00 b      1473     2    13
  4.4867035257777781E+00 b      1474     2    14
  2.1058007950534002E+01 b      1475     2    15
 -1.7784151685264677E+00 b      1476     2    16
 -5.6489689891453478E+00 b      1477     2    17
  1.1935873842178268E+01 b      1478     2    18
 -1.1654013447844687E+00 b      1479     2    19
  8.9869887641176860E-01 b      1480     2    20
 -1.4536279702738483E-01 a      1481     2     1     3     1
  4.3088215865438040E-01 a      1482     2     2     3     1
  1.6362646511360177E-01 a      1483     2     3     3     1
 -2.3892843417992715E-01 a      1484     2     4     3     1
  5.3693134970132739E-01 a      1485     2     5     3     1
 -1.2739992456903812E-01 a      1486     2     6     3     1
  3.8662578268705894E-01 a      1487     2     7     3     1
 -2.3628164204822993E-01 a      1488     2     8     3     1
  5.7363293170919849E-01 a      1489     2     9     3     1
 -5.4801312763143961E-01 a      1490     2    10     3     1
 -5.0299012369464191E-01 a      1491     2    11     3     1
  9.0093437161915604E-02 a      1492     2    12     3     1
  3.2180750013344034E-01 a      1493     2    13     3     1
 -4.2982122354537639E-01 a      1494     2    14     3     1
 -1.1117724434027509E+00 a      1495     2    15     3     1
  1.5762221428005119E-01 a      1496     2    16     3     1
  5.2514216201150365E-01 a      1497     2    17     3     1
  1.3042982537016248E-01 a      1498     2    18     3     1
 -2.6156989702604888E-01 a      1499     2    19     3     1
  9.1363400577174370E-01 a      1500     2    20     3     1
  5.4784846787701014E+00 b      1501     3     1
