################################################################################
# Neural network connection values (weights and biases).
################################################################################
# Col  Name       Description
################################################################################
# 1    connection Neural network connection value.
# 2    t          Connection type (a = weight, b = bias).
# 3    index      Index enumerating weights.
# 4    l_s        Starting point layer (end point layer for biases).
# 5    n_s        Starting point neuron in starting layer (end point neuron for biases).
# 6    l_e        End point layer.
# 7    n_e        End point neuron in end layer.
################################################################################
#                      1 2         3     4     5     6     7
#             connection t     index   l_s   n_s   l_e   n_e
############################################################
 -8.9298204558749159E+00 a         1     0     1     1     1
  9.0605503414254063E+00 a         2     0     1     1     2
 -2.5592867547693071E+01 a         3     0     1     1     3
  1.6485398964352235E+01 a         4     0     1     1     4
 -2.6324530958789904E+01 a         5     0     1     1     5
 -4.5657314389035264E+00 a         6     0     1     1     6
  3.5195461971921675E+00 a         7     0     1     1     7
 -1.2457578908282830E+01 a         8     0     1     1     8
  5.0886166574645397E+00 a         9     0     1     1     9
 -1.8080840361638494E+01 a        10     0     1     1    10
  1.2083528988852102E+01 a        11     0     1     1    11
  1.1509422028248311E+00 a        12     0     1     1    12
  4.2580517069646291E+00 a        13     0     1     1    13
  1.4049099905891534E+01 a        14     0     1     1    14
  3.7256795293098408E+00 a        15     0     1     1    15
  1.3385949409999029E+01 a        16     0     1     1    16
  5.0992615241985586E+00 a        17     0     1     1    17
  2.1321294211239383E+00 a        18     0     1     1    18
 -8.0797099499466949E+00 a        19     0     1     1    19
  4.6898734859830356E+00 a        20     0     1     1    20
 -7.8038587480049826E-01 a        21     0     2     1     1
  4.5131393009556398E-01 a        22     0     2     1     2
 -1.8259404387600200E+00 a        23     0     2     1     3
  7.6633881298966768E+00 a        24     0     2     1     4
  1.5899440495217862E+01 a        25     0     2     1     5
  1.3541629854604016E+00 a        26     0     2     1     6
  2.3081651394298954E+00 a        27     0     2     1     7
  7.4932857793470635E+00 a        28     0     2     1     8
  3.7515606065858380E+00 a        29     0     2     1     9
 -8.4202275432315121E-01 a        30     0     2     1    10
  4.0781887562483723E+00 a        31     0     2     1    11
  3.7514261837406004E+00 a        32     0     2     1    12
  1.0495283413588872E+01 a        33     0     2     1    13
 -1.5919739029762210E+01 a        34     0     2     1    14
 -5.5194216317499665E+00 a        35     0     2     1    15
  4.3159432483658913E+00 a        36     0     2     1    16
  2.4825622133203922E+00 a        37     0     2     1    17
 -3.3156993573167219E+00 a        38     0     2     1    18
 -2.3456978063244391E-01 a        39     0     2     1    19
  6.3026531685285150E+00 a        40     0     2     1    20
  6.6192820777552832E+00 a        41     0     3     1     1
 -4.2561234170439235E+00 a        42     0     3     1     2
  3.1217258229688461E+01 a        43     0     3     1     3
 -1.2685952770286010E+01 a        44     0     3     1     4
  2.3126349328179273E+01 a        45     0     3     1     5
  8.3295161921574579E+00 a        46     0     3     1     6
  8.3544718948188788E+00 a        47     0     3     1     7
  8.2806226092280486E+00 a        48     0     3     1     8
 -2.8983491679114168E+00 a        49     0     3     1     9
  1.1417583201579774E+01 a        50     0     3     1    10
 -7.3894024848836590E+00 a        51     0     3     1    11
 -9.5741209797828049E+00 a        52     0     3     1    12
 -7.0953037826392515E+00 a        53     0     3     1    13
 -1.3287948255222753E+01 a        54     0     3     1    14
 -9.6869655462914181E+00 a        55     0     3     1    15
 -2.2858953907698297E+01 a        56     0     3     1    16
  7.4948664464338499E+00 a        57     0     3     1    17
 -3.4747370014851464E-01 a        58     0     3     1    18
 -5.1417848844285823E+00 a        59     0     3     1    19
 -1.2208873508932649E+01 a        60     0     3     1    20
  7.0074803666508290E+00 a        61     0     4     1     1
  1.8642383880741142E+00 a        62     0     4     1     2
  7.2041433679984515E+00 a        63     0     4     1     3
 -4.7195627639018323E+00 a        64     0     4     1     4
 -6.9651063514208529E+00 a        65     0     4     1     5
 -5.6262114186145629E-01 a        66     0     4     1     6
  2.2489940904718315E+00 a        67     0     4     1     7
 -2.9973231364388946E+00 a        68     0     4     1     8
 -1.7967514727563232E+00 a        69     0     4     1     9
  1.7264798991625054E+00 a        70     0     4     1    10
  4.6217498775647323E+00 a        71     0     4     1    11
 -6.2522143187555272E+00 a        72     0     4     1    12
  2.8431574619716931E+00 a        73     0     4     1    13
  6.0614704418327525E+00 a        74     0     4     1    14
  3.5222641108638388E+00 a        75     0     4     1    15
 -2.6801159211059065E+00 a        76     0     4     1    16
  3.0252887571390574E+00 a        77     0     4     1    17
  6.7908256730022751E+00 a        78     0     4     1    18
 -9.5655976116522834E-01 a        79     0     4     1    19
 -1.1603037412732524E+00 a        80     0     4     1    20
  4.6708531019638535E+00 a        81     0     5     1     1
 -1.2228418456741698E+01 a        82     0     5     1     2
  1.9133877754157009E+01 a        83     0     5     1     3
 -1.3967818978057005E+01 a        84     0     5     1     4
  2.4138681685979702E+01 a        85     0     5     1     5
  1.2367527523276602E+00 a        86     0     5     1     6
  3.9407003290960430E+00 a        87     0     5     1     7
  1.1156839928528843E+01 a        88     0     5     1     8
 -4.7348469346590862E+00 a        89     0     5     1     9
  1.3258473769613772E+01 a        90     0     5     1    10
 -1.3348957856838970E+01 a        91     0     5     1    11
 -3.1277151627897708E+00 a        92     0     5     1    12
 -4.6568903504438737E+00 a        93     0     5     1    13
 -1.2684949261526635E+01 a        94     0     5     1    14
 -1.5527035101895055E+00 a        95     0     5     1    15
 -1.4878458786718811E+01 a        96     0     5     1    16
 -4.2465381207634767E+00 a        97     0     5     1    17
 -9.9063491022857331E-01 a        98     0     5     1    18
  9.7144565957677269E+00 a        99     0     5     1    19
 -2.9615566623975247E+00 a       100     0     5     1    20
  2.6240292506655085E+00 a       101     0     6     1     1
 -1.1109535821900066E-01 a       102     0     6     1     2
  2.4279760580407355E+00 a       103     0     6     1     3
 -4.3371262202902070E+00 a       104     0     6     1     4
 -6.4605383024642631E+00 a       105     0     6     1     5
 -3.3907978831991525E-01 a       106     0     6     1     6
 -3.2645989584599544E+00 a       107     0     6     1     7
 -4.4566562500000453E+00 a       108     0     6     1     8
 -2.9106370180739516E+00 a       109     0     6     1     9
 -8.7401944559452349E-01 a       110     0     6     1    10
 -3.3034089118241505E+00 a       111     0     6     1    11
 -5.6554786433770801E+00 a       112     0     6     1    12
 -4.4200180562523581E+00 a       113     0     6     1    13
  9.1472837993120404E+00 a       114     0     6     1    14
  4.8615753774336392E+00 a       115     0     6     1    15
 -2.0923949255184140E+00 a       116     0     6     1    16
 -3.4617391969318173E-01 a       117     0     6     1    17
  3.9137672479504793E+00 a       118     0     6     1    18
 -2.1694536720297033E+00 a       119     0     6     1    19
 -4.0027023966782878E+00 a       120     0     6     1    20
 -3.9642437330195008E+00 a       121     0     7     1     1
  7.9051213453265223E+00 a       122     0     7     1     2
 -8.1590344503090417E+00 a       123     0     7     1     3
  3.9904538176883975E+00 a       124     0     7     1     4
 -1.4236234326813705E+01 a       125     0     7     1     5
 -1.9996229389796782E+00 a       126     0     7     1     6
 -4.8855324018699289E+00 a       127     0     7     1     7
 -7.6579482945638464E+00 a       128     0     7     1     8
  6.5677315518599599E-01 a       129     0     7     1     9
 -4.7655865238445276E+00 a       130     0     7     1    10
  1.0033462020057433E+00 a       131     0     7     1    11
  2.4964470496071738E+00 a       132     0     7     1    12
 -1.2081177521419464E+00 a       133     0     7     1    13
  8.6642948700902866E-01 a       134     0     7     1    14
  4.4534388307965624E+00 a       135     0     7     1    15
  1.2648798230447197E+01 a       136     0     7     1    16
  1.9437710920486302E+00 a       137     0     7     1    17
 -5.5268777562694205E-01 a       138     0     7     1    18
 -2.2254318181529245E+00 a       139     0     7     1    19
 -1.7618782613745401E+00 a       140     0     7     1    20
 -3.4140806896457669E+00 a       141     0     8     1     1
  2.7403898544583751E+00 a       142     0     8     1     2
 -4.6553306472492390E-01 a       143     0     8     1     3
  4.5885893604907618E-01 a       144     0     8     1     4
 -5.4373858310312106E-01 a       145     0     8     1     5
 -1.5763997913318253E+00 a       146     0     8     1     6
  1.5988059867627971E+00 a       147     0     8     1     7
  1.7932793020998339E+00 a       148     0     8     1     8
 -2.4031442775334250E-01 a       149     0     8     1     9
  1.4430244368725983E-01 a       150     0     8     1    10
  1.7183484837744220E-02 a       151     0     8     1    11
  3.8624738384779000E+00 a       152     0     8     1    12
 -4.0955255835237496E+00 a       153     0     8     1    13
 -3.4143600648094354E+00 a       154     0     8     1    14
 -2.5057657583716662E+00 a       155     0     8     1    15
  6.2802673965864031E-01 a       156     0     8     1    16
 -4.2536828615038358E+00 a       157     0     8     1    17
 -6.4170617953014446E+00 a       158     0     8     1    18
  6.8758308141334712E-01 a       159     0     8     1    19
  2.2130734015358411E+00 a       160     0     8     1    20
 -1.2984303502204420E-01 a       161     0     9     1     1
 -1.9194349270816534E+01 a       162     0     9     1     2
 -7.4526177655531729E+00 a       163     0     9     1     3
 -9.1428689538515791E+00 a       164     0     9     1     4
  1.5363057237433102E+01 a       165     0     9     1     5
 -9.0382449127907645E+00 a       166     0     9     1     6
 -2.2758667167514322E+00 a       167     0     9     1     7
  9.3812582786335703E+00 a       168     0     9     1     8
 -3.4364775419552904E+00 a       169     0     9     1     9
  7.4390111604503089E+00 a       170     0     9     1    10
 -1.0785048357404925E+01 a       171     0     9     1    11
  9.3761151163291281E+00 a       172     0     9     1    12
 -8.0513961045847326E-01 a       173     0     9     1    13
 -3.1863826582269819E+00 a       174     0     9     1    14
  1.0735188308591095E+01 a       175     0     9     1    15
  7.4508893208885754E+00 a       176     0     9     1    16
 -1.8333635982298890E+01 a       177     0     9     1    17
 -1.0776626460878316E+00 a       178     0     9     1    18
  2.5648026325960206E+01 a       179     0     9     1    19
  2.0398647335342947E+01 a       180     0     9     1    20
 -4.6311386461955291E+00 a       181     0    10     1     1
 -3.3450651245702399E+00 a       182     0    10     1     2
 -8.5906898467897257E+00 a       183     0    10     1     3
 -1.2107717127232831E+00 a       184     0    10     1     4
 -2.0697448678782870E+00 a       185     0    10     1     5
  3.0279033097710917E+00 a       186     0    10     1     6
 -9.1267320827390854E+00 a       187     0    10     1     7
 -3.5016151043178145E+00 a       188     0    10     1     8
 -1.1540971159505298E+00 a       189     0    10     1     9
 -6.6794970197221630E+00 a       190     0    10     1    10
 -1.1780463859016432E+01 a       191     0    10     1    11
 -1.9386068136076604E+00 a       192     0    10     1    12
 -1.3816620580616640E+01 a       193     0    10     1    13
  3.8253147256323738E+00 a       194     0    10     1    14
  3.1926619006966166E+00 a       195     0    10     1    15
  8.0928379807106465E-01 a       196     0    10     1    16
 -6.8797946189254198E+00 a       197     0    10     1    17
 -3.8270891494423291E+00 a       198     0    10     1    18
  2.6367089147826763E+00 a       199     0    10     1    19
 -5.0261175567061569E+00 a       200     0    10     1    20
 -7.7988140994629367E+00 a       201     0    11     1     1
  1.9666182746194757E+01 a       202     0    11     1     2
  1.4039139904762823E+01 a       203     0    11     1     3
 -4.2996177054245655E+00 a       204     0    11     1     4
 -1.5997148014305921E+01 a       205     0    11     1     5
 -6.5436227570778041E+00 a       206     0    11     1     6
 -3.3957660625394528E+00 a       207     0    11     1     7
 -2.6928217506637857E+00 a       208     0    11     1     8
 -1.2421466936285503E+01 a       209     0    11     1     9
  9.4436836072498059E-02 a       210     0    11     1    10
 -1.2578319424559902E+01 a       211     0    11     1    11
 -5.7712906170881144E+00 a       212     0    11     1    12
 -1.0944403682298784E+01 a       213     0    11     1    13
 -1.9026641728368844E+01 a       214     0    11     1    14
  1.6653155679166847E+01 a       215     0    11     1    15
  7.6112487760511298E+00 a       216     0    11     1    16
  1.8190955684580956E+01 a       217     0    11     1    17
 -3.6353871759535267E+01 a       218     0    11     1    18
 -1.5489336861479821E+01 a       219     0    11     1    19
 -2.5683534082343193E+01 a       220     0    11     1    20
 -5.0654336556649247E+00 a       221     0    12     1     1
  1.2714796791018102E+01 a       222     0    12     1     2
 -1.0026382568041841E+00 a       223     0    12     1     3
  3.4331884225556615E+00 a       224     0    12     1     4
 -3.5656306631375170E+00 a       225     0    12     1     5
  3.2988480212238773E+00 a       226     0    12     1     6
 -5.4276711955362780E+00 a       227     0    12     1     7
 -6.4840798233819390E+00 a       228     0    12     1     8
 -7.0360347703110948E+00 a       229     0    12     1     9
  2.5202688026629776E+00 a       230     0    12     1    10
 -1.6663482957200553E+00 a       231     0    12     1    11
  1.2816304043820164E+00 a       232     0    12     1    12
 -5.9399120331382003E+00 a       233     0    12     1    13
  1.3853131562823511E+00 a       234     0    12     1    14
  1.5137950473749855E+00 a       235     0    12     1    15
 -1.0646921364381787E+00 a       236     0    12     1    16
 -1.1930515744496843E+01 a       237     0    12     1    17
 -2.3585021185746964E+01 a       238     0    12     1    18
 -9.3038589822855560E+00 a       239     0    12     1    19
 -1.5186040027419947E+00 a       240     0    12     1    20
 -3.0116095182852303E+00 a       241     0    13     1     1
  3.5537513948496091E+01 a       242     0    13     1     2
 -1.8023116428411154E+01 a       243     0    13     1     3
  2.1435393800723840E+01 a       244     0    13     1     4
 -1.9964233712292280E+01 a       245     0    13     1     5
  3.9340914292454615E-01 a       246     0    13     1     6
 -6.8890967147912301E+00 a       247     0    13     1     7
 -2.3743667513718382E+01 a       248     0    13     1     8
  1.2896259240174388E+01 a       249     0    13     1     9
 -1.4264862605150082E+01 a       250     0    13     1    10
  3.0754742336775191E+01 a       251     0    13     1    11
  1.5461039950245944E+01 a       252     0    13     1    12
  6.4885531690573091E+00 a       253     0    13     1    13
  1.9355639098255434E+01 a       254     0    13     1    14
 -8.1480297615149340E+00 a       255     0    13     1    15
  2.3929706801795469E+01 a       256     0    13     1    16
  1.1333405577051453E+01 a       257     0    13     1    17
 -5.3033313401654016E+00 a       258     0    13     1    18
 -2.2201704482930868E+01 a       259     0    13     1    19
  1.0719683357118450E+00 a       260     0    13     1    20
 -5.0145491171269374E-01 a       261     0    14     1     1
  1.5255220244256645E-01 a       262     0    14     1     2
  7.1402962585112082E+00 a       263     0    14     1     3
  2.6860166747313752E-01 a       264     0    14     1     4
  2.9171844415445869E-01 a       265     0    14     1     5
 -5.9858748520511593E+00 a       266     0    14     1     6
  1.4807933978915166E+01 a       267     0    14     1     7
  6.8720166613641904E+00 a       268     0    14     1     8
  3.1928837992352341E+00 a       269     0    14     1     9
  3.9938649235069437E+00 a       270     0    14     1    10
  8.2346086758180306E+00 a       271     0    14     1    11
  9.7616322600775760E+00 a       272     0    14     1    12
  4.2849280905621887E+00 a       273     0    14     1    13
 -7.4570558666061073E+00 a       274     0    14     1    14
 -6.9779433619772924E+00 a       275     0    14     1    15
  1.9400584999761705E+00 a       276     0    14     1    16
  5.5824984901507575E+00 a       277     0    14     1    17
  2.3164109078507753E+00 a       278     0    14     1    18
  3.4792895557188936E+00 a       279     0    14     1    19
  5.2629741088476223E+00 a       280     0    14     1    20
  4.3641732507613415E+00 a       281     0    15     1     1
 -1.1601143586909339E+01 a       282     0    15     1     2
 -7.3992427363378885E+00 a       283     0    15     1     3
  4.5623408566675572E+00 a       284     0    15     1     4
  8.7062497810013539E+00 a       285     0    15     1     5
  4.4475585255534797E+00 a       286     0    15     1     6
  2.8437474861642462E+00 a       287     0    15     1     7
  2.8267081449148583E+00 a       288     0    15     1     8
  5.8012652784912158E+00 a       289     0    15     1     9
  7.5767034416788573E-02 a       290     0    15     1    10
  6.0623903272823423E+00 a       291     0    15     1    11
  4.2649976648762786E+00 a       292     0    15     1    12
  6.6134502413384997E+00 a       293     0    15     1    13
  1.1402459426279282E+01 a       294     0    15     1    14
 -1.0495132028616693E+01 a       295     0    15     1    15
 -6.5192278127404641E+00 a       296     0    15     1    16
 -8.8489673910878182E+00 a       297     0    15     1    17
  2.0051160037886689E+01 a       298     0    15     1    18
  9.9725432163090719E+00 a       299     0    15     1    19
  1.4823220297003280E+01 a       300     0    15     1    20
  2.1791867190537904E+00 a       301     0    16     1     1
 -3.6598219246181749E+00 a       302     0    16     1     2
  3.3932304935825131E-01 a       303     0    16     1     3
 -7.5855123087523857E-01 a       304     0    16     1     4
  7.4134394916395585E-01 a       305     0    16     1     5
 -1.2834133143798052E+00 a       306     0    16     1     6
  1.7167749294695427E+00 a       307     0    16     1     7
  1.2709018605856335E+00 a       308     0    16     1     8
  1.5156213138330172E+00 a       309     0    16     1     9
 -1.7421700328937078E+00 a       310     0    16     1    10
  1.2676464959858152E-01 a       311     0    16     1    11
 -1.9263329184636735E+00 a       312     0    16     1    12
  1.2234303439835353E-01 a       313     0    16     1    13
  1.1602622354411136E+00 a       314     0    16     1    14
 -8.6410100797950784E-01 a       315     0    16     1    15
  1.8573134314114592E-01 a       316     0    16     1    16
  2.9506785438157772E+00 a       317     0    16     1    17
  7.1792425180042159E+00 a       318     0    16     1    18
  2.7716489920505465E+00 a       319     0    16     1    19
  3.9163820508680763E-01 a       320     0    16     1    20
  1.0223653829922723E+01 a       321     0    17     1     1
 -2.6149545144519781E+01 a       322     0    17     1     2
  7.7870747242849374E+00 a       323     0    17     1     3
 -1.5455629415716949E+01 a       324     0    17     1     4
  5.9120109948337403E+00 a       325     0    17     1     5
  1.3233691601727344E+01 a       326     0    17     1     6
  8.4529792010185130E+00 a       327     0    17     1     7
  1.0929694185521448E+01 a       328     0    17     1     8
  1.9726146876842978E+00 a       329     0    17     1     9
  5.7940922092860481E+00 a       330     0    17     1    10
 -7.5808056052177797E+00 a       331     0    17     1    11
 -1.6928190892582847E+01 a       332     0    17     1    12
  9.8630469078033052E+00 a       333     0    17     1    13
  1.5070529778727282E+00 a       334     0    17     1    14
 -4.5949022513041786E+00 a       335     0    17     1    15
 -2.6233897661388927E+01 a       336     0    17     1    16
 -5.8799766879890765E+00 a       337     0    17     1    17
  2.0976445383720659E+01 a       338     0    17     1    18
  6.7008839901068198E+00 a       339     0    17     1    19
 -7.1021068174704505E-01 a       340     0    17     1    20
  4.1197672176365714E+00 a       341     0    18     1     1
 -8.9864965915087716E+00 a       342     0    18     1     2
 -4.2768902941539917E+00 a       343     0    18     1     3
 -2.9947380582223690E+00 a       344     0    18     1     4
  1.5325804972663852E+00 a       345     0    18     1     5
  2.1333512520477074E-02 a       346     0    18     1     6
 -5.8979897048455650E+00 a       347     0    18     1     7
 -2.5152518672601278E+00 a       348     0    18     1     8
  2.2559133639615521E+00 a       349     0    18     1     9
  2.1437693026806484E+00 a       350     0    18     1    10
 -6.6416019998639109E-01 a       351     0    18     1    11
 -8.8022509587305837E+00 a       352     0    18     1    12
  5.8309511178077491E+00 a       353     0    18     1    13
  3.1189724551999700E+00 a       354     0    18     1    14
  3.1848635706326265E+00 a       355     0    18     1    15
 -8.7172855646561753E-01 a       356     0    18     1    16
  6.7914545423183750E+00 a       357     0    18     1    17
  1.5993371631116881E+01 a       358     0    18     1    18
  2.5237828749171367E+00 a       359     0    18     1    19
 -8.8935916747971566E-01 a       360     0    18     1    20
 -4.8030974131404385E+00 a       361     0    19     1     1
  2.6506483149284614E+00 a       362     0    19     1     2
 -3.2623234681919966E+00 a       363     0    19     1     3
  9.0167573364393192E+00 a       364     0    19     1     4
  1.7990020191399139E+00 a       365     0    19     1     5
 -4.5061526070577846E+00 a       366     0    19     1     6
 -2.0370617340612021E+00 a       367     0    19     1     7
  1.0024293269975402E+01 a       368     0    19     1     8
 -6.9010506500956810E+00 a       369     0    19     1     9
 -7.7622359541404340E-01 a       370     0    19     1    10
  1.8132350600212364E+00 a       371     0    19     1    11
  9.2589434334069320E+00 a       372     0    19     1    12
 -6.9338914743930697E+00 a       373     0    19     1    13
  5.2214504344099621E+00 a       374     0    19     1    14
 -2.8222512507596562E+00 a       375     0    19     1    15
  9.1220063790321042E+00 a       376     0    19     1    16
 -8.4542266348571804E+00 a       377     0    19     1    17
 -4.1900253555540679E-01 a       378     0    19     1    18
  7.9109219884192825E+00 a       379     0    19     1    19
  1.0862445286455344E+01 a       380     0    19     1    20
  2.5593442794929405E-01 a       381     0    20     1     1
 -1.8694774411151767E+00 a       382     0    20     1     2
  1.8788601627674277E+00 a       383     0    20     1     3
  4.2402903080786192E-01 a       384     0    20     1     4
  4.9053867508673310E-01 a       385     0    20     1     5
 -9.8518890002729553E-01 a       386     0    20     1     6
  4.9102610653370053E+00 a       387     0    20     1     7
  3.6783119688252572E+00 a       388     0    20     1     8
  9.7797515388722200E-01 a       389     0    20     1     9
 -4.2192024257196836E+00 a       390     0    20     1    10
  2.1768462362074861E-01 a       391     0    20     1    11
  3.4307046909884993E+00 a       392     0    20     1    12
  2.6967379725390839E-01 a       393     0    20     1    13
 -8.8879703642494645E-01 a       394     0    20     1    14
 -1.6980313590451188E+00 a       395     0    20     1    15
 -9.3373811321677842E-03 a       396     0    20     1    16
  1.5816252579157044E+00 a       397     0    20     1    17
  2.7831604180940084E+00 a       398     0    20     1    18
  1.4587556655385101E+00 a       399     0    20     1    19
  6.6057077204594028E-02 a       400     0    20     1    20
 -1.3583577726520907E-01 a       401     0    21     1     1
 -2.9821020371176914E+00 a       402     0    21     1     2
 -2.2742345065690964E-01 a       403     0    21     1     3
 -4.9910655219743925E+00 a       404     0    21     1     4
  4.0408063059508997E-01 a       405     0    21     1     5
  1.2503533762476177E-01 a       406     0    21     1     6
  1.7086073372685975E+00 a       407     0    21     1     7
 -5.1992202643282921E+00 a       408     0    21     1     8
  4.4152071359462166E+00 a       409     0    21     1     9
  1.2768760878079046E+00 a       410     0    21     1    10
  1.3717358011802190E+00 a       411     0    21     1    11
 -9.0003102641936683E-01 a       412     0    21     1    12
  4.4972135222601857E+00 a       413     0    21     1    13
 -2.3489068769555743E+00 a       414     0    21     1    14
  9.5599234121910137E-01 a       415     0    21     1    15
 -5.2998637131617334E+00 a       416     0    21     1    16
  2.1270355582222358E+00 a       417     0    21     1    17
  1.4980985616083846E+00 a       418     0    21     1    18
 -3.3813382008701360E+00 a       419     0    21     1    19
 -3.0470062630634569E+00 a       420     0    21     1    20
 -5.0852680956324148E-01 a       421     0    22     1     1
  1.1127753336554945E-01 a       422     0    22     1     2
 -7.0362130176379323E-01 a       423     0    22     1     3
 -1.7029084496862973E-01 a       424     0    22     1     4
  5.4332478701758269E-01 a       425     0    22     1     5
  4.0807452036131386E-01 a       426     0    22     1     6
 -1.9436148215887146E+00 a       427     0    22     1     7
 -6.5826728664228640E-01 a       428     0    22     1     8
  5.1532856755589995E-01 a       429     0    22     1     9
  2.3602632232785927E+00 a       430     0    22     1    10
  3.1308749501378402E-01 a       431     0    22     1    11
 -6.1512136228575864E-01 a       432     0    22     1    12
  1.8408434660580348E+00 a       433     0    22     1    13
 -1.3781134014033505E+00 a       434     0    22     1    14
  6.4194866373504900E-01 a       435     0    22     1    15
 -1.4665876719417054E-01 a       436     0    22     1    16
  5.8936698039339486E-01 a       437     0    22     1    17
  1.8291446291356592E-01 a       438     0    22     1    18
  2.6592897909819710E-02 a       439     0    22     1    19
  8.4629701777993699E-02 a       440     0    22     1    20
  5.8520123234803334E+00 a       441     0    23     1     1
 -1.5288301153083140E+01 a       442     0    23     1     2
 -2.3495283970317473E+01 a       443     0    23     1     3
 -4.9730945801693849E-01 a       444     0    23     1     4
 -2.5585093462085595E+01 a       445     0    23     1     5
 -9.0159636452011913E+00 a       446     0    23     1     6
 -1.2414631267500491E+01 a       447     0    23     1     7
  1.5216006827017555E+01 a       448     0    23     1     8
 -4.4035610298615033E+00 a       449     0    23     1     9
 -1.8108956760801338E+01 a       450     0    23     1    10
  2.2952032259536931E+01 a       451     0    23     1    11
 -1.1362699994343419E+01 a       452     0    23     1    12
 -1.8174264966503209E+01 a       453     0    23     1    13
 -3.4079449230393171E+00 a       454     0    23     1    14
 -1.1808021408915168E+01 a       455     0    23     1    15
  3.0379536397876792E+00 a       456     0    23     1    16
 -1.5098517728204477E+01 a       457     0    23     1    17
  8.9428589027981236E+00 a       458     0    23     1    18
  4.1087499827849477E+01 a       459     0    23     1    19
  4.7576754396943803E+00 a       460     0    23     1    20
 -2.6600465860441247E+00 a       461     0    24     1     1
 -9.1359156564989732E+00 a       462     0    24     1     2
 -8.5852670661476704E+00 a       463     0    24     1     3
  1.3011947868780089E+00 a       464     0    24     1     4
  9.9199073304076908E+00 a       465     0    24     1     5
 -5.9125515121800607E+00 a       466     0    24     1     6
  5.2538506362681456E+00 a       467     0    24     1     7
  1.5736085535466262E+00 a       468     0    24     1     8
 -2.9540321818560007E+00 a       469     0    24     1     9
 -1.5781828731115992E+00 a       470     0    24     1    10
 -2.0151848019805724E-01 a       471     0    24     1    11
 -4.4525695210784981E+00 a       472     0    24     1    12
  2.0109265910946217E+00 a       473     0    24     1    13
  2.9365172987724781E+00 a       474     0    24     1    14
 -1.0318843296269048E+01 a       475     0    24     1    15
 -2.2420793338076237E+00 a       476     0    24     1    16
  1.4484467850258630E+01 a       477     0    24     1    17
 -9.3140259974131689E-01 a       478     0    24     1    18
  1.2706469619862034E+01 a       479     0    24     1    19
  3.9914677385991699E+00 a       480     0    24     1    20
 -1.7225015534240349E+00 a       481     0    25     1     1
  1.5261151874823884E+00 a       482     0    25     1     2
  4.2206729874395027E-01 a       483     0    25     1     3
 -2.3163150050661185E+00 a       484     0    25     1     4
  3.3879497447926492E+00 a       485     0    25     1     5
  1.5122483530885390E+01 a       486     0    25     1     6
 -1.8168888712306508E+01 a       487     0    25     1     7
  6.7666755012626325E+00 a       488     0    25     1     8
  2.7973546887840812E+00 a       489     0    25     1     9
  4.4977228127680693E+00 a       490     0    25     1    10
  1.2412996563489131E+00 a       491     0    25     1    11
 -1.3010767039998090E+01 a       492     0    25     1    12
  1.1898709035159706E+01 a       493     0    25     1    13
  1.9698647282434389E+00 a       494     0    25     1    14
 -1.2596966775518637E+00 a       495     0    25     1    15
 -6.1577161967354410E-01 a       496     0    25     1    16
 -1.6597924706975307E+00 a       497     0    25     1    17
  1.8129858516410322E+00 a       498     0    25     1    18
 -4.0755553955937804E+00 a       499     0    25     1    19
  5.3994655330097041E+00 a       500     0    25     1    20
  4.0267124719212424E+00 a       501     0    26     1     1
 -1.8759138698628317E+00 a       502     0    26     1     2
  1.7168492547544915E+01 a       503     0    26     1     3
 -6.9115801825239593E+00 a       504     0    26     1     4
 -1.2551124664903961E+01 a       505     0    26     1     5
 -2.5921029870912660E-01 a       506     0    26     1     6
 -8.8912909637013904E+00 a       507     0    26     1     7
  1.1444368698263309E+01 a       508     0    26     1     8
 -3.7937324830319585E-01 a       509     0    26     1     9
 -1.7568550588334835E+00 a       510     0    26     1    10
  1.2987085210703951E+01 a       511     0    26     1    11
  2.1969258247453904E+00 a       512     0    26     1    12
 -7.3461121917600165E+00 a       513     0    26     1    13
 -3.4564755317387310E+00 a       514     0    26     1    14
  9.1460192749427200E+00 a       515     0    26     1    15
 -1.0347303744778484E+00 a       516     0    26     1    16
 -3.5982814280309645E+00 a       517     0    26     1    17
 -8.1362121526796578E+00 a       518     0    26     1    18
 -1.9231768549293207E+00 a       519     0    26     1    19
  3.1705708103763377E+00 a       520     0    26     1    20
  1.4540830220243124E+00 a       521     0    27     1     1
 -1.8897381740773489E-01 a       522     0    27     1     2
  5.2475374264582553E-01 a       523     0    27     1     3
  6.0156352688993497E-01 a       524     0    27     1     4
  9.2960106859588043E-01 a       525     0    27     1     5
 -3.3637622052296501E+00 a       526     0    27     1     6
  3.7754627886186518E+00 a       527     0    27     1     7
 -1.1864389528697399E+00 a       528     0    27     1     8
  2.0087609773489929E+00 a       529     0    27     1     9
  1.8941236406005080E-01 a       530     0    27     1    10
  3.7959690408411534E-01 a       531     0    27     1    11
  9.2412870088915389E-01 a       532     0    27     1    12
 -1.4569332935980863E+00 a       533     0    27     1    13
 -2.8164895255069577E+00 a       534     0    27     1    14
 -4.4089854509621098E+00 a       535     0    27     1    15
 -2.2258045004746472E+00 a       536     0    27     1    16
  8.7993257540401686E+00 a       537     0    27     1    17
  1.2060843238505141E+00 a       538     0    27     1    18
 -4.0124736404411827E+00 a       539     0    27     1    19
  5.0222071700904500E+00 a       540     0    27     1    20
  7.0689093378965084E-01 a       541     0    28     1     1
 -1.9749801648591809E+00 a       542     0    28     1     2
 -1.3643711026223587E-01 a       543     0    28     1     3
 -3.2251022353238823E+00 a       544     0    28     1     4
 -8.7619208793460324E-01 a       545     0    28     1     5
  2.1724870701970600E+00 a       546     0    28     1     6
 -1.0147906126715740E+00 a       547     0    28     1     7
  2.0335034778643046E+00 a       548     0    28     1     8
 -2.6724217842204974E+00 a       549     0    28     1     9
  4.8000773392174931E+00 a       550     0    28     1    10
  2.4482225657132268E+00 a       551     0    28     1    11
 -3.8597662231969904E-01 a       552     0    28     1    12
 -6.5967989902568580E-01 a       553     0    28     1    13
  1.1329531104843191E+01 a       554     0    28     1    14
 -2.3476304696808314E-01 a       555     0    28     1    15
 -3.1265877615900948E+00 a       556     0    28     1    16
  3.7484185215730488E+00 a       557     0    28     1    17
 -4.8871732994580164E+00 a       558     0    28     1    18
  1.9026860741605998E+00 a       559     0    28     1    19
 -2.1416688764234153E+00 a       560     0    28     1    20
  8.5550143218279313E+00 a       561     0    29     1     1
 -5.2160671766605726E-01 a       562     0    29     1     2
  3.9873898429382002E+01 a       563     0    29     1     3
  6.8124298248863981E+00 a       564     0    29     1     4
  5.9697801899442577E+00 a       565     0    29     1     5
  1.0096098490316814E+01 a       566     0    29     1     6
 -2.5183843307729195E+00 a       567     0    29     1     7
 -1.4822176328334784E+01 a       568     0    29     1     8
 -1.0962329474164658E+00 a       569     0    29     1     9
  1.1352885409103566E+01 a       570     0    29     1    10
  3.7773152198708887E-01 a       571     0    29     1    11
  1.7052605773234347E+01 a       572     0    29     1    12
  1.3605026575297234E+01 a       573     0    29     1    13
  2.6910407160172842E+00 a       574     0    29     1    14
  1.5438717627971245E+01 a       575     0    29     1    15
 -2.7922855484475765E+01 a       576     0    29     1    16
  5.0372187748245469E+00 a       577     0    29     1    17
 -2.3467522397189182E+01 a       578     0    29     1    18
 -4.6387586979496866E+01 a       579     0    29     1    19
  5.2360854602756191E-01 a       580     0    29     1    20
 -6.0540821105241394E-01 a       581     0    30     1     1
  1.0931242727956588E+01 a       582     0    30     1     2
 -1.1826711019710404E+01 a       583     0    30     1     3
  9.3986174066266752E+00 a       584     0    30     1     4
  6.4963247784945430E+00 a       585     0    30     1     5
  6.0209089065514458E+00 a       586     0    30     1     6
  9.7415138453196377E+00 a       587     0    30     1     7
 -4.9880746749461640E+00 a       588     0    30     1     8
 -3.0265122342233597E+00 a       589     0    30     1     9
  4.3938369287175174E+00 a       590     0    30     1    10
 -2.8649105013194229E+00 a       591     0    30     1    11
  4.2634519128619557E+00 a       592     0    30     1    12
  1.3628305188190238E+01 a       593     0    30     1    13
 -6.1263624490720829E+00 a       594     0    30     1    14
 -1.0843199449908891E+01 a       595     0    30     1    15
 -7.8168650662030288E+00 a       596     0    30     1    16
 -1.2161187060052287E+01 a       597     0    30     1    17
 -4.0365457539997509E+00 a       598     0    30     1    18
 -5.9411029961831261E+00 a       599     0    30     1    19
 -3.8301314617492248E+00 a       600     0    30     1    20
 -1.6638985873310745E+00 a       601     0    31     1     1
  1.8458964665454523E+00 a       602     0    31     1     2
 -2.5870085796311248E-01 a       603     0    31     1     3
  1.7621727833691450E+00 a       604     0    31     1     4
 -6.0946787107710563E+00 a       605     0    31     1     5
  4.4808071302085404E+00 a       606     0    31     1     6
  4.4370257730933966E+00 a       607     0    31     1     7
  2.5162958066982288E-01 a       608     0    31     1     8
  7.3854167434103457E-01 a       609     0    31     1     9
 -1.8494837297100852E-01 a       610     0    31     1    10
 -8.5852523589728236E-01 a       611     0    31     1    11
  6.7632428629313122E+00 a       612     0    31     1    12
  5.4544112800584965E-01 a       613     0    31     1    13
  1.6113246781202848E+00 a       614     0    31     1    14
 -2.8035143978688998E-01 a       615     0    31     1    15
 -2.2539504994394517E+00 a       616     0    31     1    16
  6.5452795641331303E+00 a       617     0    31     1    17
  1.3685264037105513E+00 a       618     0    31     1    18
  5.0524914360567930E-01 a       619     0    31     1    19
 -4.6753812552708567E+00 a       620     0    31     1    20
  5.1423904528431654E+00 a       621     0    32     1     1
  3.3153322258058151E+00 a       622     0    32     1     2
  4.3433620707557850E+01 a       623     0    32     1     3
 -4.7427624678760507E+00 a       624     0    32     1     4
 -1.4251608196693650E+00 a       625     0    32     1     5
  6.3291873216180594E+00 a       626     0    32     1     6
 -4.7814022156521414E+00 a       627     0    32     1     7
  1.8189954041345942E+00 a       628     0    32     1     8
  2.3576902762110374E+00 a       629     0    32     1     9
  1.0034895627740108E+01 a       630     0    32     1    10
  2.4445184308113492E+00 a       631     0    32     1    11
  1.3812952553893631E+01 a       632     0    32     1    12
  5.4673441540716423E+00 a       633     0    32     1    13
 -2.7302721974035786E+00 a       634     0    32     1    14
  2.0753609441749362E+01 a       635     0    32     1    15
 -1.1983860503676704E+01 a       636     0    32     1    16
  6.0574511528506481E+00 a       637     0    32     1    17
 -2.1017382956192055E+01 a       638     0    32     1    18
 -3.5853562724255099E+01 a       639     0    32     1    19
  1.4086288177022022E+00 a       640     0    32     1    20
  4.6903148948451179E+00 a       641     0    33     1     1
  1.1271722827634886E+01 a       642     0    33     1     2
  1.5758833499890252E+00 a       643     0    33     1     3
  4.1027925234575795E+00 a       644     0    33     1     4
 -4.2870380117798925E+00 a       645     0    33     1     5
  4.6234675055176561E-01 a       646     0    33     1     6
  4.9531741152007109E+00 a       647     0    33     1     7
 -6.3726658803776974E+00 a       648     0    33     1     8
  5.3498282468805831E+00 a       649     0    33     1     9
  2.7556333830527948E+00 a       650     0    33     1    10
 -1.2676339965729686E+00 a       651     0    33     1    11
  7.1264978817931679E+00 a       652     0    33     1    12
  2.1592614354320490E+00 a       653     0    33     1    13
 -6.3990467718862352E+00 a       654     0    33     1    14
 -2.2319683479702457E+00 a       655     0    33     1    15
 -4.9704836920345130E+00 a       656     0    33     1    16
 -8.3104190466194638E-01 a       657     0    33     1    17
 -1.2531055504200448E+00 a       658     0    33     1    18
 -1.6523877281777207E+01 a       659     0    33     1    19
  2.3590759795641936E+00 a       660     0    33     1    20
  6.4858199372920700E-01 a       661     0    34     1     1
 -1.3668819807814245E+00 a       662     0    34     1     2
 -4.4574584756367436E-01 a       663     0    34     1     3
 -2.2680749413726469E+00 a       664     0    34     1     4
 -2.3742929434293591E+00 a       665     0    34     1     5
 -1.9493561805332451E+00 a       666     0    34     1     6
  5.0092029354799292E+00 a       667     0    34     1     7
  6.8085832295781845E-01 a       668     0    34     1     8
 -4.2787048807734145E+00 a       669     0    34     1     9
  4.1910774606127390E+00 a       670     0    34     1    10
  2.8182613232655149E+00 a       671     0    34     1    11
  5.5877534636444004E+00 a       672     0    34     1    12
 -6.7365107083134612E+00 a       673     0    34     1    13
  1.5221081042840570E+01 a       674     0    34     1    14
 -9.8575423201462919E-01 a       675     0    34     1    15
 -4.4491912984231785E+00 a       676     0    34     1    16
  5.5565955665684603E+00 a       677     0    34     1    17
 -6.6823615030155850E+00 a       678     0    34     1    18
  3.5509864316184374E+00 a       679     0    34     1    19
 -3.2209890117650763E+00 a       680     0    34     1    20
  2.9498727375471114E+00 a       681     0    35     1     1
 -2.4174188863444748E+01 a       682     0    35     1     2
 -2.2156681132956944E+01 a       683     0    35     1     3
  3.8241297386071493E+00 a       684     0    35     1     4
  2.1450363365288300E+01 a       685     0    35     1     5
  1.3235864812124294E+01 a       686     0    35     1     6
 -1.0786483997616665E+01 a       687     0    35     1     7
 -4.3613795249688625E+00 a       688     0    35     1     8
  4.0917561116791079E+00 a       689     0    35     1     9
  1.6276599518040769E+01 a       690     0    35     1    10
 -5.3575108196806713E+00 a       691     0    35     1    11
  1.2378614144033753E+01 a       692     0    35     1    12
 -8.8765293071166980E+00 a       693     0    35     1    13
 -7.9623292503864587E+00 a       694     0    35     1    14
 -2.7332063384327885E+01 a       695     0    35     1    15
  7.6781742538653575E+00 a       696     0    35     1    16
  1.3803192557503118E+01 a       697     0    35     1    17
  2.5186995542147255E+01 a       698     0    35     1    18
 -3.1038923975127046E+00 a       699     0    35     1    19
 -7.1253828263422270E-01 a       700     0    35     1    20
 -1.3311273050331573E+01 a       701     0    36     1     1
 -3.7117815566079493E+00 a       702     0    36     1     2
  4.2490802225844941E+00 a       703     0    36     1     3
  7.4518506250662835E+00 a       704     0    36     1     4
 -1.5344196314273995E+01 a       705     0    36     1     5
 -5.7102384192897517E+00 a       706     0    36     1     6
  6.3078125596135655E+00 a       707     0    36     1     7
  5.7381780861338949E-01 a       708     0    36     1     8
 -3.7255818491317947E+00 a       709     0    36     1     9
  4.4285670078544997E-01 a       710     0    36     1    10
 -8.3152094636092944E+00 a       711     0    36     1    11
  3.6046622836981244E+00 a       712     0    36     1    12
 -1.0022896815987195E+01 a       713     0    36     1    13
  2.0670956045919397E+01 a       714     0    36     1    14
 -6.7674837566430623E-01 a       715     0    36     1    15
 -1.3962448267259908E+00 a       716     0    36     1    16
 -3.9658228278367500E+00 a       717     0    36     1    17
  4.0917315071657345E+00 a       718     0    36     1    18
 -1.9070246744071249E+00 a       719     0    36     1    19
 -2.9582036249860311E+00 a       720     0    36     1    20
 -1.6243807566862565E+00 a       721     0    37     1     1
 -1.2674243082207493E+00 a       722     0    37     1     2
 -9.8443382562287951E-01 a       723     0    37     1     3
 -1.2963752881814603E+00 a       724     0    37     1     4
 -3.4379741538434256E+00 a       725     0    37     1     5
 -8.9621912962953463E+00 a       726     0    37     1     6
  1.0704732632201419E+00 a       727     0    37     1     7
 -1.6441491142564348E+00 a       728     0    37     1     8
 -6.6050694030916048E+00 a       729     0    37     1     9
  1.4885075749879615E+00 a       730     0    37     1    10
  2.4860581909494988E+00 a       731     0    37     1    11
  5.2029689881101433E+00 a       732     0    37     1    12
 -3.9235465569204351E+00 a       733     0    37     1    13
  2.5940516973347485E+00 a       734     0    37     1    14
  9.6800852155240508E-02 a       735     0    37     1    15
  1.8932411222095014E+00 a       736     0    37     1    16
 -9.2365157218659366E+00 a       737     0    37     1    17
  6.5701579228277895E-01 a       738     0    37     1    18
 -5.6298292662764267E+00 a       739     0    37     1    19
  1.7058496358450161E+00 a       740     0    37     1    20
 -1.6353919486657240E-01 a       741     0    38     1     1
  2.4847972067594313E+00 a       742     0    38     1     2
 -2.1611404016766880E+01 a       743     0    38     1     3
 -9.5092217683624511E+00 a       744     0    38     1     4
  7.0494008592097035E-01 a       745     0    38     1     5
  2.0069278521196281E+01 a       746     0    38     1     6
 -1.9116602629763708E+01 a       747     0    38     1     7
  1.8203342600619546E+01 a       748     0    38     1     8
 -7.5213494780823540E+00 a       749     0    38     1     9
  1.3226972276785878E+01 a       750     0    38     1    10
 -9.4901735685624935E+00 a       751     0    38     1    11
  3.4770475802378948E+00 a       752     0    38     1    12
  2.7813052275377057E+01 a       753     0    38     1    13
  4.0158484281780877E+00 a       754     0    38     1    14
 -1.7962067215714015E+01 a       755     0    38     1    15
  1.3440419049754759E+01 a       756     0    38     1    16
 -1.4505554825840219E+01 a       757     0    38     1    17
  1.8284589257745253E+01 a       758     0    38     1    18
  4.2156913410099115E+01 a       759     0    38     1    19
  2.6094367251902606E-01 a       760     0    38     1    20
 -1.1230843015368224E+00 a       761     0    39     1     1
 -6.6725771805440086E+00 a       762     0    39     1     2
 -1.0182987564389516E+00 a       763     0    39     1     3
 -1.1136850537812599E+01 a       764     0    39     1     4
 -2.5834235024231212E+01 a       765     0    39     1     5
 -1.0427099536598032E+01 a       766     0    39     1     6
  4.0136077774386364E-01 a       767     0    39     1     7
 -2.2254436892877938E+00 a       768     0    39     1     8
 -5.1558956225766561E+00 a       769     0    39     1     9
  2.8163595050086664E-02 a       770     0    39     1    10
 -1.1923217941858038E+00 a       771     0    39     1    11
  5.7366913162634612E+00 a       772     0    39     1    12
 -1.4411851810570475E+01 a       773     0    39     1    13
  1.4590747653046252E+00 a       774     0    39     1    14
  1.9763379628492906E+01 a       775     0    39     1    15
 -2.2764716776216107E-01 a       776     0    39     1    16
 -1.0603703734308207E+01 a       777     0    39     1    17
 -6.5016669855543796E+00 a       778     0    39     1    18
  2.3367396426855198E+01 a       779     0    39     1    19
 -8.2253807456071879E+00 a       780     0    39     1    20
 -2.0875874034172117E+00 a       781     0    40     1     1
 -3.3911684761135699E+00 a       782     0    40     1     2
 -1.1475379543871544E+00 a       783     0    40     1     3
 -7.1106796627640039E+00 a       784     0    40     1     4
 -1.1178206257755097E+01 a       785     0    40     1     5
 -7.3532407563937907E+00 a       786     0    40     1     6
 -4.2904221927105439E+00 a       787     0    40     1     7
 -7.3813346367825650E-01 a       788     0    40     1     8
 -6.5611595963882978E+00 a       789     0    40     1     9
  4.2548121398476875E+00 a       790     0    40     1    10
 -7.8499406990592142E+00 a       791     0    40     1    11
  5.9110170343841446E+00 a       792     0    40     1    12
 -2.1213512306068075E+01 a       793     0    40     1    13
  1.9178007936463530E+01 a       794     0    40     1    14
  5.6724878215207362E+00 a       795     0    40     1    15
  4.6099724061810647E+00 a       796     0    40     1    16
 -1.5805757706321041E+01 a       797     0    40     1    17
  3.3345987226624838E+00 a       798     0    40     1    18
 -2.0600091957230142E+00 a       799     0    40     1    19
 -1.7306799995290407E+00 a       800     0    40     1    20
 -7.2749608563315435E+00 a       801     0    41     1     1
  1.4502134718308939E+01 a       802     0    41     1     2
 -3.0529368287114099E+01 a       803     0    41     1     3
  4.8113569960545127E-01 a       804     0    41     1     4
  2.6226763075396491E+01 a       805     0    41     1     5
  5.5865066191078299E+00 a       806     0    41     1     6
  1.1751607501848584E+01 a       807     0    41     1     7
 -3.4420034509571686E+00 a       808     0    41     1     8
  1.4033131428954913E+00 a       809     0    41     1     9
  9.7161798748434460E+00 a       810     0    41     1    10
 -1.7713845722806116E+01 a       811     0    41     1    11
  1.3963728479089327E-01 a       812     0    41     1    12
  1.7672856832332432E+01 a       813     0    41     1    13
  4.4317946489192108E+00 a       814     0    41     1    14
 -4.9002146735919361E+00 a       815     0    41     1    15
  2.3161376790423361E+01 a       816     0    41     1    16
 -4.3468494879845396E+00 a       817     0    41     1    17
  1.6258597898161202E+01 a       818     0    41     1    18
  1.7785986454026137E+01 a       819     0    41     1    19
 -1.0520655313726941E+01 a       820     0    41     1    20
  6.4332755071949455E-01 a       821     0    42     1     1
 -3.9431629151297201E+00 a       822     0    42     1     2
  1.9601640383708997E+01 a       823     0    42     1     3
 -1.1103036976609182E+01 a       824     0    42     1     4
 -1.6947517913563299E+01 a       825     0    42     1     5
  2.8189993004903129E+00 a       826     0    42     1     6
 -1.3849223570947641E+01 a       827     0    42     1     7
  2.3138547642115372E+00 a       828     0    42     1     8
  6.0996440261092317E+00 a       829     0    42     1     9
 -4.0224436173415139E+00 a       830     0    42     1    10
  3.6385358740167661E+00 a       831     0    42     1    11
  9.5021092725480738E-01 a       832     0    42     1    12
 -1.1721798733906176E+01 a       833     0    42     1    13
  2.1446764341189875E+00 a       834     0    42     1    14
  2.5562959850583788E+01 a       835     0    42     1    15
  1.0257256413422452E+01 a       836     0    42     1    16
  1.5064983152816489E+00 a       837     0    42     1    17
  6.1093460387346630E+00 a       838     0    42     1    18
 -9.6934527332737641E+00 a       839     0    42     1    19
 -2.8827673445045243E+00 a       840     0    42     1    20
  7.9643217547626521E-01 a       841     0    43     1     1
 -4.1643680273619115E+00 a       842     0    43     1     2
 -3.3848866040817577E-01 a       843     0    43     1     3
 -8.5294430163962442E-01 a       844     0    43     1     4
  4.6641881863314811E+00 a       845     0    43     1     5
 -1.5502598223309027E+01 a       846     0    43     1     6
  7.9906282199535443E+00 a       847     0    43     1     7
 -5.5902877365923080E+00 a       848     0    43     1     8
 -5.2051072440655446E+00 a       849     0    43     1     9
 -5.8950356931557586E+00 a       850     0    43     1    10
 -1.6414524690499841E+00 a       851     0    43     1    11
  2.4559867386668679E+00 a       852     0    43     1    12
 -1.0349251793598935E+01 a       853     0    43     1    13
 -1.9995340760555762E+00 a       854     0    43     1    14
  4.8512949620344674E+00 a       855     0    43     1    15
  5.2928299061536324E+00 a       856     0    43     1    16
 -7.5429315177730816E+00 a       857     0    43     1    17
 -4.5277819947686160E+00 a       858     0    43     1    18
  3.9721205165217066E+00 a       859     0    43     1    19
  3.9769450702820102E+00 a       860     0    43     1    20
 -1.2569154029083723E+01 a       861     0    44     1     1
  3.0005790804201213E+00 a       862     0    44     1     2
  5.7197540310422541E+00 a       863     0    44     1     3
  1.3077962545372078E+01 a       864     0    44     1     4
  4.8655462265920084E+00 a       865     0    44     1     5
 -1.4635911938710075E+01 a       866     0    44     1     6
  1.4966864322091853E+01 a       867     0    44     1     7
 -1.7112778656791850E+01 a       868     0    44     1     8
  1.1477293824550895E+01 a       869     0    44     1     9
 -1.2668665825412369E+01 a       870     0    44     1    10
 -1.8033022487034103E+01 a       871     0    44     1    11
 -1.9399221876517647E+01 a       872     0    44     1    12
 -3.0643028181246180E+01 a       873     0    44     1    13
 -2.4295710499750891E+00 a       874     0    44     1    14
 -1.4615213583662475E+01 a       875     0    44     1    15
 -1.1180413342147107E+01 a       876     0    44     1    16
  3.0835643460808932E+01 a       877     0    44     1    17
  5.5952775950143714E+00 a       878     0    44     1    18
 -3.5147144077543182E+01 a       879     0    44     1    19
  3.4012084147935466E+00 a       880     0    44     1    20
  2.1716832220891069E+00 a       881     0    45     1     1
  1.1309797126623538E+00 a       882     0    45     1     2
 -9.5768902752609719E+00 a       883     0    45     1     3
  7.5112410159744813E+00 a       884     0    45     1     4
  1.3687975683314999E+01 a       885     0    45     1     5
  7.9269123261873347E+00 a       886     0    45     1     6
 -8.6116156820593162E+00 a       887     0    45     1     7
  4.8629332749609180E+00 a       888     0    45     1     8
 -6.8079357129821112E+00 a       889     0    45     1     9
  6.0026393820276702E+00 a       890     0    45     1    10
  5.3623189279938865E-01 a       891     0    45     1    11
 -4.3964594364213667E+00 a       892     0    45     1    12
  7.6320949756080685E+00 a       893     0    45     1    13
  6.7461128514383475E+00 a       894     0    45     1    14
 -6.0189956090926753E+00 a       895     0    45     1    15
  1.9254826802139997E+00 a       896     0    45     1    16
 -1.5891760015704612E+01 a       897     0    45     1    17
 -3.5959028325413516E+00 a       898     0    45     1    18
  1.5336390330084765E+01 a       899     0    45     1    19
 -3.7984897988937498E+00 a       900     0    45     1    20
  1.2248023132920007E+00 a       901     0    46     1     1
  4.3604192301499358E+00 a       902     0    46     1     2
  6.1902540062643396E-01 a       903     0    46     1     3
  5.8870380737024499E+00 a       904     0    46     1     4
  4.0808254993051252E+00 a       905     0    46     1     5
 -6.8698525451196524E-01 a       906     0    46     1     6
  5.0662459516682379E+00 a       907     0    46     1     7
 -3.9824756698783093E+00 a       908     0    46     1     8
  9.5567572816893236E+00 a       909     0    46     1     9
 -5.1586231176368527E+00 a       910     0    46     1    10
  4.1766860070768193E+00 a       911     0    46     1    11
  8.8945100891524120E+00 a       912     0    46     1    12
  1.2382462675775557E+01 a       913     0    46     1    13
 -2.1861333404041744E+01 a       914     0    46     1    14
 -7.0964636790662166E+00 a       915     0    46     1    15
 -1.4603219193818797E+00 a       916     0    46     1    16
  8.1406856209567948E+00 a       917     0    46     1    17
  1.1468015041622449E+01 a       918     0    46     1    18
 -5.0763247527198638E+00 a       919     0    46     1    19
 -2.9127210412201654E+00 a       920     0    46     1    20
 -1.8960756220093025E+00 a       921     0    47     1     1
  2.3454116639106768E+01 a       922     0    47     1     2
  1.7819053671098018E+01 a       923     0    47     1     3
 -1.0087025398397701E+01 a       924     0    47     1     4
 -2.8107233359681882E+01 a       925     0    47     1     5
 -1.9332341221690552E+01 a       926     0    47     1     6
  7.1429938405275326E+00 a       927     0    47     1     7
  1.0616035536216840E+01 a       928     0    47     1     8
 -1.5714161144164682E+00 a       929     0    47     1     9
 -2.2158051606097327E+01 a       930     0    47     1    10
  3.2695864317678751E+00 a       931     0    47     1    11
 -1.8762034866015380E+01 a       932     0    47     1    12
 -2.8846166655007976E-01 a       933     0    47     1    13
  7.5121465716143838E+00 a       934     0    47     1    14
  2.5466312142472216E+01 a       935     0    47     1    15
  2.6592444428554041E-01 a       936     0    47     1    16
 -9.5073877782088836E+00 a       937     0    47     1    17
 -2.0770453519742006E+01 a       938     0    47     1    18
  1.3277156132080089E+01 a       939     0    47     1    19
  8.8695537517629186E-01 a       940     0    47     1    20
  1.7201656205178399E+01 a       941     0    48     1     1
  1.9449408938023487E+00 a       942     0    48     1     2
 -1.1751998640387662E+00 a       943     0    48     1     3
 -9.8234906570547498E+00 a       944     0    48     1     4
  1.3358717617128670E+01 a       945     0    48     1     5
  2.3065491719507594E+00 a       946     0    48     1     6
 -7.3186243217147053E+00 a       947     0    48     1     7
  1.3059468146142348E+00 a       948     0    48     1     8
  4.7829587484587543E+00 a       949     0    48     1     9
 -7.4613199507668726E-01 a       950     0    48     1    10
  7.8193240249945495E+00 a       951     0    48     1    11
 -4.6911324878690506E+00 a       952     0    48     1    12
  4.2394860564940169E+00 a       953     0    48     1    13
 -1.6065957080105523E+01 a       954     0    48     1    14
  2.2867319862985793E+00 a       955     0    48     1    15
  3.2299048589357460E+00 a       956     0    48     1    16
  5.6301876727295372E+00 a       957     0    48     1    17
 -3.4241849792894201E+00 a       958     0    48     1    18
  4.6372499315866929E+00 a       959     0    48     1    19
  3.7316965212004005E+00 a       960     0    48     1    20
  2.5039396124509397E+00 a       961     0    49     1     1
  1.1305759326019136E+00 a       962     0    49     1     2
  6.3463269604912020E-01 a       963     0    49     1     3
  7.6917680645347064E-01 a       964     0    49     1     4
  4.4520099564157940E+00 a       965     0    49     1     5
  5.2849420849426023E+00 a       966     0    49     1     6
 -1.1869771157669353E+00 a       967     0    49     1     7
  4.0180039844882126E-01 a       968     0    49     1     8
  6.4219883195909917E+00 a       969     0    49     1     9
 -2.0352537688890004E+00 a       970     0    49     1    10
 -2.0061694921334317E+00 a       971     0    49     1    11
 -6.2361229519566974E+00 a       972     0    49     1    12
  3.3741904836986047E+00 a       973     0    49     1    13
 -2.4977839759685816E+00 a       974     0    49     1    14
 -8.0603018095385104E-01 a       975     0    49     1    15
 -1.9970874076893319E+00 a       976     0    49     1    16
  7.3978562046302079E+00 a       977     0    49     1    17
 -1.0153767905548714E+00 a       978     0    49     1    18
  5.4253284228373646E+00 a       979     0    49     1    19
 -1.1769343969724326E+00 a       980     0    49     1    20
 -6.4265254605748723E+00 a       981     0    50     1     1
 -3.7235280247445988E+00 a       982     0    50     1     2
 -2.7142289981923202E+01 a       983     0    50     1     3
  1.1719794697141619E+01 a       984     0    50     1     4
  4.1311723176290585E+00 a       985     0    50     1     5
 -1.4456820886196962E+01 a       986     0    50     1     6
  1.2323367475783870E+01 a       987     0    50     1     7
 -1.4809241714877709E+01 a       988     0    50     1     8
 -6.6060702708533263E+00 a       989     0    50     1     9
 -9.7169131502920116E+00 a       990     0    50     1    10
  8.1981303676525883E+00 a       991     0    50     1    11
 -3.7172074416905532E+00 a       992     0    50     1    12
 -1.9036300848648597E+00 a       993     0    50     1    13
  3.5964317105961402E-02 a       994     0    50     1    14
  5.0987478324913358E+00 a       995     0    50     1    15
  4.8180140502954298E+00 a       996     0    50     1    16
 -9.6790394651646334E+00 a       997     0    50     1    17
  2.0258567124959329E-01 a       998     0    50     1    18
  6.9337011236375314E+00 a       999     0    50     1    19
 -5.2801829516178591E+00 a      1000     0    50     1    20
 -4.3339055079740083E+00 a      1001     0    51     1     1
 -1.6465248858155379E+00 a      1002     0    51     1     2
  4.5190261466395549E+00 a      1003     0    51     1     3
  3.5336447414523633E+00 a      1004     0    51     1     4
  1.9897874987725388E+01 a      1005     0    51     1     5
  6.5919395586940128E+00 a      1006     0    51     1     6
  7.6925581184705272E-01 a      1007     0    51     1     7
  5.2460205277310088E+00 a      1008     0    51     1     8
  4.5220691186142705E+00 a      1009     0    51     1     9
 -4.5356183757901567E+00 a      1010     0    51     1    10
  1.2504833307082308E+00 a      1011     0    51     1    11
 -7.9835713373503072E+00 a      1012     0    51     1    12
  9.0769007845815821E+00 a      1013     0    51     1    13
 -8.2805549220438868E-01 a      1014     0    51     1    14
 -1.2494812193825290E+01 a      1015     0    51     1    15
  3.1687306123079644E+00 a      1016     0    51     1    16
  1.3732756255364169E+01 a      1017     0    51     1    17
  8.2618584927439489E+00 a      1018     0    51     1    18
 -1.7984380894302944E+01 a      1019     0    51     1    19
  5.0205230677590151E+00 a      1020     0    51     1    20
 -1.1344360428545091E+00 a      1021     0    52     1     1
  3.0221068296599616E+00 a      1022     0    52     1     2
  1.2656636399268062E+00 a      1023     0    52     1     3
  7.9939770034116018E+00 a      1024     0    52     1     4
  5.5231929190771893E+00 a      1025     0    52     1     5
  6.4205724771556492E+00 a      1026     0    52     1     6
 -1.5011836101757725E+00 a      1027     0    52     1     7
 -8.6725702030740440E-02 a      1028     0    52     1     8
  5.5233328655639893E+00 a      1029     0    52     1     9
 -7.0058084101691041E+00 a      1030     0    52     1    10
 -5.6007861638606438E-01 a      1031     0    52     1    11
 -1.4561435274954006E+01 a      1032     0    52     1    12
  1.5882635851368212E+01 a      1033     0    52     1    13
 -2.3573262881146256E+01 a      1034     0    52     1    14
  2.5042999169617203E-01 a      1035     0    52     1    15
  1.1197554455858814E+00 a      1036     0    52     1    16
  2.6609007152215249E+00 a      1037     0    52     1    17
 -2.2782350620561589E+00 a      1038     0    52     1    18
  1.7152535855713598E+00 a      1039     0    52     1    19
  4.8212136286312282E+00 a      1040     0    52     1    20
 -1.0180108962575130E+00 b      1041     1     1
  1.2063327557547786E-01 b      1042     1     2
 -9.1072543882830881E-01 b      1043     1     3
 -3.3849936935711402E+00 b      1044     1     4
 -8.2510102168786925E-01 b      1045     1     5
  6.7172575544789032E-02 b      1046     1     6
 -2.6389354059493759E+00 b      1047     1     7
  8.6053775180853309E-01 b      1048     1     8
  1.4621409961966736E-01 b      1049     1     9
  3.0119993442454268E-01 b      1050     1    10
 -3.8770748149724921E-01 b      1051     1    11
 -3.7059264565651334E-01 b      1052     1    12
 -1.9869554749392544E+00 b      1053     1    13
  4.2200373604467011E-02 b      1054     1    14
  2.7640200343857617E+00 b      1055     1    15
  4.9953671618920875E-01 b      1056     1    16
  5.1915574309013257E-01 b      1057     1    17
  8.5297853407802854E-02 b      1058     1    18
  2.1925273580014824E+00 b      1059     1    19
 -9.7692143286527366E-01 b      1060     1    20
  4.0998508930194333E-01 a      1061     1     1     2     1
  2.8563387592958334E-01 a      1062     1     1     2     2
 -1.3330386618655993E-01 a      1063     1     1     2     3
  2.9194529215644205E-01 a      1064     1     1     2     4
 -5.8650358634191635E-01 a      1065     1     1     2     5
 -1.2873290958054337E-01 a      1066     1     1     2     6
  2.2865885106180044E+00 a      1067     1     1     2     7
  2.9057507098303823E-02 a      1068     1     1     2     8
 -1.1152419454424867E+00 a      1069     1     1     2     9
  3.8947275956956406E-01 a      1070     1     1     2    10
  5.9196042383185210E-01 a      1071     1     1     2    11
  8.3907922611419539E-01 a      1072     1     1     2    12
 -6.2446703567689887E-01 a      1073     1     1     2    13
  3.4225594129118242E-01 a      1074     1     1     2    14
  7.0481840365369219E-01 a      1075     1     1     2    15
 -7.1783615469084586E-02 a      1076     1     1     2    16
  8.9281842649568999E-01 a      1077     1     1     2    17
  7.0749160875878103E-01 a      1078     1     1     2    18
 -6.3267576106080259E-01 a      1079     1     1     2    19
  3.4562480510751815E-02 a      1080     1     1     2    20
  2.5410149610570389E+00 a      1081     1     2     2     1
  1.6906577104431919E+00 a      1082     1     2     2     2
  3.3146330372266675E-01 a      1083     1     2     2     3
  1.1382241574445067E+00 a      1084     1     2     2     4
 -2.0607496077284929E-01 a      1085     1     2     2     5
 -1.3441605367756815E+00 a      1086     1     2     2     6
  5.0976375707610160E+00 a      1087     1     2     2     7
 -1.2978699988946645E+00 a      1088     1     2     2     8
 -5.6801697371851179E-01 a      1089     1     2     2     9
 -1.4399134046313886E-01 a      1090     1     2     2    10
 -6.9754229182891581E-01 a      1091     1     2     2    11
 -1.7207854219342864E+00 a      1092     1     2     2    12
 -7.6888896294729148E-01 a      1093     1     2     2    13
 -1.4635635380292134E-01 a      1094     1     2     2    14
  1.2251058476277332E+00 a      1095     1     2     2    15
  1.3843478447280022E+00 a      1096     1     2     2    16
 -4.4296632902893229E-01 a      1097     1     2     2    17
 -1.1558321804915556E-03 a      1098     1     2     2    18
  7.6488058650047941E-01 a      1099     1     2     2    19
 -2.3823516878035629E+00 a      1100     1     2     2    20
  3.7062990352132813E-02 a      1101     1     3     2     1
  1.9142932221798639E+00 a      1102     1     3     2     2
  5.4350059669182993E-02 a      1103     1     3     2     3
  2.6984671214673397E+00 a      1104     1     3     2     4
  6.6725972165620473E-01 a      1105     1     3     2     5
 -2.3184973392824673E-01 a      1106     1     3     2     6
  9.3151317840193109E+00 a      1107     1     3     2     7
 -8.1079060377026313E-01 a      1108     1     3     2     8
  8.0199082717889314E-01 a      1109     1     3     2     9
  6.5042228604846830E-01 a      1110     1     3     2    10
  5.3402320825573291E-01 a      1111     1     3     2    11
  6.7753770726117979E-01 a      1112     1     3     2    12
  9.1712790551583268E-01 a      1113     1     3     2    13
 -9.6949808723142228E-01 a      1114     1     3     2    14
  2.9754586045160497E-01 a      1115     1     3     2    15
  3.0853538563627070E-01 a      1116     1     3     2    16
 -1.2295980837871745E+00 a      1117     1     3     2    17
 -3.7701904451347241E+00 a      1118     1     3     2    18
  1.3195783249447048E+00 a      1119     1     3     2    19
 -6.9557255472819290E-01 a      1120     1     3     2    20
 -1.3576319115124964E+00 a      1121     1     4     2     1
  1.6151829293103859E+00 a      1122     1     4     2     2
  2.1331843011639502E+00 a      1123     1     4     2     3
  1.5360297070069122E+00 a      1124     1     4     2     4
 -9.1204298531711536E-01 a      1125     1     4     2     5
  2.3495571325112556E+00 a      1126     1     4     2     6
  1.5594933707398408E+00 a      1127     1     4     2     7
 -6.6272418469062755E-01 a      1128     1     4     2     8
 -7.0669668902506977E-01 a      1129     1     4     2     9
 -8.0767010892202595E-01 a      1130     1     4     2    10
 -3.7413180916768685E-01 a      1131     1     4     2    11
  2.4984482618666246E+00 a      1132     1     4     2    12
  2.0594705252744738E+00 a      1133     1     4     2    13
  2.5983962422835344E-01 a      1134     1     4     2    14
  2.5618256153338552E+00 a      1135     1     4     2    15
 -5.4594050268393657E-01 a      1136     1     4     2    16
  4.1565055791007305E-02 a      1137     1     4     2    17
 -3.8087465714914273E+00 a      1138     1     4     2    18
  3.5084450965218665E+00 a      1139     1     4     2    19
  1.2110920484244294E+00 a      1140     1     4     2    20
 -9.7123178191112758E-01 a      1141     1     5     2     1
  9.3354456838095057E-01 a      1142     1     5     2     2
  2.7547770084166254E+00 a      1143     1     5     2     3
 -6.4163522741764101E-01 a      1144     1     5     2     4
  8.8589192934058425E-01 a      1145     1     5     2     5
  1.2374259771837874E+00 a      1146     1     5     2     6
 -7.0551968706289454E+00 a      1147     1     5     2     7
 -1.1097351794450676E+00 a      1148     1     5     2     8
 -5.9767042019451755E-01 a      1149     1     5     2     9
  7.8033015651819726E-01 a      1150     1     5     2    10
  6.8981211947509491E-01 a      1151     1     5     2    11
  6.4336155265279971E-01 a      1152     1     5     2    12
 -2.1838597440328615E+00 a      1153     1     5     2    13
  1.4631415760514306E-02 a      1154     1     5     2    14
 -8.3609801620437507E-01 a      1155     1     5     2    15
  3.3096161063107190E+00 a      1156     1     5     2    16
  3.8049371094872014E-01 a      1157     1     5     2    17
  1.1317638700523944E+00 a      1158     1     5     2    18
  1.6234371184580050E+00 a      1159     1     5     2    19
  1.9327206084873874E+00 a      1160     1     5     2    20
 -1.5890419941373080E-01 a      1161     1     6     2     1
 -1.0478386551515773E+00 a      1162     1     6     2     2
  1.1550063238052354E-01 a      1163     1     6     2     3
  6.3312405489726153E-01 a      1164     1     6     2     4
 -5.7364549431218903E-01 a      1165     1     6     2     5
  1.1633632272651575E+00 a      1166     1     6     2     6
 -2.1930123241574653E+00 a      1167     1     6     2     7
 -2.9738487888762755E-01 a      1168     1     6     2     8
  7.8287247652900982E-01 a      1169     1     6     2     9
  6.9114596995543542E-01 a      1170     1     6     2    10
 -8.9928261808437626E-01 a      1171     1     6     2    11
  7.0750958901732319E-01 a      1172     1     6     2    12
  1.9434548179080706E+00 a      1173     1     6     2    13
 -1.9897760636862225E+00 a      1174     1     6     2    14
  3.1479224184015830E-01 a      1175     1     6     2    15
 -9.3377101153042630E-01 a      1176     1     6     2    16
  2.3384866087861051E+00 a      1177     1     6     2    17
  1.0571720126508477E+00 a      1178     1     6     2    18
  3.6730822417565051E-01 a      1179     1     6     2    19
 -7.6530338048907953E-01 a      1180     1     6     2    20
  5.7125231867529387E-02 a      1181     1     7     2     1
  4.4208938919527285E-01 a      1182     1     7     2     2
 -9.1729673841918502E-01 a      1183     1     7     2     3
  8.7619447044745780E-02 a      1184     1     7     2     4
  9.3724343964335854E-01 a      1185     1     7     2     5
  2.9927573545779329E-01 a      1186     1     7     2     6
  2.6266998606062062E+00 a      1187     1     7     2     7
 -1.2046651311173595E+00 a      1188     1     7     2     8
 -1.6343697705050948E+00 a      1189     1     7     2     9
  1.2428861424656867E+00 a      1190     1     7     2    10
 -3.0205222890729072E-01 a      1191     1     7     2    11
 -8.5609530110473187E-01 a      1192     1     7     2    12
  2.8796058433642413E-01 a      1193     1     7     2    13
  4.9433469498320548E-01 a      1194     1     7     2    14
  3.6698398674236349E-01 a      1195     1     7     2    15
  8.1573466027449548E-01 a      1196     1     7     2    16
  2.6832307568916108E-01 a      1197     1     7     2    17
  4.4735355756614081E-01 a      1198     1     7     2    18
  5.9606394827291709E-01 a      1199     1     7     2    19
 -3.7229430107506584E-01 a      1200     1     7     2    20
  9.9724232446924110E-01 a      1201     1     8     2     1
 -4.6432800105298644E-01 a      1202     1     8     2     2
  3.7242105509200274E-01 a      1203     1     8     2     3
 -3.8041808932208115E-01 a      1204     1     8     2     4
 -2.5977760173453002E-01 a      1205     1     8     2     5
 -2.1277683027628869E+00 a      1206     1     8     2     6
 -5.6793740188817532E+00 a      1207     1     8     2     7
 -1.8210320045233941E+00 a      1208     1     8     2     8
  7.5110346741581957E-02 a      1209     1     8     2     9
 -1.4884005115250036E+00 a      1210     1     8     2    10
  1.6327478047033666E+00 a      1211     1     8     2    11
 -1.0406901718585113E+00 a      1212     1     8     2    12
 -5.3764404824035350E-01 a      1213     1     8     2    13
  9.3653366784225922E-01 a      1214     1     8     2    14
  2.1434896874760984E-01 a      1215     1     8     2    15
 -9.2295127619778927E-01 a      1216     1     8     2    16
  1.1725204126291726E+00 a      1217     1     8     2    17
 -5.4820579566921825E+00 a      1218     1     8     2    18
 -3.7444813681044548E-01 a      1219     1     8     2    19
 -5.9653710818426599E-03 a      1220     1     8     2    20
 -3.4483843648844117E-02 a      1221     1     9     2     1
 -2.2118346505793931E+00 a      1222     1     9     2     2
 -9.4379530311356918E-01 a      1223     1     9     2     3
 -5.3003770948252937E-01 a      1224     1     9     2     4
  3.5956893113665722E-01 a      1225     1     9     2     5
 -2.2437277158740110E+00 a      1226     1     9     2     6
  7.9093538928566494E+00 a      1227     1     9     2     7
  1.8261883525398670E+00 a      1228     1     9     2     8
 -1.2039326307083832E-01 a      1229     1     9     2     9
 -1.9003463041016044E-01 a      1230     1     9     2    10
  5.8898608811982900E-01 a      1231     1     9     2    11
  1.2322226253335127E+00 a      1232     1     9     2    12
  9.0292828486687204E-01 a      1233     1     9     2    13
  1.6148934680508720E+00 a      1234     1     9     2    14
  7.8840663406940259E-01 a      1235     1     9     2    15
 -2.1920886044433110E+00 a      1236     1     9     2    16
  1.3803704701400026E+00 a      1237     1     9     2    17
  5.0164821446139896E-01 a      1238     1     9     2    18
  4.2225999922758019E-03 a      1239     1     9     2    19
  3.1888742644873608E-01 a      1240     1     9     2    20
  1.4912317092689964E+00 a      1241     1    10     2     1
 -1.1616249196049040E+00 a      1242     1    10     2     2
 -1.1933904377577014E+00 a      1243     1    10     2     3
 -1.1280547962597784E+00 a      1244     1    10     2     4
 -1.3988945687921572E-01 a      1245     1    10     2     5
  1.9595993600910357E+00 a      1246     1    10     2     6
 -1.4659167387718837E+00 a      1247     1    10     2     7
 -3.6542454781044559E-01 a      1248     1    10     2     8
 -1.1510290652541577E+00 a      1249     1    10     2     9
  7.0923366356224760E-01 a      1250     1    10     2    10
 -8.1889367400805146E-01 a      1251     1    10     2    11
  7.4571108317108725E-01 a      1252     1    10     2    12
 -2.1570598474992089E-01 a      1253     1    10     2    13
 -1.1406962726521266E+00 a      1254     1    10     2    14
 -3.3015419736152324E-02 a      1255     1    10     2    15
 -3.1243465228192074E-01 a      1256     1    10     2    16
  1.0795336994987199E+00 a      1257     1    10     2    17
 -2.0259625716982903E+00 a      1258     1    10     2    18
  9.7006407635507697E-01 a      1259     1    10     2    19
 -2.0454259209229403E-01 a      1260     1    10     2    20
 -1.3148681611458735E-01 a      1261     1    11     2     1
  7.4652260699822048E-01 a      1262     1    11     2     2
 -8.3226982773574609E-01 a      1263     1    11     2     3
  9.2921310013399872E-01 a      1264     1    11     2     4
  4.0449946166994649E-01 a      1265     1    11     2     5
 -7.2611011249943991E-01 a      1266     1    11     2     6
 -7.2455914571393709E+00 a      1267     1    11     2     7
  1.0578687811440757E+00 a      1268     1    11     2     8
  2.1158199175611566E-02 a      1269     1    11     2     9
 -7.1534998512050441E-01 a      1270     1    11     2    10
  5.7967810873914305E-01 a      1271     1    11     2    11
 -2.8783759403382456E+00 a      1272     1    11     2    12
 -1.5237305007104218E+00 a      1273     1    11     2    13
 -2.2237307507585960E-01 a      1274     1    11     2    14
  4.5806230195739045E-01 a      1275     1    11     2    15
 -7.5740237873259808E-01 a      1276     1    11     2    16
 -2.0786918104523233E-01 a      1277     1    11     2    17
 -1.0689380352732409E+00 a      1278     1    11     2    18
  4.6239275532935947E-01 a      1279     1    11     2    19
 -1.3817448274146322E+00 a      1280     1    11     2    20
  1.0686181033528526E+00 a      1281     1    12     2     1
  7.9661988982689547E-01 a      1282     1    12     2     2
 -4.7894279953384433E-01 a      1283     1    12     2     3
 -6.6194042105064863E+00 a      1284     1    12     2     4
  3.1437294995155884E-01 a      1285     1    12     2     5
  3.0100851428703623E-01 a      1286     1    12     2     6
 -7.5955808002306172E-03 a      1287     1    12     2     7
  6.3542176615201662E-01 a      1288     1    12     2     8
 -7.4849744574112864E-01 a      1289     1    12     2     9
 -1.0124761093365133E+00 a      1290     1    12     2    10
  8.1239966051157453E-01 a      1291     1    12     2    11
 -9.0178675459226598E-01 a      1292     1    12     2    12
  4.6953637133532200E-01 a      1293     1    12     2    13
  3.1218779510964068E-01 a      1294     1    12     2    14
  1.4479473870465560E+00 a      1295     1    12     2    15
  1.2244518822367834E+00 a      1296     1    12     2    16
  1.4509737340977149E+00 a      1297     1    12     2    17
  6.0084463956501655E-01 a      1298     1    12     2    18
 -2.6541149200967185E-01 a      1299     1    12     2    19
 -6.2728401163930625E-01 a      1300     1    12     2    20
  6.4773773503992549E-02 a      1301     1    13     2     1
  1.0424430864449059E+00 a      1302     1    13     2     2
 -2.6559976954946567E+00 a      1303     1    13     2     3
 -2.1747726486078181E-01 a      1304     1    13     2     4
  1.3768496359556395E+00 a      1305     1    13     2     5
  4.8714049619712319E-01 a      1306     1    13     2     6
  7.8001588955841985E+00 a      1307     1    13     2     7
  3.0522640975455814E-02 a      1308     1    13     2     8
 -1.1747820177462420E+00 a      1309     1    13     2     9
  2.2324716503192978E+00 a      1310     1    13     2    10
  1.5730056700629540E+00 a      1311     1    13     2    11
  1.7059237146359321E+00 a      1312     1    13     2    12
  9.5782623064557459E-01 a      1313     1    13     2    13
  4.2127208692269313E-01 a      1314     1    13     2    14
 -1.4474343022752842E+00 a      1315     1    13     2    15
 -2.2084714630063973E-01 a      1316     1    13     2    16
 -6.5993378356897192E-01 a      1317     1    13     2    17
 -1.1366248153718468E+00 a      1318     1    13     2    18
 -8.7367193037345781E-01 a      1319     1    13     2    19
  4.8919770643353749E-01 a      1320     1    13     2    20
 -6.7666962660110019E-01 a      1321     1    14     2     1
  9.3566415986513962E-01 a      1322     1    14     2     2
  3.6384907430397251E-01 a      1323     1    14     2     3
 -4.3442928550755733E-01 a      1324     1    14     2     4
  5.7136755426799768E-01 a      1325     1    14     2     5
 -1.2324034574648359E+00 a      1326     1    14     2     6
  1.7408820043187496E+00 a      1327     1    14     2     7
 -6.4707935476866107E-01 a      1328     1    14     2     8
  8.9088489363829804E-01 a      1329     1    14     2     9
  3.8921240591791184E-01 a      1330     1    14     2    10
 -3.0724423866646489E-01 a      1331     1    14     2    11
 -5.7408315154163958E-01 a      1332     1    14     2    12
 -1.6574014799408991E+00 a      1333     1    14     2    13
  1.1306777361829765E+00 a      1334     1    14     2    14
  1.1535045134429729E+00 a      1335     1    14     2    15
 -3.2486378319007625E-01 a      1336     1    14     2    16
 -6.5973616709463001E-01 a      1337     1    14     2    17
 -2.4937963908886300E+00 a      1338     1    14     2    18
 -1.8532099086981776E-01 a      1339     1    14     2    19
 -3.5045735671869466E-01 a      1340     1    14     2    20
 -5.1309775781909328E-01 a      1341     1    15     2     1
  5.4548628739998106E-01 a      1342     1    15     2     2
  2.2215977009707430E-01 a      1343     1    15     2     3
  7.7826237084004446E-01 a      1344     1    15     2     4
  1.0393631150277158E+00 a      1345     1    15     2     5
 -1.2130675699020960E-01 a      1346     1    15     2     6
 -5.8041599838300453E+00 a      1347     1    15     2     7
 -1.3623739468015983E+00 a      1348     1    15     2     8
  1.7621288553236210E+00 a      1349     1    15     2     9
 -5.0308876407564296E-01 a      1350     1    15     2    10
  1.6054300808107878E+00 a      1351     1    15     2    11
 -8.4386513254830553E-01 a      1352     1    15     2    12
 -6.9460516651524140E-01 a      1353     1    15     2    13
  1.4054582530551523E+00 a      1354     1    15     2    14
  1.3056535047028308E+00 a      1355     1    15     2    15
  3.8096383653694282E-01 a      1356     1    15     2    16
 -1.1933423113165183E-01 a      1357     1    15     2    17
 -1.1070427472150606E+00 a      1358     1    15     2    18
 -3.6524197130721736E-01 a      1359     1    15     2    19
 -1.0715978079064366E+00 a      1360     1    15     2    20
 -7.0026792040857033E-01 a      1361     1    16     2     1
  2.2807942646412385E+00 a      1362     1    16     2     2
 -2.5328155177109579E+00 a      1363     1    16     2     3
  3.5317759342438670E-01 a      1364     1    16     2     4
  2.2822840019656837E-01 a      1365     1    16     2     5
  3.2970495928909810E-01 a      1366     1    16     2     6
 -2.2919206982980604E+00 a      1367     1    16     2     7
  1.1240548983682934E+00 a      1368     1    16     2     8
 -7.2925608431157662E-01 a      1369     1    16     2     9
 -1.9493662486866568E+00 a      1370     1    16     2    10
 -5.2853642720946781E-01 a      1371     1    16     2    11
 -3.0970044346264483E+00 a      1372     1    16     2    12
  1.3640312108907424E+00 a      1373     1    16     2    13
  6.3331956386850063E-01 a      1374     1    16     2    14
  5.3956265649447044E-01 a      1375     1    16     2    15
  7.9549004273902491E-02 a      1376     1    16     2    16
 -1.7373151279617773E+00 a      1377     1    16     2    17
 -2.1291209920520462E+00 a      1378     1    16     2    18
 -1.3662573669973312E+00 a      1379     1    16     2    19
 -9.0923583977783651E-01 a      1380     1    16     2    20
  9.8314108676716860E-01 a      1381     1    17     2     1
 -7.4978519006512989E-01 a      1382     1    17     2     2
 -5.5960823901922474E-02 a      1383     1    17     2     3
 -1.1805950243209664E+00 a      1384     1    17     2     4
 -2.1255344880394236E+00 a      1385     1    17     2     5
 -1.3430232298450688E+00 a      1386     1    17     2     6
 -1.1721277517245385E+01 a      1387     1    17     2     7
 -1.4191413086985838E+00 a      1388     1    17     2     8
 -8.7147511650071874E-01 a      1389     1    17     2     9
  1.5684791780939991E-01 a      1390     1    17     2    10
  1.3112697506244511E+00 a      1391     1    17     2    11
 -3.4474083939747208E-01 a      1392     1    17     2    12
  2.4726621299330206E-01 a      1393     1    17     2    13
  2.4044339331295572E+00 a      1394     1    17     2    14
  2.3524279859808601E+00 a      1395     1    17     2    15
 -4.6512301671517674E-02 a      1396     1    17     2    16
 -3.1219613834157314E+00 a      1397     1    17     2    17
  2.5134236020946616E+00 a      1398     1    17     2    18
 -2.5648704730914833E+00 a      1399     1    17     2    19
 -1.3162884424162552E-01 a      1400     1    17     2    20
 -7.7198808018905907E-01 a      1401     1    18     2     1
  4.2942802580680084E-01 a      1402     1    18     2     2
 -1.4744907905332290E+00 a      1403     1    18     2     3
 -2.4987222202747752E+00 a      1404     1    18     2     4
 -2.1136137293375107E-01 a      1405     1    18     2     5
  2.9418492738829394E-01 a      1406     1    18     2     6
 -8.8617929917239007E+00 a      1407     1    18     2     7
 -2.5474146480199273E+00 a      1408     1    18     2     8
  2.1048716116721852E-01 a      1409     1    18     2     9
 -1.3927054860724739E+00 a      1410     1    18     2    10
 -7.0865081722340117E-01 a      1411     1    18     2    11
  6.3819530996042914E-02 a      1412     1    18     2    12
 -7.9951596345862397E-01 a      1413     1    18     2    13
 -1.3415887401275393E+00 a      1414     1    18     2    14
 -2.3720907754507312E+00 a      1415     1    18     2    15
  4.0556339058117269E-01 a      1416     1    18     2    16
 -6.9353588993931140E-02 a      1417     1    18     2    17
  9.1390916673961500E-02 a      1418     1    18     2    18
 -2.1605637843157495E+00 a      1419     1    18     2    19
  4.5174362092237441E+00 a      1420     1    18     2    20
 -1.9296176113859886E+00 a      1421     1    19     2     1
 -5.8661222483229192E-01 a      1422     1    19     2     2
 -9.8953241776538503E-01 a      1423     1    19     2     3
  6.0885479552920202E-02 a      1424     1    19     2     4
 -2.1150527931372235E-02 a      1425     1    19     2     5
  1.0584977943159188E+00 a      1426     1    19     2     6
  1.2604868938229776E+00 a      1427     1    19     2     7
  1.3592094752434969E+00 a      1428     1    19     2     8
  9.4095833042181298E-01 a      1429     1    19     2     9
  1.2466502610035449E-01 a      1430     1    19     2    10
 -7.0647592506773116E-01 a      1431     1    19     2    11
  5.7669274453457409E-01 a      1432     1    19     2    12
 -7.8222199357525379E-01 a      1433     1    19     2    13
 -4.2232502294922120E-01 a      1434     1    19     2    14
 -5.2213709367535133E-01 a      1435     1    19     2    15
  2.1051861914780537E-01 a      1436     1    19     2    16
  5.1502102646738368E-01 a      1437     1    19     2    17
 -7.6978766433558588E-01 a      1438     1    19     2    18
  1.4491079438693251E+00 a      1439     1    19     2    19
  1.7255449881997122E+00 a      1440     1    19     2    20
 -1.3804583718437158E+00 a      1441     1    20     2     1
 -1.2489191121716714E+00 a      1442     1    20     2     2
 -1.0389729643745935E+00 a      1443     1    20     2     3
 -1.2327380651232805E-01 a      1444     1    20     2     4
 -1.0072158547576842E+00 a      1445     1    20     2     5
 -1.1187605989010194E+00 a      1446     1    20     2     6
  7.6732964245219204E-01 a      1447     1    20     2     7
  8.3235568896162737E-01 a      1448     1    20     2     8
  9.9993976988221966E-01 a      1449     1    20     2     9
  1.5541231836005159E-01 a      1450     1    20     2    10
  4.9700119988156860E-01 a      1451     1    20     2    11
  2.5510327120681691E+00 a      1452     1    20     2    12
  2.0406925399604372E+00 a      1453     1    20     2    13
 -3.6916856363088896E-01 a      1454     1    20     2    14
 -8.5086976606482800E-01 a      1455     1    20     2    15
  1.0711454795337556E+00 a      1456     1    20     2    16
  3.6065524474222993E-01 a      1457     1    20     2    17
 -2.4369781320968179E-01 a      1458     1    20     2    18
 -1.0624086804593982E+00 a      1459     1    20     2    19
  1.5250420712489423E+00 a      1460     1    20     2    20
 -1.0559084578554474E+00 b      1461     2     1
 -2.6879670612353350E+00 b      1462     2     2
  5.1431967059537254E+00 b      1463     2     3
  8.2591992732200592E-01 b      1464     2     4
  2.6068442025260512E+00 b      1465     2     5
 -1.9390237440093212E+00 b      1466     2     6
  1.1878782377979475E+01 b      1467     2     7
  5.7657736875316212E+00 b      1468     2     8
 -1.3204608185163826E+00 b      1469     2     9
  1.4456878002941769E+00 b      1470     2    10
  4.8333378535583638E+00 b      1471     2    11
  5.9522994793491319E+00 b      1472     2    12
  1.1415790859188049E+00 b      1473     2    13
 -5.5435807601795943E+00 b      1474     2    14
 -7.2413102955477653E+00 b      1475     2    15
  5.1487282490937625E-01 b      1476     2    16
 -2.0809195897184067E+00 b      1477     2    17
 -4.2728635747971362E+00 b      1478     2    18
  4.0676249883614712E+00 b      1479     2    19
  4.5384150879047036E+00 b      1480     2    20
  2.1477596310786765E-01 a      1481     2     1     3     1
  1.0277892290187463E-01 a      1482     2     2     3     1
  2.0836985332636174E-01 a      1483     2     3     3     1
  1.9405597837435090E-01 a      1484     2     4     3     1
 -1.5159644791010826E-01 a      1485     2     5     3     1
 -2.7362124019428796E-01 a      1486     2     6     3     1
 -1.9451357182919585E-02 a      1487     2     7     3     1
 -1.7679343723577917E-01 a      1488     2     8     3     1
  2.8533820324261749E-01 a      1489     2     9     3     1
  3.7931761233364741E-01 a      1490     2    10     3     1
 -5.0081879779896177E-01 a      1491     2    11     3     1
 -8.0306282208785648E-02 a      1492     2    12     3     1
  2.6218003910158105E-01 a      1493     2    13     3     1
  3.8740772562195713E-01 a      1494     2    14     3     1
 -2.4705957585891089E-01 a      1495     2    15     3     1
 -3.5397704102293459E-01 a      1496     2    16     3     1
  5.0285035005621392E-01 a      1497     2    17     3     1
 -7.9228716947599942E-01 a      1498     2    18     3     1
 -2.5863265452766127E-01 a      1499     2    19     3     1
  7.1463756902760245E-01 a      1500     2    20     3     1
 -1.0334706767379124E+01 b      1501     3     1
